tree
version=v4
num_class=1
num_tree_per_iteration=1
label_index=0
max_feature_idx=18
objective=binary sigmoid:1
feature_names=obi momentum_1m momentum_2m momentum_5m momentum_10m hurst fracdiff_close vol_1m vol_5m vol_30m vol_60m vwap_dev_5m vwap_dev_30m trade_flow_imb_5m trade_flow_imb_30m hl_range vol_ratio_5m vol_ratio_30m trades_intensity
feature_infos=[-0.99627687620687788:0.99735611352640374] [-0.020838332896016949:0.022992565407785347] [-0.022341724074048948:0.029409372993990181] [-0.026503791499679796:0.037808065313792626] [-0.033700021085143403:0.038701722697615973] [-0.17904516669206805:0.10861636932350138] [-560.64200722651003:3155.5006078766746] [0:0.017965740441835652] [0:0.014150329657706368] [1.9312455667397878e-05:0.0061307597359011763] [2.9871110080766814e-05:0.004463508706593484] [-0.012725903816371842:0.016844110174328925] [-0.023331687134809678:0.035835008543941643] [-0.96163572996641977:0.90426948751940261] [-0.66028039286935858:0.63773000764737697] [1.030395640474488e-07:0.024861787963623656] [0.010883227187554707:4.9344330827627427] [0.016081658774413254:26.170827852696362] [0.03252385082393755:19.057358659886329]
tree_sizes=1034 1041 1041 1042 1040 1050 1043 1044 1045 1054 1056 1038 941 929 1042 1041 1051 1059 1053 1054 1038 1048 935 1039 1042 1043 1032 1047 1033 1046 1047 936 1044 1043 1031 1046 935 926 1042 1034 929 1042 1049 1042 1031 1046 1050 1041 713 938 1044 1039 1043 714 714 1046 1045 1050 1045 1048 826 1049 718 1048 940 715 1037 712 713 1052 718 1050 705 709 723 712 1041 1051 1032 825 1051

Tree=0
num_leaves=8
num_cat=0
split_feature=12 12 8 13 12 8 13
split_gain=263.634 48.5405 36.0584 32.5136 26.3429 32.0606 10.8078
threshold=-0.00020219688409930619 0.0030392062793967735 4.8463529017188298e-05 -0.096916254226111803 -0.0017623767325547332 0.0016299532054707508 0.29664816670981914
decision_type=2 2 2 2 2 2 2
left_child=4 2 -2 -3 5 -1 -6
right_child=1 3 -4 -5 6 -7 -8
leaf_value=-0.006584641269069655 -0.02351851123734407 -0.0065455677087406725 -0.014350873513384987 -0.021698085851576725 -0.010111327484032455 -0.016576013108027591 -0.015015429631628475
leaf_weight=3354.1150480061769 369.98511373996735 129.74477975070477 15187.138949200511 1255.1994973570108 8687.400464579463 293.73818151652813 395.98406767845154
leaf_count=13417 1480 519 60751 5021 34751 1175 1584
internal_value=-0.0126545 -0.015036 -0.0145704 -0.0202588 -0.00948558 -0.00739378 -0.0103259
internal_weight=29673.3 16942.1 15557.1 1384.94 12731.2 3647.85 9083.38
internal_count=118698 67771 62231 5540 50927 14592 36335
is_linear=0
shrinkage=1


Tree=1
num_leaves=8
num_cat=0
split_feature=12 6 6 12 8 3 6
split_gain=248.502 84.0988 54.5488 35.766 30.5431 17.6475 16.7852
threshold=-0.00022761852511369283 1260.2350273759823 1238.4740242245773 0.0030392062793967735 0.0016299532054707508 -0.00048179190423743078 1374.3077977319647
decision_type=2 2 2 2 2 2 2
left_child=2 5 4 -3 -1 -2 -4
right_child=1 3 6 -5 -6 -7 -8
leaf_value=0.0061953697334881409 0.0056892901293272716 -0.0027857173570168558 0.00044686137001846688 -0.0079111526039156339 -0.003990241442171207 0.00070974221973625477 0.003172436082602034
leaf_weight=4457.9115364849567 782.95947258174419 12508.580421313643 4330.6448892503977 1271.6123538017273 261.73361383378506 2615.6087226569653 3444.1654860675335
leaf_count=17832 3132 50037 17323 5087 1047 10463 13777
internal_value=2.79706e-05 -0.00224668 0.00315528 -0.00325954 0.00562661 0.00185783 0.00165485
internal_weight=29673.2 17178.8 12494.5 13780.2 4719.65 3398.57 7774.81
internal_count=118698 68719 49979 55124 18879 13595 31100
is_linear=0
shrinkage=0.0291483


Tree=2
num_leaves=8
num_cat=0
split_feature=6 4 4 7 7 14 13
split_gain=218.496 63.8251 28.4657 24.0502 23.1683 12.8979 11.4904
threshold=1254.8899193786058 -0.00024022734881482815 -0.00064377347813049054 0.0018516298924061904 4.7913491118400918e-05 0.29169513333618341 0.33760962155073709
decision_type=2 2 2 2 2 2 2
left_child=2 5 3 -1 -3 -2 -4
right_child=1 4 6 -5 -6 -7 -8
leaf_value=0.0059039642705532381 0.00081104823092056249 -0.0075049925255222093 0.0025873355776011584 -0.0056852636942752895 -0.0024378981931559626 -0.0090589658125792682 -0.0033829188436113756
leaf_weight=4397.2087965458632 7040.2697008252144 811.417465493083 3834.6346740275621 154.23661035299301 13032.977478131652 110.74531961977482 291.48704759776592
leaf_count=17589 28162 3246 15339 617 52136 443 1166
internal_value=2.71423e-05 -0.00158077 0.00391692 0.00550652 -0.00273573 0.00065479 0.00216373
internal_weight=29673 20995.4 8677.57 4551.45 13844.4 7151.02 4126.12
internal_count=118698 83987 34711 18206 55382 28605 16505
is_linear=0
shrinkage=0.0291483


Tree=3
num_leaves=8
num_cat=0
split_feature=12 6 12 6 10 3 10
split_gain=246.233 75.0517 43.3538 35.1772 32.041 14.7125 9.22008
threshold=-0.00054330615553123678 1254.8899193786058 0.0036303459699517393 1238.4740242245773 0.0003005615895077431 -0.00050874966712853174 0.00026718671107315417
decision_type=2 2 2 2 2 2 2
left_child=3 5 -3 6 -5 -2 -1
right_child=1 2 -4 4 -6 -7 -8
leaf_value=0.014508963382546525 0.0048598864722840911 -0.0023660729344611221 -0.0090710489703106079 0.0094120534088434696 0.0016163403482684791 0.00074360224756242119 0.0056172392903676123
leaf_weight=98.499879464507103 993.99301443994045 15242.108413547277 862.54288765788078 487.2430298179388 5141.1703189313412 2832.914979711175 4039.4567503780127
leaf_count=394 3976 60974 3451 1949 20565 11332 16158
internal_value=3.53541e-06 -0.00185421 -0.00272615 0.00379447 0.00229461 0.00181327 0.00583443
internal_weight=29697.9 19931.6 16104.7 9766.37 5628.41 3826.91 4137.96
internal_count=118799 79733 64425 39066 22514 15308 16552
is_linear=0
shrinkage=0.0291483


Tree=4
num_leaves=8
num_cat=0
split_feature=12 6 12 6 7 7 3
split_gain=232.104 70.7456 40.8814 33.1601 18.3105 17.485 13.869
threshold=-0.00054330615553123678 1254.8899193786058 0.0036303459699517393 1238.4740242245773 0.0018516298924061904 8.2063069311045337e-05 -0.00050874966712853174
decision_type=2 2 2 2 2 2 2
left_child=3 6 -3 4 -1 -5 -2
right_child=1 2 -4 5 -6 -7 -8
leaf_value=0.0060368057552956612 0.004718465787286275 -0.0022971639513855065 -0.0088086461744524922 0.0086368462229116649 -0.0043443888476617362 0.0018168740237964945 0.00072191791689462845
leaf_weight=3991.4139894545078 993.99696664512157 15241.753892302513 862.40513499081135 336.49656940996647 146.48719581961632 5291.9485503733158 2832.9250363111496
leaf_count=15966 3976 60974 3451 1346 586 21168 11332
internal_value=3.47071e-06 -0.00180022 -0.0026468 0.00368403 0.00566467 0.00222782 0.00176047
internal_weight=29697.4 19931.1 16104.2 9766.35 4137.9 5628.45 3826.92
internal_count=118799 79733 64425 39066 16552 22514 15308
is_linear=0
shrinkage=0.0291483


Tree=5
num_leaves=8
num_cat=0
split_feature=2 14 10 15 7 2 5
split_gain=84.263 39.178 28.9721 21.0896 13.7183 16.173 7.02234
threshold=-0.00011235086405110711 -0.061325974259782069 0.00052982836102482341 1.1271930897713181e-07 0.0014663255139212687 -0.00073727147964449682 -0.0077479094142005218
decision_type=2 2 2 2 2 2 2
left_child=4 2 -2 -3 5 -1 -6
right_child=1 3 -4 -5 6 -7 -8
leaf_value=0.0034627563702764189 -0.001245119438793507 -0.0088940256442483281 0.0029038478531360256 -0.0020480931600912085 -0.0077830230571950517 0.0012250328191924186 -0.0002989068944780604
leaf_weight=4289.4994081109762 3108.9500253051519 392.41760487854481 2641.7484084814787 11209.982821911573 169.97859238088131 7610.4626230597496 273.71264658868313
leaf_count=17159 12437 1570 10568 44846 680 30444 1095
internal_value=3.36569e-06 -0.00130601 0.000660586 -0.00228101 0.00184406 0.00203195 -0.00316853
internal_weight=29696.8 17353.1 5750.7 11602.4 12343.7 11900 443.691
internal_count=118799 69421 23005 46416 49378 47603 1775
is_linear=0
shrinkage=0.0291483


Tree=6
num_leaves=8
num_cat=0
split_feature=3 14 18 15 9 7 7
split_gain=131.39 31.3689 26.1885 22.0726 15.4434 14.675 14.1773
threshold=-0.00022854013581614468 -0.058537910366976274 0.71123458786828786 1.1271930897713181e-07 0.00049758129519631366 5.1151632107294227e-05 0.0020285903108735251
decision_type=2 2 2 2 2 2 2
left_child=2 5 4 -3 -1 -2 -4
right_child=1 3 6 -5 -6 -7 -8
leaf_value=-0.0020072031549561741 -0.0050402121648161638 -0.0094037544226207807 0.0034122755797900604 -0.002222290004604026 0.0019016698726690082 0.00057938567057831377 -0.0055095227010459732
leaf_weight=1485.658715069294 422.66812297701836 371.8695710003376 8177.2777746617794 11718.91582031548 2024.8755087852478 5354.2507211118937 150.72619515657425
leaf_count=5943 1691 1488 32711 46883 8100 21419 603
internal_value=-2.26123e-05 -0.0016004 0.00235854 -0.00244457 0.00024779 0.000165924 0.00324866
internal_weight=29706.2 17867.7 11838.5 12090.8 3510.53 5776.92 8328
internal_count=118838 71481 47357 48371 14043 23110 33314
is_linear=0
shrinkage=0.0291483


Tree=7
num_leaves=8
num_cat=0
split_feature=12 6 6 12 8 9 8
split_gain=194.332 68.9192 40.8907 26.6517 26.4432 17.4259 9.99627
threshold=-0.00022761852511369283 1260.2350273759823 1238.4740242245773 0.0036303459699517393 0.0016299532054707508 0.00024134475579415079 0.00014646141459620973
decision_type=2 2 2 2 2 2 2
left_child=2 6 4 -3 -1 -4 -2
right_child=1 3 5 -5 -6 -7 -8
leaf_value=0.0054022599208879661 -0.0026540979175940864 -0.0026231925448176848 0.0055916016650914124 -0.0079382282905584665 -0.0040441407956160417 0.0009818700422309385 0.0022473670822967008
leaf_weight=4476.1211446523666 396.97372406721115 12923.369319662452 770.20987215638161 851.43411746621132 263.46879975497723 7010.369236305356 3013.8746499121189
leaf_count=17906 1588 51703 3081 3408 1054 28042 12056
internal_value=-2.19982e-05 -0.00203409 0.00273971 -0.00295264 0.0048735 0.00143971 0.00167342
internal_weight=29705.8 17185.7 12520.2 13774.8 4739.59 7780.58 3410.85
internal_count=118838 68755 50083 55111 18960 31123 13644
is_linear=0
shrinkage=0.0291483


Tree=8
num_leaves=8
num_cat=0
split_feature=6 4 7 4 8 10 10
split_gain=170.213 55.7534 26.9473 19.1255 25.5227 15.6849 11.9362
threshold=1252.0525819645975 -0.00024022734881482815 4.7913491118400918e-05 -0.00091735238684771919 0.0016299532054707508 0.0011111832034678569 0.00020976915583576468
decision_type=2 2 2 2 2 2 2
left_child=3 5 -3 4 -1 -2 -5
right_child=1 2 -4 6 -6 -7 -8
leaf_value=0.0056116780725733329 0.0010882276864920271 -0.0076042353421915312 -0.0021571790236753047 0.008159832664486312 -0.0038691213229138655 -0.0036350490813955539 0.0018122779397834574
leaf_weight=3662.7457799762487 6650.3979840278625 816.14133369922638 13237.210088923573 264.48440387845039 254.96102738380432 652.70487889647484 4166.307129368186
leaf_count=14653 26603 3266 52961 1058 1020 2611 16666
internal_value=-2.13776e-05 -0.00140085 -0.00247439 0.00350686 0.0049906 0.000664571 0.00219499
internal_weight=29705 21356.5 14053.4 8348.5 3917.71 7303.1 4430.79
internal_count=118838 85441 56227 33397 15673 29214 17724
is_linear=0
shrinkage=0.0291483


Tree=9
num_leaves=8
num_cat=0
split_feature=4 11 17 14 10 8 8
split_gain=117.517 30.8562 22.7163 22.5772 16.5194 16.3282 14.2852
threshold=-0.00025372451468357526 -6.8672769608045704e-05 0.21523744778517592 -0.061325974259782069 0.00027105168936989094 0.0016299532054707508 0.00079197890419971698
decision_type=2 2 2 2 2 2 2
left_child=2 6 4 -3 -1 -4 -2
right_child=1 3 5 -5 -6 -7 -8
leaf_value=0.0064086625375394746 0.0011257004906229248 -0.00042308849657127353 0.0026653900714022939 -0.0031775609598544792 -0.0042857859414453213 -0.0034669375020764627 -0.002825966276104235
leaf_weight=144.73347817361355 3988.9775661677122 3573.3214759081602 11290.849605515599 8631.3198032528162 709.19813798367977 377.93687483668327 961.55649468302727
leaf_count=579 15958 14296 45168 34536 2837 1512 3847
internal_value=-1.67535e-05 -0.00158372 0.00212974 -0.00237102 -0.00245006 0.0024658 0.000356557
internal_weight=29677.9 17155.2 12522.7 12204.6 853.932 11668.8 4950.53
internal_count=118733 68637 50096 48832 3416 46680 19805
is_linear=0
shrinkage=0.0291483


Tree=10
num_leaves=8
num_cat=0
split_feature=12 17 1 12 12 10 11
split_gain=185.721 29.9081 27.6528 24.2738 18.9647 12.1936 7.09203
threshold=-1.1792347345029495e-05 0.21523744778517592 -0.00016565069853176245 0.0030392062793967735 -0.00054330615553123678 0.0011111832034678569 -0.00035391997390201319
decision_type=2 2 2 2 2 2 2
left_child=1 6 5 -4 -3 -2 -1
right_child=2 4 3 -5 -6 -7 -8
leaf_value=0.0029681168812533995 0.00053325797467526084 0.0034559114697566319 -0.0025839896509465589 -0.0072678522618007746 0.0011043264494446242 -0.0040265316424104953 -0.0032395389828650026
leaf_weight=183.73788695037365 3281.4188725352287 9195.1384418904781 10189.368186175823 1032.6313524544239 4264.5336800217628 583.81308901309967 946.64394313097
leaf_count=735 13128 36785 40768 4134 17060 2336 3787
internal_value=-1.62701e-05 0.00232825 -0.00228356 -0.00301598 0.00271088 -0.000157992 -0.00221867
internal_weight=29677.3 14590.1 15087.2 11222 13459.7 3865.23 1130.38
internal_count=118733 58367 60366 44902 53845 15464 4522
is_linear=0
shrinkage=0.0291483


Tree=11
num_leaves=8
num_cat=0
split_feature=6 8 14 8 6 8 5
split_gain=154.539 26.7811 23.1466 21.6346 27.1003 13.1045 6.20579
threshold=1254.8899193786058 4.8463529017188298e-05 -0.061325974259782069 0.0016299532054707508 1212.807682700068 2.932313446905387e-05 -0.0016933725835537562
decision_type=2 2 2 2 2 2 2
left_child=3 5 -3 4 -1 -2 -5
right_child=1 2 -4 6 -6 -7 -8
leaf_value=0.0053818743048256144 -0.0037653485771820564 0.00018217335047138468 -0.0018988292818320216 -0.0075944631218978001 0.0020387011299332113 -0.013944717651391859 3.5817543201098495e-05
leaf_weight=3783.559641957283 226.06033666431904 6756.5598408132792 13832.865430623293 176.97062458097935 4520.300632327795 201.10833050310612 178.97433577477932
leaf_count=15138 905 27030 55348 708 18083 805 716
internal_value=-1.58105e-05 -0.00136594 -0.00121591 0.00326031 0.00356248 -0.00856023 -0.00374284
internal_weight=29676.4 21016.6 20589.4 8659.81 8303.86 427.169 355.945
internal_count=118733 84088 82378 34645 33221 1710 1424
is_linear=0
shrinkage=0.0291483


Tree=12
num_leaves=7
num_cat=0
split_feature=12 3 12 10 10 12
split_gain=147.363 33.804 29.8672 24.8315 11.2314 11.1102
threshold=-0.00054330615553123678 -0.00050874966712853174 0.0030392062793967735 0.00021490722678102294 0.0012193314170530622 -0.0016837591652040691
decision_type=2 2 2 2 2 2
left_child=3 4 -3 -1 -2 -5
right_child=1 2 -4 5 -6 -7
leaf_value=0.013462390421890907 0.0020423018579970439 -0.001599849730464806 -0.0062127308227284605 0.0039143419576266394 -0.0036521067944179897 0.0018965508431586489
leaf_weight=182.72016309201717 2654.4004078358412 15647.835977464914 1287.6391434371471 3899.9537069797516 327.40958349406719 5719.5877467691898
leaf_count=731 10619 62608 5156 15604 1310 22881
internal_value=-7.45819e-06 -0.00144727 -0.0019512 0.00291773 0.0014128 0.00271504
internal_weight=29719.5 19917.3 16935.5 9802.26 2981.81 9619.54
internal_count=118909 79693 67764 39216 11929 38485
is_linear=0
shrinkage=0.0291483


Tree=13
num_leaves=7
num_cat=0
split_feature=12 14 12 7 8 5
split_gain=138.91 35.6153 31.2258 26.2195 21.1538 16.303
threshold=-0.00054330615553123678 0.27916798508762308 0.0030392062793967735 4.7913491118400918e-05 0.0020813378551078217 -0.026793280627465398
decision_type=2 2 2 2 2 2
left_child=1 4 3 -2 -1 -4
right_child=2 -3 5 -5 -6 -7
leaf_value=0.003190365336598419 -0.0053996081348328916 -0.01379332565883252 -0.012529515617145572 -0.00080899021656708912 -0.0075390806871138494 -0.0041774439169719475
leaf_weight=9541.998056396842 1122.0154322385788 104.7351882904768 236.45851564407349 17394.84620077908 155.21849077939987 1163.3442174196243
leaf_count=38176 4491 419 947 69596 621 4659
internal_value=-7.22805e-06 0.00283288 -0.00140516 -0.00108775 0.00301644 -0.00559769
internal_weight=29718.6 9801.95 19916.7 18516.9 9697.22 1399.8
internal_count=118909 39216 79693 74087 38797 5606
is_linear=0
shrinkage=0.0291483


Tree=14
num_leaves=8
num_cat=0
split_feature=3 4 17 9 3 14 9
split_gain=88.9966 23.6258 19.768 17.3673 12.1319 16.0617 13.2906
threshold=-0.00022854013581614468 0.0038526205498208817 0.22059445960845978 0.0008587364178771293 -0.0017929996401393831 -0.014822492124093234 0.00024134475579415079
decision_type=2 2 2 2 2 2 2
left_child=4 2 -2 -3 5 -1 -6
right_child=1 3 -4 -5 6 -7 -8
leaf_value=0.0056317072535492724 -0.0040737563885223441 -0.011581017501145699 -0.00070918638344577177 -0.003232157008948439 0.005176818657972984 0.0010758141898967214 0.0011187213291608176
leaf_weight=1531.87241974473 1640.6729890406132 288.96626119315624 15204.087523117661 769.01300971210003 743.34552173316479 1148.6033636778593 8391.0950630158186
leaf_count=6130 6565 1157 60836 3080 2974 4596 33571
internal_value=-7.10589e-06 -0.00130283 -0.00103736 -0.00552106 0.0019561 0.0036796 0.00145007
internal_weight=29717.7 17902.7 16844.8 1057.98 11814.9 2680.48 9134.44
internal_count=118909 71638 67401 4237 47271 10726 36545
is_linear=0
shrinkage=0.0291483


Tree=15
num_leaves=8
num_cat=0
split_feature=12 6 6 12 17 15 15
split_gain=147.212 60.2697 33.4013 18.2888 17.16 11.7341 9.28528
threshold=-1.1792347345029495e-05 1260.2350273759823 1221.4286174193787 0.0036303459699517393 0.21523744778517592 0.00013179046269779971 0.0017028629797183959
decision_type=2 2 2 2 2 2 2
left_child=2 5 6 -3 -4 -2 -1
right_child=1 3 4 -5 -6 -7 -8
leaf_value=0.0051916890687345547 -0.003566667128746578 -0.0025667177932924218 -0.0023510515023758482 -0.0069672962083901693 0.001644092563335088 0.0024901641944395855 0.0018114334190686486
leaf_weight=3011.5207383483648 300.95849134027958 11411.820566728711 1004.558768555522 860.12019264698029 9728.9960496276617 2528.2935364693403 895.24192850291729
leaf_count=12052 1204 45667 4019 3447 38921 10114 3583
internal_value=2.71316e-05 -0.00199179 0.00210962 -0.00287602 0.00126969 0.00184086 0.00441649
internal_weight=29741.5 15101.2 14640.3 12271.9 10733.6 2829.25 3906.76
internal_count=119007 60432 58575 49114 42940 11318 15635
is_linear=0
shrinkage=0.0291483


Tree=16
num_leaves=8
num_cat=0
split_feature=12 11 17 17 8 8 5
split_gain=139.017 27.1919 20.0168 17.3073 16.6847 16.5946 15.1526
threshold=-0.00020219688409930619 -6.8672769608045704e-05 2.3275939313540905 0.21523744778517592 0.0016299532054707508 0.00077545898126052957 0.0097699683379578791
decision_type=2 2 2 2 2 2 2
left_child=3 5 -3 6 -5 -2 -1
right_child=1 2 -4 4 -6 -7 -8
leaf_value=0.00079732042024509319 0.00096971025492388087 -0.0020802827566106827 -0.0063091302307643777 0.0028216132000517531 -0.0033875869185416687 -0.0032467032266004789 -0.0075687403150934427
leaf_weight=645.15728470683098 3945.1973078250885 11023.880100041628 1037.7017545849085 11469.804345265031 376.4481965303421 988.8167649358511 253.21596658229828
leaf_count=2581 15784 44120 4154 45892 1506 3957 1013
internal_value=2.63195e-05 -0.00169922 -0.00244492 0.00232733 0.00262334 0.000123034 -0.00156585
internal_weight=29740.2 16995.6 12061.6 12744.6 11846.3 4934.01 898.373
internal_count=119007 68015 48274 50992 47398 19741 3594
is_linear=0
shrinkage=0.0291483


Tree=17
num_leaves=8
num_cat=0
split_feature=12 14 12 18 11 12 10
split_gain=131.479 21.6672 21.9356 19.0115 15.2464 12.4378 11.6996
threshold=-1.1792347345029495e-05 -0.044671337015309849 0.0029199380487162142 0.78054547413462549 -8.147055405944278e-05 -0.00054330615553123678 0.00066173691722420578
decision_type=2 2 2 2 2 2 2
left_child=3 4 -3 5 -2 -1 -5
right_child=1 2 -4 6 -6 -7 -8
leaf_value=0.0017996667105068126 0.0030016583704506375 -0.0021017826601649522 -0.0062192714037721721 0.002004010167422539 -0.0010938275565107564 -0.00098515269401134816 0.0041705420521593777
leaf_weight=3344.4966090619564 1012.0357289463282 9629.4230992048979 1237.9652963727713 5591.340882062912 3220.2575081288815 2294.266601011157 3409.3424109965563
leaf_count=13381 4049 38535 4961 22372 12887 9179 13643
internal_value=2.55146e-05 -0.00188259 -0.00257168 0.00199362 -0.000113841 0.000666748 0.00282503
internal_weight=29739.1 15099.7 10867.4 14639.4 4232.29 5638.76 9000.68
internal_count=119007 60432 43496 58575 16936 22560 36015
is_linear=0
shrinkage=0.0291483


Tree=18
num_leaves=8
num_cat=0
split_feature=4 2 9 17 10 8 8
split_gain=82.0485 28.6396 21.9662 17.6248 16.6521 14.1894 9.58373
threshold=-0.00024022734881482815 -9.4094498403423713e-05 0.00050289591657392478 0.21523744778517592 0.00027105168936989094 0.0003885966166736001 0.00077545898126052957
decision_type=2 2 2 2 2 2 2
left_child=3 6 -3 4 -1 -5 -2
right_child=1 2 -4 5 -6 -7 -8
leaf_value=0.0064747690427256789 0.0010941216178364547 -0.0033457297088168277 -0.00082262507081327994 0.00086785718732101751 -0.0040898994977804082 0.0029189151242480595 -0.0020019598080692879
leaf_weight=150.46043884754181 4209.929541260004 6013.1243303120136 5717.4534537196159 4865.7211171984673 713.61413532495499 6969.060892790556 1060.3796611130238
leaf_count=602 16844 24066 22887 19468 2855 27888 4244
internal_value=9.72973e-06 -0.00131422 -0.00211608 0.00178214 -0.0022285 0.00207575 0.000469995
internal_weight=29699.7 17000.9 11730.6 12698.9 864.075 11834.8 5270.31
internal_count=118854 68041 46953 50813 3457 47356 21088
is_linear=0
shrinkage=0.0291483


Tree=19
num_leaves=8
num_cat=0
split_feature=12 12 7 12 7 5 7
split_gain=123.384 23.0727 26.0629 19.9069 21.9372 19.2032 14.4023
threshold=-1.1792347345029495e-05 0.0036303459699517393 0.00021741880635865415 -0.00054330615553123678 5.4545191755263964e-05 -0.017039452969528492 8.7144548702370355e-05
decision_type=2 2 2 2 2 2 2
left_child=3 2 -2 6 -5 -3 -1
right_child=1 5 -4 4 -6 -7 -8
leaf_value=0.0074452069948362041 -0.003238539731136423 -0.013114085339068179 -0.00062385937489061924 -0.0052572035350517236 0.0010663831046597689 -0.003716289262373172 0.0024097302631234311
leaf_weight=505.82545100152493 5011.7981973588467 252.32133750617504 9145.4777160733938 519.21180480718613 4296.6401224732399 667.39111961424351 9300.2108515202999
leaf_count=2024 20059 1012 36599 2078 17189 2676 37217
internal_value=9.45256e-06 -0.00184051 -0.00154976 0.00191701 0.000382695 -0.00630603 0.00267073
internal_weight=29698.9 15077 14157.3 14621.9 4815.85 919.712 9806.04
internal_count=118854 60346 56658 58508 19267 3688 39241
is_linear=0
shrinkage=0.0291483


Tree=20
num_leaves=8
num_cat=0
split_feature=6 4 7 14 6 13 3
split_gain=118.885 33.8882 19.832 13.7485 11.4593 9.61879 9.61005
threshold=1254.8899193786058 -0.00024022734881482815 0.00015779956264780289 -0.050048636628670706 1212.807682700068 0.32502537827705696 3.343891406032686e-05
decision_type=2 2 2 2 2 2 2
left_child=3 5 -3 4 -1 -2 -5
right_child=1 2 -4 6 -6 -7 -8
leaf_value=0.0058682274042891865 0.00064000319130490886 -0.0039249773362351097 -0.0013812093192415503 0.0027204801299890429 0.0026114215704128537 -0.0054506570308977724 -5.2854741228847966e-05
leaf_weight=1823.3909369409084 6946.4658160805702 3476.9842451512814 10349.319863140583 3510.1838822215796 1849.1022101938725 223.9537286311388 1518.20921048522
leaf_count=7300 27791 13919 41427 14048 7399 896 6074
internal_value=9.15336e-06 -0.00117796 -0.00202121 0.00287345 0.00422921 0.00044769 0.0018832
internal_weight=29697.6 20996.7 13826.3 8700.89 3672.49 7170.42 5028.39
internal_count=118854 84033 55346 34821 14699 28687 20122
is_linear=0
shrinkage=0.0291483


Tree=21
num_leaves=8
num_cat=0
split_feature=6 4 2 9 14 6 9
split_gain=106.014 30.3152 16.957 14.1834 10.743 16.2652 10.0525
threshold=1248.5191485382732 -0.00024022734881482815 -0.00011825416510713326 0.00024134475579415079 -0.050048636628670706 1198.0215562522792 0.0011597970990216407
decision_type=2 2 2 2 2 2 2
left_child=4 3 -3 -2 5 -1 -6
right_child=1 2 -4 -5 6 -7 -8
leaf_value=0.0064766768967110481 0.0042148000166147385 -0.00015849446418392664 -0.0024707857627021897 -2.1998279382021182e-05 0.0024660214232509006 0.0023733076359918862 -0.0015014432691814069
leaf_weight=1407.9624313116074 741.54342238605022 3598.4374724179506 10706.837604388595 6776.2725454419851 3869.1826699972153 1963.9704481512308 627.65753892064095
leaf_count=5638 2967 14400 42865 27110 15484 7860 2512
internal_value=-5.57174e-05 -0.00110153 -0.00188904 0.000396697 0.00284415 0.00408798 0.00191143
internal_weight=29691.9 21823.1 14305.3 7517.82 7868.77 3371.93 4496.84
internal_count=118836 87342 57265 30077 31494 13498 17996
is_linear=0
shrinkage=0.0291483


Tree=22
num_leaves=7
num_cat=0
split_feature=12 12 13 10 7 17
split_gain=107.094 24.1718 30.6357 28.6718 16.9337 17.3099
threshold=-0.00020219688409930619 0.0030392062793967735 -0.096916254226111803 0.00067543024947825769 0.0020285903108735251 0.21523744778517592
decision_type=2 2 2 2 2 2
left_child=4 3 -3 -2 5 -1
right_child=1 2 -4 -5 -6 -7
leaf_value=-0.0018345937781542611 -0.00204071684358558 0.007955415066100778 -0.0066713824072688862 0.00071043273349369806 -0.0073658000508695877 0.0023877872231363516
leaf_weight=884.31442482769489 11067.687614917755 131.32494683563709 1249.1976406872272 4534.2703488767147 159.47741429507732 11664.348756715655
leaf_count=3538 44298 526 5010 18145 638 46681
internal_value=-5.40808e-05 -0.00156829 -0.00526064 -0.00124109 0.00196932 0.0020897
internal_weight=29690.6 16982.5 1380.52 15602 12708.1 12548.7
internal_count=118836 67979 5536 62443 50857 50219
is_linear=0
shrinkage=0.0291483


Tree=23
num_leaves=8
num_cat=0
split_feature=12 6 6 8 8 18 8
split_gain=101.494 41.9488 28.1526 20.9502 18.1899 14.2301 9.06127
threshold=-1.1792347345029495e-05 1259.2978379228227 1222.8511096377408 0.0016299532054707508 0.00024795906310113496 0.14249183436641097 0.00011287630037824996
decision_type=2 2 2 2 2 2 2
left_child=2 6 3 -1 -3 -4 -2
right_child=1 4 5 -5 -6 -7 -8
leaf_value=0.0043318903308387337 -0.0049815142717052367 -0.0043179382935500674 -0.0096894047038292314 -0.0042920550224510327 -0.00178262976074866 0.001005350512774904 0.0019412652877749091
leaf_weight=3707.0523763448 167.68918879330158 3270.9628372490406 103.20793284475803 252.46046048402786 9060.8076292127371 10530.464562818408 2596.6376174092293
leaf_count=14846 671 13097 413 1010 36278 42133 10388
internal_value=-5.25151e-05 -0.00172795 0.00168064 0.0037779 -0.00245548 0.000899445 0.00151525
internal_weight=29689.3 15096.1 14593.2 3959.51 12331.8 10633.7 2764.33
internal_count=118836 60434 58402 15856 49375 42546 11059
is_linear=0
shrinkage=0.0291483


Tree=24
num_leaves=8
num_cat=0
split_feature=6 12 8 12 12 14 9
split_gain=98.2274 50.8257 19.3477 19.7596 18.129 14.5946 5.15765
threshold=1254.8899193786058 -0.00018985155353047674 0.0016299532054707508 -0.0018451760236402701 0.0036303459699517393 0.27916798508762308 0.0021023501878887148
decision_type=2 2 2 2 2 2 2
left_child=2 5 3 -1 -3 -2 -4
right_child=1 4 6 -5 -6 -7 -8
leaf_value=0.0053970492695499667 0.0010462467228821511 -0.0018748356042360172 -0.0063869580741375076 0.0020571933290075392 -0.0062325820684232354 -0.010124239087010666 0.0010903481392456106
leaf_weight=1969.1520981192589 6973.7353533506393 13054.514487802982 247.20740984380245 6361.052677616477 861.63418853282928 97.239402905106544 110.97204686701298
leaf_count=7889 27900 52260 989 25457 3459 389 444
internal_value=-4.39944e-05 -0.00112294 0.00256182 0.00284751 -0.00214536 0.000888839 -0.00403942
internal_weight=29675.5 20987.1 8688.38 8330.2 13916.1 7070.97 358.179
internal_count=118787 84008 34779 33346 55719 28289 1433
is_linear=0
shrinkage=0.0291483


Tree=25
num_leaves=8
num_cat=0
split_feature=12 12 13 8 8 18 16
split_gain=86.9961 20.1193 28.0145 26.2373 14.5165 14.831 4.6859
threshold=-0.00022761852511369283 0.0030392062793967735 -0.096916254226111803 0.00032023681331373369 0.001929366799073797 0.78054547413462549 0.86597126067584362
decision_type=2 2 2 2 2 2 2
left_child=4 3 -3 -2 5 -1 -6
right_child=1 2 -4 -5 6 -7 -8
leaf_value=0.00062010303982226375 -0.0024394840823283533 0.0077177761472702619 -0.0061043659151640501 -4.4725901959967153e-05 -0.0098243499220042468 0.0027158143676225097 -0.0011727762365823539
leaf_weight=4563.1641136705875 6906.9892089366913 134.82676583528519 1255.5478413850069 8882.6019679009914 110.97852256894112 7722.2412301450968 97.475659772753716
leaf_count=18260 27651 540 5039 35550 444 30913 390
internal_value=-4.2742e-05 -0.00138852 -0.0047459 -0.00109244 0.00180769 0.00193748 -0.00575588
internal_weight=29673.8 17180 1390.37 15789.6 12493.9 12285.4 208.454
internal_count=118787 68780 5579 63201 50007 49173 834
is_linear=0
shrinkage=0.0291483


Tree=26
num_leaves=8
num_cat=0
split_feature=6 8 8 5 6 6 9
split_gain=90.733 18.0919 17.7691 15.5596 13.0773 7.87148 6.88174
threshold=1254.8899193786058 4.8463529017188298e-05 0.0015616615987155082 -0.074059587415320358 1121.7344346313914 1662.710047261696 0.0018423703456399937
decision_type=2 2 2 2 2 2 2
left_child=2 5 4 -3 -1 -2 -4
right_child=1 3 6 -5 -6 -7 -8
leaf_value=0.0064725044796383096 -0.012877195095601472 -0.0082119708341951789 -0.0067261062361395774 -0.00086717162106822216 0.0023952631358929687 -0.0043535627875756081 0.00085768971893418738
leaf_weight=730.38612106442451 131.47629787027836 244.52158945798874 232.65957708656788 20316.053121834993 7548.8431838303804 293.06174227595329 175.43489928543568
leaf_count=2927 527 979 931 81327 30219 1175 702
internal_value=-4.14946e-05 -0.00107851 0.0024631 -0.000955385 0.0027562 -0.00701005 -0.00344936
internal_weight=29672.4 20985.1 8687.32 20560.6 8279.23 424.538 408.094
internal_count=118787 84008 34779 82306 33146 1702 1633
is_linear=0
shrinkage=0.0291483


Tree=27
num_leaves=8
num_cat=0
split_feature=3 14 13 10 7 13 15
split_gain=57.3435 21.4104 20.2066 17.1719 14.1668 9.90638 1.45814
threshold=-0.00057853146288681316 -0.061325974259782069 -0.37883684062025219 0.00025468502076357716 0.0020285903108735251 -0.31986939162548378 0.00027524967007887887
decision_type=2 2 2 2 2 2 2
left_child=3 5 -3 6 -5 -2 -1
right_child=1 2 -4 4 -6 -7 -8
leaf_value=0.012405314613810784 -0.0020622550868508722 -0.012080400133749012 -0.0013322066520038754 0.0020017863522414727 -0.0069908025822063603 0.00099417873780846609 0.0075262936861972525
leaf_weight=112.92511861026287 1060.1752173900604 146.64137589931488 14246.456528991461 7925.7492218911648 148.15702565014362 5884.8547227233648 106.40091542899609
leaf_count=452 4243 587 57041 31731 593 23554 426
internal_value=-2.75167e-06 -0.000802115 -0.00144345 0.00205359 0.00183455 0.000526699 0.0100376
internal_weight=29631.4 21338.1 14393.1 8293.23 8073.91 6945.03 219.326
internal_count=118627 85425 57628 33202 32324 27797 878
is_linear=0
shrinkage=0.0291483


Tree=28
num_leaves=8
num_cat=0
split_feature=12 6 6 8 7 6 4
split_gain=79.3192 38.699 26.4365 16.6501 15.3409 13.5674 12.3527
threshold=3.3718977585751226e-05 1261.1897400155406 1720.5461699094888 0.00011287630037824996 0.00021741880635865415 1226.6497143881554 1.1687607305980683e-05
decision_type=2 2 2 2 2 2 2
left_child=2 3 5 -2 -3 -1 -4
right_child=1 4 6 -5 -6 -7 -8
leaf_value=0.0031613980189699907 -0.0076237753200743032 -0.0037556101982677147 -0.0054215813922464896 0.0021379975404764722 -0.0015225489240064331 0.001192899067823357 0.0028748531691851248
leaf_weight=4240.933272972703 153.91862711310387 3892.844468280673 654.73098735511303 2590.7533412575722 7949.2214398831129 9953.0438470095396 195.13286969065666
leaf_count=16991 616 15592 2620 10365 31836 39826 781
internal_value=-2.69764e-06 -0.00153408 0.00148214 0.00158239 -0.00225691 0.0017813 -0.003501
internal_weight=29630.6 14586.7 15043.8 2744.67 11842.1 14194 849.864
internal_count=118627 58409 60218 10981 47428 56817 3401
is_linear=0
shrinkage=0.0291483


Tree=29
num_leaves=8
num_cat=0
split_feature=3 17 14 9 7 10 5
split_gain=51.8282 19.9748 18.3709 17.4694 13.4327 7.88732 2.90656
threshold=-0.00057853146288681316 0.22059445960845978 -0.061325974259782069 0.00024134475579415079 0.0020285903108735251 0.00065497266189084842 0.00051028043450593709
decision_type=2 2 2 2 2 2 2
left_child=3 5 -3 6 -5 -2 -1
right_child=1 2 -4 4 -6 -7 -8
leaf_value=0.013653180370409924 -0.0043498251078513206 0.00081896194123429558 -0.0010984603745013562 0.001902164059773307 -0.0068545963498615964 0.00029463211185538625 0.0066471885248614027
leaf_weight=106.63707776367664 1677.2275207638741 6305.4760083258152 12975.780558347702 7940.4271433204412 148.1400902569294 378.24506643414497 97.148813053965569
leaf_count=427 6715 25238 51958 31793 593 1514 389
internal_value=-2.63352e-06 -0.000762598 -0.000471362 0.00195244 0.00173962 -0.00349177 0.0103095
internal_weight=29629.1 21336.7 19281.3 8292.35 8088.57 2055.47 203.786
internal_count=118627 85425 77196 33202 32386 8229 816
is_linear=0
shrinkage=0.0291483


Tree=30
num_leaves=8
num_cat=0
split_feature=12 1 17 17 13 18 12
split_gain=76.457 18.7251 22.3317 16.3086 14.4357 11.1738 5.81398
threshold=-0.00022761852511369283 -0.00010707280288762017 2.3275939313540905 0.33752237499140375 0.38932918230934527 0.63564259629279052 -0.0012502555334175426
decision_type=2 2 2 2 2 2 2
left_child=3 5 -3 6 -5 -2 -1
right_child=1 2 -4 4 -6 -7 -8
leaf_value=0.001733894562800014 -0.002386841940593127 -0.0015263520475695927 -0.0061745997778376799 0.0023334557612030094 -0.0075547207210264191 0.00090026164266844252 -0.0016056983610162731
leaf_weight=629.59711350500584 1114.6212377101183 11006.290459945798 950.98059092462063 10228.349037140608 123.46589408814907 4097.4466572850943 1470.5004361867905
leaf_count=2520 4461 44077 3811 40951 494 16401 5884
internal_value=-3.57116e-07 -0.00126138 -0.00189689 0.00173829 0.00221352 0.000196103 -0.000601782
internal_weight=29621.3 17169.3 11957.3 12451.9 10351.8 5212.07 2100.1
internal_count=118599 68750 47888 49849 41445 20862 8404
is_linear=0
shrinkage=0.0291483


Tree=31
num_leaves=7
num_cat=0
split_feature=12 18 7 12 8 5
split_gain=72.409 16.2185 15.222 15.9176 12.4795 11.8241
threshold=3.3718977585751226e-05 0.78054547413462549 1.1443657171506259e-07 0.0030392062793967735 0.00046308334242243539 -0.045889594514524859
decision_type=2 2 2 2 2 2
left_child=1 5 -2 -4 -3 -1
right_child=2 4 3 -5 -6 -7
leaf_value=0.0050879144340040894 -0.011808579485543489 0.0011105653442701436 -0.0010642659351996089 -0.0043487224256410799 0.0032578621854867837 -0.00013431171273621859
leaf_weight=391.5012711584568 116.34658128023148 4610.5243001282215 13083.201363176107 1383.2331709414721 4585.946704685688 5449.1786757856607
leaf_count=1567 467 18456 52380 5554 18366 21809
internal_value=-3.79322e-07 0.00141868 -0.00146367 -0.00137886 0.00218151 0.00021774
internal_weight=29619.9 15037.2 14582.8 14466.4 9196.47 5840.68
internal_count=118599 60198 58401 57934 36822 23376
is_linear=0
shrinkage=0.0291483


Tree=32
num_leaves=8
num_cat=0
split_feature=6 12 7 8 12 6 13
split_gain=76.6124 40.695 14.9904 14.7011 16.3981 11.7442 6.38796
threshold=1248.5191485382732 2.2729918457266027e-05 0.00021741880635865415 0.0016299532054707508 -0.0020854529267468787 1715.9772266039292 0.017092762444802626
decision_type=2 2 2 2 2 2 2
left_child=3 5 -3 4 -1 -2 -5
right_child=1 2 -4 6 -6 -7 -8
leaf_value=0.0053522160252802743 0.0009492630944751007 -0.0033584504201690478 -0.0012406110484918698 -0.0059409735119536474 0.0020309680861782158 -0.0025714961848123728 0.0024759900659609025
leaf_weight=1606.2311604768038 8172.6448940783739 4276.4056908786297 8444.0334342569113 243.66904830932617 5878.6114669293165 889.31742759048939 107.70824119448662
leaf_count=6442 32702 17132 33822 975 23536 3559 431
internal_value=-3.8743e-07 -0.000889514 -0.00195279 0.00247063 0.00274464 0.000602857 -0.00332764
internal_weight=29618.6 21782.4 12720.4 7836.22 7484.84 9061.96 351.377
internal_count=118599 87215 50954 31384 29978 36261 1406
is_linear=0
shrinkage=0.0291483


Tree=33
num_leaves=8
num_cat=0
split_feature=6 12 6 12 8 12 13
split_gain=66.1179 33.4348 18.5434 14.1318 9.73235 15.0562 4.78899
threshold=1248.5191485382732 2.2729918457266027e-05 1715.9772266039292 0.0034684696865828549 0.0016299532054707508 -0.0013634172028394876 0.017092762444802626
decision_type=2 2 2 2 2 2 2
left_child=4 2 -2 -3 5 -1 -6
right_child=1 3 -4 -5 6 -7 -8
leaf_value=0.0043047628814354231 0.00098247021916743815 -0.0014892683371655676 -0.0034366221580605012 -0.0051334524239567874 -0.00472526352937428 0.0015718751094658165 0.0025499119931534737
leaf_weight=2639.8971819281578 8170.8558218479156 11758.553747609258 891.56215634942055 976.22321806848049 239.90493738651276 4869.9586319923401 108.96064852178097
leaf_count=10587 32695 47091 3568 3924 960 19494 436
internal_value=2.00384e-05 -0.000806313 0.000546664 -0.00176924 0.00231165 0.00253314 -0.0024242
internal_weight=29655.9 21797.2 9062.42 12734.8 7858.72 7509.86 348.866
internal_count=118755 87278 36263 51015 31477 30081 1396
is_linear=0
shrinkage=0.0291483


Tree=34
num_leaves=8
num_cat=0
split_feature=6 16 0 18 10 8 13
split_gain=62.3273 19.7029 20.1643 15.4 9.60989 9.7095 3.5429
threshold=1248.5191485382732 2.7400510249142491 -0.64296584900630294 0.63564259629279052 0.00022125596101211974 0.00018614984824576352 -0.046924341024883985
decision_type=2 2 2 2 2 2 2
left_child=4 3 -3 -2 6 -6 -1
right_child=1 2 -4 -5 5 -7 -8
leaf_value=0.0044301000037510066 -0.0018614978830253526 0.0038218219506690283 -0.0085032316013456885 -0.00012745503787384881 -0.0015597005818045742 0.0023502029821842007 0.011027035293433707
leaf_weight=145.61490334570408 6121.2300568223 141.64534750580788 505.41346774995327 15027.904053628445 581.3422347009182 7000.5813927948475 130.44782926142216
leaf_count=583 24510 567 2025 60176 2327 28045 522
internal_value=1.94459e-05 -0.000782872 -0.00577954 -0.000629475 0.00224451 0.00204968 0.00755425
internal_weight=29654.2 21796.2 647.059 21149.1 7857.99 7581.92 276.063
internal_count=118755 87278 2592 84686 31477 30372 1105
is_linear=0
shrinkage=0.0291483


Tree=35
num_leaves=8
num_cat=0
split_feature=6 12 6 16 12 13 11
split_gain=58.7519 31.4585 17.4357 15.5053 8.98389 14.2766 8.92491
threshold=1248.5191485382732 2.2729918457266027e-05 1715.9772266039292 2.7400510249142491 -0.0013634172028394876 -0.16079491770229246 -0.0011371693704821564
decision_type=2 2 2 2 2 2 2
left_child=4 2 -2 -3 5 -1 -6
right_child=1 3 -4 -5 6 -7 -8
leaf_value=0.0056298891213300215 0.00097487699580074932 -0.0015091273418722749 -0.0033102701662329442 -0.0072696375772211119 -0.0036864315987708129 0.0015222207006501598 0.0017255234848146705
leaf_weight=1368.0739403218031 8170.8025826513767 12326.654170662165 891.52810207009315 406.78230080008507 270.43677939474583 1510.8343526422977 4708.1221768707037
leaf_count=5489 32695 49384 3568 1631 1083 6058 18847
internal_value=1.88927e-05 -0.000760068 0.000552294 -0.00169418 0.00217928 0.00347511 0.00142975
internal_weight=29653.2 21795.8 9062.33 12733.4 7857.47 2878.91 4978.56
internal_count=118755 87278 36263 51015 31477 11547 19930
is_linear=0
shrinkage=0.0291483


Tree=36
num_leaves=7
num_cat=0
split_feature=12 12 13 8 18 8
split_gain=55.0873 16.497 19.8311 18.6685 13.2836 13.2893
threshold=3.3718977585751226e-05 0.0036303459699517393 -0.071451344724758517 0.00032023681331373369 0.14249183436641097 0.001929366799073797
decision_type=2 2 2 2 2 2
left_child=4 3 -3 -2 -1 -6
right_child=1 2 -4 -5 5 -7
leaf_value=-0.0084960433980260774 -0.0023148913941044538 0.0067635254229572736 -0.0065252473728817156 -0.00011636409427735158 0.0014507667857625393 -0.0056994859622105714
leaf_weight=113.91037322580814 5432.7783256322145 104.48085659742355 821.55731423199177 8277.2650800943375 14731.903410732746 220.66697783768177
leaf_count=456 21764 419 3305 33142 58990 883
internal_value=3.12539e-05 -0.00124219 -0.00500057 -0.000987753 0.00126834 0.00134425
internal_weight=29702.6 14636.1 926.038 13710 15066.5 14952.6
internal_count=118959 58630 3724 54906 60329 59873
is_linear=0
shrinkage=0.0291483


Tree=37
num_leaves=7
num_cat=0
split_feature=6 12 16 9 9 12
split_gain=54.5376 31.2323 15.617 15.0773 12.942 9.6537
threshold=1248.5191485382732 2.2729918457266027e-05 2.7400510249142491 8.9134500255391315e-05 0.00016458402114501205 -0.0013634172028394876
decision_type=2 2 2 2 2 2
left_child=4 3 -3 -2 -1 -6
right_child=1 2 -4 -5 5 -7
leaf_value=0.011123651861892275 -0.009216852531393387 -0.0014610996224244869 -0.007211257803611211 0.00073154775393814622 0.0032870134242497058 0.0011596464440354632
leaf_weight=129.68239761888981 127.7696321606636 12362.643624871969 411.33075767755508 8945.1184426397085 2901.1147156208754 4823.6000012755394
leaf_count=519 512 49534 1650 35794 11639 19311
internal_value=3.0318e-05 -0.000718554 -0.00164728 0.000588865 0.00211294 0.00195908
internal_weight=29701.3 21846.9 12774 9072.89 7854.4 7724.71
internal_count=118959 87490 51184 36306 31469 30950
is_linear=0
shrinkage=0.0291483


Tree=38
num_leaves=8
num_cat=0
split_feature=6 4 17 17 14 3 3
split_gain=51.6532 15.204 16.1967 13.0963 12.0768 14.0077 12.6032
threshold=1269.7430709691337 0.0038526205498208817 0.27383472903029743 0.87820973200664942 -0.050048636628670706 2.421892295596258e-05 -0.0027119195372934607
decision_type=2 2 2 2 2 2 2
left_child=4 2 -2 -3 6 -6 -1
right_child=1 3 -4 -5 5 -7 -8
leaf_value=0.0073398084530641762 -0.0028970088755550728 -0.00013764015808788357 -0.00033264635523293261 -0.0068073882651201135 0.00185049926150292 -0.0010506050047771112 0.0022982804750960695
leaf_weight=469.81800411641598 2411.7039932757616 401.28901268541813 15670.557998478413 654.2092502117157 4071.1126666218042 2162.0939151197672 3858.9244936108589
leaf_count=1886 9659 1611 62750 2630 16308 8654 15461
internal_value=2.94271e-05 -0.000873543 -0.000674971 -0.00426845 0.00166544 0.00084413 0.00284791
internal_weight=29699.7 19137.8 18082.3 1055.5 10561.9 6233.21 4328.74
internal_count=118959 76650 72409 4241 42309 24962 17347
is_linear=0
shrinkage=0.0291483


Tree=39
num_leaves=8
num_cat=0
split_feature=6 12 6 14 3 12 15
split_gain=56.9773 21.7014 17.448 13.1204 7.86582 9.93249 8.95446
threshold=1237.4855952971814 2.2729918457266027e-05 1268.7514984907796 0.30739764152200338 0.00029020097843801264 0.0002597637812753067 0.0029453695939881722
decision_type=2 2 2 2 2 2 2
left_child=4 3 -3 -2 6 -6 -1
right_child=1 2 -4 -5 5 -7 -8
leaf_value=0.0031882558551586072 0.00049002400074430201 0.0012102818814138513 -0.001849317525935587 -0.0094225346904555276 0.0025928402068400242 -0.0029349294552788773 -0.0021230486361600871
leaf_weight=5049.5908890366554 9781.7787275165319 1834.1903718560934 11453.851203382015 111.210632994771 639.19411645829678 480.68762539327145 281.6053321659565
leaf_count=20245 39145 7342 45904 445 2560 1923 1129
internal_value=1.70662e-05 -0.000657169 -0.00142662 0.00037623 0.00243927 0.000220988 0.00290605
internal_weight=29632.1 23181 13288 9892.99 6451.08 1119.88 5331.2
internal_count=118693 92836 53246 39590 25857 4483 21374
is_linear=0
shrinkage=0.0291483


Tree=40
num_leaves=7
num_cat=0
split_feature=6 12 6 13 13 9
split_gain=53.7094 20.4546 16.448 14.8205 9.74585 7.61519
threshold=1237.4855952971814 2.2729918457266027e-05 1268.7514984907796 -0.24610441146715953 0.35711954449104583 0.0012870050831091289
decision_type=2 2 2 2 2 2
left_child=4 3 -3 -2 5 -1
right_child=1 2 -4 -5 -6 -7
leaf_value=0.002919650226884357 -0.0015727798243130992 0.0011750509543103547 -0.0017955588602681419 0.0010214694930664027 -0.0047967397219823536 -0.00019960160204385031
leaf_weight=5543.7773322165012 2501.0253404229879 1834.2297771275043 11452.973419472575 7391.915586873889 153.9230095744133 752.64631588757038
leaf_count=22225 10010 7342 45904 29580 616 3016
internal_value=1.65445e-05 -0.000638063 -0.00138512 0.000365201 0.00236841 0.00254625
internal_weight=29630.5 23180.1 13287.2 9892.94 6450.35 6296.42
internal_count=118693 92836 53246 39590 25857 25241
is_linear=0
shrinkage=0.0291483


Tree=41
num_leaves=8
num_cat=0
split_feature=6 12 6 13 13 12 10
split_gain=50.6263 19.2808 15.5052 13.9696 9.34716 12.0107 11.5015
threshold=1237.4855952971814 2.2729918457266027e-05 1268.7514984907796 -0.24610441146715953 -0.16079491770229246 -0.0011749117946370836 0.00035202162264652434
decision_type=2 2 2 2 2 2 2
left_child=4 3 -3 -2 5 -1 -6
right_child=1 2 -4 -5 6 -7 -8
leaf_value=0.0054983326892130016 -0.0015269508347327003 0.0011408472294311791 -0.0017433619054325359 0.0009917089380077973 0.0063989767024483103 0.0011680187608605769 0.001004307746493973
leaf_weight=1385.2237416803837 2501.0773120969534 1834.2667533308268 11452.102484107018 7391.8703196495771 364.81225092709064 893.74586860835552 3805.8988539427519
leaf_count=5564 10010 7342 45904 29580 1461 3581 15251
internal_value=1.60486e-05 -0.000619488 -0.00134483 0.000354549 0.00229955 0.00380015 0.00147929
internal_weight=29629 23179.3 13286.4 9892.95 6449.68 2278.97 4170.71
internal_count=118693 92836 53246 39590 25857 9145 16712
is_linear=0
shrinkage=0.0291483


Tree=42
num_leaves=8
num_cat=0
split_feature=12 9 6 7 8 7 8
split_gain=43.2922 38.7391 21.1269 17.2164 17.0262 9.07494 8.99379
threshold=-0.00054330615553123678 0.00024134475579415079 1248.5191485382732 4.7913491118400918e-05 0.00038587713335725083 8.9620653787821962e-05 0.00078353307618666743
decision_type=2 2 2 2 2 2 2
left_child=1 5 6 -4 -3 -1 -2
right_child=2 4 3 -5 -6 -7 -8
leaf_value=0.018451039335840955 0.0020106039388647409 -0.00048647145613102958 -0.0049200042707410272 -0.0009813737342421493 0.0021167568669219609 0.0080905437226340728 -0.0021361621821791373
leaf_weight=99.611429259181023 2748.1513014137745 3255.6571532934904 1000.1273001879454 15617.548501029611 6183.7633846849203 246.58490051329136 526.48756048083305
leaf_count=399 10998 13038 4012 62568 24785 988 2107
internal_value=-1.64674e-05 0.00157049 -0.000797244 -0.00121895 0.00121885 0.0110983 0.00134143
internal_weight=29677.9 9785.62 19892.3 16617.7 9439.42 346.196 3274.64
internal_count=118895 39210 79685 66580 37823 1387 13105
is_linear=0
shrinkage=0.0291483


Tree=43
num_leaves=8
num_cat=0
split_feature=6 12 6 7 7 12 0
split_gain=40.8246 26.1836 15.7237 15.2374 9.19576 9.93145 4.03907
threshold=1248.5191485382732 2.2729918457266027e-05 1383.1005202817016 1.1443657171506259e-07 0.001099618628410766 -0.0020854529267468787 -0.32162333319383002
decision_type=2 2 2 2 2 2 2
left_child=4 2 -2 -3 5 -1 -6
right_child=1 3 -4 -5 6 -7 -8
leaf_value=0.0043254405390066482 -0.00064227461313915465 -0.011866545488576373 0.001781259905916365 -0.0014224276391956476 0.0019250331202503791 0.0015753245465869549 -0.0026271188399872403
leaf_weight=1383.9641426950693 4706.5588771104813 116.31263606250286 4394.8773514330387 12591.442912459373 235.32895241677761 5711.2885788977146 536.72867150604725
leaf_count=5561 18833 468 17589 50469 944 22880 2151
internal_value=-1.59687e-05 -0.000665269 0.000527873 -0.00151991 0.0017836 0.00211257 -0.00123062
internal_weight=29676.5 21809.2 9101.44 12707.8 7867.31 7095.25 772.058
internal_count=118895 87359 36422 50937 31536 28441 3095
is_linear=0
shrinkage=0.0291483


Tree=44
num_leaves=8
num_cat=0
split_feature=6 8 10 8 6 6 10
split_gain=38.4847 14.513 18.4304 12.1127 9.05503 7.8519 5.15252
threshold=1248.5191485382732 4.8463529017188298e-05 0.0002418724374227265 0.0016299532054707508 1662.710047261696 1129.8260671492556 0.0018246252923092554
decision_type=2 2 2 2 2 2 2
left_child=3 4 -3 5 -2 -1 -5
right_child=1 2 -4 6 -6 -7 -8
leaf_value=0.0046040440053939534 -0.012017959373137712 0.0021629874479366091 -0.00081008815659602102 -0.0063020089851154332 -0.0030248802790247956 0.0016424065718140756 0.00083082401145293601
leaf_weight=855.83828262984753 137.94873985648155 1945.6359926462173 19433.48686568439 216.66669794917107 291.24050645530224 6655.9360970705748 138.19760319590569
leaf_count=3439 554 7795 77840 867 1170 26677 553
internal_value=-1.5519e-05 -0.000645939 -0.000539278 0.0017318 -0.00593131 0.00198079 -0.00350446
internal_weight=29675 21808.3 21379.1 7866.64 429.189 7511.77 354.864
internal_count=118895 87359 85635 31536 1724 30116 1420
is_linear=0
shrinkage=0.0291483


Tree=45
num_leaves=8
num_cat=0
split_feature=6 12 8 9 8 6 8
split_gain=38.8211 28.0111 19.7762 18.0709 13.1003 18.1558 14.6451
threshold=1269.7430709691337 -0.00018985155353047674 4.8463529017188298e-05 0.00024134475579415079 0.00017251782158966608 1252.0525819645975 0.0018047323157162354
decision_type=2 2 2 2 2 2 2
left_child=4 3 -3 -2 5 -1 -6
right_child=1 2 -4 -5 6 -7 -8
leaf_value=0.00098380897159030308 0.0051851622692712139 -0.0085768728067279719 -0.0013279893864270953 0.00029857093262668916 0.0020204402291133339 -0.0070099910316576003 -0.0047279065693595218
leaf_weight=766.77501051127911 723.96008294820786 324.67362838983536 12521.966001436114 5533.8953338116407 9174.5692132115364 348.06669652462006 278.10700079798698
leaf_count=3070 2898 1306 50191 22143 36773 1394 1113
internal_value=5.05266e-05 -0.00073354 -0.00151247 0.000865121 0.00146789 -0.00151574 0.00182048
internal_weight=29672 19104.5 12846.6 6257.86 10567.5 1114.84 9452.68
internal_count=118888 76538 51497 25041 42350 4464 37886
is_linear=0
shrinkage=0.0291483


Tree=46
num_leaves=8
num_cat=0
split_feature=12 10 7 12 13 5 7
split_gain=36.7758 26.9555 20.1787 19.8096 16.8247 8.09341 7.45734
threshold=-0.00054330615553123678 0.00027105168936989094 4.7913491118400918e-05 0.0030392062793967735 0.29664816670981914 -0.039150433248802005 8.7144548702370355e-05
decision_type=2 2 2 2 2 2 2
left_child=1 6 5 -4 -3 -2 -1
right_child=2 4 3 -5 -6 -7 -8
leaf_value=0.015409288959482065 0.0023306300404119782 0.0013893578840110008 -0.00017452503310386766 -0.0038015818531417435 -0.0062186087462956074 -0.0053174929881191621 0.0064657119848073883
leaf_weight=102.02743384242058 129.82203498482704 9086.5124097913504 17385.889720052481 1377.4595958292484 250.31907793879509 1008.2531044483185 330.07522723078728
leaf_count=409 521 36419 69626 5542 1002 4046 1323
internal_value=4.90269e-05 0.00151347 -0.000669888 -0.000441226 0.00118377 -0.00443271 0.00860197
internal_weight=29670.4 9768.93 19901.4 18763.3 9336.83 1138.08 432.103
internal_count=118888 39153 79735 75168 37421 4567 1732
is_linear=0
shrinkage=0.0291483


Tree=47
num_leaves=8
num_cat=0
split_feature=6 8 9 8 9 6 9
split_gain=35.8792 17.4021 16.1658 12.3416 15.6714 11.8583 9.17565
threshold=1269.7430709691337 4.8463529017188298e-05 0.00024134475579415079 0.0018047323157162354 0.00051598201520854992 1668.2028287592841 0.0019556117735390873
decision_type=2 2 2 2 2 2 2
left_child=3 5 -3 4 -1 -2 -5
right_child=1 2 -4 6 -6 -7 -8
leaf_value=0.00027529995603050184 -0.013575816262069778 0.0018596357492241752 -0.00087697584660143229 -0.0091737078203404706 0.0025701247914321876 -0.0031455595154742245 0.0013954211276188311
leaf_weight=4464.5962498188019 135.98575000464916 2057.6594212949276 16633.243232727051 158.65818308293819 5823.7067922502756 275.7726988196373 119.42831483483315
leaf_count=17885 547 8245 66637 635 23352 1109 478
internal_value=4.76097e-05 -0.000706196 -0.000575469 0.00141029 0.00157439 -0.00660834 -0.00461057
internal_weight=29669.1 19102.7 18690.9 10566.4 10288.3 411.758 278.086
internal_count=118888 76538 74882 42350 41237 1656 1113
is_linear=0
shrinkage=0.0291483


Tree=48
num_leaves=5
num_cat=0
split_feature=5 4 18 7
split_gain=26.9955 21.012 14.8034 14.7733
threshold=-0.093144626947719564 -0.00059505689208914079 0.75618906030196864 4.5142439267837358e-05
decision_type=2 2 2 2
left_child=-1 2 -2 -3
right_child=1 3 -4 -5
leaf_value=-0.0138817842870128 -0.00050066772522780174 -0.0039169084688169533 0.001925591641253506 -0.00031885941442116639
leaf_weight=115.20993295311928 3144.2791314274073 1018.9891600906849 6647.954034268856 18727.305182874203
leaf_count=462 12592 4091 26655 75031
internal_value=-1.26549e-05 4.2496e-05 0.00114626 -0.00050491
internal_weight=29653.7 29538.5 9792.23 19746.3
internal_count=118831 118369 39247 79122
is_linear=0
shrinkage=0.0291483


Tree=49
num_leaves=7
num_cat=0
split_feature=12 14 9 6 14 9
split_gain=36.4403 26.6036 21.6163 14.8593 19.3057 18.6479
threshold=-0.00054330615553123678 0.27916798508762308 0.00024134475579415079 1309.2949916809569 -0.080876973964236973 0.0004870413718926063
decision_type=2 2 2 2 2 2
left_child=1 2 -1 5 -5 -2
right_child=3 -3 -4 4 -6 -7
leaf_value=0.0088243891045017356 -0.0012278436867270608 -0.012928066235178216 0.0013424510885748447 0.00071436510540898602 -0.0020647048754851446 0.0015459791632661671
leaf_weight=336.56508798897266 3945.4836253970861 104.65315754711628 9322.2114597558975 2790.2990152984858 8854.3594947010279 4299.3479589223862
leaf_count=1350 15799 419 37368 11177 35504 17214
internal_value=-1.23261e-05 0.0014458 0.00160498 -0.000728197 -0.00139852 0.000218403
internal_weight=29652.9 9763.43 9658.78 19889.5 11644.7 8244.83
internal_count=118831 39137 38718 79694 46681 33013
is_linear=0
shrinkage=0.0291483


Tree=50
num_leaves=8
num_cat=0
split_feature=12 9 4 1 17 8 13
split_gain=34.3477 24.27 15.1019 14.426 17.3548 11.8563 8.85924
threshold=-0.00054330615553123678 0.00024134475579415079 0.00068857000189746027 -0.00026831898164201743 3.6177080233045538 0.00077545898126052957 -0.22265182617745022
decision_type=2 2 2 2 2 2 2
left_child=1 6 -3 5 -5 -2 -1
right_child=3 2 -4 4 -6 -7 -8
leaf_value=0.0047111631075182243 0.0018295910102783376 0.00088153614915822054 0.0066930015506020072 -0.000923178213905431 -0.0063479718786812528 -0.0017545515348326732 0.01405909453935318
leaf_weight=187.60075114667416 2904.1277609914541 9025.5517599731684 393.11743569374084 15399.952098593116 514.42164087295532 1070.2191207557917 156.54628275334835
leaf_count=753 11627 36182 1574 61713 2065 4289 628
internal_value=-1.1978e-05 0.00140371 0.00112557 -0.000706999 -0.00109931 0.000863138 0.00896797
internal_weight=29651.5 9762.82 9418.67 19888.7 15914.4 3974.35 344.147
internal_count=118831 39137 37756 79694 63778 15916 1381
is_linear=0
shrinkage=0.0291483


Tree=51
num_leaves=8
num_cat=0
split_feature=6 8 5 5 8 9 9
split_gain=37.6985 14.8193 15.4927 14.8422 11.1513 9.16498 8.68263
threshold=1242.1676650956254 0.00035649610438755875 -0.030194826359085131 -0.043023283963918656 0.0016299532054707508 0.00017602934609259728 0.0021023501878887148
decision_type=2 2 2 2 2 2 2
left_child=4 3 -3 -2 5 -1 -6
right_child=1 2 -4 -5 6 -7 -8
leaf_value=0.010261596999216123 0.0026143905292395986 -0.002244732244311716 0.00061171395105329759 -0.0016370732338817219 -0.0062498099538146308 0.0020319462432031934 0.0036520408588921341
leaf_weight=113.5468875169754 747.92177285254002 1911.5122807919979 10232.636796832085 9751.3566749244928 238.87399123609066 6576.0321455597878 105.70525673031807
leaf_count=455 2997 7659 40998 39069 956 26383 423
internal_value=4.7417e-05 -0.000531573 0.000161652 -0.00133343 0.00191085 0.00217467 -0.00317677
internal_weight=29677.6 22643.4 12144.1 10499.3 7034.16 6689.58 344.579
internal_count=118940 90723 48657 42066 28217 26838 1379
is_linear=0
shrinkage=0.0291483


Tree=52
num_leaves=8
num_cat=0
split_feature=6 17 13 10 13 10 6
split_gain=35.5389 15.9827 9.97722 9.07885 8.65167 13.2562 11.5739
threshold=1242.1676650956254 0.25554172116702745 -0.39444383367652464 0.00067543024947825769 -0.16079491770229246 0.00035202162264652434 1205.933962577825
decision_type=2 2 2 2 2 2 2
left_child=4 3 -3 -2 6 -6 -1
right_child=1 2 -4 -5 5 -7 -8
leaf_value=0.0050336001234647931 -0.0034595510892403312 -0.0029093338113684217 -7.4523766386939348e-05 0.00085183333811499561 0.0056877533047644015 0.0005717642995848631 0.0010058988036711462
leaf_weight=1367.6695812046528 2159.2638590931892 1113.8069399893284 18859.664700970054 510.38711102306843 477.22761310636997 4103.1534735411406 1085.4121926873922
leaf_count=5500 8653 4460 75566 2044 1912 16451 4354
internal_value=4.60627e-05 -0.000516084 -0.000232937 -0.00263289 0.00185544 0.00110732 0.00325177
internal_weight=29676.6 22643.1 19973.5 2669.65 7033.46 4580.38 2453.08
internal_count=118940 90723 80026 10697 28217 18363 9854
is_linear=0
shrinkage=0.0291483


Tree=53
num_leaves=5
num_cat=0
split_feature=5 8 5 9
split_gain=30.2085 22.3362 20.7587 14.2886
threshold=-0.093144626947719564 0.00035649610438755875 -0.043023283963918656 0.00027683767416963781
decision_type=2 2 2 2
left_child=-1 2 -2 -3
right_child=1 3 -4 -5
leaf_value=-0.014462472728996116 0.0034874583211507988 0.0099605339034273023 -0.0011480999039210241 0.00071776441063039456
leaf_weight=117.90236684679985 878.91072657704353 139.77528876066208 11740.21892978251 16798.815862283111
leaf_count=473 3522 560 47044 67341
internal_value=4.47342e-05 0.000103726 -0.000824466 0.000795271
internal_weight=29675.6 29557.7 12619.1 16938.6
internal_count=118940 118467 50566 67901
is_linear=0
shrinkage=0.0291483


Tree=54
num_leaves=5
num_cat=0
split_feature=5 13 9 10
split_gain=25.9342 14.1801 16.5135 8.37907
threshold=-0.093144626947719564 0.29664816670981914 8.9134500255391315e-05 0.00025039228346126
decision_type=2 2 2 2
left_child=-1 2 -2 -3
right_child=1 3 -4 -5
leaf_value=-0.013375151602097922 -0.0082697000265591451 0.0019313194169364855 0.00033544578387437337 -0.0024187047326193921
leaf_weight=119.12062220275402 187.31786392629147 434.41035880148411 26210.951163873076 2670.9178696572781
leaf_count=478 753 1743 105047 10708
internal_value=-5.68275e-07 5.44503e-05 0.000273644 -0.0018076
internal_weight=29622.7 29503.6 26398.3 3105.33
internal_count=118729 118251 105800 12451
is_linear=0
shrinkage=0.0291483


Tree=55
num_leaves=8
num_cat=0
split_feature=12 9 14 7 12 15 14
split_gain=23.3369 26.1644 24.0064 13.147 15.4363 11.0503 4.79749
threshold=-0.00054330615553123678 0.00022929215037219039 0.27916798508762308 0.00011157989128765915 0.0030392062793967735 1.051414206757275e-07 -0.13068817925914314
decision_type=2 2 2 2 2 2 2
left_child=1 6 -3 5 -5 -2 -1
right_child=3 2 -4 4 -6 -7 -8
leaf_value=0.006402863401892939 -0.0091593362779106829 0.0010560576042109129 -0.013231472310853006 2.8612290333545664e-05 -0.0032114444756097273 -0.001840036392988314 0.014053163092193356
leaf_weight=153.41786505281925 182.18524581193924 9383.3708965480328 97.422446206212044 15177.768503919244 1357.7619990706444 3142.9490738064051 127.51196753978729
leaf_count=616 732 37622 390 60789 5466 12602 512
internal_value=-5.97672e-07 0.00116613 0.000905967 -0.000574143 -0.000237828 -0.00224564 0.00987786
internal_weight=29622.4 9761.72 9480.79 19860.7 16535.5 3325.13 280.93
internal_count=118729 39140 38012 79589 66255 13334 1128
is_linear=0
shrinkage=0.0291483


Tree=56
num_leaves=8
num_cat=0
split_feature=6 12 7 6 9 2 13
split_gain=28.2468 19.254 18.276 14.0905 12.8336 13.0859 11.4341
threshold=1284.8415529665201 0.00040039692422220654 0.00024521672971186047 1377.0844257030915 0.00048426493118736814 1.136463876154347e-07 -0.16079491770229246
decision_type=2 2 2 2 2 2 2
left_child=4 3 -3 -2 5 -1 -6
right_child=1 2 -4 -5 6 -7 -8
leaf_value=0.0011322562890201571 -0.0013911466074465052 -0.0038553596711092797 -0.00086746465282503565 0.00099918550347453169 0.0035099814212684291 -0.001985375096387511 0.0010560322916361132
leaf_weight=2840.0076311379671 3234.5297410935163 2516.4262745678425 5616.076726347208 5933.0007618963718 2327.4291714727879 1910.1599530875683 5243.5518135726452
leaf_count=11382 12948 10095 22528 23764 9346 7651 21015
internal_value=-6.14127e-07 -0.000760176 -0.00179242 0.000155499 0.0010658 -0.000121354 0.00181085
internal_weight=29621.2 17300 8132.5 9167.53 12321.1 4750.17 7570.98
internal_count=118729 69335 32623 36712 49394 19033 30361
is_linear=0
shrinkage=0.0291483


Tree=57
num_leaves=8
num_cat=0
split_feature=6 12 10 10 8 6 12
split_gain=27.4382 15.6898 16.1049 13.6582 8.55171 10.8643 4.7253
threshold=1254.8899193786058 0.00098044360887437313 0.00033281411310949379 0.00067543024947825769 0.0016299532054707508 1129.8260671492556 -0.0023144995875289853
decision_type=2 2 2 2 2 2 2
left_child=4 3 -3 -2 5 -1 -6
right_child=1 2 -4 -5 6 -7 -8
leaf_value=0.0046595219710971972 -0.00058658566589253917 -0.0084479825806197343 -0.0015012161070638904 0.0014722479630123614 -0.005798232123659602 0.0011878607481076026 0.00095298124458770696
leaf_weight=849.97146639227867 11183.872311457992 294.65576051175594 5803.8564887344837 3621.0645784437656 212.40233735740185 7481.3834952414036 145.65601800382137
leaf_count=3421 44803 1182 23288 14495 850 29999 583
internal_value=-2.31819e-05 -0.000595404 -0.00183929 -8.28926e-05 0.00135312 0.00154299 -0.00303603
internal_weight=29592.9 20903.4 6098.51 14804.9 8689.41 8331.35 358.058
internal_count=118621 83768 24470 59298 34853 33420 1433
is_linear=0
shrinkage=0.0291483


Tree=58
num_leaves=8
num_cat=0
split_feature=6 16 12 11 13 5 8
split_gain=25.8649 18.6505 14.5563 11.4255 8.11711 12.9864 8.80684
threshold=1254.8899193786058 2.7400510249142491 0.00096143229390455143 2.1592104187786615e-05 0.30156934247661876 -0.018593835302724723 0.0016299532054707508
decision_type=2 2 2 2 2 2 2
left_child=4 2 -2 -3 6 -6 -1
right_child=1 3 -4 -5 5 -7 -8
leaf_value=0.0017296431116717022 8.1142927202573092e-05 -0.00072968109536548616 -0.0016300508885294502 -0.0087185061539193712 0.0055643949217389103 -0.0053115737271349816 -0.0029400735554158956
leaf_weight=7864.98400144279 14281.929377615452 251.58465108275414 5992.8422798514366 376.37936122715473 123.92640833556652 344.5350090265274 355.30087906122208
leaf_count=31556 57202 1008 24046 1512 496 1379 1422
internal_value=-2.25165e-05 -0.000578092 -0.000424747 -0.00551147 0.00131381 -0.00240409 0.00152674
internal_weight=29591.5 20902.7 20274.8 627.964 8688.75 468.461 8220.28
internal_count=118621 83768 81248 2520 34853 1875 32978
is_linear=0
shrinkage=0.0291483


Tree=59
num_leaves=8
num_cat=0
split_feature=6 12 14 14 14 12 12
split_gain=24.381 13.9059 19.2955 10.9792 8.01477 10.8946 10.8629
threshold=1254.8899193786058 0.00098044360887437313 -0.058537910366976274 0.18250819703432627 -0.050048636628670706 0.00044087731267808471 -0.0048481782342214754
decision_type=2 2 2 2 2 2 2
left_child=4 3 -3 -2 5 -1 -6
right_child=1 2 -4 -5 6 -7 -8
leaf_value=0.0018024584122858891 -0.00030999150430376581 0.0016588885699755555 -0.0025240491810412206 0.0026427385819726944 -0.00642600860522615 0.0072607786112196008 0.00078090580175117373
leaf_weight=3333.4254415929317 13647.386667102575 1152.4271188080311 4944.8684833943844 1157.3549118936062 180.91979670524597 339.30493904650211 4834.4552844762802
leaf_count=13389 54660 4620 19850 4638 727 1358 19379
internal_value=-2.18718e-05 -0.000561277 -0.00173247 -7.8806e-05 0.00127561 0.00230984 0.000518132
internal_weight=29590.1 20902 6097.3 14804.7 8688.11 3672.73 5015.38
internal_count=118621 83768 24470 59298 34853 14747 20106
is_linear=0
shrinkage=0.0291483


Tree=60
num_leaves=6
num_cat=0
split_feature=17 10 10 7 10
split_gain=18.1769 12.7972 9.57937 7.73857 10.6906
threshold=0.21523744778517592 8.8466055533254959e-05 0.00020976915583576468 1.1750048672457482e-05 0.0002418724374227265
decision_type=2 2 2 2 2
left_child=3 -2 -3 -1 -5
right_child=1 2 -4 4 -6
leaf_value=-0.010103483145370264 -0.010090099892729413 0.002447347226508963 9.352524976369727e-05 0.0026477446789975557 -0.0029718334512780775
leaf_weight=104.81459367275238 99.008939266204834 1554.7624161690474 25635.425873115659 335.60908626019955 1893.5851040482521
leaf_count=422 398 6236 102769 1346 7586
internal_value=-2.11584e-05 0.000190016 0.000228311 -0.00248814 -0.00212281
internal_weight=29623.2 27289.2 27190.2 2334.01 2229.19
internal_count=118757 109403 109005 9354 8932
is_linear=0
shrinkage=0.0291483


Tree=61
num_leaves=8
num_cat=0
split_feature=6 16 11 12 10 12 15
split_gain=21.1434 15.2743 14.9493 13.0179 5.62746 6.73926 6.16125
threshold=1254.8899193786058 2.7400510249142491 1.3642090090064465e-05 -0.00020219688409930619 0.00020368088559663745 3.3718977585751226e-05 7.7507381978437923e-05
decision_type=2 2 2 2 2 2 2
left_child=4 3 -3 -2 5 -1 -6
right_child=1 2 -4 -5 6 -7 -8
leaf_value=0.0088757880088846282 0.00065788210089403015 0.00066438602138698278 -0.008527100511936319 -0.00090531254104052349 -0.0035138385502610095 -0.00060491358889875084 0.0011934205093661581
leaf_weight=167.36097386479378 6795.7896370589733 241.62279595434666 386.85426752269268 13535.332188308239 239.75234916806221 98.696017190814018 8157.6697278469801
leaf_count=671 27198 968 1555 54280 960 395 32730
internal_value=-2.05748e-05 -0.000521211 -0.0049841 -0.00038276 0.0011904 0.00533711 0.00105793
internal_weight=29623.1 20959.6 628.477 20331.1 8663.48 266.057 8397.42
internal_count=118757 84001 2523 81478 34756 1066 33690
is_linear=0
shrinkage=0.0291483


Tree=62
num_leaves=5
num_cat=0
split_feature=5 3 17 11
split_gain=24.1579 17.7609 15.0022 12.6004
threshold=-0.093144626947719564 -0.00022854013581614468 0.1992948830951625 0.00011022995073344898
decision_type=2 2 2 2
left_child=-1 3 -3 -2
right_child=1 2 -4 -5
leaf_value=-0.012906541627732748 0.00055011430322008878 -0.0035071516926869395 -0.00030567062774548674 0.0034232173601477091
leaf_weight=119.53742398321629 10249.029969319701 1341.9404541701078 16429.83670437336 1481.4015992879868
leaf_count=480 41097 5381 65864 5935
internal_value=-1.99838e-05 3.32116e-05 -0.000547768 0.000913376
internal_weight=29621.7 29502.2 17771.8 11730.4
internal_count=118757 118277 71245 47032
is_linear=0
shrinkage=0.0291483


Tree=63
num_leaves=8
num_cat=0
split_feature=3 14 14 17 2 17 14
split_gain=13.5563 13.8275 12.269 11.9468 19.3559 11.0136 10.9914
threshold=-0.00022854013581614468 0.12092532476307803 -0.027063915080214249 2.4710177738097352 -0.00041300704580080083 0.22059445960845978 0.30739764152200338
decision_type=2 2 2 2 2 2 2
left_child=1 2 -1 5 -5 -2 -3
right_child=3 6 -4 4 -6 -7 -8
leaf_value=0.0012524622769086071 -0.0025433222237567802 0.0039732174423378151 -0.00079872191110847833 0.0082602700608874029 -0.0045259557899920222 -3.7926043363438947e-05 -0.0046542402350628178
leaf_weight=5857.0974986851215 1651.3320072889328 1511.7208985835314 4288.4034734815359 107.59126874804497 1062.1940838694572 15031.121780768037 133.36178277432919
leaf_count=23494 6622 6057 17189 431 4267 60250 534
internal_value=2.05311e-05 0.000787433 0.000385433 -0.000485989 -0.00332921 -0.000286251 0.00326369
internal_weight=29642.8 11790.6 10145.5 17852.2 1169.79 16682.5 1645.08
internal_count=118844 47274 40683 71570 4698 66872 6591
is_linear=0
shrinkage=0.0291483


Tree=64
num_leaves=7
num_cat=0
split_feature=12 13 9 12 13 2
split_gain=19.1324 24.3776 18.5634 14.5887 8.16888 6.48061
threshold=0.0030392062793967735 -0.096916254226111803 0.00051333462577468375 0.00045432247920799512 -0.48311976553957231 0.0008004238925956186
decision_type=2 2 2 2 2 2
left_child=2 -2 3 -1 -4 -3
right_child=1 5 4 -5 -6 -7
leaf_value=3.7180893692292133e-05 0.0084597005136600283 -0.0021116439748457535 0.0062744233773644239 -0.0020238537206656269 0.00083874306537076737 -0.0063589939817170933
leaf_weight=10000.225763291121 131.40086868405342 524.6016598790884 235.43608817458153 4115.9485467672348 13907.455808281898 727.0586603730917
leaf_count=40073 527 2112 945 16506 55747 2934
internal_value=1.99336e-05 -0.00332307 0.000183814 -0.000563857 0.000930097 -0.00458022
internal_weight=29642.1 1383.06 28259.1 14116.2 14142.9 1251.66
internal_count=118844 5573 113271 56579 56692 5046
is_linear=0
shrinkage=0.0291483


Tree=65
num_leaves=5
num_cat=0
split_feature=5 12 10 13
split_gain=24.3952 18.1238 23.8269 23.6842
threshold=-0.093144626947719564 0.0030392062793967735 0.00067543024947825769 -0.096916254226111803
decision_type=2 2 2 2
left_child=-1 2 -2 -3
right_child=1 3 -4 -5
leaf_value=-0.013068266199479475 -0.00035875885258211822 0.0085030308979203231 0.0014492222486923397 -0.0044402719781466635
leaf_weight=116.96802374720573 18962.69100600481 129.45773501694202 9192.1723388135433 1239.8348499536514
leaf_count=470 76007 519 36848 5000
internal_value=1.93777e-05 7.22442e-05 0.000231562 -0.0031982
internal_weight=29641.1 29524.2 28154.9 1369.29
internal_count=118844 118374 112855 5519
is_linear=0
shrinkage=0.0291483


Tree=66
num_leaves=8
num_cat=0
split_feature=6 17 8 16 14 6 14
split_gain=19.334 14.7742 8.65302 8.43672 8.03028 6.29153 2.28057
threshold=1226.6497143881554 0.26508337507929164 0.0016299532054707508 2.7400510249142491 -0.050048636628670706 1687.8468704584541 -0.08731459126104156
decision_type=2 2 2 2 2 2 2
left_child=2 5 4 -3 -1 -2 -4
right_child=1 3 6 -5 -6 -7 -8
leaf_value=0.0032212261496624988 -0.001650912608259265 4.1397843603617331e-05 -0.0065302175871951003 -0.0031784643678953979 0.00086041042826241439 -0.0052470494130242807 -0.001338401915489617
leaf_weight=2195.5819068551064 2623.6018619388342 20533.869465619326 101.95824103057384 711.92902262508869 2762.0419526398182 487.66446164250374 225.85366266965866
leaf_count=8833 10514 82292 408 2859 11086 1957 904
internal_value=5.19557e-06 -0.000341562 0.0016027 -6.68231e-05 0.00190644 -0.00221643 -0.00295918
internal_weight=29642.5 24357.1 5285.44 21245.8 4957.62 3111.27 327.812
internal_count=118853 97622 21231 85151 19919 12471 1312
is_linear=0
shrinkage=0.0291483


Tree=67
num_leaves=5
num_cat=0
split_feature=5 6 10 13
split_gain=23.1717 18.9734 13.2065 11.0941
threshold=-0.093144626947719564 1226.6497143881554 0.00067543024947825769 -0.15790039682465812
decision_type=2 2 2 2
left_child=-1 3 -3 -2
right_child=1 2 -4 -5
leaf_value=-0.012687542924895169 0.0033944930822504059 -0.0007483420601088808 0.00071518473541211738 0.00062082325487958256
leaf_weight=118.1573084294796 1938.3997590243816 16619.93140502274 7645.3714723438025 3319.6857623308897
leaf_count=475 7802 66602 30652 13322
internal_value=5.02109e-06 5.68048e-05 -0.000287153 0.00164364
internal_weight=29641.5 29523.4 24265.3 5258.09
internal_count=118853 118378 97254 21124
is_linear=0
shrinkage=0.0291483


Tree=68
num_leaves=5
num_cat=0
split_feature=5 12 9 7
split_gain=21.8792 18.336 21.7725 13.3152
threshold=-0.093144626947719564 -0.00054330615553123678 0.00024134475579415079 4.7913491118400918e-05
decision_type=2 2 2 2
left_child=-1 2 -2 -3
right_child=1 3 -4 -5
leaf_value=-0.012332508837911593 0.0083014752509373117 -0.0035291646349484554 0.00082924279602798029 -0.00026799477751985684
leaf_weight=118.08312693238258 339.9394723623991 1124.434602662921 9372.718331694603 18685.567420423031
leaf_count=475 1366 4519 37598 74895
internal_value=4.85218e-06 5.51569e-05 0.0010924 -0.000453439
internal_weight=29640.7 29522.7 9712.66 19810
internal_count=118853 118378 38964 79414
is_linear=0
shrinkage=0.0291483


Tree=69
num_leaves=8
num_cat=0
split_feature=12 10 17 14 14 10 10
split_gain=19.9816 19.0193 13.939 13.0442 12.9811 10.316 8.63666
threshold=0.00046821072561969984 0.00031353359021584723 0.21523744778517592 -0.058537910366976274 0.081541792091824009 8.8466055533254959e-05 0.00022125596101211974
decision_type=2 2 2 2 2 2 2
left_child=2 4 6 -3 -2 -4 -1
right_child=1 3 5 -5 -6 -7 -8
leaf_value=0.0023026504791879374 -0.0020589288480593903 0.0014763404266089014 -0.0081782980564437981 -0.001159115920776647 -0.0089578000429874384 0.00088279903853149383 -0.0030311382882924464
leaf_weight=317.36713251471519 556.12545669078827 2018.1302741616964 103.87708362936974 7568.0499764382839 393.61095328629017 17362.032724246383 1313.147759899497
leaf_count=1275 2232 8088 418 30367 1580 69603 5260
internal_value=2.49014e-05 -0.000993934 0.000587085 -0.000604006 -0.0049212 0.000827758 -0.00198745
internal_weight=29632.3 10535.9 19096.4 9586.18 949.736 17465.9 1630.51
internal_count=118823 42267 76556 38455 3812 70021 6535
is_linear=0
shrinkage=0.0291483


Tree=70
num_leaves=5
num_cat=0
split_feature=5 12 10 5
split_gain=20.8847 18.8818 18.0924 13.9782
threshold=-0.093144626947719564 0.00046821072561969984 0.00031353359021584723 -0.044850891633972663
decision_type=2 2 2 2
left_child=-1 3 -3 -2
right_child=1 2 -4 -5
leaf_value=-0.012121991276021852 0.0035657117324853576 -0.0047537408127078309 -0.00053816619497936552 0.00040859810619152289
leaf_weight=116.24801115691662 1273.7647089213133 947.74210806190968 9541.4004362970591 17752.240401744843
leaf_count=468 5107 3805 38275 71168
internal_value=2.41488e-05 7.29304e-05 -0.000919808 0.000620302
internal_weight=29631.4 29515.1 10489.1 19026
internal_count=118823 118355 42080 76275
is_linear=0
shrinkage=0.0291483


Tree=71
num_leaves=8
num_cat=0
split_feature=12 8 12 12 18 8 6
split_gain=17.7491 20.4328 13.7703 13.7108 12.8727 10.1166 10.0785
threshold=0.00046821072561969984 0.00026040120662000073 0.0019607202899724206 0.0029199380487162142 0.69842284631325791 0.0020813378551078217 1762.6490323891378
decision_type=2 2 2 2 2 2 2
left_child=4 2 -2 -3 6 -6 -1
right_child=1 3 -4 -5 5 -7 -8
leaf_value=-0.00025847896144076958 -0.0041155672098214394 0.00026482926115065721 0.0044876469410101687 -0.0028351128839457515 0.0011828685965517166 -0.0059510967623523032 -0.0056863062383989858
leaf_weight=6054.0846331268549 2015.1592715680599 6883.9403941184282 168.10024513304234 1467.5954721719027 12572.339340046048 167.63668774068356 301.76942516863346
leaf_count=24258 8088 27588 675 5916 50416 671 1211
internal_value=2.34145e-05 -0.000936885 -0.00344556 -0.000280558 0.000553259 0.00108776 -0.000517862
internal_weight=29630.6 10534.8 2183.26 8351.54 19095.8 12740 6355.85
internal_count=118823 42267 8763 33504 76556 51087 25469
is_linear=0
shrinkage=0.0291483


Tree=72
num_leaves=5
num_cat=0
split_feature=5 6 8 13
split_gain=21.228 17.5398 13.2042 6.42734
threshold=-0.093144626947719564 1237.4855952971814 0.00046308334242243539 0.36424426725914777
decision_type=2 2 2 2
left_child=-1 3 -3 -2
right_child=1 2 -4 -5
leaf_value=-0.012249305438679449 0.0015277970371772459 -0.00089147201853012137 0.00054043273767979039 -0.0046809365401186964
leaf_weight=116.39399179816246 6254.1898573487997 14116.43182221055 8929.5578222572803 141.40805368125439
leaf_count=469 25124 56578 35799 566
internal_value=-1.11528e-05 3.81609e-05 -0.000336605 0.0013883
internal_weight=29558 29441.6 23046 6395.6
internal_count=118536 118067 92377 25690
is_linear=0
shrinkage=0.0291483


Tree=73
num_leaves=5
num_cat=0
split_feature=5 6 9 5
split_gain=20.0488 16.5981 10.3184 7.68459
threshold=-0.093144626947719564 1226.6497143881554 8.9134500255391315e-05 -0.062226831044138745
decision_type=2 2 2 2
left_child=-1 3 -3 -2
right_child=1 2 -4 -5
leaf_value=-0.011909264471343651 0.0090805577208979572 -0.0063505039975785202 -0.00022529805255841858 0.0013620574609582107
leaf_weight=116.295255869627 108.48628847301006 232.46395818889141 23976.675577357411 5123.2231623679399
leaf_count=469 436 936 96105 20590
internal_value=-1.08664e-05 3.70389e-05 -0.000284682 0.00152532
internal_weight=29557.1 29440.8 24209.1 5231.71
internal_count=118536 118067 97041 21026
is_linear=0
shrinkage=0.0291483


Tree=74
num_leaves=5
num_cat=0
split_feature=5 10 10 10
split_gain=18.936 16.1772 23.3822 21.7107
threshold=-0.093144626947719564 0.00066173691722420578 0.00062970131077037263 0.00082058748453708006
decision_type=2 2 2 2
left_child=-1 2 -2 -3
right_child=1 3 -4 -5
leaf_value=-0.01157921738201825 -0.00023350630540274305 0.0025460407964203271 -0.0047161168790441329 -0.00012183682967051288
leaf_weight=116.19109822809696 17554.257620036602 4277.1922421604395 1044.1463851034641 6564.5590748786926
leaf_count=469 70381 17154 4187 26345
internal_value=-1.05713e-05 3.59657e-05 -0.000485661 0.000930741
internal_weight=29556.3 29440.2 18598.4 10841.8
internal_count=118536 118067 74568 43499
is_linear=0
shrinkage=0.0291483


Tree=75
num_leaves=5
num_cat=0
split_feature=5 6 8 8
split_gain=17.1096 15.336 10.2672 9.85125
threshold=-0.093144626947719564 1254.8899193786058 4.8463529017188298e-05 0.0015616615987155082
decision_type=2 2 2 2
left_child=-1 3 -3 -2
right_child=1 2 -4 -5
leaf_value=-0.010963099103505991 0.0012649899776261046 -0.0048721937205730695 -0.00031980416090357717 -0.0033992639446628636
leaf_weight=117.60301105678082 8224.8227684497833 426.25812335312366 20481.418850436807 400.07946421205997
leaf_count=475 33019 1719 82098 1602
internal_value=-3.08756e-05 1.34861e-05 -0.000413097 0.00104745
internal_weight=29650.2 29532.6 20907.7 8624.9
internal_count=118913 118438 83817 34621
is_linear=0
shrinkage=0.0291483


Tree=76
num_leaves=8
num_cat=0
split_feature=6 8 0 9 15 9 9
split_gain=14.4261 10.393 10.0747 15.0206 11.1355 7.11146 6.70744
threshold=1254.8899193786058 0.0015616615987155082 0.6943999512371809 8.9134500255391315e-05 0.00021095928616467603 0.00092402614317520823 0.0018423703456399937
decision_type=2 2 2 2 2 2 2
left_child=1 5 3 -2 -4 -1 -3
right_child=2 6 4 -5 -6 -7 -8
leaf_value=0.0008138719174821164 -0.0082769387595683936 -0.0067611517031750069 0.001319320398166452 -0.00017138431480152974 -0.0040085161403785761 0.0031136255257640947 0.00074931094516518374
leaf_weight=6885.7119913697243 192.74160462617874 233.94146552681923 450.91611547768116 19097.337652370334 1249.158123627305 1366.5685330480337 172.83092860877514
leaf_count=27638 777 937 1810 76555 5011 5493 692
internal_value=-3.00203e-05 0.000970801 -0.000442966 -0.000253342 -0.0025918 0.00119528 -0.00355772
internal_weight=29649.2 8659.05 20990.2 19290.1 1700.07 8252.28 406.772
internal_count=118913 34760 84153 77332 6821 33131 1629
is_linear=0
shrinkage=0.0291483


Tree=77
num_leaves=8
num_cat=0
split_feature=14 9 9 8 18 8 8
split_gain=14.5139 18.9263 16.2106 14.6455 10.6155 10.7448 10.7237
threshold=-0.061325974259782069 0.00083714672613541112 0.00026366111079037134 0.00067709180808055386 0.20087360993134926 0.00078353307618666743 0.000196526541429748
decision_type=2 2 2 2 2 2 2
left_child=1 2 -1 -3 6 -6 -2
right_child=4 3 -4 -5 5 -7 -8
leaf_value=0.0028975932197885315 -0.0011912017252406354 0.0074469166238454237 -0.00034908656677097951 0.001811598034984965 -7.1966599266315697e-05 -0.0018487647152862045 -0.011242955232290755
leaf_weight=1611.6699883937836 212.07342484593391 560.68174730241299 6834.9522568285465 1283.8087477087975 15438.074526593089 3554.5985293239355 152.40021853148937
leaf_count=6464 852 2250 27404 5154 61904 14274 611
internal_value=-2.91627e-05 0.000855163 0.000271023 0.00352757 -0.000499373 -0.000404683 -0.00540317
internal_weight=29648.3 10291.1 8446.62 1844.49 19357.1 18992.7 364.474
internal_count=118913 41272 33868 7404 77641 76178 1463
is_linear=0
shrinkage=0.0291483


Tree=78
num_leaves=8
num_cat=0
split_feature=17 6 16 7 16 7 18
split_gain=14.3783 12.0275 11.5925 8.25071 7.80358 8.36532 4.14468
threshold=0.21523744778517592 1269.7430709691337 2.7400510249142491 0.001099618628410766 0.131389276513912 0.00062061106084379937 0.42867235988700009
decision_type=2 2 2 2 2 2 2
left_child=4 3 -3 -2 6 -6 -1
right_child=1 2 -4 -5 5 -7 -8
leaf_value=-0.00081889149476991512 0.0013352145194497486 -6.5470638909554638e-05 -0.004221258240939837 -0.0016602076669706399 -0.00233753032569725 -0.0098513971033731863 0.0055512123041406517
leaf_weight=201.69266940653324 8886.4978881627321 16958.159931600094 586.59903614223003 853.06911315023899 1841.0478599071503 131.74939543008804 146.96412393450737
leaf_count=809 35665 67986 2358 3425 7384 528 589
internal_value=6.36052e-05 0.000251006 -0.000204916 0.00107225 -0.00213686 -0.00284799 0.00186265
internal_weight=29605.8 27284.3 17544.8 9739.57 2321.45 1972.8 348.657
internal_count=118744 109434 70344 39090 9310 7912 1398
is_linear=0
shrinkage=0.0291483


Tree=79
num_leaves=6
num_cat=0
split_feature=15 7 10 9 15
split_gain=11.1505 9.6974 8.75169 16.2691 14.9508
threshold=1.051414206757275e-07 5.7433514574289155e-05 0.00020976915583576468 0.00013187230135048577 1.5008610548510119e-07
decision_type=2 2 2 2 2
left_child=1 -1 3 -2 -4
right_child=2 -3 4 -5 -6
leaf_value=-0.011410711026032607 -0.0018390514083721729 0.00041230501206763299 -0.0056846122832106575 0.0040362096809097529 6.4805427982843054e-05
leaf_weight=131.72126534581184 596.8305479735136 101.69077207148075 386.29663960635662 1199.7237163633108 27188.78203164041
leaf_count=531 2399 408 1550 4813 109043
internal_value=6.17243e-05 -0.00623756 0.000112265 0.00208151 -1.61754e-05
internal_weight=29605 233.412 29371.6 1796.55 27575.1
internal_count=118744 939 117805 7212 110593
is_linear=0
shrinkage=0.0291483


Tree=80
num_leaves=8
num_cat=0
split_feature=12 8 12 10 10 9 10
split_gain=13.684 18.2375 16.0697 12.2006 15.0831 11.3509 10.9051
threshold=0.0030392062793967735 0.00035649610438755875 0.00045432247920799512 0.0013042949144825638 0.0011568560915976975 0.00027683767416963781 0.0014838911279486569
decision_type=2 2 2 2 2 2 2
left_child=1 2 -1 4 -2 -3 -5
right_child=3 5 -4 6 -6 -7 -8
leaf_value=4.4674824175952515e-05 -0.0030629270970226087 0.0091834295516664607 -0.0022428321516367198 0.0087129866193279854 -0.013170253784003884 0.00078698226685107431 -0.0015327002383707853
leaf_weight=8829.2409197688103 788.83980594575405 134.46466000378132 3699.5594465881586 117.21317657828331 145.83482521772385 15565.210694655776 324.51316690444946
leaf_count=35391 3183 539 14846 473 588 62415 1309
internal_value=5.99024e-05 0.000198326 -0.000630901 -0.00277438 -0.00465955 0.000860116 0.00120127
internal_weight=29604.9 28228.5 12528.8 1376.4 934.675 15699.7 441.726
internal_count=118744 113191 50237 5553 3771 62954 1782
is_linear=0
shrinkage=0.0291483


end of trees

feature_importances:
vwap_dev_30m=87
fracdiff_close=73
vol_5m=57
vol_60m=41
vol_30m=37
vol_1m=33
trade_flow_imb_5m=30
trade_flow_imb_30m=30
hurst=27
vol_ratio_30m=22
momentum_5m=15
momentum_10m=13
trades_intensity=12
hl_range=11
vol_ratio_5m=9
vwap_dev_5m=8
momentum_2m=7
obi=3
momentum_1m=3

parameters:
[boosting: gbdt]
[objective: binary]
[metric: binary_logloss]
[tree_learner: serial]
[device_type: cpu]
[data_sample_strategy: bagging]
[data: ]
[valid: ]
[num_iterations: 81]
[learning_rate: 0.0291483]
[num_leaves: 8]
[num_threads: -1]
[seed: 43]
[deterministic: 0]
[force_col_wise: 0]
[force_row_wise: 0]
[histogram_pool_size: -1]
[max_depth: 3]
[min_data_in_leaf: 387]
[min_sum_hessian_in_leaf: 0.001]
[bagging_fraction: 0.923145]
[pos_bagging_fraction: 1]
[neg_bagging_fraction: 1]
[bagging_freq: 3]
[bagging_seed: 11149]
[bagging_by_query: 0]
[feature_fraction: 0.504656]
[feature_fraction_bynode: 1]
[feature_fraction_seed: 21351]
[extra_trees: 0]
[extra_seed: 16806]
[early_stopping_round: 0]
[early_stopping_min_delta: 0]
[first_metric_only: 0]
[max_delta_step: 0]
[lambda_l1: 0.0109118]
[lambda_l2: 1.00115]
[linear_lambda: 0]
[min_gain_to_split: 0.49587]
[drop_rate: 0.1]
[max_drop: 50]
[skip_drop: 0.5]
[xgboost_dart_mode: 0]
[uniform_drop: 0]
[drop_seed: 2965]
[top_rate: 0.2]
[other_rate: 0.1]
[min_data_per_group: 100]
[max_cat_threshold: 32]
[cat_l2: 10]
[cat_smooth: 10]
[max_cat_to_onehot: 4]
[top_k: 20]
[monotone_constraints: ]
[monotone_constraints_method: basic]
[monotone_penalty: 0]
[feature_contri: ]
[forcedsplits_filename: ]
[refit_decay_rate: 0.9]
[cegb_tradeoff: 1]
[cegb_penalty_split: 0]
[cegb_penalty_feature_lazy: ]
[cegb_penalty_feature_coupled: ]
[path_smooth: 5.09023]
[interaction_constraints: ]
[verbosity: -1]
[saved_feature_importance_type: 0]
[use_quantized_grad: 0]
[num_grad_quant_bins: 4]
[quant_train_renew_leaf: 0]
[stochastic_rounding: 1]
[linear_tree: 0]
[max_bin: 255]
[max_bin_by_feature: ]
[min_data_in_bin: 3]
[bin_construct_sample_cnt: 200000]
[data_random_seed: 179]
[is_enable_sparse: 1]
[enable_bundle: 1]
[use_missing: 1]
[zero_as_missing: 0]
[feature_pre_filter: 1]
[pre_partition: 0]
[two_round: 0]
[header: 0]
[label_column: ]
[weight_column: ]
[group_column: ]
[ignore_column: ]
[categorical_feature: ]
[forcedbins_filename: ]
[precise_float_parser: 0]
[parser_config_file: ]
[objective_seed: 26397]
[num_class: 1]
[is_unbalance: 0]
[scale_pos_weight: 1]
[sigmoid: 1]
[boost_from_average: 1]
[reg_sqrt: 0]
[alpha: 0.9]
[fair_c: 1]
[poisson_max_delta_step: 0.7]
[tweedie_variance_power: 1.5]
[lambdarank_truncation_level: 30]
[lambdarank_norm: 1]
[label_gain: ]
[lambdarank_position_bias_regularization: 0]
[eval_at: ]
[multi_error_top_k: 1]
[auc_mu_weights: ]
[num_machines: 1]
[local_listen_port: 12400]
[time_out: 120]
[machine_list_filename: ]
[machines: ]
[gpu_platform_id: -1]
[gpu_device_id: -1]
[gpu_use_dp: 0]
[num_gpu: 1]

end of parameters

pandas_categorical:null
