tree
version=v4
num_class=1
num_tree_per_iteration=1
label_index=0
max_feature_idx=18
objective=binary sigmoid:1
feature_names=obi momentum_1m momentum_2m momentum_5m momentum_10m hurst fracdiff_close vol_1m vol_5m vol_30m vol_60m vwap_dev_5m vwap_dev_30m trade_flow_imb_5m trade_flow_imb_30m hl_range vol_ratio_5m vol_ratio_30m trades_intensity
feature_infos=[-0.99627687620687788:0.99735611352640374] [-0.020838332896016949:0.022992565407785347] [-0.022341724074048948:0.029409372993990181] [-0.026503791499679796:0.037808065313792626] [-0.033700021085143403:0.038701722697615973] [-0.17904516669206805:0.10861636932350138] [-560.64200722651003:3155.5006078766746] [0:0.017965740441835652] [0:0.014150329657706368] [1.9312455667397878e-05:0.0061307597359011763] [2.9871110080766814e-05:0.004463508706593484] [-0.012725903816371842:0.016844110174328925] [-0.023331687134809678:0.035835008543941643] [-0.96163572996641977:0.90426948751940261] [-0.66028039286935858:0.63773000764737697] [1.030395640474488e-07:0.024861787963623656] [0.010883227187554707:4.9344330827627427] [0.016081658774413254:26.170827852696362] [0.03252385082393755:19.057358659886329]
tree_sizes=1028 1044 1042 1030 1038 1034 1051 1038 934 1049 1034 1047 1056 1039 1045 1053 1049 1045 1047 1051 1037 1039 1055 1045 1043 1037 1053 933 1040 1038 1050 1030 937 1040 1034 1045 1038 930 933 1036 1039 1041 1041 1048 1039 1053 713 1051 1045 1039 1047 713 1052 712 1043 1049 1052 707 1052 718 712 716 715 1047 1054 1056 1054 1050 1043 1050 1053 932 711 1059 720 712 1056 717 933 1038 1050

Tree=0
num_leaves=8
num_cat=0
split_feature=12 6 6 12 7 14 3
split_gain=256.255 102.925 49.2728 36.9951 20.6652 17.9263 16.3951
threshold=-0.00020219688409930619 1259.2978379228227 1238.4740242245773 0.0036303459699517393 0.0018516298924061904 0.27916798508762308 -0.00049504004649773164
decision_type=2 2 2 2 2 2 2
left_child=2 6 4 -3 -1 -4 -2
right_child=1 3 5 -5 -6 -7 -8
leaf_value=-0.0068451312713276678 -0.0065639597965845417 -0.015733846551148314 -0.010779998497287136 -0.021959716000084589 -0.017630362908442047 -0.022308017433204586 -0.01148755586958794
leaf_weight=4596.0650784522295 740.72019730508327 12829.7337988168 7866.6834859251976 862.46529892086983 152.74385438859463 112.74546371400356 2522.6485018581152
leaf_count=18385 2963 51321 31468 3450 611 451 10091
internal_value=-0.0126721 -0.0150183 -0.00954674 -0.0161271 -0.00719642 -0.0109457 -0.0103691
internal_weight=29683.8 16955.6 12728.2 13692.2 4748.81 7979.43 3263.37
internal_count=118740 67825 50915 54771 18996 31919 13054
is_linear=0
shrinkage=1


Tree=1
num_leaves=8
num_cat=0
split_feature=6 4 8 4 2 9 9
split_gain=226.783 73.0256 28.3093 32.9723 25.6106 16.569 5.56962
threshold=1254.8899193786058 -0.00024022734881482815 0.0016299532054707508 -0.00064377347813049054 -0.00012465611151988071 0.00024134475579415079 0.0021023501878887148
decision_type=2 2 2 2 2 2 2
left_child=2 5 3 -1 -3 -2 -4
right_child=1 4 6 -5 -6 -7 -8
leaf_value=0.0060997685156109985 0.0049524028142713759 -0.00065978063875848068 -0.0064670251180747327 0.0024282009817873699 -0.0035761297850855005 0.00029399716786048338 0.0013500175769916021
leaf_weight=4285.1848289966583 717.7218940705061 3385.306654676795 246.99021255970001 4034.15219861269 10456.103965610266 6449.2478869408369 108.99523530900478
leaf_count=17141 2871 13542 988 16137 41827 25798 436
internal_value=1.09094e-05 -0.0016262 0.00397479 0.00431985 -0.00286273 0.000761413 -0.00403633
internal_weight=29683.7 21008.4 8675.32 8319.34 13841.4 7166.97 355.985
internal_count=118740 84038 34702 33278 55369 28669 1424
is_linear=0
shrinkage=0.0291483


Tree=2
num_leaves=8
num_cat=0
split_feature=6 3 14 3 7 6 5
split_gain=213.755 50.4144 24.528 23.6424 20.9973 14.4628 13.5929
threshold=1254.8899193786058 -0.00022854013581614468 -0.077838492120891889 -0.00022854013581614468 0.0020285903108735251 1740.8164760781949 -0.014451823005993507
decision_type=2 2 2 2 2 2 2
left_child=3 5 -3 4 -1 -2 -5
right_child=1 2 -4 6 -6 -7 -8
leaf_value=0.0053596817740590684 0.00087478111129158569 -0.00055005366190123976 -0.0032637526410712564 0.0044708132926923605 -0.0069792005087585948 -0.0050899860191971555 0.0006141603078809629
leaf_weight=5153.2249867022038 6185.4681103229523 3858.2327509075403 10602.134788200259 1192.2335686683655 116.4875171482563 362.23226115107536 2213.4658261537552
leaf_count=20613 24743 15434 42412 4769 466 1449 8854
internal_value=1.06058e-05 -0.00157881 -0.00253961 0.00385892 0.00508243 0.000542576 0.00196641
internal_weight=29683.5 21008.1 14460.4 8675.41 5269.71 6547.7 3405.7
internal_count=118740 84038 57846 34702 21079 26192 13623
is_linear=0
shrinkage=0.0291483


Tree=3
num_leaves=8
num_cat=0
split_feature=12 6 6 12 7 6 18
split_gain=238.147 71.927 47.5372 41.8416 19.5507 14.623 12.5633
threshold=-0.00022761852511369283 1260.2350273759823 1238.4740242245773 0.0036303459699517393 0.0020285903108735251 1383.1005202817016 0.27014586302124399
decision_type=2 2 2 2 2 2 2
left_child=2 6 4 -3 -1 -4 -2
right_child=1 3 5 -5 -6 -7 -8
leaf_value=0.0056400576251321548 -0.00682491633731876 -0.0027705553017954377 0.00053110391159957393 -0.0093931590385406463 -0.006260051153609298 0.0030834713573969896 0.0019131736066691925
leaf_weight=4607.2293219566345 142.497269526124 12968.166985347867 4416.1189637035131 861.33447156846523 116.97802998125553 3352.8827884793282 3265.6951163262129
leaf_count=18429 570 51878 17665 3446 468 13412 13063
internal_value=-2.86948e-05 -0.00224939 0.00303517 -0.00318415 0.00534037 0.00163322 0.00154142
internal_weight=29730.9 17237.7 12493.2 13829.5 4724.21 7769 3408.19
internal_count=118931 68957 49974 55324 18897 31077 13633
is_linear=0
shrinkage=0.0291483


Tree=4
num_leaves=8
num_cat=0
split_feature=12 6 6 12 9 13 6
split_gain=224.473 67.7953 44.8057 39.4555 15.9294 15.4968 13.7831
threshold=-0.00022761852511369283 1260.2350273759823 1238.4740242245773 0.0036303459699517393 0.00024856280327540574 -0.16375680276402182 1383.1005202817016
decision_type=2 2 2 2 2 2 2
left_child=2 4 5 -3 -2 -1 -4
right_child=1 3 6 -5 -6 -7 -8
leaf_value=0.0071570440579242119 -0.0038994149466339677 -0.0026898835904679346 0.00051561703753737968 -0.0091213523161636119 0.0022302204551375975 0.0037703973964687801 0.0029935906851053032
leaf_weight=1971.6951553374529 405.74175843596458 12967.781445994973 4416.1300069093704 861.20358549058437 3002.4606035500765 2752.4312597811222 3352.9331563562155
leaf_count=7887 1623 51878 17665 3446 12010 11010 13412
internal_value=-2.7904e-05 -0.00218395 0.00294668 -0.00309149 0.00149635 0.0051847 0.00158562
internal_weight=29730.4 17237.2 12493.2 13829 3408.2 4724.13 7769.06
internal_count=118931 68957 49974 55324 13633 18897 31077
is_linear=0
shrinkage=0.0291483


Tree=5
num_leaves=8
num_cat=0
split_feature=12 6 6 12 8 8 6
split_gain=211.589 63.9032 42.236 37.2081 31.443 17.544 12.9915
threshold=-0.00022761852511369283 1260.2350273759823 1238.4740242245773 0.0036303459699517393 0.0016299532054707508 0.00014646141459620973 1383.1005202817016
decision_type=2 2 2 2 2 2 2
left_child=2 5 4 -3 -1 -2 -4
right_child=1 3 6 -5 -6 -7 -8
leaf_value=0.005611164980136904 -0.0042556951580532956 -0.0026115701688529092 0.00050058082238153942 -0.0088577511127916498 -0.0047082660710010575 0.0022165598161488173 0.0029063446088130104
leaf_weight=4461.5254942625761 399.98867559432983 12967.359663426876 4416.1401492506266 861.04019309580326 262.47482553124428 3008.216027200222 3352.9669054150581
leaf_count=17847 1600 51878 17665 3446 1050 12033 13412
internal_value=-2.71024e-05 -0.00212041 0.00286085 -0.00300155 0.00503379 0.00145267 0.0015394
internal_weight=29729.7 17236.6 12493.1 13828.4 4724 3408.2 7769.11
internal_count=118931 68957 49974 55324 18897 13633 31077
is_linear=0
shrinkage=0.0291483


Tree=6
num_leaves=8
num_cat=0
split_feature=11 8 17 8 17 8 10
split_gain=66.1376 33.8342 26.8327 20.3962 17.8528 18.7432 10.4826
threshold=-6.8672769608045704e-05 0.00046308334242243539 2.1965701331491072 4.8463529017188298e-05 0.43585315271241726 0.0016299532054707508 0.00027105168936989094
decision_type=2 2 2 2 2 2 2
left_child=4 3 -3 -2 6 -6 -1
right_child=1 2 -4 -5 5 -7 -8
leaf_value=0.0045463796666401811 -0.0083514361406506806 0.0010290547191493134 -0.005130574108439063 -0.0019629355736472611 0.0025010507606294079 -0.0042590612587675315 -0.00081024388418742498
leaf_weight=343.22180457413197 440.42686158418655 6069.8974417001009 663.29385571181774 9807.0821829140186 9056.011382624507 358.9386505484581 2954.7621006518602
leaf_count=1373 1762 24284 2654 39234 36227 1436 11820
internal_value=5.78372e-06 -0.00118437 0.000420305 -0.00223892 0.00159543 0.00224193 -0.000249122
internal_weight=29693.6 16980.7 6733.19 10247.5 12712.9 9414.95 3297.98
internal_count=118790 67934 26938 40996 50856 37663 13193
is_linear=0
shrinkage=0.0291483


Tree=7
num_leaves=8
num_cat=0
split_feature=6 14 2 8 6 9 9
split_gain=156.589 27.9989 26.4349 22.8806 26.0587 16.786 5.86112
threshold=1254.8899193786058 -0.061325974259782069 -0.00023790854506186655 0.0016299532054707508 1212.807682700068 0.00066595256749454781 0.0018423703456399937
decision_type=2 2 2 2 2 2 2
left_child=3 5 -3 4 -1 -2 -5
right_child=1 2 -4 6 -6 -7 -8
leaf_value=0.0053806890476828266 -0.00068145363746949694 7.7270588459277451e-05 -0.0028350098254554972 -0.0072059460266434708 0.0021095394795174658 0.0026029877519112288 0.00021590543548768014
leaf_weight=3810.133252337575 5153.4344801753759 3533.8685059994459 10535.89902664721 198.97455914318562 4526.3171467930079 1774.261937841773 160.48128746449947
leaf_count=15242 20616 14137 42153 796 18106 7098 642
internal_value=5.58593e-06 -0.00135651 -0.00210336 0.00329409 0.0036051 0.000159954 -0.00387208
internal_weight=29693.4 20997.5 14069.8 8695.91 8336.45 6927.7 359.456
internal_count=118790 84004 56290 34786 33348 27714 1438
is_linear=0
shrinkage=0.0291483


Tree=8
num_leaves=7
num_cat=0
split_feature=12 12 7 10 14 14
split_gain=180.949 40.9467 36.5915 30.8331 35.5122 14.8853
threshold=-0.00054330615553123678 0.0030392062793967735 4.7913491118400918e-05 0.00021490722678102294 0.27916798508762308 -0.071772549985347919
decision_type=2 2 2 2 2 2
left_child=3 2 -2 -1 -5 -3
right_child=1 5 -4 4 -6 -7
leaf_value=0.015005487489095248 -0.0062901877810377319 0.0014743661379789952 -0.00089773954964006549 0.0032053537376480548 -0.013896923965260075 -0.0075712054059162799
leaf_weight=182.49426265060902 1135.7454204410315 174.17243587970734 17379.824590966105 9510.1998510211706 100.74066950380802 1209.519867554307
leaf_count=730 4544 697 69531 38044 403 4841
internal_value=5.42802e-06 -0.00159075 -0.0012292 0.00324835 0.00302242 -0.00642144
internal_weight=29692.7 19899.3 18515.6 9793.43 9610.94 1383.69
internal_count=118790 79613 74075 39177 38447 5538
is_linear=0
shrinkage=0.0291483


Tree=9
num_leaves=8
num_cat=0
split_feature=3 4 7 4 5 10 8
split_gain=117.906 25.6428 25.0846 20.9265 14.1253 14.0968 11.5727
threshold=-0.00022854013581614468 0.0038526205498208817 4.5142439267837358e-05 -0.00069788614354161164 -0.026793280627465398 0.00021490722678102294 0.00017251782158966608
decision_type=2 2 2 2 2 2 2
left_child=3 2 -2 5 -3 -1 -5
right_child=1 4 -4 6 -6 -7 -8
leaf_value=0.013496267895292242 -0.0058515787168674487 -0.01339389048401407 -0.00098855617208229571 -0.0026691810177352769 -0.0044270909235791011 0.0030998328314935384 0.001352949200422292
leaf_weight=109.23634438216686 951.93850487470627 177.13457518815994 15889.444740504026 703.18127626180649 870.91588908433914 6659.9486524760723 4338.0136301219463
leaf_count=437 3809 709 63570 2813 3486 26643 17354
internal_value=-4.7421e-05 -0.00153953 -0.00126413 0.00221254 -0.00595609 0.00327133 0.000791059
internal_weight=29699.8 17889.4 16841.4 11810.4 1048.05 6769.18 5041.19
internal_count=118821 71574 67379 47247 4195 27080 20167
is_linear=0
shrinkage=0.0291483


Tree=10
num_leaves=8
num_cat=0
split_feature=12 6 6 12 6 13 14
split_gain=178.948 59.9478 34.6457 24.6252 14.772 10.9166 10.5939
threshold=-0.00018985155353047674 1259.2978379228227 1238.4740242245773 0.0036303459699517393 1430.6836993117151 -0.16079491770229246 -0.044671337015309849
decision_type=2 2 2 2 2 2 2
left_child=2 6 5 -3 -4 -1 -2
right_child=1 3 4 -5 -6 -7 -8
leaf_value=0.0061443637256871821 0.0041949634654956953 -0.002549305958013419 0.00038037226356422245 -0.0076747474575331572 0.0029358724788006263 0.0033215277421209527 0.000496839503480201
leaf_weight=2014.6885508000851 913.72395774722099 12769.65397079289 4908.3537307083607 846.27061250805855 3154.6478759199381 2762.7405874282122 2329.1731317043304
leaf_count=8061 3655 51093 19634 3389 12619 11053 9317
internal_value=-4.60534e-05 -0.00202047 0.00254612 -0.00286877 0.00138076 0.00451264 0.00153914
internal_weight=29699.3 16858.8 12840.4 13615.9 8063 4777.43 3242.9
internal_count=118821 67454 51367 54482 32253 19114 12972
is_linear=0
shrinkage=0.0291483


Tree=11
num_leaves=8
num_cat=0
split_feature=6 4 8 4 4 17 3
split_gain=142.778 48.0418 19.9369 22.2065 19.2584 18.592 4.31097
threshold=1248.5191485382732 -0.00024022734881482815 0.0016299532054707508 -0.00091735238684771919 0.0038526205498208817 0.21523744778517592 -0.0022398679068481179
decision_type=2 2 2 2 2 2 2
left_child=2 5 3 -1 -3 -2 -4
right_child=1 4 6 -5 -6 -7 -8
leaf_value=0.0053202813227109409 -0.0042371871946606512 -0.0019418417320625726 -0.0063992108469159608 0.0021440054238408566 -0.0059926107583966179 0.0010627338650277913 -2.0138815238457619e-05
leaf_weight=3541.6633606255054 608.68729987740517 13257.023898765445 188.72640970349312 3961.3911473602057 1075.1769900023937 6898.9817599654198 166.48668937385082
leaf_count=14171 2435 53044 755 15847 4305 27598 666
internal_value=-4.47071e-05 -0.00125698 0.0033238 0.00364383 -0.00224636 0.000631417 -0.00339157
internal_weight=29698.1 21839.9 7858.27 7503.05 14332.2 7507.67 355.213
internal_count=118821 87382 31439 30018 57349 30033 1421
is_linear=0
shrinkage=0.0291483


Tree=12
num_leaves=8
num_cat=0
split_feature=3 14 18 1 10 9 3
split_gain=113.218 22.0292 21.8136 18.1759 14.5856 12.1108 8.93803
threshold=-0.00022854013581614468 -0.058537910366976274 0.62260809107496484 -6.5867079578587899e-05 0.00067543024947825769 0.00024134475579415079 -0.00019100927397724282
decision_type=2 2 2 2 2 2 2
left_child=2 6 4 -3 -1 -4 -2
right_child=1 3 5 -5 -6 -7 -8
leaf_value=-0.0017410352908196662 -0.0065025676779179361 -0.00047435646688492416 0.0071980034080474714 -0.0029183361800718698 0.0029195169294817282 0.002623261310184968 0.00022840090767971055
leaf_weight=1685.0189917087555 169.22616663575172 3743.9549095779657 517.91184064745903 8344.2437194734812 858.10799950361252 8749.8915804773569 5595.5104111284018
leaf_count=6741 677 14980 2072 33391 3433 35007 22387
internal_value=1.0258e-05 -0.00145429 0.00222389 -0.00216134 -0.000165853 0.00288016 2.79281e-05
internal_weight=29663.9 17852.9 11810.9 12088.2 2543.13 9267.8 5764.74
internal_count=118688 71435 47253 48371 10174 37079 23064
is_linear=0
shrinkage=0.0291483


Tree=13
num_leaves=8
num_cat=0
split_feature=12 6 6 12 14 9 12
split_gain=166.735 54.5186 29.1598 24.4304 15.7467 11.7199 11.4559
threshold=-0.00020219688409930619 1259.2978379228227 1238.4740242245773 0.0036303459699517393 0.27916798508762308 0.00055217420555320228 -0.0013634172028394876
decision_type=2 2 2 2 2 2 2
left_child=2 5 6 -3 -4 -2 -1
right_child=1 3 4 -5 -6 -7 -8
leaf_value=0.0055809127789571873 -0.00017557929976205102 -0.0023755076346040054 0.0016065860381653699 -0.0074603535492291234 -0.009291286075309579 0.003306654639514271 0.0026935440599811893
leaf_weight=2707.7326335757971 1715.9189814180136 12806.116482853889 7845.9376745074987 853.30991712212563 110.73167255520821 1568.6713911145926 2054.8230195492506
leaf_count=10836 6864 51244 31385 3419 443 6275 8222
internal_value=9.95999e-06 -0.00188323 0.0025319 -0.00269405 0.0014522 0.00148664 0.00433545
internal_weight=29663.2 16944 12719.2 13659.4 7956.67 3284.59 4762.56
internal_count=118688 67802 50886 54663 31828 13139 19058
is_linear=0
shrinkage=0.0291483


Tree=14
num_leaves=8
num_cat=0
split_feature=6 3 3 8 8 7 5
split_gain=129.47 34.3229 19.6023 17.2954 17.2269 15.8995 13.4868
threshold=1254.8899193786058 -0.00025848017870077234 -0.00022854013581614468 4.8463529017188298e-05 0.0020813378551078217 0.00026675107267685067 -0.014451823005993507
decision_type=2 2 2 2 2 2 2
left_child=2 5 4 -3 -1 -2 -4
right_child=1 3 6 -5 -6 -7 -8
leaf_value=0.00435932554075416 -0.0012354887171195019 -0.0078249913102087613 0.0037755927315517774 -0.001831103833758118 -0.0069188171690245312 0.0017590394371797199 -6.278730192965781e-05
leaf_weight=5168.7711343467236 2493.6970039904118 417.69646057486534 1191.6074934601784 14258.745151907206 114.23607090115547 3793.3428273797035 2223.8274574428797
leaf_count=20684 9976 1672 4767 57061 457 15175 8896
internal_value=9.64382e-06 -0.00123074 0.00299859 -0.00200266 0.00411124 0.000570739 0.00127807
internal_weight=29661.9 20963.5 8698.44 14676.4 5283.01 6287.04 3415.43
internal_count=118688 83884 34804 58733 21141 25151 13663
is_linear=0
shrinkage=0.0291483


Tree=15
num_leaves=8
num_cat=0
split_feature=3 2 17 7 7 7 10
split_gain=84.9726 22.8146 31.2811 15.416 14.8317 13.6833 12.5297
threshold=-0.00022854013581614468 -1.0000000180025095e-35 2.4710177738097352 0.00026675107267685067 0.00098192297959367666 0.0020285903108735251 0.00027105168936989094
decision_type=2 2 2 2 2 2 2
left_child=3 4 -3 6 -2 -5 -1
right_child=1 2 -4 5 -6 -7 -8
leaf_value=0.0039400631281548103 0.00066469019282635548 -0.0015521448276250259 -0.0072475034522240236 0.0028963896570653909 -0.0047728671380530699 -0.0056221375964746797 -0.00023676886558795637
leaf_weight=739.84140531718731 5449.4455581456423 11056.537377893925 881.53530988097191 7529.343592479825 458.77514071762562 160.21002168953419 3402.1695882380009
leaf_count=2960 21804 44247 3529 30127 1836 641 13612
internal_value=2.92117e-05 -0.0012406 -0.00197374 0.00194445 0.000240362 0.00271667 0.000511252
internal_weight=29677.9 17846.3 11938.1 11831.6 5908.22 7689.55 4142.01
internal_count=118756 71416 47776 47340 23640 30768 16572
is_linear=0
shrinkage=0.0291483


Tree=16
num_leaves=8
num_cat=0
split_feature=6 4 9 1 4 15 13
split_gain=117.377 42.2159 18.3701 17.848 14.6094 11.9484 6.93817
threshold=1254.8899193786058 -0.00024022734881482815 0.00024134475579415079 -0.00025529402951766168 -0.00069788614354161164 0.0029453695939881722 -0.29867775157100868
decision_type=2 2 2 2 2 2 2
left_child=4 2 -2 -3 5 -1 -6
right_child=1 3 -4 -5 6 -7 -8
leaf_value=0.0044283533197362526 0.0050687147354684728 0.00028316679355764771 0.00017016970225706163 -0.0025546623311836522 -0.0020607105179925294 -0.0018682440181753759 0.0020251539401438413
leaf_weight=4174.9765390306711 719.86406257748604 2245.8194925934076 6447.5434809029102 11570.45443046093 385.15375530719757 269.60486410558224 3863.7272870242596
leaf_count=16710 2880 8987 25793 46309 1541 1079 15457
internal_value=2.83289e-05 -0.0011515 0.000663216 -0.0020931 0.00287571 0.00404408 0.00165367
internal_weight=29677.1 20983.7 7167.41 13816.3 8693.46 4444.58 4248.88
internal_count=118756 83969 28673 55296 34787 17789 16998
is_linear=0
shrinkage=0.0291483


Tree=17
num_leaves=8
num_cat=0
split_feature=12 12 8 13 18 8 12
split_gain=134.31 24.7413 28.5449 26.0145 24.1446 15.8248 12.6262
threshold=2.2729918457266027e-05 0.0030392062793967735 0.00031530978310717801 -0.096916254226111803 0.78054547413462549 0.0016299532054707508 -0.00054330615553123678
decision_type=2 2 2 2 2 2 2
left_child=4 2 -2 -3 6 -6 -1
right_child=1 3 -4 -5 5 -7 -8
leaf_value=0.0016630596567064708 -0.0032160371427930219 0.0065932022889686687 -0.00046263262562896637 -0.0069532242968701153 0.0031403823240957122 -0.0032091968514384194 -0.0010836774578918476
leaf_weight=3355.228561013937 5338.5473052114248 129.86237107217312 7973.4919747412205 1251.1006106436253 8822.4333552718163 343.20267234742641 2462.1320852935314
leaf_count=13424 21365 520 31907 5013 35303 1373 9851
internal_value=2.75063e-05 -0.00195244 -0.00156711 -0.00566168 0.00196916 0.00290132 0.000500722
internal_weight=29676 14693 13312 1380.96 14983 9165.64 5817.36
internal_count=118756 58805 53272 5533 59951 36676 23275
is_linear=0
shrinkage=0.0291483


Tree=18
num_leaves=8
num_cat=0
split_feature=12 9 12 7 8 3 7
split_gain=134.06 33.1836 27.6529 30.6286 20.8406 9.65802 8.27284
threshold=-0.00054330615553123678 0.00024134475579415079 0.0030392062793967735 4.7913491118400918e-05 0.00038587713335725083 0.0016531464564181226 8.7144548702370355e-05
decision_type=2 2 2 2 2 2 2
left_child=1 6 3 -2 -3 -4 -1
right_child=2 4 5 -5 -6 -7 -8
leaf_value=0.018777862388576261 -0.0057116232875730148 0.00058301867382229975 -0.0020376190726688797 -0.00076918412832906061 0.0034658246024994437 -0.0071183425305353602 0.008790779830782294
leaf_weight=96.969739928841591 1131.3943368941545 3249.5760667622089 489.35889376699924 17376.488301485777 6178.9312916100025 901.51196566224098 248.87163929641247
leaf_count=388 4529 13002 1960 69533 24727 3614 996
internal_value=3.12124e-06 0.00279804 -0.0013699 -0.00107195 0.00247238 -0.00532874 0.0116217
internal_weight=29673.1 9774.35 19898.8 18507.9 9428.51 1390.87 345.841
internal_count=118749 39113 79636 74062 37729 5574 1384
is_linear=0
shrinkage=0.0291483


Tree=19
num_leaves=8
num_cat=0
split_feature=14 9 15 13 5 15 8
split_gain=40.0672 32.3986 26.6659 19.6016 16.3308 16.1338 12.1882
threshold=-0.061325974259782069 0.00066995411906435858 1.1271930897713181e-07 -0.066529897545916886 -0.044850891633972663 1.1046426317396257e-07 0.0016299532054707508
decision_type=2 2 2 2 2 2 2
left_child=1 4 5 -4 -1 -2 -3
right_child=2 6 3 -5 -6 -7 -8
leaf_value=0.0060915993489314459 -0.0043331569408526739 0.0044787851314957508 0.00094109717748646292 -0.0011781168644627209 5.857058636412463e-05 -0.016557135813845769 -0.0023764101802984986
leaf_weight=400.33981588482857 319.70075161755085 2875.0457314699888 5057.2680884152651 13871.247671574354 6787.5932006984949 125.3824822306633 235.39423842728138
leaf_count=1602 1280 11506 20238 55518 27161 502 942
internal_value=3.04602e-06 0.00147191 -0.000777816 -0.000611819 0.000396573 -0.00780203 0.00395589
internal_weight=29672 10298.4 19373.6 18928.5 7187.93 445.083 3110.44
internal_count=118749 41211 77538 75756 28763 1782 12448
is_linear=0
shrinkage=0.0291483


Tree=20
num_leaves=8
num_cat=0
split_feature=12 6 9 12 6 8 13
split_gain=124.52 36.9666 31.3849 23.2411 21.9972 12.9043 8.49158
threshold=-0.00054330615553123678 1252.0525819645975 0.00024134475579415079 0.0036303459699517393 1226.6497143881554 0.00080102074283475643 -0.22265182617745022
decision_type=2 2 2 2 2 2 2
left_child=2 5 6 -3 -4 -2 -1
right_child=1 3 4 -5 -6 -7 -8
leaf_value=0.0071001766018325089 0.0020865948015196989 -0.0016468086825081264 0.0041918588674325474 -0.0065435369487115112 0.0012862167338045295 -0.0029003958025454043 0.016262858808040345
leaf_weight=188.3448294699192 3052.5757463425398 15467.081395581365 3547.3125122487545 866.49214199185371 5880.6587337106466 511.65518596768379 157.41291762888432
leaf_count=754 12212 61901 14203 3476 23526 2047 630
internal_value=2.9377e-06 -0.00132036 0.00269667 -0.00190728 0.00237998 0.00136777 0.0112789
internal_weight=29671.5 19897.8 9773.73 16333.6 9427.97 3564.23 345.758
internal_count=118749 79636 39113 65377 37729 14259 1384
is_linear=0
shrinkage=0.0291483


Tree=21
num_leaves=8
num_cat=0
split_feature=12 6 6 16 6 3 13
split_gain=119.835 43.1524 24.6257 15.3728 13.0217 12.3898 10.9911
threshold=-1.1792347345029495e-05 1260.2350273759823 1238.4740242245773 2.7400510249142491 1715.9772266039292 -0.00099547772015925388 -0.16079491770229246
decision_type=2 2 2 2 2 2 2
left_child=2 5 6 -3 -4 -2 -1
right_child=1 3 4 -5 -6 -7 -8
leaf_value=0.0051259191355398333 0.0071148499859437862 -0.002407712057084305 0.0013256691055815722 -0.00820680883692744 -0.0024319245071287316 0.00075309421516080459 0.0023625968979632318
leaf_weight=2083.9810566753149 286.42883342504501 11829.799279794097 8705.3259933739901 398.27879740297794 857.51531210541725 2526.7594671547413 2960.2900636196136
leaf_count=8346 1146 47359 34827 1595 3431 10108 11850
internal_value=-2.28831e-05 -0.00184886 0.00185734 -0.00259776 0.000988172 0.00140406 0.00350479
internal_weight=29648.4 15041.3 14607.1 12228.1 9562.84 2813.19 5044.27
internal_count=118662 60208 58454 48954 38258 11254 20196
is_linear=0
shrinkage=0.0291483


Tree=22
num_leaves=8
num_cat=0
split_feature=12 1 12 12 10 14 7
split_gain=112.958 22.7717 19.6665 18.6105 16.9172 11.8581 11.0759
threshold=-1.1792347345029495e-05 -0.00016565069853176245 0.0030392062793967735 -0.0013634172028394876 0.00082058748453708006 -0.044671337015309849 0.0018516298924061904
decision_type=2 2 2 2 2 2 2
left_child=3 5 -3 6 -5 -2 -1
right_child=1 2 -4 4 -6 -7 -8
leaf_value=0.0034953072998813199 0.0028960667018699004 -0.0020701837335416846 -0.0062890909227237861 0.0015125908317320644 -0.0021706753287311547 -0.00080859971241989067 -0.0037079889655320867
leaf_weight=4885.7481628358364 983.61478081345558 10165.80840344727 1031.2045673131943 8325.4764005541801 1210.3699744045734 2859.7067970633507 184.96086433529854
leaf_count=19558 3936 40691 4136 33313 4843 11445 740
internal_value=-2.22167e-05 -0.00179509 -0.0024596 0.00180328 0.0010446 0.000139913 0.00322977
internal_weight=29646.9 15040.3 11197 14606.6 9535.85 3843.32 5070.71
internal_count=118662 60208 44827 58454 38156 15381 20298
is_linear=0
shrinkage=0.0291483


Tree=23
num_leaves=8
num_cat=0
split_feature=12 6 6 7 13 3 13
split_gain=106.473 40.213 22.9854 18.9151 12.316 11.6396 10.2454
threshold=-1.1792347345029495e-05 1260.2350273759823 1238.4740242245773 0.00021741880635865415 -0.24610441146715953 -0.00099547772015925388 -0.16079491770229246
decision_type=2 2 2 2 2 2 2
left_child=2 5 6 -3 -4 -2 -1
right_child=1 3 4 -5 -6 -7 -8
leaf_value=0.0049079888113138783 0.006932794287410224 -0.0040777666422530797 -0.00087331025835770781 -0.0016504858067964369 0.0015236479703513493 0.00076632084833157558 0.0022398079093521334
leaf_weight=2083.4112443774939 286.40112987160683 4105.8440826237202 2443.4889500439167 8120.5087402164936 7119.2800886631012 2526.7454603612423 2959.9315008372068
leaf_count=8346 1146 16439 9776 32515 28482 10108 11850
internal_value=-2.1592e-05 -0.00174289 0.00175075 -0.00246591 0.00091107 0.00139728 0.00334257
internal_weight=29645.6 15039.5 14606.1 12226.4 9562.77 2813.15 5043.34
internal_count=118662 60208 58454 48954 38258 11254 20196
is_linear=0
shrinkage=0.0291483


Tree=24
num_leaves=8
num_cat=0
split_feature=6 4 7 10 17 7 10
split_gain=87.8487 30.7614 21.7351 17.2116 11.1237 11.852 9.22073
threshold=1248.5191485382732 -0.00024022734881482815 4.5142439267837358e-05 0.0011111832034678569 0.21523744778517592 0.001099618628410766 0.00066173691722420578
decision_type=2 2 2 2 2 2 2
left_child=4 3 -3 -2 6 -6 -1
right_child=1 2 -4 -5 5 -7 -8
leaf_value=-0.0037154762864088815 0.0010330045333926687 -0.0065083564344475169 -0.00143886588053219 -0.0038501407188612307 0.0033748629307625826 -0.00046158156757921634 0.0050479411547444735
leaf_weight=385.8524299710989 6839.8117939978838 755.38623568415642 13556.941158339381 670.08127589523792 6557.9383025765419 760.84841528534889 134.68299229443073
leaf_count=1544 27365 3026 54276 2681 26255 3046 539
internal_value=3.6175e-05 -0.000914533 -0.00170722 0.000595865 0.00268219 0.0029754 -0.00142177
internal_weight=29661.5 21822.2 14312.3 7509.89 7839.32 7318.79 520.535
internal_count=118732 87348 57302 30046 31384 29301 2083
is_linear=0
shrinkage=0.0291483


Tree=25
num_leaves=8
num_cat=0
split_feature=12 6 17 7 14 3 0
split_gain=104.185 37.2636 23.2576 22.8227 15.1122 9.59794 5.07582
threshold=-0.00020219688409930619 1260.2350273759823 0.21523744778517592 4.5142439267837358e-05 0.30739764152200338 -0.00049504004649773164 0.5226296060929253
decision_type=2 2 2 2 2 2 2
left_child=2 5 6 -3 -4 -2 -1
right_child=1 3 4 -5 -6 -7 -8
leaf_value=-0.0033075678171753217 0.0042178933458306162 -0.0072768401251234729 0.0024691975075796105 -0.0018586043796664791 -0.0087854335641605157 0.00046542015353502435 0.0035745897632335605
leaf_weight=785.77627712488174 742.46387478709221 692.70878495275974 11714.26163636148 12938.144243091345 98.712174847722054 2588.7258368432522 99.480230912566185
leaf_count=3144 2971 2776 46887 51805 395 10356 398
internal_value=3.51056e-05 -0.00145946 0.00203145 -0.00213488 0.00237315 0.00130263 -0.00251643
internal_weight=29660.3 16962 12698.2 13630.9 11813 3331.19 885.257
internal_count=118732 67908 50824 54581 47282 13327 3542
is_linear=0
shrinkage=0.0291483


Tree=26
num_leaves=8
num_cat=0
split_feature=3 14 15 8 8 10 14
split_gain=54.5038 24.086 20.1905 12.7077 12.273 18.813 11.8689
threshold=-0.00022854013581614468 -0.058537910366976274 1.1271930897713181e-07 6.2960089821264271e-05 0.00016964139387454347 0.0002418724374227265 -0.090294211394410823
decision_type=2 2 2 2 2 2 2
left_child=4 3 -3 -2 6 -6 -1
right_child=1 2 -4 -5 5 -7 -8
leaf_value=0.0025660678309165183 -0.0056420282939758648 -0.0084058426196575286 -0.001508241865501457 0.00086956947343471433 0.0093110866734806442 0.0016592361064036497 -0.0039898656619403129
leaf_weight=372.52177028357983 263.43367250263691 368.53016436100006 11733.521316736937 5499.9543803036213 276.79114472866058 10523.555427089334 620.45127458870411
leaf_count=1491 1055 1477 46980 22012 1108 42126 2483
internal_value=3.40619e-05 -0.000981058 -0.00171959 0.000569303 0.00157177 0.00185704 -0.00152388
internal_weight=29658.8 17865.4 12102.1 5763.39 11793.3 10800.3 992.973
internal_count=118732 71524 48457 23067 47208 43234 3974
is_linear=0
shrinkage=0.0291483


Tree=27
num_leaves=7
num_cat=0
split_feature=3 17 17 7 18 7
split_gain=57.0911 19.8971 18.0883 12.7182 13.3369 8.98214
threshold=-0.00022854013581614468 0.22059445960845978 2.4710177738097352 0.0020285903108735251 0.66106052251662983 4.5142439267837358e-05
decision_type=2 2 2 2 2 2
left_child=3 5 -3 4 -1 -2
right_child=1 2 -4 -5 -6 -7
leaf_value=-3.8001931566288909e-05 -0.0096537016791783201 -0.00049662637917185018 -0.0042595949277639458 -0.0065359588132556951 0.0022212531933085609 -0.0032926126930341061
leaf_weight=2978.5336092710495 214.09993280470371 15016.569022342563 1166.4067058861256 160.20278961956501 8688.2219565808773 1437.0912802368402
leaf_count=11920 858 60118 4673 641 34783 5752
internal_value=-3.81427e-05 -0.00107945 -0.00076839 0.00153194 0.00164435 -0.00412424
internal_weight=29661.1 17834.2 16183 11827 11666.8 1651.19
internal_count=118745 71401 64791 47344 46703 6610
is_linear=0
shrinkage=0.0291483


Tree=28
num_leaves=8
num_cat=0
split_feature=6 13 9 16 7 6 13
split_gain=74.2731 20.8311 25.7374 20.471 11.0136 11.9461 6.86497
threshold=1246.7208238155911 -0.0099355559360790203 8.9134500255391315e-05 2.7400510249142491 0.001099618628410766 1113.0580836708225 -0.15790039682465812
decision_type=2 2 2 2 2 2 2
left_child=4 2 -2 -3 5 -1 -6
right_child=1 3 -4 -5 6 -7 -8
leaf_value=0.0071087880876119017 -0.013851874103319197 -0.0014959756414735671 0.00023913659290782351 -0.0083380648079440026 0.0030011826857971021 0.0024699868370535822 -0.0028211829144337854
leaf_weight=506.51614195108414 107.79836885631084 11618.084973633289 9938.5508219599724 380.33792597055435 255.35893680155277 6344.2269370853901 509.38411830365658
leaf_count=2030 432 46520 39774 1524 1023 25403 2039
internal_value=-3.7077e-05 -0.000894354 8.46592e-05 -0.00171416 0.00244399 0.00281466 -0.000866518
internal_weight=29660.3 22044.8 10046.3 11998.4 7615.49 6850.74 764.743
internal_count=118745 88250 40206 48044 30495 27433 3062
is_linear=0
shrinkage=0.0291483


Tree=29
num_leaves=8
num_cat=0
split_feature=12 6 17 8 17 8 5
split_gain=85.8071 32.651 21.7689 17.1178 15.2056 12.684 7.91131
threshold=-2.3054596155325378e-05 1260.2350273759823 0.21523744778517592 0.001929366799073797 0.28275036494442002 0.00011287630037824996 0.0097699683379578791
decision_type=2 2 2 2 2 2 2
left_child=2 5 6 -4 -3 -2 -1
right_child=1 4 3 -5 -6 -7 -8
leaf_value=-0.00078368669052721214 -0.0063617683957367015 -0.004923421430446771 0.0020315420975223894 -0.0061674034893710854 -0.0018293575204461246 0.001737552359507757 -0.0061876528267398529
leaf_weight=800.66787898540497 171.45090736448765 1539.5037911981344 13135.928826242685 216.4511992931366 10797.014081612229 2678.6679364144802 319.37039089202881
leaf_count=3204 686 6166 52584 866 43244 10717 1278
internal_value=-3.6029e-05 -0.00156637 0.0015698 0.00189736 -0.00221604 0.00124371 -0.00232723
internal_weight=29659.1 15186.6 14472.4 13352.4 12336.5 2850.12 1120.04
internal_count=118745 60813 57932 53450 49410 11403 4482
is_linear=0
shrinkage=0.0291483


Tree=30
num_leaves=8
num_cat=0
split_feature=4 2 17 14 7 7 5
split_gain=47.3738 26.3452 17.984 15.6781 11.7814 11.5607 5.70208
threshold=-0.00024022734881482815 -9.9987657156510297e-05 0.21523744778517592 -0.079460426978141138 0.0020285903108735251 0.0006343215965836311 0.009199226442272149
decision_type=2 2 2 2 2 2 2
left_child=2 5 6 -3 -4 -2 -1
right_child=1 3 4 -5 -6 -7 -8
leaf_value=-0.0011707654514041637 0.0014670309169758958 0.00010668450157465568 0.0017691082354642468 -0.0023621423581714884 -0.0060115997521220377 -0.0018167905105298018 -0.0063505561896104127
leaf_weight=611.9656865298748 4053.9317853450775 2893.9576259851456 11635.405073076487 8894.7370608448982 164.19273781776428 1170.9866214692593 252.63846406340599
leaf_count=2449 16225 11585 46582 35629 657 4688 1011
internal_value=1.23256e-05 -0.000992312 0.00136196 -0.00175588 0.00165946 0.000729947 -0.00268748
internal_weight=29677.8 17013.6 12664.2 11788.7 11799.6 5224.92 864.604
internal_count=118826 68127 50699 47214 47239 20913 3460
is_linear=0
shrinkage=0.0291483


Tree=31
num_leaves=8
num_cat=0
split_feature=6 13 9 17 6 13 13
split_gain=65.9359 16.2138 23.7291 14.8193 9.83572 14.9499 10.4895
threshold=1254.8899193786058 -0.012301277828221322 8.9134500255391315e-05 3.6177080233045538 1212.807682700068 -0.16079491770229246 -0.31986939162548378
decision_type=2 2 2 2 2 2 2
left_child=4 2 -2 -3 5 -1 -6
right_child=1 3 -4 -5 6 -7 -8
leaf_value=0.0054533489749202801 -0.013020390441622861 -0.0013995419788816132 0.00018735198096372921 -0.006928945988549505 -0.002508093892763557 0.001819840708737969 0.0017387816823344841
leaf_weight=1538.29248277843 113.46097622811794 11137.956812396646 9311.0331820398569 424.1971520036459 559.6059714704752 2561.6184045225382 4030.6093306392431
leaf_count=6168 455 44605 37265 1701 2241 10259 16132
internal_value=1.19382e-05 -0.00087211 2.50733e-05 -0.0016035 0.00214662 0.00318417 0.0012199
internal_weight=29676.8 20986.6 9424.49 11562.2 8690.13 4099.91 4590.22
internal_count=118826 84026 37720 46306 34800 16427 18373
is_linear=0
shrinkage=0.0291483


Tree=32
num_leaves=7
num_cat=0
split_feature=12 14 12 7 7 5
split_gain=78.9035 26.4133 21.5282 23.1136 20.6471 13.4184
threshold=-0.00054330615553123678 0.27916798508762308 0.0030392062793967735 5.4545191755263964e-05 8.2063069311045337e-05 -0.014725116137793598
decision_type=2 2 2 2 2 2
left_child=1 4 3 -2 -1 -4
right_child=2 -3 5 -5 -6 -7
leaf_value=0.0083882914024899537 -0.0044834764117984037 -0.012252788651163192 -0.008854154120530304 -0.00049443965254188148 0.0020117190231164002 -0.0026419151091424892
leaf_weight=449.16759306192398 1326.2515974342823 103.4504661411047 423.24096143245697 17163.092324569821 9247.6729256659746 962.63532580435276
leaf_count=1798 5315 414 1699 68706 37030 3864
internal_value=1.15507e-05 0.00215157 -0.00104378 -0.000781073 0.0023087 -0.00454336
internal_weight=29675.5 9800.29 19875.2 18489.3 9696.84 1385.88
internal_count=118826 39242 79584 74021 38828 5563
is_linear=0
shrinkage=0.0291483


Tree=33
num_leaves=8
num_cat=0
split_feature=12 9 14 8 12 8 14
split_gain=74.0245 28.9523 21.0564 19.0683 18.4059 9.03034 5.15302
threshold=-0.00054330615553123678 0.00024134475579415079 0.24983054924208853 4.8463529017188298e-05 0.0030392062793967735 2.932313446905387e-05 -0.13068817925914314
decision_type=2 2 2 2 2 2 2
left_child=1 6 -3 5 -5 -2 -1
right_child=3 2 -4 4 -6 -7 -8
leaf_value=0.0068904759401666764 -0.0029514842535971336 0.0019099250371707296 -0.0088817840165586626 -0.00067585316569111482 -0.0041581594258189433 -0.011174485649933074 0.014066935308065753
leaf_weight=178.94042411446571 230.21137915551662 9277.4070181250572 152.6541333347559 18066.546139612794 1385.2756713926792 219.93420645594597 163.48239901661873
leaf_count=717 924 37150 611 72326 5562 882 655
internal_value=-4.15814e-05 0.00203558 0.00173289 -0.00106167 -0.00092427 -0.00696959 0.0103191
internal_weight=29674.5 9772.48 9430.06 19902 19451.8 450.146 342.423
internal_count=118827 39133 37761 79694 77888 1806 1372
is_linear=0
shrinkage=0.0291483


Tree=34
num_leaves=8
num_cat=0
split_feature=12 9 6 13 16 13 3
split_gain=69.7778 27.3176 25.397 19.7182 18.8614 7.16837 6.79383
threshold=-0.00054330615553123678 0.00024134475579415079 1246.7208238155911 0.29664816670981914 3.1022247452099854 -0.20838411475954169 -0.00049504004649773164
decision_type=2 2 2 2 2 2 2
left_child=1 5 6 -3 -4 -1 -2
right_child=2 3 4 -5 -6 -7 -8
leaf_value=0.0063319791250173903 0.0035400948610756358 0.0019033051527194366 -0.0013408767720399033 -0.0063115777943833166 -0.0083527759826854415 0.014827287377679774 0.00052726457621439038
leaf_weight=193.82184609770775 886.46303400397301 9177.9765583276749 16458.237931996584 251.62170854210854 329.03459993004799 148.45851112902164 2227.5069612115622
leaf_count=777 3549 36754 65914 1007 1319 595 8912
internal_value=-4.03933e-05 0.00197638 -0.0010308 0.0016824 -0.0014793 0.0100244 0.00138544
internal_weight=29673.1 9771.88 19901.2 9429.6 16787.3 342.28 3113.97
internal_count=118827 39133 79694 37761 67233 1372 12461
is_linear=0
shrinkage=0.0291483


Tree=35
num_leaves=8
num_cat=0
split_feature=12 6 10 13 1 10 12
split_gain=65.7752 24.3017 20.3957 18.9861 14.4415 13.2411 5.28546
threshold=-0.00054330615553123678 1291.5068273591489 0.0002418724374227265 0.26313793866152158 -0.00050178932715359164 0.0004136871653864807 -0.00079600048778599817
decision_type=2 2 2 2 2 2 2
left_child=2 5 6 -4 -3 -2 -1
right_child=1 4 3 -5 -6 -7 -8
leaf_value=0.014670011803858494 -0.0014987779968583081 0.0017140733262152273 0.001946979905022319 -0.0048519852474354017 -0.0020182996696761187 0.0012499631037765063 0.0064824875814098295
leaf_weight=106.47280472517014 2160.5443459302187 947.00035174190998 9127.8924108445644 359.31597548723221 12023.737925574183 4769.08459892869 177.57495698332787
leaf_count=427 8648 3792 36556 1438 48166 19088 712
internal_value=-3.92205e-05 -0.00100081 0.00191892 0.00168815 -0.00174528 0.000392367 0.00956829
internal_weight=29671.6 19900.4 9771.26 9487.21 12970.7 6929.63 284.048
internal_count=118827 79694 39133 37994 51958 27736 1139
is_linear=0
shrinkage=0.0291483


Tree=36
num_leaves=8
num_cat=0
split_feature=6 16 1 8 8 6 0
split_gain=55.4806 14.3702 23.2568 13.7353 13.3088 11.0476 6.30555
threshold=1254.8899193786058 2.7400510249142491 -1.1861375669023112e-07 0.0016299532054707508 0.00033039244039232367 1212.807682700068 -0.11833502118321344
decision_type=2 2 2 2 2 2 2
left_child=3 4 -3 5 -2 -1 -5
right_child=1 2 -4 6 -6 -7 -8
leaf_value=0.0033857031377234736 -0.0015242871297659341 0.0022821542747882536 -0.0093062657016104305 -0.0076869998723738276 -1.3743527313531814e-05 0.0012562035356188722 1.110710752690502e-05
leaf_weight=3810.0758554637432 8504.6094436794519 227.76580542325974 402.06283801794052 166.94330953061581 11867.004450291395 4529.9942171871662 189.69053499400616
leaf_count=15274 34058 912 1613 668 47520 18135 759
internal_value=3.20597e-05 -0.000778603 -0.00510286 0.00198944 -0.000644439 0.00222936 -0.00358492
internal_weight=29698.1 21001.4 629.829 8696.7 20371.6 8340.07 356.634
internal_count=118939 84103 2525 34836 81578 33409 1427
is_linear=0
shrinkage=0.0291483


Tree=37
num_leaves=7
num_cat=0
split_feature=12 14 12 13 8 8
split_gain=59.1092 23.9137 21.7045 24.711 18.7872 13.9418
threshold=-0.00054330615553123678 0.27916798508762308 0.0030392062793967735 -0.096916254226111803 0.00031530978310717801 0.001929366799073797
decision_type=2 2 2 2 2 2
left_child=1 5 4 -4 -2 -1
right_child=2 -3 3 -5 -6 -7
leaf_value=0.002194336771408617 -0.0016596911679464426 -0.011920678200085555 0.0074014439532045445 -0.0056589503984103935 0.00020947941945288065 -0.0054896334502988857
leaf_weight=9490.6732672899961 8188.9237039238214 101.92796730995178 132.97455263137817 1255.9211113005877 10325.09607180953 201.44280175864697
leaf_count=38015 32795 408 533 5046 41336 806
internal_value=3.11181e-05 0.00188457 -0.000881043 -0.00439096 -0.000617333 0.00203306
internal_weight=29697 9794.04 19902.9 1388.9 18514 9692.12
internal_count=118939 39229 79710 5579 74131 38821
is_linear=0
shrinkage=0.0291483


Tree=38
num_leaves=7
num_cat=0
split_feature=12 7 12 18 8 18
split_gain=56.2434 17.5258 17.3744 15.0225 14.5529 9.82136
threshold=3.3718977585751226e-05 1.1443657171506259e-07 0.0030392062793967735 0.78054547413462549 0.0023069400518253348 0.14249183436641097
decision_type=2 2 2 2 2 2
left_child=3 -2 -3 5 -5 -1
right_child=1 2 -4 4 -6 -7
leaf_value=-0.0081909648210093857 -0.012320553407930635 -0.0008389688689113225 -0.0042642557993231535 0.0021349842212822745 -0.0088432042232869101 0.00029572348547400379
leaf_weight=114.66394627094269 117.18244262039661 13101.593894585967 1388.4736919701099 9109.566904515028 100.21314397454262 5763.866927921772
leaf_count=459 471 52468 5579 36487 401 23074
internal_value=3.01825e-05 -0.00125891 -0.00116773 0.0012782 0.00201295 0.000127236
internal_weight=29695.6 14607.3 14490.1 15088.3 9209.78 5878.53
internal_count=118939 58518 58047 60421 36888 23533
is_linear=0
shrinkage=0.0291483


Tree=39
num_leaves=8
num_cat=0
split_feature=6 8 10 8 6 6 10
split_gain=55.7367 13.1598 16.6855 12.2254 15.1385 11.4173 4.82508
threshold=1254.8899193786058 4.8463529017188298e-05 0.00020976915583576468 0.0016299532054707508 1129.8260671492556 1668.2028287592841 0.0017387477756679068
decision_type=2 2 2 2 2 2 2
left_child=3 5 -3 4 -1 -2 -5
right_child=1 2 -4 6 -6 -7 -8
leaf_value=0.0058795922585794949 -0.012370526395320698 0.0024567900858144978 -0.00091436261803548287 -0.0062396578680258309 0.0017843200189875165 -0.0024001691091454528 0.00050127985583821603
leaf_weight=851.7179639339447 146.65710139274597 1330.3837658464909 19229.78576938808 201.41596965491772 7454.8496517390013 278.11461362242699 158.19064056873322
leaf_count=3418 589 5330 77010 806 29863 1117 633
internal_value=1.11019e-05 -0.000800964 -0.000695927 0.00197723 0.00220539 -0.0058584 -0.00325898
internal_weight=29651.1 20984.9 20560.2 8666.17 8306.57 424.772 359.607
internal_count=118766 84046 82340 34720 33281 1706 1439
is_linear=0
shrinkage=0.0291483


Tree=40
num_leaves=8
num_cat=0
split_feature=12 6 6 6 5 18 8
split_gain=55.6556 25.6323 23.3092 15.1006 14.4244 13.7652 11.6787
threshold=3.3718977585751226e-05 1284.8415529665201 1715.9772266039292 1221.4286174193787 -0.037771688715123319 0.62706750455153137 0.00017251782158966608
decision_type=2 2 2 2 2 2 2
left_child=2 6 3 -1 -3 -4 -2
right_child=1 4 5 -5 -6 -7 -8
leaf_value=0.0030864137347655141 -0.0031551568079836853 -0.0052825049064766458 -0.0075764955543421823 0.00095624174467532394 -0.0016878023920468613 -0.00029549306920711673 0.0012539726300156745
leaf_weight=3900.1027587652206 589.93397089838982 1053.115162357688 370.1443776935339 10261.742823168635 9295.7426829338074 536.42695331573486 3642.7579457759857
leaf_count=15644 2362 4221 1482 41073 37256 2147 14581
internal_value=1.07723e-05 -0.00127283 0.00125293 0.00154314 -0.00205437 -0.00326922 0.000637242
internal_weight=29650 14581.5 15068.4 14161.8 10348.9 906.571 4232.69
internal_count=118766 58420 60346 56717 41477 3629 16943
is_linear=0
shrinkage=0.0291483


Tree=41
num_leaves=8
num_cat=0
split_feature=12 6 6 10 10 5 8
split_gain=52.4625 24.1622 21.9744 16.3439 15.13 13.6031 11.0104
threshold=3.3718977585751226e-05 1284.8415529665201 1715.9772266039292 0.00031353359021584723 0.00054810855743573923 -0.037771688715123319 0.00017251782158966608
decision_type=2 2 2 2 2 2 2
left_child=2 6 3 -1 -4 -3 -2
right_child=1 5 4 -5 -6 -7 -8
leaf_value=0.0038858442220856982 -0.0030638130445907181 -0.0051299597939546762 -0.0049417188106184555 0.0010877208432736472 0.0047720080661359443 -0.0016387264988745177 0.0012174273545753737
leaf_weight=2075.5179144889116 589.89021351933479 1052.8778952211142 743.32491654157639 12085.638996988535 163.19826404750347 9295.0890748351812 3642.7886044234037
leaf_count=8312 2362 4221 2976 48405 653 37256 14581
internal_value=1.0437e-05 -0.00123584 0.00121646 0.00149825 -0.00317442 -0.00199469 0.000618626
internal_weight=29648.3 14580.6 15067.7 14161.2 906.523 10348 4232.68
internal_count=118766 58420 60346 56717 3629 41477 16943
is_linear=0
shrinkage=0.0291483


Tree=42
num_leaves=8
num_cat=0
split_feature=12 9 14 12 10 16 14
split_gain=46.6814 23.4554 25.6965 16.2971 22.7064 11.643 5.79576
threshold=-0.00054330615553123678 0.00021157182662159081 0.27916798508762308 0.0029199380487162142 0.00067543024947825769 1.1371401850725142 -0.16285722858323884
decision_type=2 2 2 2 2 2 2
left_child=1 6 -3 4 -2 -5 -1
right_child=3 2 -4 5 -6 -7 -8
leaf_value=0.0060874414412958218 -0.0011088484993845469 0.0016833986945385526 -0.012765845042109219 -0.0016514174811978399 0.0011922713361658046 -0.006939299721331023 0.015775445797604735
leaf_weight=96.676332265138626 13371.179318830371 9477.1193179190159 102.17422619462013 940.96059501171112 5003.7572477757931 563.53090782463551 113.08416812121868
leaf_count=388 53551 37969 409 3780 20034 2267 454
internal_value=9.03015e-05 0.00173766 0.00152606 -0.000720978 -0.000482117 -0.00363424 0.0112997
internal_weight=29668.5 9789.05 9579.29 19879.4 18374.9 1504.49 209.761
internal_count=118852 39220 38378 79632 73585 6047 842
is_linear=0
shrinkage=0.0291483


Tree=43
num_leaves=8
num_cat=0
split_feature=12 2 8 8 8 12 2
split_gain=44.5516 12.5368 15.3322 13.1816 11.2831 13.6308 1.6588
threshold=-2.3054596155325378e-05 -9.4094498403423713e-05 0.00064760083966829086 0.00047596720493289855 0.001929366799073797 -0.0013634172028394876 -0.0012302995104507576
decision_type=2 2 2 2 2 2 2
left_child=4 2 -2 -3 5 -1 -6
right_child=1 3 -4 -5 6 -7 -8
leaf_value=0.0025919517590712064 0.0013690725283435289 -0.0023673679182339012 -0.0023157700379384952 -0.00025009039093351658 -0.002678153462837664 0.00069380488503398643 -0.0077979814280310722
leaf_weight=4881.0566975027323 3188.9947320967913 6593.5402669757605 1367.9800659567118 4019.4370080530643 101.20480115711689 9402.7134089767933 112.21859459578991
leaf_count=19567 12767 26424 5479 16116 405 37645 449
internal_value=8.76562e-05 -0.00101643 0.0002618 -0.0015655 0.00124299 0.00134264 -0.00535476
internal_weight=29667.1 15170 4556.97 10613 14497.2 14283.8 213.423
internal_count=118852 60786 18246 42540 58066 57212 854
is_linear=0
shrinkage=0.0291483


Tree=44
num_leaves=8
num_cat=0
split_feature=6 17 0 14 5 6 14
split_gain=40.1413 16.9949 13.4743 10.2851 12.1613 10.2225 9.95792
threshold=1254.8899193786058 0.26016138938468397 0.6943999512371809 -0.050048636628670706 -0.0049437837659102877 1129.8260671492556 -0.07484518934775046
decision_type=2 2 2 2 2 2 2
left_child=3 6 -3 5 -5 -1 -2
right_child=1 2 -4 4 -6 -7 -8
leaf_value=0.006869139269795454 6.3561238184895726e-05 -6.238173193546643e-05 -0.0028975647256761737 0.0024370302149810045 -0.00044200432319652701 0.0023259674496187259 -0.0040277314421176044
leaf_weight=481.90626156330109 702.70308181643486 16961.417901039124 1551.2073470950127 2321.9657744020224 2683.3602614700794 3184.4211755394936 1778.898211479187
leaf_count=1935 2814 67941 6217 9302 10750 12766 7127
internal_value=8.50929e-05 -0.000603955 -0.000300291 0.00175306 0.000894004 0.00292568 -0.00286747
internal_weight=29665.9 20994.2 18512.6 8671.65 5005.33 3666.33 2481.6
internal_count=118852 84099 74158 34753 20052 14701 9941
is_linear=0
shrinkage=0.0291483


Tree=45
num_leaves=8
num_cat=0
split_feature=12 17 14 1 12 10 10
split_gain=46.6619 18.3433 17.8789 15.4016 11.6278 10.2628 9.86728
threshold=3.3718977585751226e-05 0.21523744778517592 -0.041860257404700341 -0.00056036487719048208 0.0025547355720098347 0.00022125596101211974 0.00031008098021530884
decision_type=2 2 2 2 2 2 2
left_child=1 5 3 -2 -4 -1 -3
right_child=2 6 4 -5 -6 -7 -8
leaf_value=0.0039329039758064137 0.0066380907799510266 0.0033131612775319746 -0.0013465551079684475 -6.6790848775753262e-06 -0.0040583418100180978 -0.0034654503614192271 0.0011617917057951798
leaf_weight=186.12476997077465 317.721465960145 2139.1337708383799 8887.8576167970896 3819.4505235701799 1579.7769432514906 993.85427841544151 11737.622292131186
leaf_count=746 1272 8568 35607 15300 6348 3978 47020
internal_value=5.84933e-05 0.00119699 -0.00111521 0.000506256 -0.00175635 -0.00228664 0.00149378
internal_weight=29661.5 15056.7 14604.8 4137.17 10467.6 1179.98 13876.8
internal_count=118839 60312 58527 16572 41955 4724 55588
is_linear=0
shrinkage=0.0291483


Tree=46
num_leaves=5
num_cat=0
split_feature=5 14 9 7
split_gain=32.1204 19.6836 25.0654 16.4657
threshold=-0.093144626947719564 -0.061325974259782069 0.00083714672613541112 1.1750048672457482e-05
decision_type=2 2 2 2
left_child=-1 2 -2 -3
right_child=1 3 -4 -5
leaf_value=-0.01492763455530483 0.00047415578163777206 -0.0083792866587139234 0.0042220693875652422 -0.00034102902553482151
leaf_weight=117.49365976452827 8430.8835166394711 215.46181638538837 1844.9851442724466 19051.548380464315
leaf_count=471 33772 866 7394 76336
internal_value=5.68084e-05 0.000117564 0.00114762 -0.00043185
internal_weight=29660.4 29542.9 10275.9 19267
internal_count=118839 118368 41166 77202
is_linear=0
shrinkage=0.0291483


Tree=47
num_leaves=8
num_cat=0
split_feature=12 7 12 8 10 10 11
split_gain=43.6043 15.0293 15.6109 11.8772 17.7193 10.4829 5.01509
threshold=3.3718977585751226e-05 0.00020599263174916267 0.0030392062793967735 0.0016299532054707508 0.00066173691722420578 0.00020368088559663745 -0.0012945616778911068
decision_type=2 2 2 2 2 2 2
left_child=3 5 -3 4 -1 -2 -5
right_child=1 2 -4 6 -6 -7 -8
leaf_value=0.00056127266089381323 0.0005125578238788451 -1.0708489845618435e-05 -0.0034268512592820484 -0.0080915169690441262 0.0026993126746820153 -0.00313165712796758 -0.0012803181794252523
leaf_weight=9687.300525188446 815.36184868216515 8774.922513499856 1302.0723827034235 146.43390135467052 4986.4771917313337 3711.5142346322536 235.90937776863575
leaf_count=38799 3272 35144 5238 586 19983 14873 944
internal_value=5.51079e-05 -0.00107953 -0.000452843 0.00115569 0.00128803 -0.00247419 -0.00389262
internal_weight=29660 14603.9 10077 15056.1 14673.8 4526.88 382.343
internal_count=118839 58527 40382 60312 58782 18145 1530
is_linear=0
shrinkage=0.0291483


Tree=48
num_leaves=8
num_cat=0
split_feature=12 6 17 17 14 5 8
split_gain=38.3305 18.541 17.7158 11.6714 11.9169 11.4461 10.1506
threshold=-0.00020219688409930619 1284.8415529665201 0.27383472903029743 0.21523744778517592 0.30739764152200338 0.0097699683379578791 0.00016395645089295965
decision_type=2 2 2 2 2 2 2
left_child=3 6 -3 5 -5 -1 -2
right_child=1 2 -4 4 -6 -7 -8
leaf_value=7.4629759956737208e-05 -0.0026586671943464096 -0.0046228055262907157 -0.0011336140238651388 0.0015363865013032531 -0.0082947078345139355 -0.0072028735630140445 0.0010738748389739457
leaf_weight=637.57958625257015 716.46633972227573 1400.0196714401245 10393.102683156729 11700.600523620844 102.14765405654907 253.85981310904026 4409.7551375627518
leaf_count=2552 2869 5614 41665 46881 409 1016 17652
internal_value=-4.03328e-06 -0.000912299 -0.00154844 0.00120646 0.0014495 -0.00200312 0.000550687
internal_weight=29613.5 16919.3 11793.1 12694.2 11802.7 891.439 5126.22
internal_count=118658 67800 47279 50858 47290 3568 20521
is_linear=0
shrinkage=0.0291483


Tree=49
num_leaves=8
num_cat=0
split_feature=12 6 6 13 10 17 17
split_gain=36.176 18.5453 18.4639 15.1994 15.1473 13.1713 7.97716
threshold=-1.1792347345029495e-05 1284.8415529665201 1715.9772266039292 -0.20481503633871023 0.00031008098021530884 0.27383472903029743 0.45612892708388403
decision_type=2 2 2 2 2 2 2
left_child=2 6 4 -4 -1 -3 -2
right_child=1 5 3 -5 -6 -7 -8
leaf_value=0.0037104728964448873 -0.0010010239616685844 -0.0045738998115953241 -0.0081578906269260832 -0.00013484599466874507 0.00090226404304660627 -0.0013032780442203535 0.0015561745022283765
leaf_weight=1889.8402591049671 1666.6012199372053 1172.8870201855898 316.97728657722473 534.03957179188728 11831.190200418234 9472.557703524828 2728.007990732789
leaf_count=7570 6672 4705 1269 2138 47401 37982 10921
internal_value=-3.96065e-06 -0.00100668 0.00103093 -0.00312648 0.00128948 -0.00166428 0.00058567
internal_weight=29612.1 15040.1 14572 851.017 13721 10645.4 4394.61
internal_count=118658 60280 58378 3407 54971 42687 17593
is_linear=0
shrinkage=0.0291483


Tree=50
num_leaves=8
num_cat=0
split_feature=6 17 16 11 2 10 3
split_gain=31.148 12.8456 10.3975 7.40839 11.344 10.9508 7.27945
threshold=1237.4855952971814 0.21038446330341784 2.7400510249142491 0.00018793993438878664 0.00094721588825860583 0.0012193314170530622 -0.00011023322075225414
decision_type=2 2 2 2 2 2 2
left_child=3 6 -3 5 -5 -1 -2
right_child=1 2 -4 4 -6 -7 -8
leaf_value=0.0026938983408576448 -0.00045302797249549727 -0.00018094924403731631 -0.0038218095649707922 -0.0024892373597379452 0.0047100430452741149 -0.001228351462764958 -0.0042081308107752204
leaf_weight=4799.4023930281401 695.55025269091129 20615.197011813521 685.15358789265156 698.95487993955612 249.35054638981819 688.65819098055363 1178.5946766585112
leaf_count=19254 2785 82584 2749 2800 999 2762 4725
internal_value=-3.85929e-06 -0.00050207 -0.000298467 0.00178947 -0.000585184 0.00220076 -0.00281344
internal_weight=29610.9 23174.5 21300.4 6436.37 948.305 5488.06 1874.14
internal_count=118658 92843 85333 25815 3799 22016 7510
is_linear=0
shrinkage=0.0291483


Tree=51
num_leaves=5
num_cat=0
split_feature=5 12 14 12
split_gain=34.7015 34.4161 22.0246 14.6857
threshold=-0.093144626947719564 -0.00054330615553123678 0.27916798508762308 0.0036303459699517393
decision_type=2 2 2 2
left_child=-1 2 -2 -3
right_child=1 3 -4 -5
leaf_value=-0.015589849343018318 0.0016985319554852002 -0.00039175837453175893 -0.011451856182911975 -0.0041850350149678873
leaf_weight=116.19902844727039 9613.2137261629105 18865.524874746799 105.87945276498795 905.42147110402584
leaf_count=466 38533 75572 424 3648
internal_value=6.93143e-05 0.000132231 0.00155219 -0.00056587
internal_weight=29606.2 29490 9719.09 19770.9
internal_count=118643 118177 38957 79220
is_linear=0
shrinkage=0.0291483


Tree=52
num_leaves=8
num_cat=0
split_feature=12 4 7 12 13 7 1
split_gain=32.4003 14.5131 15.8304 13.6445 17.1858 15.6342 6.61382
threshold=-0.00054330615553123678 0.00068857000189746027 8.7144548702370355e-05 0.0036303459699517393 -0.071451344724758517 0.00019252043950646484 -0.00044828687279511922
decision_type=2 2 2 2 2 2 2
left_child=1 2 -1 5 -5 -2 -3
right_child=3 6 -4 4 -6 -7 -8
leaf_value=0.0062886457730140493 -0.0016088737722055001 0.00058618186537272743 0.00092747155071242859 0.0071249941158163565 -0.0054774336633789849 0.00015983153356040228 0.0090873839434483881
leaf_weight=490.52416270971298 6426.4825125932693 102.844308629632 8875.5098067522049 100.09667222201824 816.40175843238831 12497.939018532634 295.25718845427036
leaf_count=1966 25753 412 35580 402 3292 50056 1182
internal_value=6.7225e-05 0.00144155 0.00120961 -0.000609175 -0.00407592 -0.000440883 0.00686855
internal_weight=29605.1 9764.14 9366.03 19840.9 916.498 18924.4 398.101
internal_count=118643 39140 37546 79503 3694 75809 1594
is_linear=0
shrinkage=0.0291483


Tree=53
num_leaves=5
num_cat=0
split_feature=5 12 14 12
split_gain=32.778 30.5832 20.7758 13.0641
threshold=-0.093144626947719564 -0.00054330615553123678 0.27916798508762308 0.0036303459699517393
decision_type=2 2 2 2
left_child=-1 2 -2 -3
right_child=1 3 -4 -5
leaf_value=-0.01515632511151113 0.0016072251557286534 -0.00036748044782122915 -0.01116604563827172 -0.0039464539213517943
leaf_weight=116.15831923484802 9612.0874309539795 18865.054985672235 105.85957555472851 904.75621297955513
leaf_count=466 38533 75572 424 3648
internal_value=6.52976e-05 0.00012644 0.00146509 -0.000531645
internal_weight=29603.9 29487.8 9717.95 19769.8
internal_count=118643 118177 38957 79220
is_linear=0
shrinkage=0.0291483


Tree=54
num_leaves=8
num_cat=0
split_feature=6 12 10 14 8 6 8
split_gain=30.0731 19.8906 21.1612 15.5717 15.2181 14.6785 12.3095
threshold=1269.7430709691337 0.00046821072561969984 0.00031353359021584723 0.18600101711944381 0.00017251782158966608 1252.0525819645975 0.0016299532054707508
decision_type=2 2 2 2 2 2 2
left_child=4 3 -3 -2 5 -1 -6
right_child=1 2 -4 -5 6 -7 -8
leaf_value=0.00027629420538145924 -0.00013521827223929265 -0.0062780994587068517 -0.0012736947605698188 0.0044648150640445184 0.0018455703983065884 -0.0069355941536602137 -0.0034922627121755875
leaf_weight=763.02207441627979 9931.3256131708622 788.4924782961607 7685.0410120487213 663.67067421972752 9066.5460095852613 345.47623153030872 379.05136586725712
leaf_count=3056 39769 3163 30826 2659 36349 1384 1517
internal_value=2.81257e-06 -0.000688065 -0.00174055 0.000153675 0.00125096 -0.00197473 0.00163027
internal_weight=29622.6 19068.5 8473.53 10595 10554.1 1108.5 9445.6
internal_count=118723 76417 33989 42428 42306 4440 37866
is_linear=0
shrinkage=0.0291483


Tree=55
num_leaves=8
num_cat=0
split_feature=12 12 14 18 10 10 10
split_gain=25.5756 14.5658 13.9184 13.8008 10.1649 15.4916 12.2419
threshold=-0.0016837591652040691 0.0030392062793967735 -0.11090918311126179 0.62260809107496484 0.00070163204041216753 0.00061606235282245551 0.00080859870831996507
decision_type=2 2 2 2 2 2 2
left_child=4 3 -3 -2 5 -1 -6
right_child=1 2 -4 -5 6 -7 -8
leaf_value=0.0022774329737464964 -0.0012779032791968617 0.0066624631896945001 -0.0040851739650991769 0.00026773042798529237 0.0073381968892311973 -0.0040519702321663948 0.0022855111996569763
leaf_weight=1092.1478814631701 6811.9725961536169 107.78995984792709 1277.7513741403818 17534.082183882594 522.90191303193569 465.70466154813766 1808.9378807395697
leaf_count=4382 27291 433 5148 70244 2099 1869 7257
internal_value=2.70784e-06 -0.000330293 -0.0032336 -0.0001648 0.00220461 0.000383139 0.0034222
internal_weight=29621.3 25731.6 1385.54 24346.1 3889.69 1557.85 2331.84
internal_count=118723 103116 5581 97535 15607 6251 9356
is_linear=0
shrinkage=0.0291483


Tree=56
num_leaves=8
num_cat=0
split_feature=12 8 8 12 14 18 14
split_gain=24.1099 16.1183 17.6765 14.0599 24.9415 18.1071 5.11552
threshold=-0.0016837591652040691 0.0016299532054707508 0.00031292706401180227 0.0010440210287963158 -0.058537910366976274 0.60897876852857336 -0.08731459126104156
decision_type=2 2 2 2 2 2 2
left_child=1 2 -1 5 -5 -2 -3
right_child=3 6 -4 4 -6 -7 -8
leaf_value=-0.0028097455773827013 -0.0013494950912436856 -0.0094025047249343095 0.0034378931637765908 0.0022791098836457868 -0.0023343269446905006 0.00064172953913046061 -0.0015088355831839124
leaf_weight=434.69045747816563 5403.9233364313841 106.69661663472652 3158.9586230069399 1218.2752061188221 5376.4235647767782 13732.464619487524 188.91676312685013
leaf_count=1743 21650 427 12681 4882 21574 55010 756
internal_value=2.64962e-06 0.00214066 0.00267965 -0.000320659 -0.00148101 7.92859e-05 -0.00436266
internal_weight=29620.3 3889.26 3593.65 25731.1 6594.7 19136.4 295.613
internal_count=118723 15607 14424 103116 26456 76660 1183
is_linear=0
shrinkage=0.0291483


Tree=57
num_leaves=5
num_cat=0
split_feature=5 6 16 8
split_gain=26.8788 20.7346 17.8198 15.9241
threshold=-0.093144626947719564 1254.8899193786058 2.7400510249142491 0.0016299532054707508
decision_type=2 2 2 2
left_child=-1 3 -3 -2
right_child=1 2 -4 -5
leaf_value=-0.01372233327332085 0.0014953527619480191 -0.00031024096885481358 -0.0052796100246475033 -0.0048273563492005562
leaf_weight=117.57961136102676 8280.0245590060949 20274.04854850471 628.68174947798252 349.32032762467861
leaf_count=472 33208 81243 2524 1398
internal_value=-1.9609e-05 3.59908e-05 -0.000460218 0.0012378
internal_weight=29649.7 29532.1 20902.7 8629.34
internal_count=118845 118373 83767 34606
is_linear=0
shrinkage=0.0291483


Tree=58
num_leaves=8
num_cat=0
split_feature=12 8 18 2 12 8 9
split_gain=23.7301 20.8588 15.6766 14.3275 12.1086 11.5662 10.5993
threshold=0.00046821072561969984 0.00026040120662000073 0.69842284631325791 0.00037777580337659545 0.0019607202899724206 0.0020813378551078217 0.0010565360622558249
decision_type=2 2 2 2 2 2 2
left_child=2 4 6 -3 -2 -4 -1
right_child=1 3 5 -5 -6 -7 -8
leaf_value=-0.00025457104462973929 -0.0042916652221498975 0.00070652411996811079 0.0012827089500165101 -0.0017064905002650225 0.0038289223554640235 -0.0063945950899959485 -0.0048011723186522541
leaf_weight=5876.9616819024086 2013.5677963197231 4294.7960476875305 12598.513742879033 4066.7985979616642 165.72835324704647 165.41009356081486 466.99196967482567
leaf_count=23543 8075 17209 50497 16323 665 662 1871
internal_value=-1.90917e-05 -0.00112917 0.00059333 -0.000467221 -0.003667 0.00118189 -0.000590551
internal_weight=29648.8 10540.9 19107.9 8361.59 2179.3 12763.9 6343.95
internal_count=118845 42272 76573 33532 8740 51159 25414
is_linear=0
shrinkage=0.0291483


Tree=59
num_leaves=5
num_cat=0
split_feature=5 12 10 5
split_gain=25.3479 22.4639 23.6048 13.5531
threshold=-0.093144626947719564 0.00046821072561969984 0.00031353359021584723 -0.044850891633972663
decision_type=2 2 2 2
left_child=-1 3 -3 -2
right_child=1 2 -4 -5
leaf_value=-0.013328827777629027 0.00353274633200127 -0.0054237969605029808 -0.00061119094982358248 0.00042394759433622757
leaf_weight=117.51755772531033 1273.6537116318941 948.80350083112717 9544.7970830947161 17763.026715144515
leaf_count=472 5105 3807 38277 71184
internal_value=-1.85542e-05 3.54279e-05 -0.00104719 0.000632274
internal_weight=29647.8 29530.3 10493.6 19036.7
internal_count=118845 118373 42084 76289
is_linear=0
shrinkage=0.0291483


Tree=60
num_leaves=5
num_cat=0
split_feature=5 6 15 8
split_gain=23.6964 20.9979 13.3548 9.7352
threshold=-0.093144626947719564 1224.1923751233901 1.051414206757275e-07 0.0016299532054707508
decision_type=2 2 2 2
left_child=-1 3 -3 -2
right_child=1 2 -4 -5
leaf_value=-0.012894563496319608 0.0020975502472096253 -0.0071595073403852121 -0.00024017912417500047 -0.0032036918199512382
leaf_weight=117.20903538167477 4683.5139522254467 235.84087757766247 24283.531951904297 310.57667948305607
leaf_count=471 18807 947 97311 1243
internal_value=-8.64673e-06 4.35085e-05 -0.000307362 0.00176562
internal_weight=29630.7 29513.5 24519.4 4994.09
internal_count=118779 118308 98258 20050
is_linear=0
shrinkage=0.0291483


Tree=61
num_leaves=5
num_cat=0
split_feature=5 12 17 9
split_gain=22.3746 21.2149 17.135 16.8457
threshold=-0.093144626947719564 0.00046821072561969984 0.230835637870173 0.00023374128725274732
decision_type=2 2 2 2
left_child=-1 2 -2 -3
right_child=1 3 -4 -5
leaf_value=-0.012533692789596328 -0.0020273047696191819 -0.0067036997263604913 0.00090929991893081916 -0.00077286818932753923
leaf_weight=117.13635264337063 1868.4696079343557 420.60217821598053 17188.153610676527 10035.472754731774
leaf_count=471 7486 1689 68886 40247
internal_value=-8.44715e-06 4.22181e-05 0.000621067 -0.00101262
internal_weight=29629.8 29512.7 19056.6 10456.1
internal_count=118779 118308 76372 41936
is_linear=0
shrinkage=0.0291483


Tree=62
num_leaves=5
num_cat=0
split_feature=5 12 6 8
split_gain=21.1279 20.4351 14.6665 13.3912
threshold=-0.093144626947719564 -0.00054330615553123678 1720.5461699094888 4.8463529017188298e-05
decision_type=2 2 2 2
left_child=-1 2 -2 -3
right_child=1 3 -4 -5
leaf_value=-0.012183677310698252 0.001340927074347338 -0.0054296164053397409 -0.0050973809475724687 -0.00038002100582987708
leaf_weight=117.05651590228081 9404.9763286560774 453.23756904900074 306.99702571332455 19346.666109800339
leaf_count=471 37720 1823 1229 77536
internal_value=-8.2492e-06 4.09688e-05 0.00113594 -0.000496168
internal_weight=29628.9 29511.9 9711.97 19799.9
internal_count=118779 118308 38949 79359
is_linear=0
shrinkage=0.0291483


Tree=63
num_leaves=8
num_cat=0
split_feature=6 17 12 14 12 3 12
split_gain=23.949 16.8861 15.1598 10.8477 10.1205 8.3063 7.78164
threshold=1224.1923751233901 0.22059445960845978 0.00098044360887437313 -0.029796691755633143 -0.0025260080484094585 -0.0001280722274421132 -0.0018451760236402701
decision_type=2 2 2 2 2 2 2
left_child=3 5 -3 6 -5 -2 -1
right_child=1 2 -4 4 -6 -7 -8
leaf_value=0.0048145099311161085 -0.0005843644992296436 0.00021866210841471064 -0.0014768735232846433 -0.0036626937436007269 0.0012054782200347708 -0.0042763978657893529 0.0015882415016820319
leaf_weight=1155.2794022262096 818.28358586132526 16183.258495956659 6191.3903367370367 438.60907539725304 2018.6476025283337 1401.1835627406836 1407.4136883020401
leaf_count=4649 3277 64821 24848 1763 8096 5620 5650
internal_value=-0.000116705 -0.0004912 -0.000250605 0.00171735 0.000334365 -0.00291428 0.0030436
internal_weight=29614.1 24594.1 22374.6 5019.95 2457.26 2219.47 2562.69
internal_count=118724 98566 89669 20158 9859 8897 10299
is_linear=0
shrinkage=0.0291483


Tree=64
num_leaves=8
num_cat=0
split_feature=17 12 9 12 3 0 4
split_gain=19.9077 20.8495 12.1513 9.94857 7.14506 9.42288 5.64936
threshold=0.21523744778517592 3.3718977585751226e-05 0.00024487874103126486 0.0029199380487162142 -0.00014580900475021116 0.65175528324150533 -0.00075180966660586522
decision_type=2 2 2 2 2 2 2
left_child=4 2 -2 -3 6 -6 -1
right_child=1 3 -4 -5 5 -7 -8
leaf_value=-0.0039195590433276657 0.0034080670676065847 -0.0004345000899920263 0.00060423847514313826 -0.0029898815943339538 -0.0046982298902417076 0.0032941387259498491 0.0010169797778043649
leaf_weight=291.42730391025543 1465.6745493412018 11981.090353429317 12382.196094930172 1447.7970018237829 1320.3096178770065 135.12781195342541 589.19320607185364
leaf_count=1167 5874 48015 49635 5835 5296 542 2360
internal_value=-0.000113313 0.000107877 0.000901377 -0.000710339 -0.00269381 -0.00394742 -0.000624308
internal_weight=29612.8 27276.8 13847.9 13428.9 2336.06 1455.44 880.621
internal_count=118724 109359 55509 53850 9365 5838 3527
is_linear=0
shrinkage=0.0291483


Tree=65
num_leaves=8
num_cat=0
split_feature=17 12 14 9 3 12 4
split_gain=18.7655 19.8377 22.7875 13.0554 6.73567 8.59514 5.32675
threshold=0.21523744778517592 0.00096143229390455143 -0.055665879061756476 0.00051333462577468375 -0.00014580900475021116 0.0015294262134471703 -0.00075180966660586522
decision_type=2 2 2 2 2 2 2
left_child=4 3 -3 -2 6 -6 -1
right_child=1 2 -4 -5 5 -7 -8
leaf_value=-0.0038059525423395639 -0.00015110492599055791 0.0022002530343279343 -0.0021075616528408313 0.0013177258075895047 -0.0045655407561786968 0.0029398089779676265 0.00098747521666140456
leaf_weight=291.4398238658905 10729.125193029642 1289.9249854981899 5391.8338911980391 9865.0632071644068 1314.7133118957281 140.49032038450241 589.20150607824326
leaf_count=1167 42996 5170 21645 39548 5274 564 2360
internal_value=-0.000110012 0.000104736 -0.00127491 0.000552487 -0.00261551 -0.00383285 -0.000606252
internal_weight=29611.8 27275.9 6681.76 20594.2 2335.84 1455.2 880.641
internal_count=118724 109359 26815 82544 9365 5838 3527
is_linear=0
shrinkage=0.0291483


Tree=66
num_leaves=8
num_cat=0
split_feature=12 10 8 7 10 17 12
split_gain=20.8069 22.643 16.0812 12.4349 16.9925 10.5179 8.14998
threshold=-0.00054330615553123678 0.00031008098021530884 0.00039679817292069238 0.00011610273704629351 0.00025039228346126 0.17026511238668599 -0.00077639542919243196
decision_type=2 2 2 2 2 2 2
left_child=1 6 -3 5 -5 -2 -1
right_child=3 2 -4 4 -6 -7 -8
leaf_value=0.0087349813268586193 -0.0065719676357403915 -0.0010029157855200067 0.0015966108054980084 0.0034027664409019441 -0.00043645413191359216 -0.0015352321032982468 0.0026176293535218362
leaf_weight=410.62859062850475 394.02558480203152 3063.30892765522 5930.4682173579931 1042.7662253826857 15332.298883482814 3104.7944505214691 334.39975236356258
leaf_count=1648 1583 12277 23796 4178 61457 12450 1342
internal_value=1.22531e-05 0.00111579 0.000711095 -0.000528564 -0.000191526 -0.0021051 0.00598752
internal_weight=29612.7 9738.81 8993.78 19873.9 16375.1 3498.82 745.028
internal_count=118731 39063 36073 79668 65635 14033 2990
is_linear=0
shrinkage=0.0291483


Tree=67
num_leaves=8
num_cat=0
split_feature=12 9 9 8 10 13 8
split_gain=19.7454 14.1527 18.6744 12.9307 14.4821 11.9861 7.46926
threshold=-0.00022761852511369283 0.00024134475579415079 0.00012384175289715277 4.8463529017188298e-05 0.00020368088559663745 0.29664816670981914 2.932313446905387e-05
decision_type=2 2 2 2 2 2 2
left_child=1 2 -1 6 -5 -3 -2
right_child=3 5 -4 4 -6 -7 -8
leaf_value=-0.0059878122755363345 -0.0019534335666233521 0.00079452507209297528 0.0060170894444994457 0.0027799022335089035 -0.00073225345928470736 -0.004371027979255415 -0.010173895784090123
leaf_weight=124.30128489434719 189.02093608677387 11135.795125693083 794.4145180284977 1061.4552977234125 15733.02204811573 391.64350531995296 182.02101993560791
leaf_count=498 762 44650 3186 4256 63078 1568 733
internal_value=1.19007e-05 0.000895727 0.00437079 -0.000628947 -0.000509882 0.000618132 -0.00598598
internal_weight=29611.7 12446.2 918.716 17165.5 16794.5 11527.4 371.042
internal_count=118731 49902 3684 68829 67334 46218 1495
is_linear=0
shrinkage=0.0291483


Tree=68
num_leaves=8
num_cat=0
split_feature=6 9 8 16 1 5 8
split_gain=18.1476 15.0619 15.9471 13.9587 16.1349 11.7428 10.3186
threshold=1269.7430709691337 0.00051598201520854992 0.0016299532054707508 2.7400510249142491 -4.7392670232023638e-05 0.044002336569859024 4.8463529017188298e-05
decision_type=2 2 2 2 2 2 2
left_child=1 5 -3 6 -5 -1 -2
right_child=3 2 -4 4 -6 -7 -8
leaf_value=-0.00054618486542967293 -0.0050203562194715079 0.0023136961593939139 -0.0038105060965446802 0.0017922244329706513 -0.0083906482389510487 0.008777399217920567 -0.00028260035931619917
leaf_weight=4351.3278656750917 395.6904072612524 5692.914353042841 382.24327778816223 196.66064648330212 387.4762667119503 114.31220147013664 18090.083136633039
leaf_count=17442 1594 22846 1530 788 1559 458 72514
internal_value=1.15259e-05 0.000981956 0.00192643 -0.00052491 -0.0049478 -0.000302632 -0.000384614
internal_weight=29610.7 10540.8 6075.16 19069.9 584.137 4465.64 18485.8
internal_count=118731 42276 24376 76455 2347 17900 74108
is_linear=0
shrinkage=0.0291483


Tree=69
num_leaves=8
num_cat=0
split_feature=6 12 9 13 13 12 12
split_gain=21.0527 12.5014 18.1084 12.5337 6.86708 10.2932 8.69689
threshold=1226.6497143881554 0.00046821072561969984 0.00023374128725274732 -0.32546356013116856 -0.16079491770229246 -0.0026074806717587798 -0.001936222580675674
decision_type=2 2 2 2 2 2 2
left_child=4 3 -3 -2 6 -6 -1
right_child=1 2 -4 -5 5 -7 -8
leaf_value=0.0051977733299484645 -0.0019608018832527217 -0.0070276739236255171 -0.00088875599317249474 0.00053173114536846815 -0.0026365365396063311 0.0016237127261983922 0.0012599409667522934
leaf_weight=880.41530059278011 1981.6952179223299 423.28442214429379 9409.475067153573 12543.232485771179 579.73081363737583 2767.8604343533516 1033.755230024457
leaf_count=3548 7939 1701 37756 50240 2330 11102 4155
internal_value=9.25467e-06 -0.000351912 -0.00115436 0.000191325 0.00168066 0.000884514 0.00307235
internal_weight=29619.4 24357.7 9832.76 14524.9 5261.76 3347.59 1914.17
internal_count=118771 97636 39457 58179 21135 13432 7703
is_linear=0
shrinkage=0.0291483


Tree=70
num_leaves=8
num_cat=0
split_feature=12 8 12 9 18 14 9
split_gain=17.1078 17.4768 14.4097 12.6863 10.1844 12.959 9.63167
threshold=0.00046821072561969984 0.00026040120662000073 0.0030392062793967735 0.00069089836550123291 0.60897876852857336 0.18600101711944381 0.0010565360622558249
decision_type=2 2 2 2 2 2 2
left_child=4 3 -3 -2 6 -6 -1
right_child=1 2 -4 -5 5 -7 -8
leaf_value=-0.00029722297290509235 -0.0038289615743990601 0.00020775202798728018 -0.0030730590213286103 0.005184484791146202 0.00070030030010227251 0.0044296383396460236 -0.0057014126146191233
leaf_weight=4506.4670115560293 2049.8708017170429 6986.5001024454832 1354.9103254675865 138.39694510400295 13449.217210546136 837.72452363371849 295.2408354729414
leaf_count=18059 8228 28000 5466 555 53924 3356 1183
internal_value=8.96924e-06 -0.000934068 -0.000325852 -0.00325072 0.000529234 0.000919548 -0.000631644
internal_weight=29618.3 10529.7 8341.41 2188.27 19088.6 14286.9 4801.71
internal_count=118771 42249 33466 8783 76522 57280 19242
is_linear=0
shrinkage=0.0291483


Tree=71
num_leaves=7
num_cat=0
split_feature=6 10 10 8 3 5
split_gain=19.5145 12.7476 13.7715 9.38033 8.34308 6.41585
threshold=1226.6497143881554 8.8466055533254959e-05 0.0002418724374227265 0.0016299532054707508 0.00036529418798977067 -0.0016933725835537562
decision_type=2 2 2 2 2 2
left_child=3 -2 -3 4 -1 -5
right_child=1 2 -4 5 -6 -7
leaf_value=0.0024261331088692968 -0.0097546465959681677 0.0017595180535098962 -0.00052737692160524121 -0.0073426859562868855 -0.00096985251099588059 0.00080105568772863896
leaf_weight=4222.7162166684866 118.10261760652065 2490.1842825114727 21748.106004849076 157.64238464832306 715.99445624649525 164.64716337621212
leaf_count=16976 475 9991 87170 631 2869 659
internal_value=8.70948e-06 -0.00033901 -0.000292258 0.00161803 0.00193293 -0.0031737
internal_weight=29617.4 24356.4 24238.3 5261 4938.71 322.29
internal_count=118771 97636 97161 21135 19845 1290
is_linear=0
shrinkage=0.0291483


Tree=72
num_leaves=5
num_cat=0
split_feature=5 8 5 9
split_gain=16.1738 17.3119 22.7741 14.8002
threshold=-0.093144626947719564 0.00035649610438755875 -0.043023283963918656 0.00027683767416963781
decision_type=2 2 2 2
left_child=-1 2 -2 -3
right_child=1 3 -4 -5
leaf_value=-0.010502757798906616 0.0037918969633072837 0.010179639063983576 -0.0010388991034563238 0.00065338894135552399
leaf_weight=118.65916793048382 888.9473243355751 136.20484192669392 11678.95151463151 16800.513548627496
leaf_count=478 3565 546 46820 67389
internal_value=7.9724e-05 0.000123105 -0.000696407 0.000731267
internal_weight=29623.3 29504.6 12567.9 16936.7
internal_count=118798 118320 50385 67935
is_linear=0
shrinkage=0.0291483


Tree=73
num_leaves=8
num_cat=0
split_feature=10 10 8 10 10 4 13
split_gain=16.1425 22.8561 25.6479 20.8036 18.3223 19.8059 15.6402
threshold=0.00066173691722420578 0.00047877321839100476 0.00047938212632099374 0.00051037940775783134 0.00082058748453708006 0.0038526205498208817 -0.15502965901774926
decision_type=2 2 2 2 2 2 2
left_child=1 2 -1 -3 5 -2 -6
right_child=4 3 -4 -5 6 -7 -8
leaf_value=-0.00010279398166602656 0.0028383606353323629 -0.0049286183290850796 0.0044957046322689296 -0.00096421131583476912 0.0026468351464638317 -0.0074419165724411472 -0.00074929507335870494
leaf_weight=10516.270978227258 4143.2497298121452 1403.3288961499929 1138.8518519550562 5608.9302179664373 1478.5162686705589 162.08406843245029 5171.8073746711016
leaf_count=42163 16614 5625 4566 22486 5935 653 20756
internal_value=7.74067e-05 -0.00044381 0.000347174 -0.00175842 0.000965455 0.00244638 6.52033e-06
internal_weight=29623 18667.4 11655.1 7012.26 10955.7 4305.33 6650.32
internal_count=118798 74840 46729 28111 43958 17267 26691
is_linear=0
shrinkage=0.0291483


Tree=74
num_leaves=5
num_cat=0
split_feature=5 10 10 10
split_gain=15.2931 17.7356 21.1529 16.2934
threshold=-0.093144626947719564 0.00066173691722420578 0.00047877321839100476 0.00082058748453708006
decision_type=2 2 2 2
left_child=-1 2 -2 -3
right_child=1 3 -4 -5
leaf_value=-0.010218801328631058 0.00033300394137360782 0.0024525250941233394 -0.0016945758708067583 0.00014353695018342485
leaf_weight=118.57532614469528 11635.017016723752 4280.2921560555696 6997.8430823981762 6590.8895182162523
leaf_count=478 46648 17167 28053 26452
internal_value=7.51384e-05 0.000117308 -0.000428514 0.00105277
internal_weight=29622.6 29504 18632.9 10871.2
internal_count=118798 118320 74701 43619
is_linear=0
shrinkage=0.0291483


Tree=75
num_leaves=5
num_cat=0
split_feature=5 12 13 5
split_gain=17.6951 13.9849 11.8474 10.9706
threshold=-0.093144626947719564 -0.00172079407762478 -0.40279580393468173 0.044002336569859024
decision_type=2 2 2 2
left_child=-1 3 -3 -2
right_child=1 2 -4 -5
leaf_value=-0.011190940991411436 0.001948440848357171 -0.0029980839408358523 -0.00012088084994670049 -0.0064539568434470547
leaf_weight=117.46480549871922 3604.5891264975071 1275.9692427515984 24476.812310889363 133.50590951740742
leaf_count=474 14482 5115 98134 536
internal_value=-6.70048e-05 -2.183e-05 -0.000263676 0.00164339
internal_weight=29608.3 29490.9 25752.8 3738.1
internal_count=118741 118267 103249 15018
is_linear=0
shrinkage=0.0291483


Tree=76
num_leaves=8
num_cat=0
split_feature=8 12 13 12 4 12 12
split_gain=12.5746 15.2495 20.2933 14.4308 9.81262 9.29845 8.63986
threshold=0.00031292706401180227 0.0030392062793967735 -0.091878337263299595 0.00045432247920799512 -0.001708867533739958 -0.00172079407762478 0.0019154752042103058
decision_type=2 2 2 2 2 2 2
left_child=3 5 -3 4 -1 -2 -5
right_child=1 2 -4 6 -6 -7 -8
leaf_value=-0.0039822530298372748 0.0019909726578314236 0.0081303923947261304 -0.0038184283013818474 -0.0030605337981053412 0.00010723954574000678 0.00028689725621725638 0.0021003339258241316
leaf_weight=533.02594289183617 3356.8993525654078 130.75781701505184 1196.8849503993988 2773.1528008282185 7023.0866147428751 14291.416033104062 302.65576297044754
leaf_count=2138 13490 525 4833 11130 28145 57265 1215
internal_value=-6.50988e-05 0.000384491 -0.00262404 -0.000867479 -0.000182396 0.000611203 -0.00254968
internal_weight=29607.9 18976 1327.64 10631.9 7556.11 17648.3 3075.81
internal_count=118741 76113 5358 42628 30283 70755 12345
is_linear=0
shrinkage=0.0291483


Tree=77
num_leaves=5
num_cat=0
split_feature=5 9 2 14
split_gain=16.733 12.4479 15.3659 11.1377
threshold=-0.093144626947719564 0.00049758129519631366 -0.00011825416510713326 0.29169513333618341
decision_type=2 2 2 2
left_child=-1 2 -2 -3
right_child=1 3 -4 -5
leaf_value=-0.010885436862773823 0.00061887300347061489 0.00060390032659823727 -0.001427402878037242 -0.0070993039063159732
leaf_weight=117.35670061409473 4926.7175259590149 15927.170693352818 8478.0320359319448 157.5264003276825
leaf_count=474 19745 63894 33996 632
internal_value=-6.31879e-05 -1.92761e-05 -0.000675197 0.000527359
internal_weight=29606.8 29489.4 13404.7 16084.7
internal_count=118741 118267 53741 64526
is_linear=0
shrinkage=0.0291483


Tree=78
num_leaves=7
num_cat=0
split_feature=6 7 9 9 12 7
split_gain=21.6202 11.5065 13.762 11.2102 8.67219 7.60835
threshold=1248.5191485382732 4.7913491118400918e-05 0.00026366111079037134 0.00016458402114501205 -0.0005896379838845003 0.0016179093523282712
decision_type=2 2 2 2 2 2
left_child=3 4 -3 -1 -2 -5
right_child=1 2 -4 5 -6 -7
leaf_value=0.0097189254394201806 0.0044354680026531959 0.0017259845042427032 -0.00055873973993845235 0.001391655247915788 -0.004145500923328463 -0.0033744869830147389
leaf_weight=130.29145702719688 107.58728240430355 2552.8753585964441 18090.013583168387 7408.5528371781111 1011.6831561028957 292.41658361256123
leaf_count=522 431 10235 72515 29746 4069 1172
internal_value=4.04452e-05 -0.000432138 -0.00027601 0.00135349 -0.00330601 0.00120952
internal_weight=29593.4 21762.2 20642.9 7831.26 1119.27 7700.97
internal_count=118690 87250 82750 31440 4500 30918
is_linear=0
shrinkage=0.0291483


Tree=79
num_leaves=8
num_cat=0
split_feature=6 8 10 2 8 4 13
split_gain=20.3801 12.324 15.0456 13.4259 11.7176 9.36002 7.19419
threshold=1248.5191485382732 0.0003330328582511844 0.00040574258605892232 0.0010517204842102276 0.0016299532054707508 -0.0054097370753525857 0.017092762444802626
decision_type=2 2 2 2 2 2 2
left_child=4 3 -3 -2 5 -1 -6
right_child=1 2 -4 -5 6 -7 -8
leaf_value=0.0064653963870948648 -0.0011040684317607334 0.0031116271773647033 -0.00017107745496162626 -0.01116545169963582 -0.0066148617044205554 0.0013429816003321621 0.0023298444209718955
leaf_weight=313.10544806718826 9128.7619375437498 1323.1739340126514 11199.233256295323 110.55328026413918 244.57522976398468 7165.890618622303 107.14360186457634
leaf_count=1263 36603 5301 44902 444 979 28769 429
internal_value=3.92923e-05 -0.000419535 0.000176185 -0.00122694 0.00131418 0.00155905 -0.00385912
internal_weight=29592.4 21761.7 12522.4 9239.32 7830.71 7479 351.719
internal_count=118690 87250 50203 37047 31440 30032 1408
is_linear=0
shrinkage=0.0291483


Tree=80
num_leaves=8
num_cat=0
split_feature=6 8 12 12 8 10 5
split_gain=19.2126 11.6182 17.0989 13.4966 11.0452 9.00187 5.55845
threshold=1248.5191485382732 0.0003330328582511844 0.0025547355720098347 0.00045432247920799512 0.0016299532054707508 0.00020976915583576468 -0.0016933725835537562
decision_type=2 2 2 2 2 2 2
left_child=4 3 -3 -2 5 -1 -6
right_child=1 2 -4 -5 6 -7 -8
leaf_value=0.0070482279780799649 -0.00041141584240500073 0.00059628795707971662 -0.0025547646746192855 -0.0027817960594385674 -0.0074596919673608755 0.0013297870601410434 -0.00018998662275722904
leaf_weight=238.24412541091442 6200.1864022910595 10834.504066571593 1687.9257125258446 3038.7466684728861 172.34190200269222 7240.0758741050959 179.37269552052021
leaf_count=955 24844 43398 6805 12203 690 29077 718
internal_value=3.81435e-05 -0.000407339 0.000171063 -0.0011913 0.00127604 0.0015138 -0.00374664
internal_weight=29591.4 21761.4 12522.4 9238.93 7830.03 7478.32 351.715
internal_count=118690 87250 50203 37047 31440 30032 1408
is_linear=0
shrinkage=0.0291483


end of trees

feature_importances:
vwap_dev_30m=91
fracdiff_close=68
vol_5m=59
vol_60m=41
trade_flow_imb_30m=35
vol_1m=31
vol_30m=31
hurst=29
trade_flow_imb_5m=27
vol_ratio_30m=24
momentum_5m=22
momentum_10m=17
trades_intensity=11
momentum_2m=10
momentum_1m=8
vol_ratio_5m=8
hl_range=5
obi=4
vwap_dev_5m=3

parameters:
[boosting: gbdt]
[objective: binary]
[metric: binary_logloss]
[tree_learner: serial]
[device_type: cpu]
[data_sample_strategy: bagging]
[data: ]
[valid: ]
[num_iterations: 81]
[learning_rate: 0.0291483]
[num_leaves: 8]
[num_threads: -1]
[seed: 46]
[deterministic: 0]
[force_col_wise: 0]
[force_row_wise: 0]
[histogram_pool_size: -1]
[max_depth: 3]
[min_data_in_leaf: 387]
[min_sum_hessian_in_leaf: 0.001]
[bagging_fraction: 0.923145]
[pos_bagging_fraction: 1]
[neg_bagging_fraction: 1]
[bagging_freq: 3]
[bagging_seed: 10626]
[bagging_by_query: 0]
[feature_fraction: 0.504656]
[feature_fraction_bynode: 1]
[feature_fraction_seed: 28005]
[extra_trees: 0]
[extra_seed: 28586]
[early_stopping_round: 0]
[early_stopping_min_delta: 0]
[first_metric_only: 0]
[max_delta_step: 0]
[lambda_l1: 0.0109118]
[lambda_l2: 1.00115]
[linear_lambda: 0]
[min_gain_to_split: 0.49587]
[drop_rate: 0.1]
[max_drop: 50]
[skip_drop: 0.5]
[xgboost_dart_mode: 0]
[uniform_drop: 0]
[drop_seed: 23790]
[top_rate: 0.2]
[other_rate: 0.1]
[min_data_per_group: 100]
[max_cat_threshold: 32]
[cat_l2: 10]
[cat_smooth: 10]
[max_cat_to_onehot: 4]
[top_k: 20]
[monotone_constraints: ]
[monotone_constraints_method: basic]
[monotone_penalty: 0]
[feature_contri: ]
[forcedsplits_filename: ]
[refit_decay_rate: 0.9]
[cegb_tradeoff: 1]
[cegb_penalty_split: 0]
[cegb_penalty_feature_lazy: ]
[cegb_penalty_feature_coupled: ]
[path_smooth: 5.09023]
[interaction_constraints: ]
[verbosity: -1]
[saved_feature_importance_type: 0]
[use_quantized_grad: 0]
[num_grad_quant_bins: 4]
[quant_train_renew_leaf: 0]
[stochastic_rounding: 1]
[linear_tree: 0]
[max_bin: 255]
[max_bin_by_feature: ]
[min_data_in_bin: 3]
[bin_construct_sample_cnt: 200000]
[data_random_seed: 188]
[is_enable_sparse: 1]
[enable_bundle: 1]
[use_missing: 1]
[zero_as_missing: 0]
[feature_pre_filter: 1]
[pre_partition: 0]
[two_round: 0]
[header: 0]
[label_column: ]
[weight_column: ]
[group_column: ]
[ignore_column: ]
[categorical_feature: ]
[forcedbins_filename: ]
[precise_float_parser: 0]
[parser_config_file: ]
[objective_seed: 24573]
[num_class: 1]
[is_unbalance: 0]
[scale_pos_weight: 1]
[sigmoid: 1]
[boost_from_average: 1]
[reg_sqrt: 0]
[alpha: 0.9]
[fair_c: 1]
[poisson_max_delta_step: 0.7]
[tweedie_variance_power: 1.5]
[lambdarank_truncation_level: 30]
[lambdarank_norm: 1]
[label_gain: ]
[lambdarank_position_bias_regularization: 0]
[eval_at: ]
[multi_error_top_k: 1]
[auc_mu_weights: ]
[num_machines: 1]
[local_listen_port: 12400]
[time_out: 120]
[machine_list_filename: ]
[machines: ]
[gpu_platform_id: -1]
[gpu_device_id: -1]
[gpu_use_dp: 0]
[num_gpu: 1]

end of parameters

pandas_categorical:null
