tree
version=v4
num_class=1
num_tree_per_iteration=1
label_index=0
max_feature_idx=18
objective=binary sigmoid:1
feature_names=obi momentum_1m momentum_2m momentum_5m momentum_10m hurst fracdiff_close vol_1m vol_5m vol_30m vol_60m vwap_dev_5m vwap_dev_30m trade_flow_imb_5m trade_flow_imb_30m hl_range vol_ratio_5m vol_ratio_30m trades_intensity
feature_infos=[-0.99627687620687788:0.99735611352640374] [-0.020838332896016949:0.022992565407785347] [-0.022341724074048948:0.029409372993990181] [-0.026503791499679796:0.037808065313792626] [-0.033700021085143403:0.038701722697615973] [-0.17904516669206805:0.10861636932350138] [-560.64200722651003:3155.5006078766746] [0:0.017965740441835652] [0:0.014150329657706368] [1.9312455667397878e-05:0.0061307597359011763] [2.9871110080766814e-05:0.004463508706593484] [-0.012725903816371842:0.016844110174328925] [-0.023331687134809678:0.035835008543941643] [-0.96163572996641977:0.90426948751940261] [-0.66028039286935858:0.63773000764737697] [1.030395640474488e-07:0.024861787963623656] [0.010883227187554707:4.9344330827627427] [0.016081658774413254:26.170827852696362] [0.03252385082393755:19.057358659886329]
tree_sizes=1023 1053 1033 1034 930 932 1059 1045 1049 1057 1044 1032 1047 1053 1050 935 1047 1045 1045 1040 1047 939 1046 1037 1039 1052 1047 1040 1048 1045 1044 1044 1049 1038 1045 1034 1045 1046 1044 1039 719 1044 1037 1042 1032 1033 1050 1049 1045 1044 719 1038 1047 1042 1047 1038 1049 718 1047 716 1051 939 1035 707 1042 1049 1048 717 707 708 1047 717 1046 711 714 935 1041 934 715 710 708

Tree=0
num_leaves=8
num_cat=0
split_feature=12 6 6 12 8 14 9
split_gain=279.27 92.9797 51.9199 36.1731 35.4702 18.1636 12.5002
threshold=-0.00020219688409930619 1259.2978379228227 1238.4740242245773 0.0036303459699517393 0.0016299532054707508 0.27916798508762308 0.00052405549746253671
decision_type=2 2 2 2 2 2 2
left_child=2 6 4 -3 -1 -4 -2
right_child=1 3 5 -5 -6 -7 -8
leaf_value=-0.0063939011492579294 -0.012550437137841854 -0.015784459543152364 -0.010679831660875775 -0.021975976126290674 -0.01739071772697004 -0.022421809468233835 -0.0089483479144166229
leaf_weight=4506.568679317832 1592.4359287321568 12839.983386427164 7848.1842302381992 851.96572136878967 260.48951926827431 109.99557435512543 1678.4324686825275
leaf_count=18027 6370 51362 31394 3408 1042 440 6714
internal_value=-0.0126676 -0.015116 -0.00940409 -0.0161708 -0.006999 -0.010845 -0.0107031
internal_weight=29688.1 16962.8 12725.2 13691.9 4767.06 7958.18 3270.87
internal_count=118757 67854 50903 54770 19069 31834 13084
is_linear=0
shrinkage=1


Tree=1
num_leaves=8
num_cat=0
split_feature=12 12 2 17 12 5 5
split_gain=263.221 40.9533 34.6408 31.7078 23.8806 14.5363 12.3442
threshold=-0.00020219688409930619 0.0030392062793967735 -0.00011825416510713326 0.21523744778517592 -0.0013634172028394876 -0.022590987377083423 0.0097699683379578791
decision_type=2 2 2 2 2 2 2
left_child=3 2 -2 6 -5 -3 -1
right_child=1 5 -4 4 -6 -7 -8
leaf_value=2.6829672224494727e-05 0.00016147479787884775 -0.012867442885124147 -0.0028351906790525651 0.0051436271394795455 0.0024842640986145557 -0.0055979545087606782 -0.0075637109153548297
leaf_weight=639.23434041440487 4686.2588686794043 294.72145082056522 10882.624014914036 4887.3914575129747 6948.3275776654482 1098.8966773748398 250.49356868863106
leaf_count=2557 18746 1179 43533 19550 27794 4396 1002
internal_value=1.52428e-05 -0.00236176 -0.00193315 0.00318358 0.00358279 -0.00714313 -0.00211313
internal_weight=29687.9 16962.5 15568.9 12725.4 11835.7 1393.62 889.728
internal_count=118757 67854 62279 50903 47344 5575 3559
is_linear=0
shrinkage=0.0291483


Tree=2
num_leaves=8
num_cat=0
split_feature=12 6 6 8 12 14 6
split_gain=248.104 86.7282 48.2092 33.6513 32.4981 17.1433 9.65925
threshold=-0.00020219688409930619 1259.2978379228227 1238.4740242245773 0.0016299532054707508 0.0036303459699517393 0.27916798508762308 1212.807682700068
decision_type=2 2 2 2 2 2 2
left_child=2 6 3 -1 -3 -4 -2
right_child=1 4 5 -5 -6 -7 -8
leaf_value=0.0059975959340207831 0.0046433862969068387 -0.0029456257194849659 0.001862757011678557 -0.0047132683796758156 -0.0088147063291636046 -0.0095448456719455354 0.0010332604928491025
leaf_weight=4506.7378636747599 847.47331078350544 12839.448560386896 7848.3693818747997 260.48973350226879 851.81688103079796 109.98941600322723 2423.3977753072977
leaf_count=18027 3390 51362 31394 1042 3408 440 9694
internal_value=1.4769e-05 -0.00229302 0.00309074 0.00540823 -0.0033118 0.00170231 0.00196888
internal_weight=29687.7 16962.1 12725.6 4767.23 13691.3 7958.36 3270.87
internal_count=118757 67854 50903 19069 54770 31834 13084
is_linear=0
shrinkage=0.0291483


Tree=3
num_leaves=8
num_cat=0
split_feature=6 3 3 7 7 6 5
split_gain=202.318 61.2692 24.7719 23.97 23.3335 16.053 12.3707
threshold=1254.8899193786058 -0.00022854013581614468 -0.00022854013581614468 4.7913491118400918e-05 0.0020285903108735251 1715.9772266039292 -0.014451823005993507
decision_type=2 2 2 2 2 2 2
left_child=2 5 4 -3 -1 -2 -4
right_child=1 3 6 -5 -6 -7 -8
leaf_value=0.0052888851920740686 0.0012459347360519049 -0.0072209776464635476 0.004203603563062046 -0.0022870186409033946 -0.00770300287966729 -0.0039858320545143834 0.00053781969011200447
leaf_weight=5179.6967869251966 5985.462083876133 888.41601268947124 1199.2257555276155 13556.818528279662 116.74248753488064 539.97159296274185 2235.7009865343571
leaf_count=20719 23943 3554 4797 54233 467 2160 8943
internal_value=1.98131e-05 -0.00153237 0.00374725 -0.00259126 0.00499775 0.00081111 0.00181971
internal_weight=29702 20970.7 8731.37 14445.2 5296.44 6525.43 3434.93
internal_count=118816 83890 34926 57787 21186 26103 13740
is_linear=0
shrinkage=0.0291483


Tree=4
num_leaves=7
num_cat=0
split_feature=12 12 7 14 13 7
split_gain=223.833 48.0992 37.5458 33.6311 29.5938 22.3287
threshold=-0.00054330615553123678 0.0030392062793967735 4.7913491118400918e-05 0.27916798508762308 -0.096916254226111803 0.0020285903108735251
decision_type=2 2 2 2 2 2
left_child=3 2 -2 5 -3 -1
right_child=1 4 -4 -5 -6 -7
leaf_value=0.0039873196314188439 -0.006497454266831142 0.0061505510367101087 -0.0010264635677624913 -0.012471745551340818 -0.0083396351257436201 -0.0070799766330992423
leaf_weight=9521.8654395788908 1131.8356782495975 128.96505230665207 17398.160785347223 105.48562777042389 1261.3533444553614 153.98365452885628
leaf_count=38088 4528 516 69599 422 5047 616
internal_value=1.91997e-05 -0.00175377 -0.00136135 0.00362957 -0.00697622 0.003809
internal_weight=29701.6 19920.3 18530 9781.33 1390.32 9675.85
internal_count=118816 79690 74127 39126 5563 38704
is_linear=0
shrinkage=0.0291483


Tree=5
num_leaves=7
num_cat=0
split_feature=12 12 3 7 5 17
split_gain=210.965 45.3407 37.1069 20.3783 18.4944 15.3136
threshold=-0.00054330615553123678 0.0030392062793967735 -0.00049504004649773164 0.0020285903108735251 -0.026793280627465398 0.21523744778517592
decision_type=2 2 2 2 2 2
left_child=3 2 -2 5 -3 -1
right_child=1 4 -4 -5 -6 -7
leaf_value=-0.00093570193707902 0.0016698903715160766 -0.014146299547319283 -0.0018900374159435164 -0.0068795050189310366 -0.0052471911694348923 0.0039837773020576532
leaf_weight=568.48808352649212 2957.0883489698172 236.86156982183456 15572.656733885407 153.9715813100338 1153.2657106071711 9058.8097394257784
leaf_count=2274 11829 948 62298 616 4615 36236
internal_value=1.8588e-05 -0.00170269 -0.00132171 0.00352365 -0.00677355 0.00369259
internal_weight=29701.1 19919.9 18529.7 9781.27 1390.13 9627.3
internal_count=118816 79690 74127 39126 5563 38510
is_linear=0
shrinkage=0.0291483


Tree=6
num_leaves=8
num_cat=0
split_feature=12 12 10 18 10 12 12
split_gain=195.997 31.4626 28.8522 23.5444 13.6013 12.8514 10.2466
threshold=-0.00022761852511369283 0.0030392062793967735 0.00067543024947825769 0.78054547413462549 0.0013042949144825638 -0.00054330615553123678 -0.0017623767325547332
decision_type=2 2 2 2 2 2 2
left_child=3 2 -2 5 -3 -1 -5
right_child=1 4 -4 6 -6 -7 -8
leaf_value=0.0020360835082971593 -0.0024670310919743294 -0.0082416199759937567 0.00027972619549822389 0.0051570142338465538 -0.0020913789754563421 -0.0014216470942071163 0.0029509632477883788
leaf_weight=3338.4157152175903 11251.084260180593 938.92749184370041 4564.7070181965828 2740.3309264183044 450.98170334100723 1253.2031706571579 5163.6124977469444
leaf_count=13354 45011 3758 18261 10962 1805 5013 20655
internal_value=-2.61436e-05 -0.00204382 -0.00167422 0.00275193 -0.00624341 0.00109221 0.00371636
internal_weight=29701.3 17205.7 15815.8 12495.6 1389.91 4591.62 7903.94
internal_count=118819 68835 63272 49984 5563 18367 31617
is_linear=0
shrinkage=0.0291483


Tree=7
num_leaves=8
num_cat=0
split_feature=6 3 3 8 17 9 5
split_gain=189.957 38.5748 20.1735 19.2978 19.1374 14.0939 9.75345
threshold=1254.8899193786058 -0.00027799726336381593 -0.00022854013581614468 0.0016299532054707508 0.22550952931454274 0.00024134475579415079 -0.01200450157107741
decision_type=2 2 2 2 2 2 2
left_child=2 5 3 -1 -3 -2 -4
right_child=1 4 6 -5 -6 -7 -8
leaf_value=0.0051293090938819754 0.0052257766597131293 -0.0056000627520014206 0.0038200328022103031 -0.0029785835471493162 -0.0019932177598873963 1.4057406052021918e-05 0.00061992857582965832
leaf_weight=5017.3758198618889 474.47032012045383 1374.4889146536589 1312.6858251988888 259.21965084969997 13493.041036725044 5669.1451557278633 2100.1375040411949
leaf_count=20071 1898 5499 5251 1037 53984 22678 8401
internal_value=-2.53841e-05 -0.0015244 0.00359866 0.00472841 -0.00232723 0.000417907 0.00185257
internal_weight=29700.6 21011.1 8689.42 5276.6 14867.5 6143.62 3412.82
internal_count=118819 84059 34760 21108 59483 24576 13652
is_linear=0
shrinkage=0.0291483


Tree=8
num_leaves=8
num_cat=0
split_feature=12 12 10 13 12 10 7
split_gain=179.222 29.4185 26.8985 25.6506 20.2377 15.1555 13.2714
threshold=-0.00022761852511369283 0.0030392062793967735 0.00067543024947825769 -0.096916254226111803 -0.00172079407762478 0.0003005615895077431 0.001718457525890051
decision_type=2 2 2 2 2 2 2
left_child=4 2 -2 -3 6 -6 -1
right_child=1 3 -4 -5 5 -7 -8
leaf_value=0.004838578489021467 -0.0023622709352449666 0.0060546582877658121 0.00028988777225740078 -0.0073008847112070929 0.004626455303681558 0.0013282609194318578 -0.0026529023874660648
leaf_weight=3555.3594931662083 11250.485173776746 131.94338349997997 4564.6435192227364 1257.6728626191616 1408.9314736872911 7321.1588830202818 209.71055975556374
leaf_count=14223 45011 528 18261 5035 5636 29286 839
internal_value=-2.46463e-05 -0.00195411 -0.00159674 -0.00601544 0.00263191 0.00186149 0.00441777
internal_weight=29699.9 17204.7 15815.1 1389.62 12495.2 8730.09 3765.07
internal_count=118819 68835 63272 5563 49984 34922 15062
is_linear=0
shrinkage=0.0291483


Tree=9
num_leaves=8
num_cat=0
split_feature=3 4 1 8 9 8 9
split_gain=116.505 28.4226 22.7422 17.965 15.0241 14.8922 9.54879
threshold=-0.00022854013581614468 -0.00025372451468357526 -0.00010707280288762017 0.00035649610438755875 0.00024134475579415079 0.0016299532054707508 0.00024134475579415079
decision_type=2 2 2 2 2 2 2
left_child=3 6 -3 4 -1 -5 -2
right_child=1 2 -4 5 -6 -7 -8
leaf_value=0.0045562500710792262 0.0049488909027508307 -5.4375257796923349e-05 -0.0027711277157592327 0.0034305852265607006 -1.8092707456550778e-05 -0.0024681754467583781 0.00022251151769888921
leaf_weight=733.44419813156128 399.19318805634975 3509.9385777264833 10279.107696667314 7191.6399554312229 3537.9314265549183 379.68500852584839 3697.1148211658001
leaf_count=2934 1597 14043 41129 28770 14153 1519 14790
internal_value=3.85458e-05 -0.00144614 -0.00207949 0.00228067 0.000769528 0.00313341 0.000684803
internal_weight=29728.1 17885.4 13789 11842.7 4271.38 7571.32 4096.31
internal_count=118935 71559 55172 47376 17087 30289 16387
is_linear=0
shrinkage=0.0291483


Tree=10
num_leaves=8
num_cat=0
split_feature=6 14 14 6 1 9 9
split_gain=153.44 27.9812 17.8258 22.6881 17.7873 17.0083 16.2429
threshold=1248.5191485382732 -0.061325974259782069 -0.050048636628670706 1222.8511096377408 -6.5867079578587899e-05 0.00066595256749454781 0.0011597970990216407
decision_type=2 2 2 2 2 2 2
left_child=2 5 3 -1 -3 -2 -4
right_child=1 4 6 -5 -6 -7 -8
leaf_value=0.006876147721366738 -0.00056778129287746106 -0.00053595634404122561 0.0030253288773109525 0.0018796132301478739 -0.0026831048669786091 0.0026650513863528025 -0.0020234186607325333
leaf_weight=2196.5564750283957 5380.5889558047056 4962.3195648342371 3865.7954862564802 1188.8772477954626 9650.305506542325 1856.8838507384062 626.14083804190159
leaf_count=8788 21526 19853 15465 4756 38613 7429 2505
internal_value=3.74332e-05 -0.00121988 0.00352433 0.0051215 -0.00195394 0.000261877 0.00232052
internal_weight=29727.5 21850.1 7877.37 3385.43 14612.6 7237.47 4491.94
internal_count=118935 87421 31514 13544 58466 28955 17970
is_linear=0
shrinkage=0.0291483


Tree=11
num_leaves=8
num_cat=0
split_feature=12 6 9 6 12 11 14
split_gain=163.498 51.869 34.67 33.8613 27.5349 8.31931 6.4331
threshold=-0.00054330615553123678 1246.7208238155911 0.00024134475579415079 1221.4286174193787 0.0036303459699517393 9.254465583276166e-05 -0.13068817925914314
decision_type=2 2 2 2 2 2 2
left_child=2 5 6 -4 -3 -2 -1
right_child=1 4 3 -5 -6 -7 -8
leaf_value=0.0083556663691495333 0.0029095304410533649 -0.0018400973292637571 0.005143964441306984 0.0014956041733566532 -0.0071337191348089767 -0.0004603832996338283 0.016355215134072929
leaf_weight=181.7304095774889 2252.3957791179419 15954.252450704575 3346.2381168156862 6094.6293929368258 877.61407417058945 856.45818105340004 163.48269045352936
leaf_count=727 9010 63834 13389 24380 3515 3426 654
internal_value=3.63478e-05 -0.0014779 0.00312153 0.00278937 -0.00211684 0.00197917 0.0121495
internal_weight=29726.8 19940.7 9786.08 9440.87 16831.9 3108.85 345.213
internal_count=118935 79785 39150 37769 67349 12436 1381
is_linear=0
shrinkage=0.0291483


Tree=12
num_leaves=8
num_cat=0
split_feature=3 14 15 18 7 9 17
split_gain=104.624 23.6195 20.2707 18.7401 12.4257 11.6038 10.6042
threshold=-0.00022854013581614468 -0.061325974259782069 1.1271930897713181e-07 0.71123458786828786 0.0020285903108735251 0.00049758129519631366 0.2051206742289293
decision_type=2 2 2 2 2 2 2
left_child=3 6 -3 5 -5 -1 -2
right_child=1 2 -4 4 -6 -7 -8
leaf_value=-0.0016260989590791766 -0.0041752614321413752 -0.0087297034071383197 -0.0019183125936679396 0.003031146145965702 -0.0053888496081485274 0.0017701879377449001 0.0005181951908172337
leaf_weight=1477.0839333385229 440.37571643292904 379.80466818809509 11844.173038691282 8155.3489723950624 148.20958298444748 2018.2284901589155 5193.5204189568758
leaf_count=5909 1762 1520 47394 32628 593 8074 20779
internal_value=-4.47811e-06 -0.00141162 -0.00213126 0.00212509 0.00287882 0.000335265 0.000149348
internal_weight=29656.7 17857.9 12224 11798.9 8303.56 3495.31 5633.9
internal_count=118659 71455 48914 47204 33221 13983 22541
is_linear=0
shrinkage=0.0291483


Tree=13
num_leaves=8
num_cat=0
split_feature=12 12 13 8 12 9 9
split_gain=151.487 26.7409 28.0078 25.1452 20.5109 28.7513 15.0884
threshold=2.2729918457266027e-05 0.0030392062793967735 -0.096916254226111803 0.00032023681331373369 -0.00054330615553123678 0.00024134475579415079 8.9134500255391315e-05
decision_type=2 2 2 2 2 2 2
left_child=4 3 -3 -2 5 -1 -6
right_child=1 2 -4 -5 6 -7 -8
leaf_value=0.011053746991881424 -0.0032213101345497101 0.0065908582523120218 -0.007295044112255406 -0.00064731158970688643 -0.0092949689698627533 0.0025463551609558118 0.00082868913174898723
leaf_weight=346.65764029324055 5456.2988231182098 133.44265092909336 1256.9358882308006 7876.001069188118 124.68909539282322 9410.7953623384237 5051.2594856023788
leaf_count=1387 21833 534 5035 31512 499 37651 20208
internal_value=-4.38876e-06 -0.00210226 -0.00594449 -0.001701 0.00206387 0.00285067 0.000580977
internal_weight=29656.1 14722.7 1390.38 13332.3 14933.4 9757.45 5175.95
internal_count=118659 58914 5569 53345 59745 39038 20707
is_linear=0
shrinkage=0.0291483


Tree=14
num_leaves=8
num_cat=0
split_feature=12 12 8 12 8 7 5
split_gain=142.789 25.2123 23.7038 19.6452 27.497 14.1183 13.433
threshold=2.2729918457266027e-05 0.0030392062793967735 0.00032023681331373369 -0.0013634172028394876 0.0016299532054707508 5.1151632107294227e-05 -0.026793280627465398
decision_type=2 2 2 2 2 2 2
left_child=3 2 -2 4 -1 -5 -3
right_child=1 6 -4 5 -6 -7 -8
leaf_value=0.0040362718335858125 -0.0031276307598824388 -0.012022101531660721 -0.00062844697199010945 -0.0028071287950277297 -0.004835910542559589 0.0015465851261363109 -0.0044638691634434026
leaf_weight=4735.8869875818491 5455.9734197705984 238.98142620921135 7875.9290415048599 676.01411610841751 313.20662191510201 9207.9546454697847 1151.0544816404581
leaf_count=18950 21833 958 31512 2705 1253 36837 4611
internal_value=-4.25001e-06 -0.00204107 -0.00165148 0.00200376 0.00348266 0.00124814 -0.00577238
internal_weight=29655 14721.9 13331.9 14933.1 5049.09 9883.97 1390.04
internal_count=118659 58914 53345 59745 20203 39542 5569
is_linear=0
shrinkage=0.0291483


Tree=15
num_leaves=7
num_cat=0
split_feature=12 12 7 14 12 14
split_gain=141.292 31.9648 27.584 21.7795 18.4136 15.1383
threshold=-0.00020219688409930619 0.0030392062793967735 4.5142439267837358e-05 0.27916798508762308 -0.0017623767325547332 -0.068697821490129388
decision_type=2 2 2 2 2 2
left_child=3 2 -2 4 -1 -3
right_child=1 5 -4 -5 -6 -7
leaf_value=0.0041808681598232205 -0.0065582840735503864 0.0016527234941420658 -0.0010978835603292294 -0.0082930758246168787 0.0017206589223057297 -0.0072057020236321427
leaf_weight=3631.129271492362 826.88245353102684 186.73969307541847 14728.03666600585 159.46697255969048 8959.3808906674385 1199.9700811207294
leaf_count=14531 3310 748 58931 638 35843 4809
internal_value=-2.29541e-05 -0.00176713 -0.00138901 0.00229451 0.00243058 -0.0060024
internal_weight=29691.6 16941.6 15554.9 12750 12590.5 1386.71
internal_count=118810 67798 62241 51012 50374 5557
is_linear=0
shrinkage=0.0291483


Tree=16
num_leaves=8
num_cat=0
split_feature=4 18 8 4 8 10 5
split_gain=88.493 30.4338 22.9057 23.2755 16.9392 8.68686 6.83643
threshold=-0.00054656830314396023 0.75618906030196864 4.8463529017188298e-05 0.0038526205498208817 0.0020813378551078217 0.00033905067118178097 0.015892586623304342
decision_type=2 2 2 2 2 2 2
left_child=1 5 6 -4 -3 -1 -2
right_child=2 4 3 -5 -6 -7 -8
leaf_value=0.0037889555850507254 -0.009856485454620199 0.0034864608589818321 -0.00076144403147249671 -0.0050152459388247946 -0.006653092969406099 -0.00068134352084310817 -0.0018156564494152534
leaf_weight=419.42837066948414 327.21000155806541 6754.7285873889923 17859.132609993219 1160.6544867306948 139.4696659296751 2908.1418315470219 121.63500900566578
leaf_count=1678 1310 27029 71463 4650 558 11635 487
internal_value=-2.23127e-05 0.00217344 -0.0011753 -0.00102155 0.00327834 -0.000114659 -0.00765827
internal_weight=29690.4 10221.8 19468.6 19019.8 6894.2 3327.57 448.845
internal_count=118810 40900 77910 76113 27587 13313 1797
is_linear=0
shrinkage=0.0291483


Tree=17
num_leaves=8
num_cat=0
split_feature=3 14 13 10 15 9 13
split_gain=79.8401 28.641 31.1301 24.4541 16.8827 12.7882 1.39618
threshold=-0.00056424234937127633 -0.061325974259782069 -0.37161190025286761 0.00025468502076357716 0.00046421942277691616 8.9134500255391315e-05 -0.31986939162548378
decision_type=2 2 2 2 2 2 2
left_child=3 5 -3 6 -5 -2 -1
right_child=1 2 -4 4 -6 -7 -8
leaf_value=0.014210414838412636 -0.0097233208340551259 -0.01456682342433323 -0.0015759573992944671 -0.00021881591401546268 0.0028638325910473519 0.00071260511489967002 0.00944719883382889
leaf_weight=108.69963410496712 97.667714044451714 154.93841356039047 14159.992879420519 1990.5760384500027 6212.6114361137152 6845.6095274537802 119.45771376788616
leaf_count=435 391 620 56670 7964 24861 27391 478
internal_value=-2.16898e-05 -0.000973579 -0.00171867 0.00237791 0.00211562 0.000562225 0.0117192
internal_weight=29689.6 21258.2 14314.9 8431.34 8203.19 6943.28 228.157
internal_count=118810 85072 57290 33738 32825 27782 913
is_linear=0
shrinkage=0.0291483


Tree=18
num_leaves=8
num_cat=0
split_feature=6 12 16 9 12 13 13
split_gain=140.911 71.4818 19.5471 18.3045 12.1864 19.3569 11.2022
threshold=1254.8899193786058 -0.00018985155353047674 2.7400510249142491 0.00024134475579415079 -0.0013634172028394876 -0.16079491770229246 -0.26251355120250952
decision_type=2 2 2 2 2 2 2
left_child=4 3 -3 -2 5 -1 -6
right_child=1 2 -4 -5 6 -7 -8
leaf_value=0.0070263176611546343 0.0052750796615222599 -0.0023698785649919197 -0.0085373031836586902 0.00051139196635436419 -0.00084236786551882936 0.0023387414187542701 0.002798978369910915
leaf_weight=1419.2523253709078 765.28469394147396 13479.429359450936 447.91097246110439 6312.5194214880466 838.98129922151566 1580.4257309734821 4857.7994984388351
leaf_count=5682 3062 53953 1793 25253 3357 6326 19435
internal_value=-6.54277e-05 -0.00135718 -0.00256927 0.00102743 0.00305413 0.00455778 0.0022622
internal_weight=29701.6 21005.1 13927.3 7077.8 8696.46 2999.68 5696.78
internal_count=118861 84061 55746 28315 34800 12008 22792
is_linear=0
shrinkage=0.0291483


Tree=19
num_leaves=8
num_cat=0
split_feature=6 12 16 6 7 12 11
split_gain=132.825 67.7425 18.4494 14.1514 13.7329 16.5508 4.7425
threshold=1254.8899193786058 2.2729918457266027e-05 2.7400510249142491 1715.9772266039292 0.0018516298924061904 -0.0018451760236402701 -0.0010143589145957933
decision_type=2 2 2 2 2 2 2
left_child=4 3 -3 -2 5 -1 -6
right_child=1 2 -4 -5 6 -7 -8
leaf_value=0.0054203011921564711 0.0010581511331173566 -0.0024983255248703299 -0.0088611070993662912 -0.0028084424690285161 -0.0086627881294493447 0.002418628228478908 -2.3551330687703822e-05
leaf_weight=2059.6668599545956 7766.7743595391512 11947.126137048006 396.83463005721569 893.50309713184834 105.46912729740143 6426.6730191260576 104.22251178324223
leaf_count=8247 31073 47824 1589 3575 422 25714 417
internal_value=-6.35219e-05 -0.00131769 -0.00270408 0.000658168 0.00296529 0.00314794 -0.00434351
internal_weight=29700.3 21004.2 12344 8660.28 8696.03 8486.34 209.692
internal_count=118861 84061 49413 34648 34800 33961 839
is_linear=0
shrinkage=0.0291483


Tree=20
num_leaves=8
num_cat=0
split_feature=6 12 8 8 12 9 0
split_gain=125.204 63.999 20.1239 19.6835 18.9571 17.4484 4.35148
threshold=1254.8899193786058 -0.00018985155353047674 4.8463529017188298e-05 0.0016299532054707508 -0.0018451760236402701 0.00024134475579415079 -0.11833502118321344
decision_type=2 2 2 2 2 2 2
left_child=3 5 -3 4 -1 -2 -5
right_child=1 2 -4 6 -6 -7 -8
leaf_value=0.0056706198219699851 0.0051241172477098458 -0.0094593421939759073 -0.0022523375881894486 -0.0070909290508650944 0.0023964896808108464 0.00047310860100531835 -0.00075303607243789542
leaf_weight=1964.5652194172144 765.2631111741066 333.94547036290169 13591.651013836265 171.20682267844677 6367.0422008484602 6312.4630880355835 192.7094003111124
leaf_count=7868 3062 1338 54408 685 25476 25253 771
internal_value=-6.16966e-05 -0.00127938 -0.00242638 0.00287903 0.00316936 0.000976937 -0.00372518
internal_weight=29698.8 21003.3 13925.6 8695.52 8331.61 7077.73 363.916
internal_count=118861 84061 55746 34800 33344 28315 1456
is_linear=0
shrinkage=0.0291483


Tree=21
num_leaves=7
num_cat=0
split_feature=12 11 8 12 14 8
split_gain=98.0777 29.1374 18.4578 18.3425 17.1684 15.6436
threshold=-0.00018985155353047674 -6.8672769608045704e-05 0.00077545898126052957 0.0036303459699517393 0.30739764152200338 0.001929366799073797
decision_type=2 2 2 2 2 2
left_child=4 2 -2 -3 5 -1
right_child=1 3 -4 -5 -6 -7
leaf_value=0.0021673863595153479 0.0013591637175417847 -0.0019177888346876076 -0.0030948229891640234 -0.0065368066749731711 -0.0095559067475411378 -0.0057404142337433755
leaf_weight=12534.709217354655 3884.9176169186831 11170.247765898705 988.6739698946476 778.32095509767532 105.96993671357632 212.69978284835815
leaf_count=50162 15545 44712 3957 3123 424 851
internal_value=1.97754e-05 -0.00144483 0.000453911 -0.00221956 0.00193655 0.0020342
internal_weight=29675.5 16822.2 4873.59 11948.6 12853.4 12747.4
internal_count=118774 67337 19502 47835 51437 51013
is_linear=0
shrinkage=0.0291483


Tree=22
num_leaves=8
num_cat=0
split_feature=6 12 6 7 8 12 5
split_gain=114.631 49.1681 20.4726 18.8192 15.9164 18.1261 4.78691
threshold=1254.8899193786058 -0.00018985155353047674 1377.0844257030915 4.5142439267837358e-05 0.0016299532054707508 -0.0018882784434647384 -0.0016933725835537562
decision_type=2 2 2 2 2 2 2
left_child=4 2 -2 -3 5 -1 -6
right_child=1 3 -4 -5 6 -7 -8
leaf_value=0.0055821117307025443 -0.00074327405561999758 -0.0067522572095589919 0.0023932842045031768 -0.0019036121014410379 -0.0065374636976095477 0.0023493624901004791 0.00014756977910028638
leaf_weight=1909.5718809962273 3515.9970801621675 713.80742785334587 3549.3071874976158 13195.835955232382 177.69892360270023 6432.1149620264769 179.94687385857105
leaf_count=7650 14066 2860 14200 52829 711 25738 720
internal_value=1.91423e-05 -0.0011475 0.000832111 -0.00215323 0.00283163 0.00309025 -0.00316096
internal_weight=29674.3 20974.9 7065.3 13909.6 8699.33 8341.69 357.646
internal_count=118774 83955 28266 55689 34819 33388 1431
is_linear=0
shrinkage=0.0291483


Tree=23
num_leaves=8
num_cat=0
split_feature=6 12 6 7 7 12 10
split_gain=108.055 46.348 19.2977 17.7504 11.0404 14.1096 5.07752
threshold=1254.8899193786058 -0.00018985155353047674 1377.0844257030915 4.5142439267837358e-05 0.0018516298924061904 -0.0018451760236402701 0.00167067048057118
decision_type=2 2 2 2 2 2 2
left_child=4 2 -2 -3 5 -1 -6
right_child=1 3 -4 -5 6 -7 -8
leaf_value=0.0050060431698297067 -0.0007216277637388357 -0.0065578229727891769 0.002323608114168076 -0.0018482276871000804 -0.0084787807433416313 0.0022371865691378926 0.00056706650805687779
leaf_weight=2064.556799530983 3516.0158321261406 713.60657024383545 3549.2346282303333 13195.140807449818 101.19736588001251 6429.7671012729406 103.19431501626968
leaf_count=8272 14066 2860 14200 52829 405 25729 413
internal_value=1.85762e-05 -0.00111412 0.000807868 -0.00209063 0.0027493 0.0029109 -0.00388915
internal_weight=29672.7 20974 7065.25 13908.7 8698.72 8494.32 204.392
internal_count=118774 83955 28266 55689 34819 34001 818
is_linear=0
shrinkage=0.0291483


Tree=24
num_leaves=8
num_cat=0
split_feature=6 4 10 16 8 6 10
split_gain=99.5699 26.1788 19.3543 18.2835 17.9759 15.8139 4.96645
threshold=1254.8899193786058 -0.00024022734881482815 0.0011111832034678569 2.7400510249142491 0.0016299532054707508 1214.2938651114639 0.0018246252923092554
decision_type=2 2 2 2 2 2 2
left_child=4 2 -2 -3 5 -1 -6
right_child=1 3 -4 -5 6 -7 -8
leaf_value=0.004292523104002831 0.00086616233469388824 -0.001584018780737312 -0.0044423749922853969 -0.007524142253335182 -0.0064385499810166525 0.0017494212779484988 0.00050626695552679463
leaf_weight=3921.8632939755917 6521.967661768198 13370.743125706911 637.26654405891895 451.81348018348217 217.91869525611401 4416.8907558768988 141.69730818271637
leaf_count=15706 26096 53534 2550 1810 872 17675 567
internal_value=4.87155e-05 -0.00103824 0.000392003 -0.00177918 0.00267025 0.00294588 -0.00367988
internal_weight=29680.2 20981.8 7159.23 13822.6 8698.37 8338.75 359.616
internal_count=118810 83990 28646 55344 34820 33381 1439
is_linear=0
shrinkage=0.0291483


Tree=25
num_leaves=8
num_cat=0
split_feature=12 1 18 12 10 18 14
split_gain=81.6257 23.555 16.6095 14.6894 13.5541 12.4194 10.9625
threshold=3.3718977585751226e-05 -0.00016565069853176245 0.78054547413462549 0.0030392062793967735 0.00066173691722420578 0.14249183436641097 -0.044671337015309849
decision_type=2 2 2 2 2 2 2
left_child=2 6 5 -3 -4 -1 -2
right_child=1 3 4 -5 -6 -7 -8
leaf_value=-0.0090559275828187291 0.0031814025323705151 -0.0018468321405287938 0.0014626813064148756 -0.0054997375280497864 0.003774353531050826 0.0005259256160494274 -0.00043415291250494404
leaf_weight=113.70713829994202 952.03520126640797 9817.0132504105568 5803.2314610928297 1030.7814161777496 3426.4047017842531 5738.314381480217 2797.3306234180927
leaf_count=455 3810 39301 23228 4137 13719 22963 11197
internal_value=4.72748e-05 -0.00150632 0.00155099 -0.00219471 0.00232119 0.000336421 0.000484354
internal_weight=29678.8 14597.2 15081.7 10847.8 9229.64 5852.02 3749.37
internal_count=118810 58445 60365 43438 36947 23418 15007
is_linear=0
shrinkage=0.0291483


Tree=26
num_leaves=8
num_cat=0
split_feature=3 1 16 8 10 10 16
split_gain=54.1207 17.3068 26.6536 13.3518 19.3729 11.4023 8.24377
threshold=-0.00022854013581614468 -0.00018121291182057671 2.7400510249142491 0.00016964139387454347 0.0002418724374227265 0.00049471088064744211 2.7400510249142491
decision_type=2 2 2 2 2 2 2
left_child=3 6 -3 5 -5 -1 -2
right_child=1 2 -4 4 -6 -7 -8
leaf_value=-0.0003653055985207396 0.0005159347135102523 -0.0012120838572366047 -0.0083643774718730295 0.0093885058841024147 0.0016706565780871877 -0.0091262057291960699 0.0082926231541155561
leaf_weight=848.33516348898411 3774.1327140182257 13510.750281333923 454.18932385742664 280.29012922942638 10549.254882857203 144.67583577334881 115.92854915559292
leaf_count=3395 15106 54094 1820 1122 42230 579 464
internal_value=4.58776e-05 -0.000966897 -0.00144587 0.00157534 0.00187212 -0.00165378 0.000751692
internal_weight=29677.6 17855 13964.9 11822.6 10829.5 993.011 3890.06
internal_count=118810 71484 55914 47326 43352 3974 15570
is_linear=0
shrinkage=0.0291483


Tree=27
num_leaves=8
num_cat=0
split_feature=12 17 1 17 13 5 17
split_gain=78.9905 24.1792 17.4666 18.6356 11.4024 10.0672 9.84529
threshold=-1.1792347345029495e-05 0.21523744778517592 -0.00016565069853176245 2.3275939313540905 0.40812876168155221 0.0097699683379578791 2.5508217288513784
decision_type=2 2 2 2 2 2 2
left_child=1 5 6 -4 -3 -1 -2
right_child=2 4 3 -5 -6 -7 -8
leaf_value=-0.00082270088655017409 -0.00010838897695962865 0.001975512478231546 -0.0017039187800963968 -0.0060834945608074682 -0.0055896273184079682 -0.0068960345252220894 0.0067796451026937822
leaf_weight=810.45562629401684 3675.0196539163589 13318.039296627045 10293.534389421344 894.21711038053036 167.93373635411263 321.14076156914234 181.61883980035782
leaf_count=3243 14709 53311 41220 3584 672 1285 727
internal_value=1.07889e-05 0.0015366 -0.00147172 -0.00205486 0.00188014 -0.00254949 0.000219088
internal_weight=29662 14617.6 15044.4 11187.8 13486 1131.6 3856.64
internal_count=118751 58511 60240 44804 53983 4528 15436
is_linear=0
shrinkage=0.0291483


Tree=28
num_leaves=8
num_cat=0
split_feature=2 14 5 17 9 18 2
split_gain=29.1478 27.7932 22.9389 19.4362 14.7282 13.4821 10.8517
threshold=-0.00011235086405110711 -0.077838492120891889 -0.025552410409036743 2.4710177738097352 0.00024134475579415079 0.76012003442241582 -0.00040243913863919056
decision_type=2 2 2 2 2 2 2
left_child=4 2 -2 -3 6 -6 -1
right_child=1 3 -4 -5 5 -7 -8
leaf_value=0.011031264009562364 0.0047878603677678775 -0.0011965625016219946 2.5442261566048214e-05 -0.0058344843674237069 -0.00059296031619638712 0.0015250749507675304 0.0030632076674279346
leaf_weight=182.79533010721207 1096.4239773750305 11485.160436108708 3925.435419023037 819.29811103641987 3824.7468658685684 7664.0434614568949 662.83554936945438
leaf_count=732 4389 45987 15713 3284 15307 30686 2653
internal_value=1.04507e-05 -0.000760424 0.00106625 -0.00150619 0.00109328 0.000819891 0.00479823
internal_weight=29660.7 17326.3 5021.86 12304.5 12334.4 11488.8 845.631
internal_count=118751 69373 20102 49271 49378 45993 3385
is_linear=0
shrinkage=0.0291483


Tree=29
num_leaves=8
num_cat=0
split_feature=6 12 6 12 14 12 12
split_gain=75.9792 41.9216 15.5822 15.2473 10.2203 16.2577 11.4169
threshold=1254.8899193786058 2.2729918457266027e-05 1715.9772266039292 0.0036303459699517393 -0.050048636628670706 -0.0048481782342214754 -0.0018451760236402701
decision_type=2 2 2 2 2 2 2
left_child=4 2 -2 -3 6 -6 -1
right_child=1 3 -4 -5 5 -7 -8
leaf_value=0.0057685860315806487 0.0010366303314977496 -0.0017500809070236511 -0.0030195552685810408 -0.005760941549384912 -0.0070815060953460119 0.0017640679280030455 0.002322223435024454
leaf_weight=1220.5717908889055 7748.228368923068 11456.561745494604 894.32794013619423 862.98357044160366 179.67780719697475 4836.7307438105345 2460.9963263720274
leaf_count=4894 31003 45876 3579 3467 720 19361 9851
internal_value=1.01622e-05 -0.000940081 0.000615858 -0.00203176 0.00229993 0.00144395 0.00346616
internal_weight=29660.1 20962.1 8642.56 12319.5 8697.98 5016.41 3681.57
internal_count=118751 83925 34582 49343 34826 20081 14745
is_linear=0
shrinkage=0.0291483


Tree=30
num_leaves=8
num_cat=0
split_feature=6 12 14 8 12 6 9
split_gain=82.5236 38.1781 18.9541 17.83 17.1252 15.4505 6.37399
threshold=1248.5191485382732 -1.1792347345029495e-05 -0.071772549985347919 0.0016299532054707508 -0.0013634172028394876 1383.1005202817016 0.0021023501878887148
decision_type=2 2 2 2 2 2 2
left_child=3 5 -3 4 -1 -2 -5
right_child=1 2 -4 6 -6 -7 -8
leaf_value=0.004684842224933634 -0.00068264878334747207 0.00012379592047831494 -0.0025786514432111084 -0.0064679278724121174 0.0017705906573793231 0.0017558621099616489 0.0019333572642656943
leaf_weight=2646.3054662495852 4582.0453304946423 2812.76389336586 10163.565820991993 245.41070577502251 4852.2981728464365 4253.4164410680532 107.71374572813511
leaf_count=10610 18333 11262 40713 982 19419 17021 431
internal_value=-6.40804e-05 -0.000986459 -0.00199263 0.00249774 0.00279967 0.000491088 -0.00387153
internal_weight=29663.5 21811.8 12976.3 7851.73 7498.6 8835.46 353.124
internal_count=118771 87329 51975 31442 30029 35354 1413
is_linear=0
shrinkage=0.0291483


Tree=31
num_leaves=8
num_cat=0
split_feature=6 12 14 6 7 12 14
split_gain=77.9195 30.4483 19.6592 14.8345 11.0834 12.795 8.43029
threshold=1238.4740242245773 3.3718977585751226e-05 -0.076292907203902346 1715.9772266039292 0.001099618628410766 -0.0013634172028394876 0.024740257863134045
decision_type=2 2 2 2 2 2 2
left_child=4 3 -3 -2 5 -1 -6
right_child=1 2 -4 -5 6 -7 -8
leaf_value=0.0049123047819899218 0.00071092227819493433 0.00044997875981138646 -0.0023517744335142792 -0.003184403077885734 0.0012867999225729787 0.0020982905749552692 -0.0056822683774651181
leaf_weight=2205.0895518511534 9068.5337008833885 2668.4906630665064 10449.690999984741 910.79695329070091 523.18050584197044 3634.7690207958221 201.2643206268549
leaf_count=8843 36288 10684 41861 3645 2096 14548 806
internal_value=-6.22072e-05 -0.000858621 -0.00178158 0.000354526 0.00273936 0.00316161 -0.000653567
internal_weight=29661.8 23097.5 13118.2 9979.33 6564.3 5839.86 724.445
internal_count=118771 92478 52545 39933 26293 23391 2902
is_linear=0
shrinkage=0.0291483


Tree=32
num_leaves=8
num_cat=0
split_feature=6 4 10 4 17 10 13
split_gain=73.6495 17.5802 14.0248 13.6517 10.5165 8.30373 8.16571
threshold=1248.5191485382732 -0.00024022734881482815 0.0011111832034678569 -4.8752088099677629e-05 0.21523744778517592 0.00033281411310949379 0.29664816670981914
decision_type=2 2 2 2 2 2 2
left_child=4 2 -2 -3 5 -1 -6
right_child=1 3 -4 -5 6 -7 -8
leaf_value=0.0043353160021919373 0.00060120840466936073 -0.0043035688030694545 -0.0038310108953719646 -0.001239188207813867 0.0028664438480386347 -0.0038221039864396364 -0.0016480237694045466
leaf_weight=142.20599484443665 6851.7204378247261 1362.4306755810976 661.89532721042633 12933.899718508124 6967.842633664608 385.58799682557583 354.62561731040478
leaf_count=569 27419 5454 2649 51807 27911 1543 1419
internal_value=-6.04024e-05 -0.000931782 0.000209449 -0.00153169 0.00236002 -0.00160099 0.00264681
internal_weight=29660.2 21809.9 7513.62 14296.3 7850.26 527.794 7322.47
internal_count=118771 87329 30068 57261 31442 2112 29330
is_linear=0
shrinkage=0.0291483


Tree=33
num_leaves=8
num_cat=0
split_feature=6 12 15 6 15 6 0
split_gain=70.8378 27.7077 15.4129 12.1072 8.15974 10.6672 5.27428
threshold=1254.8899193786058 2.2729918457266027e-05 1.1271930897713181e-07 1720.5461699094888 0.0029453695939881722 1121.7344346313914 -0.38731055391328706
decision_type=2 2 2 2 2 2 2
left_child=4 3 -3 -2 5 -1 -6
right_child=1 2 -4 -5 6 -7 -8
leaf_value=0.0057733242429462298 0.00065547537247851427 -0.0075019535607713569 -0.0016683655871438806 -0.0030139124398322011 0.00290035201828654 0.0020271649321475325 -0.004723821606452675
leaf_weight=702.39744879305363 7802.5472028106451 394.25998541712761 11900.279141530395 843.30894213914871 111.24075059592724 7647.7456348389387 231.70173910260201
leaf_count=2817 31221 1581 47675 3375 446 30626 928
internal_value=-4.9304e-05 -0.000967481 -0.00185653 0.000296602 0.00216208 0.00234342 -0.00222255
internal_weight=29633.5 20940.4 12294.5 8645.86 8693.09 8350.14 342.942
internal_count=118669 83852 49256 34596 34817 33443 1374
is_linear=0
shrinkage=0.0291483


Tree=34
num_leaves=8
num_cat=0
split_feature=4 2 9 17 8 8 9
split_gain=29.947 26.2225 18.73 16.0185 13.8242 12.1084 11.6262
threshold=-0.00024022734881482815 -0.00011825416510713326 0.00059231949862565889 0.21523744778517592 0.00077545898126052957 0.0016299532054707508 0.00024134475579415079
decision_type=2 2 2 2 2 2 2
left_child=3 4 -3 6 -2 -5 -1
right_child=1 2 -4 5 -6 -7 -8
leaf_value=0.0054713616478561213 0.0017255373257221596 -0.0024620472860329523 -7.5124248375901532e-05 0.0014770966727413863 -0.0020336451600108628 -0.0037945753965125885 -0.0041724357495675872
leaf_weight=120.40776428580284 3927.174319088459 7594.5548171103001 4414.7206887155771 11404.568012982607 1050.5106492489576 379.08047285676003 740.93567280471325
leaf_count=482 15719 30418 17690 45671 4207 1517 2965
internal_value=-4.7878e-05 -0.000847294 -0.00158455 0.00102597 0.000930862 0.00130661 -0.00280323
internal_weight=29632 16987 12009.3 12645 4977.68 11783.6 861.343
internal_count=118669 68034 48108 50635 19926 47188 3447
is_linear=0
shrinkage=0.0291483


Tree=35
num_leaves=8
num_cat=0
split_feature=6 16 1 7 7 6 13
split_gain=65.7654 17.0633 20.5048 18.2017 10.3637 10.8379 8.95764
threshold=1254.8899193786058 2.7400510249142491 -1.1024034704342738e-07 4.7913491118400918e-05 0.001099618628410766 1212.807682700068 -0.15790039682465812
decision_type=2 2 2 2 2 2 2
left_child=4 3 -3 -2 5 -1 -6
right_child=1 2 -4 -5 6 -7 -8
leaf_value=0.0036180173451831814 -0.0045109718464164108 0.0012797389603166434 -0.009660277495683732 -0.00058138664246013157 0.003241827882611222 0.0014440029923563549 -0.0032975235663495733
leaf_weight=3483.7894015908241 1052.9353175163269 226.0159864127636 396.01887677609921 19263.86850553751 264.90064956247807 4418.8839129954576 524.59781290590763
leaf_count=13965 4221 905 1589 77137 1062 17689 2101
internal_value=-4.6488e-05 -0.000931205 -0.00567326 -0.000785498 0.00208438 0.00240276 -0.00109309
internal_weight=29631 20938.8 622.035 20316.8 8692.17 7902.67 789.498
internal_count=118669 83852 2494 81358 34817 31654 3163
is_linear=0
shrinkage=0.0291483


Tree=36
num_leaves=8
num_cat=0
split_feature=6 4 8 8 6 10 8
split_gain=58.8429 18.4781 18.7354 18.1356 20.0704 14.8284 9.91249
threshold=1269.7430709691337 0.0038526205498208817 4.8463529017188298e-05 0.00017251782158966608 1252.0525819645975 0.0008445206058856771 0.0016299532054707508
decision_type=2 2 2 2 2 2 2
left_child=3 2 -2 4 -1 -3 -5
right_child=1 5 -4 6 -6 -7 -8
leaf_value=0.00084545303368580612 -0.006872291244306764 -0.010062836480428156 -0.00060433612382729339 0.0023529206535843465 -0.0075855126463475449 -0.0024881721733714872 -0.002425607715785687
leaf_weight=768.06744231283665 411.17136634886265 308.38220012187958 17647.338098987937 9063.2892140597105 344.64301533997059 743.19707095623016 381.06942111253738
leaf_count=3074 1650 1238 70661 36306 1380 2985 1525
internal_value=-1.89284e-06 -0.000966683 -0.000747877 0.00174434 -0.00176973 -0.00471649 0.00215919
internal_weight=29667.2 19110.1 18058.5 10557.1 1112.71 1051.58 9444.36
internal_count=118819 76534 72311 42285 4454 4223 37831
is_linear=0
shrinkage=0.0291483


Tree=37
num_leaves=8
num_cat=0
split_feature=6 4 9 13 10 6 9
split_gain=55.4656 17.4276 16.3687 17.9613 13.9969 13.9075 12.4387
threshold=1269.7430709691337 0.0038526205498208817 0.00051598201520854992 -0.16079491770229246 0.0008445206058856771 1383.1005202817016 0.00016458402114501205
decision_type=2 2 2 2 2 2 2
left_child=2 5 6 -4 -3 -2 -1
right_child=1 4 3 -5 -6 -7 -8
leaf_value=0.0072903889963263678 -0.0015941547553033569 -0.0097769622077925264 0.0050113935145404661 0.0016029425476059964 -0.0024160057444049749 2.7407779051799549e-05 1.8382164298200808e-05
leaf_weight=206.09308531880379 8390.8873606026173 308.19943377375603 1916.9344147592783 4160.6521291136742 743.08443966507912 9667.2690617293119 4272.7635753154755
leaf_count=825 33596 1238 7687 16664 2985 38715 17109
internal_value=-1.88722e-06 -0.00093859 0.00169355 0.00267876 -0.00458079 -0.000726118 0.000356887
internal_weight=29665.9 19109.4 10556.4 6077.59 1051.28 18058.2 4478.86
internal_count=118819 76534 42285 24351 4223 72311 17934
is_linear=0
shrinkage=0.0291483


Tree=38
num_leaves=8
num_cat=0
split_feature=3 14 13 9 14 8 5
split_gain=32.5788 20.6383 27.8411 20.0442 13.2372 11.1147 3.14645
threshold=-0.00056424234937127633 -0.061325974259782069 -0.37161190025286761 0.00024134475579415079 0.12545085421732452 0.00041349923864660297 0.0012521642002425158
decision_type=2 2 2 2 2 2 2
left_child=3 5 -3 6 -5 -2 -1
right_child=1 2 -4 4 -6 -7 -8
leaf_value=0.013412019755254939 -0.00026054515443970033 -0.013357437769867664 -0.0011047670563376383 0.0008661035701801325 0.0044478714387990786 0.0021169797477772392 0.0063376542217386108
leaf_weight=119.02520841360092 4146.8379463255405 155.7883192896843 14181.323190242052 7175.6103144139051 995.30448289215565 2792.5373284816742 98.312099903821945
leaf_count=477 16602 624 56808 28748 3985 11181 394
internal_value=-1.82543e-06 -0.000608323 -0.00123986 0.00153624 0.00130339 0.000696184 0.0102026
internal_weight=29664.7 21276.5 14337.1 8388.25 8170.91 6939.38 217.337
internal_count=118819 85215 57432 33604 32733 27783 871
is_linear=0
shrinkage=0.0291483


Tree=39
num_leaves=8
num_cat=0
split_feature=6 7 10 13 5 7 5
split_gain=57.0561 19.0782 15.0231 9.47934 10.6138 10.3815 9.06126
threshold=1248.5191485382732 4.7913491118400918e-05 0.00025039228346126 0.30156934247661876 0.012330200295277753 0.001099618628410766 -0.039849904745508681
decision_type=2 2 2 2 2 2 2
left_child=3 6 -3 5 -5 -1 -2
right_child=1 2 -4 4 -6 -7 -8
leaf_value=0.0027559722754487165 0.0029370353330461473 0.0019629814701914911 -0.00078098969499452715 -0.0052171073761534386 0.0056790797974184248 -0.00084245851961636396 -0.0053510389394434872
leaf_weight=6713.9999328702688 122.91939209401608 1859.4710322022438 18817.207486584783 280.13012699782848 100.21541258692741 754.89949728548527 999.68964107334614
leaf_count=26905 493 7447 75356 1121 401 3025 4009
internal_value=3.22375e-05 -0.000734996 -0.000533998 0.00216268 -0.00230582 0.00239164 -0.00442993
internal_weight=29648.5 21799.3 20676.7 7849.24 380.346 7468.9 1122.61
internal_count=118757 87305 82803 31452 1522 29930 4502
is_linear=0
shrinkage=0.0291483


Tree=40
num_leaves=5
num_cat=0
split_feature=5 4 2 10
split_gain=29.9368 28.2027 22.146 13.1194
threshold=-0.093144626947719564 -0.00025372451468357526 -0.00011825416510713326 0.00066173691722420578
decision_type=2 2 2 2
left_child=-1 3 -3 -2
right_child=1 2 -4 -5
leaf_value=-0.014432016082741611 0.00037901174451418767 0.00094675923642362409 -0.0013577536922573803 0.0023122553912718223
leaf_weight=117.5394526720047 7540.0610344409943 5015.3431865572929 12044.040773645043 4930.4485197067261
leaf_count=471 30194 20079 48259 19754
internal_value=3.13137e-05 9.00059e-05 -0.00068008 0.00114344
internal_weight=29647.4 29529.9 17059.4 12470.5
internal_count=118757 118286 68338 49948
is_linear=0
shrinkage=0.0291483


Tree=41
num_leaves=8
num_cat=0
split_feature=4 1 17 7 17 10 16
split_gain=26.2757 16.8303 17.1385 13.785 11.7213 15.7294 9.18642
threshold=-0.00025372451468357526 -0.00022398849160837832 2.3275939313540905 0.0006343215965836311 0.21523744778517592 0.00027105168936989094 0.17331818468698165
decision_type=2 2 2 2 2 2 2
left_child=4 3 -3 -2 5 -1 -6
right_child=1 2 -4 -5 6 -7 -8
leaf_value=0.0063654526271884095 0.002240901079438497 -0.00089828863611040677 -0.0048525013348477454 -0.0015254302691787194 0.0092878049547534657 -0.0040575061469956854 0.0012027377110891495
leaf_weight=145.37285828590393 2528.8315323591232 12367.345253959298 1003.7128532230854 1221.5816972851753 117.11944855749607 704.38264994323254 11558.225237950683
leaf_count=582 10123 49545 4028 4893 469 2819 46298
internal_value=3.03733e-05 -0.000711748 -0.00119575 0.00101294 0.00104481 -0.00225342 0.0012855
internal_weight=29646.6 17121.5 13371.1 3750.41 12525.1 849.756 11675.3
internal_count=118757 68589 53573 15016 50168 3401 46767
is_linear=0
shrinkage=0.0291483


Tree=42
num_leaves=8
num_cat=0
split_feature=6 8 10 8 10 6 5
split_gain=42.5755 15.5029 21.134 12.6063 8.30365 7.01911 6.66322
threshold=1226.6497143881554 4.8463529017188298e-05 0.00020976915583576468 0.0016299532054707508 0.00010431807073745033 1121.7344346313914 0.0080484152414333366
decision_type=2 2 2 2 2 2 2
left_child=3 4 -3 5 -2 -1 -5
right_child=1 2 -4 6 -6 -7 -8
leaf_value=0.0053777418799033586 -0.012511035000972276 0.0029168923414320197 -0.00058438585107008223 -0.006330167482207689 -0.0035099213233185725 0.002325679001261057 0.002243599079327108
leaf_weight=752.68161672353745 112.51826751232147 1563.8588279783726 22351.944519400597 203.15812046825886 352.28504134714603 4213.5155098289251 119.45033350586891
leaf_count=3023 452 6264 89516 813 1414 16892 478
internal_value=5.65306e-05 -0.000457729 -0.000355154 0.00242644 -0.00571012 0.00278976 -0.00312698
internal_weight=29669.4 24380.6 23915.8 5288.81 464.803 4966.2 322.608
internal_count=118852 97646 95780 21206 1866 19915 1291
is_linear=0
shrinkage=0.0291483


Tree=43
num_leaves=8
num_cat=0
split_feature=6 17 16 8 9 8 8
split_gain=40.8874 19.4359 13.8976 13.842 15.483 13.7394 10.2046
threshold=1269.7430709691337 0.28275036494442002 2.7400510249142491 0.00017251782158966608 0.00016458402114501205 0.0016299532054707508 4.0046872498965894e-05
decision_type=2 2 2 2 2 2 2
left_child=3 6 -3 4 -1 -5 -2
right_child=1 2 -4 5 -6 -7 -8
leaf_value=0.0061703324713662305 -0.011883024242372931 -0.00022135499274411789 -0.0047875666267534304 0.0020993971547000039 -0.0030757031392047037 -0.0035066421413463022 -0.0027259140943908656
leaf_weight=180.60722081363201 104.50380651652813 15939.889272898436 583.63544510304928 9075.7036176472902 932.66058719158173 383.80526182055473 2467.6381434947252
leaf_count=723 420 63846 2342 36369 3734 1536 9882
internal_value=5.48781e-05 -0.000750219 -0.000383295 0.00150886 -0.00156058 0.00187082 -0.00310557
internal_weight=29668.4 19095.7 16523.5 10572.8 1113.27 9459.51 2572.14
internal_count=118852 76490 66188 42362 4457 37905 10302
is_linear=0
shrinkage=0.0291483


Tree=44
num_leaves=8
num_cat=0
split_feature=6 17 0 7 6 10 7
split_gain=38.6121 19.0219 13.6168 8.65969 7.61278 7.05436 4.96941
threshold=1226.6497143881554 0.23570512935004054 0.6943999512371809 0.001099618628410766 1113.0580836708225 0.0010546462405378932 0.0014006199771586282
decision_type=2 2 2 2 2 2 2
left_child=3 5 -3 4 -1 -2 -5
right_child=1 2 -4 6 -6 -7 -8
leaf_value=0.0061005435893737988 -0.002528831376731224 5.2227127980643335e-05 -0.0026380264539473809 -0.0036365842052025919 0.0023433896166254035 -0.010391020835841929 0.0013776025525157123
leaf_weight=513.16945978999138 2404.509975284338 20144.923698619008 1732.7020471394062 289.1950808763504 4094.9400901645422 97.63292296230793 390.34553964436054
leaf_count=2062 9630 80682 6943 1160 16420 391 1564
internal_value=5.32463e-05 -0.000436463 -0.000161084 0.00231044 0.00276378 -0.00284226 -0.00075373
internal_weight=29667.4 24379.8 21877.6 5287.65 4608.11 2502.14 679.541
internal_count=118852 97646 87625 21206 18482 10021 2724
is_linear=0
shrinkage=0.0291483


Tree=45
num_leaves=8
num_cat=0
split_feature=6 8 8 10 6 6 8
split_gain=43.5456 17.219 14.4354 18.4027 14.317 12.9636 12.7264
threshold=1269.7430709691337 0.00017251782158966608 4.8463529017188298e-05 0.00025039228346126 1252.0525819645975 1662.710047261696 0.0016299532054707508
decision_type=2 2 2 2 2 2 2
left_child=1 4 5 -4 -1 -2 -3
right_child=2 6 3 -5 -6 -7 -8
leaf_value=0.0003334872271404282 -0.013960863367342684 0.0021739712137381312 0.0020539949880631903 -0.00096940178528423396 -0.0067845880910070502 -0.0027980628780715764 -0.0032167224870003372
leaf_weight=769.46749979257584 123.21169099211693 9071.0617126077414 1900.7338189631701 16803.811319455504 344.77470430731773 292.10552693903446 384.53805485367775
leaf_count=3080 495 36355 7614 67307 1381 1174 1539
internal_value=4.8537e-05 0.00154966 -0.000781381 -0.000661902 -0.00187204 -0.00613362 0.00195367
internal_weight=29689.7 10569.8 19119.9 18704.5 1114.24 415.317 9455.6
internal_count=118945 42355 76590 74921 4461 1669 37894
is_linear=0
shrinkage=0.0291483


Tree=46
num_leaves=8
num_cat=0
split_feature=12 10 6 8 8 17 12
split_gain=53.6766 25.6695 19.9391 19.2807 17.1574 16.4736 9.48042
threshold=-0.00054330615553123678 0.00031008098021530884 1284.8415529665201 0.00039679817292069238 0.00017251782158966608 0.27383472903029743 -0.00081612459832387687
decision_type=2 2 2 2 2 2 2
left_child=1 6 4 -3 -2 -4 -1
right_child=2 3 5 -5 -6 -7 -8
leaf_value=0.010300951792077276 -0.0029582447067952127 -0.00049679509184567957 -0.0041384753730124863 0.0023487856822356507 0.0011675627296992082 -0.001070789891184687 0.0037567933689632957
leaf_weight=369.90182723104954 1013.7617928385735 3056.4757959395647 1698.7420366853476 5967.4973796755075 5409.3205364197493 11792.37607896328 380.45393481850624
leaf_count=1482 4059 12241 6808 23922 21654 47255 1524
internal_value=4.70876e-05 0.00181585 -0.000821148 0.00138492 0.00051515 -0.00145752 0.00698411
internal_weight=29688.5 9774.33 19914.2 9023.97 6423.08 13491.1 750.356
internal_count=118945 39169 79776 36163 25713 54063 3006
is_linear=0
shrinkage=0.0291483


Tree=47
num_leaves=8
num_cat=0
split_feature=6 4 10 4 16 5 15
split_gain=39.2485 13.2122 14.3465 11.8965 11.0412 9.61903 8.28409
threshold=1269.7430709691337 0.0038526205498208817 0.0008445206058856771 -0.00069788614354161164 2.7400510249142491 0.024248718807897422 9.2125430348149426e-05
decision_type=2 2 2 2 2 2 2
left_child=3 4 -3 5 -2 -1 -5
right_child=1 2 -4 6 -6 -7 -8
leaf_value=0.0020114636562793748 -0.00043123090424822876 -0.009180891797120996 -0.0017183169731001247 -0.0030788498942025634 -0.0046472840088045914 0.0058044437323493715 0.00089646106256325458
leaf_weight=4301.3343772888184 17533.126808524132 307.82915239036083 736.92182590067387 484.12215207517147 540.62465430796146 651.60560277104378 5131.5105031877756
leaf_count=17258 70221 1238 2962 1938 2169 2614 20545
internal_value=4.57188e-05 -0.000742202 -0.00392394 0.00147095 -0.000557902 0.00251205 0.000552668
internal_weight=29687.1 19118.5 1044.75 10568.6 18073.8 4952.94 5615.63
internal_count=118945 76590 4200 42355 72390 19872 22483
is_linear=0
shrinkage=0.0291483


Tree=48
num_leaves=8
num_cat=0
split_feature=6 12 8 10 7 13 7
split_gain=35.3807 23.7049 23.1061 13.4644 13.0797 7.99159 5.14963
threshold=1226.6497143881554 0.0036303459699517393 0.0003330328582511844 0.0013042949144825638 0.001099618628410766 0.35711954449104583 0.0013504273791110309
decision_type=2 2 2 2 2 2 2
left_child=4 2 -2 -3 5 -1 -6
right_child=1 3 -4 -5 6 -7 -8
leaf_value=0.0029222250575250143 -0.0012912917130388003 -0.0079186364409056867 0.00054646634289604653 -0.00060280983064561506 -0.0048783587470120461 -0.0053823281027028198 0.0003496607965680947
leaf_weight=4492.5288092494011 10473.642862156034 550.68276458978653 13052.491872906685 345.82954300940037 250.99797943234444 97.173425555229187 428.17098391056061
leaf_count=18027 41952 2218 52268 1391 1007 389 1716
internal_value=1.82603e-05 -0.000449075 -0.000271716 -0.00509179 0.00218381 0.00274282 -0.00158183
internal_weight=29691.5 24422.6 23526.1 896.512 5268.87 4589.7 679.169
internal_count=118968 97829 94220 3609 21139 18416 2723
is_linear=0
shrinkage=0.0291483


Tree=49
num_leaves=8
num_cat=0
split_feature=12 9 12 13 9 4 13
split_gain=33.7374 27.2624 18.3689 24.3601 22.0813 16.4593 7.99303
threshold=-0.00054330615553123678 0.00024134475579415079 0.0030392062793967735 -0.096916254226111803 0.00049194253459247076 0.00068857000189746027 -0.22265182617745022
decision_type=2 2 2 2 2 2 2
left_child=1 6 4 -4 -2 -3 -1
right_child=2 5 3 -5 -6 -7 -8
leaf_value=0.0054320523407053742 -0.0013755632886250145 0.00087336257157173941 0.0079308168544423175 -0.0051280751646807093 0.0006398821732433663 0.0069585165587441695 0.014351295716340352
leaf_weight=187.96571323275566 9808.1775494515896 9029.3384809792042 130.7172794342041 1266.5118438303471 8722.5607221573591 390.64102099835873 154.42527498304844
leaf_count=754 39291 36191 524 5097 34928 1564 619
internal_value=1.77015e-05 0.00142128 -0.000669953 -0.0038887 -0.000426886 0.00112725 0.0094593
internal_weight=29690.3 9762.37 19928 1397.23 18530.7 9419.98 342.391
internal_count=118968 39128 79840 5621 74219 37755 1373
is_linear=0
shrinkage=0.0291483


Tree=50
num_leaves=5
num_cat=0
split_feature=5 7 5 7
split_gain=26.6283 18.6171 15.3074 14.4149
threshold=-0.093144626947719564 0.00033291508089973676 -0.046935096443624223 0.00082552896805577591
decision_type=2 2 2 2
left_child=-1 2 -2 -3
right_child=1 3 -4 -5
leaf_value=-0.013613516171901631 0.0031816744735770229 0.0013580179256025284 -0.00086931013468773512 -0.00074735498023753696
leaf_weight=117.71792362630367 835.64281012117863 10779.176802352071 14245.138992041349 3711.4473706185818
leaf_count=472 3348 43195 57069 14884
internal_value=1.72373e-05 7.25562e-05 -0.000644259 0.000818582
internal_weight=29689.1 29571.4 15080.8 14490.6
internal_count=118968 118496 60417 58079
is_linear=0
shrinkage=0.0291483


Tree=51
num_leaves=8
num_cat=0
split_feature=3 9 17 2 14 9 14
split_gain=22.005 21.0554 15.3352 14.0019 13.0223 6.97848 3.6028
threshold=-0.00056424234937127633 0.00024134475579415079 0.23570512935004054 8.6488014666468008e-05 0.1162199517767435 0.00013187230135048577 -0.070277425051452694
decision_type=2 2 2 2 2 2 2
left_child=1 6 5 -4 -3 -2 -1
right_child=2 4 3 -5 -6 -7 -8
leaf_value=0.013739662025248614 -0.0096628386888639572 0.00050085970959965473 0.00057499356775629834 -0.0010172417827744092 0.0039062273596264679 -0.0024329890452650265 0.0061566000689802797
leaf_weight=112.84913991391659 116.2227525562048 7090.8656541109085 8610.4079748690128 10303.571044594049 1098.9605321735144 2203.7646148055792 101.22626607120037
leaf_count=453 467 28426 34487 41294 4402 8828 406
internal_value=-6.71336e-05 0.00119506 -0.000566774 -0.000292392 0.000958696 -0.00280168 0.0101454
internal_weight=29637.9 8403.9 21234 18914 8189.83 2319.99 214.075
internal_count=118763 33687 85076 75781 32828 9295 859
is_linear=0
shrinkage=0.0291483


Tree=52
num_leaves=8
num_cat=0
split_feature=12 8 17 12 6 7 0
split_gain=31.5727 18.0893 18.0468 17.686 12.2629 7.51373 6.57418
threshold=0.00028502298046360956 0.00035649610438755875 0.21523744778517592 0.0027280400168213409 1237.4855952971814 4.1761131537573465e-05 0.42767490334255448
decision_type=2 2 2 2 2 2 2
left_child=2 5 6 -3 -4 -2 -1
right_child=1 3 4 -5 -6 -7 -8
leaf_value=-0.0032954742348160486 -0.007358871662255048 0.00043113342995716129 0.0021963951707141206 -0.0030156683813904752 0.00046264803996791414 -0.0023371331434128731 0.0016873125997770235
leaf_weight=1194.9856168925762 265.31835173070431 5845.1712545007467 5068.2573659569025 1610.2330935448408 10950.627606123686 4428.8484015315771 273.65205390751362
leaf_count=4786 1066 23410 20344 6475 43838 17748 1096
internal_value=-6.51711e-05 -0.0012064 0.000727735 -0.000314061 0.00101134 -0.00262336 -0.00236092
internal_weight=29637.1 12149.6 17487.5 7455.4 16018.9 4694.17 1468.64
internal_count=118763 48699 70064 29885 64182 18814 5882
is_linear=0
shrinkage=0.0291483


Tree=53
num_leaves=8
num_cat=0
split_feature=6 10 10 10 8 6 0
split_gain=29.9179 11.9866 20.702 20.2446 9.03823 5.40404 3.82338
threshold=1237.4855952971814 0.00067543024947825769 0.00047358041693282971 0.0011111832034678569 0.0016299532054707508 1121.7344346313914 -0.11833502118321344
decision_type=2 2 2 2 2 2 2
left_child=4 2 -2 -3 5 -1 -6
right_child=1 3 -4 -5 6 -7 -8
leaf_value=0.004276632193072968 -0.00018745154210241725 0.0013614063309512539 -0.0023651604919773953 -0.0020544042943416913 -0.0061650021956566776 0.0016268305390476742 1.0677678339577053e-05
leaf_weight=742.02422265708447 9894.1865427941084 5340.1110038012266 5928.8158756047487 2032.2404153645039 160.65949138998985 5363.4561210870743 174.16789542138577
leaf_count=2985 39638 21394 23745 8148 643 21513 697
internal_value=-6.32894e-05 -0.000551287 -0.00100356 0.000419189 0.00169379 0.00194994 -0.0029446
internal_weight=29635.7 23195.4 15823 7372.35 6440.31 6105.48 334.827
internal_count=118763 92925 63383 29542 25838 24498 1340
is_linear=0
shrinkage=0.0291483


Tree=54
num_leaves=8
num_cat=0
split_feature=3 7 10 11 7 10 18
split_gain=21.8407 16.4695 14.0271 12.6196 11.8294 10.9884 7.70113
threshold=-0.00022854013581614468 4.5142439267837358e-05 0.00020368088559663745 0.00011022995073344898 3.8119330050609563e-05 0.00026718671107315417 0.44884205763420598
decision_type=2 2 2 2 2 2 2
left_child=3 4 -3 5 -2 -1 -5
right_child=1 2 -4 6 -6 -7 -8
leaf_value=0.0039120420741399408 -0.0028007092577161008 0.0030178752274154634 -0.00059890227167517975 -0.0028908147295285706 -0.011188966365940274 0.00037529756098241668 0.0042014531684326107
leaf_weight=806.35062976181507 773.29217503964901 962.77050347626209 15928.493553593755 140.64059619605541 171.92843700945377 9522.6982768028975 1345.974921092391
leaf_count=3231 3106 3857 63826 563 690 38169 5391
internal_value=4.184e-05 -0.000601954 -0.000392342 0.00101365 -0.0043392 0.000652193 0.0035217
internal_weight=29652.1 17836.5 16891.3 11815.7 945.221 10329 1486.62
internal_count=118833 71479 67683 47354 3796 41400 5954
is_linear=0
shrinkage=0.0291483


Tree=55
num_leaves=8
num_cat=0
split_feature=6 17 8 16 8 6 7
split_gain=24.8775 17.5709 13.626 12.5178 12.0539 10.1652 8.98083
threshold=1289.1612213341762 0.28275036494442002 0.00017251782158966608 2.9551431210419103 0.0016299532054707508 1252.0525819645975 1.1443657171506259e-07
decision_type=2 2 2 2 2 2 2
left_child=2 6 5 -3 -4 -1 -2
right_child=1 3 4 -5 -6 -7 -8
leaf_value=0.00046123338095678605 -0.011373105334042408 -0.00018680451339640451 0.0015221437986432241 -0.0054575715930276301 -0.0035501053127301213 -0.0046072482920000036 -0.0026975839777870617
leaf_weight=769.0611669421196 103.08546181023121 14262.935756802559 11008.207298696041 389.84715485572815 409.4816941767931 591.86438997089863 2117.0570925176144
leaf_count=3079 415 57149 44130 1566 1639 2372 8483
internal_value=4.06083e-05 -0.000694058 0.00101064 -0.000327888 0.00133935 -0.00174262 -0.00310863
internal_weight=29651.5 16872.9 12778.6 14652.8 11417.7 1360.93 2220.14
internal_count=118833 67613 51220 58715 45769 5451 8898
is_linear=0
shrinkage=0.0291483


Tree=56
num_leaves=8
num_cat=0
split_feature=12 8 17 10 12 17 10
split_gain=29.7498 16.6249 14.2974 13.0246 11.5567 8.35839 7.6347
threshold=-2.3054596155325378e-05 4.8463529017188298e-05 0.21523744778517592 0.00031008098021530884 0.0036303459699517393 0.36669959095017834 0.00022125596101211974
decision_type=2 2 2 2 2 2 2
left_child=2 5 6 -4 -3 -2 -1
right_child=1 4 3 -5 -6 -7 -8
leaf_value=0.003571316795282207 -0.014389475301425014 -0.00052669017995202281 0.0034400394066362188 0.00087061759286910002 -0.0038758896865931998 -0.0037959667026697024 -0.0031928199970102599
leaf_weight=163.13814394176006 105.59207098186016 13974.900416836143 1961.4697814881802 11416.21796092391 930.37590780854225 150.75609891116619 948.08309763669968
leaf_count=654 426 55992 7857 45753 3749 607 3795
internal_value=3.93752e-05 -0.000863086 0.00098375 0.00124775 -0.000736273 -0.00817301 -0.00218808
internal_weight=29650.5 15161.6 14488.9 13377.7 14905.3 256.348 1111.22
internal_count=118833 60774 58059 53610 59741 1033 4449
is_linear=0
shrinkage=0.0291483


Tree=57
num_leaves=5
num_cat=0
split_feature=5 3 14 14
split_gain=25.6213 20.6574 14.0084 12.4931
threshold=-0.093144626947719564 -0.00056424234937127633 0.12092532476307803 -0.061325974259782069
decision_type=2 2 2 2
left_child=-1 2 -2 -3
right_child=1 3 -4 -5
leaf_value=-0.013321026581496746 0.00086564433934647686 0.00062793362962626931 0.0044469316105466119 -0.00088206771584265864
leaf_weight=117.91088610887527 7287.9002984911203 6898.9254587590694 1060.0180549770594 14294.781879082322
leaf_count=473 29224 27633 4247 57296
internal_value=3.88956e-05 9.32564e-05 0.00132113 -0.000390454
internal_weight=29659.5 29541.6 8347.92 21193.7
internal_count=118873 118400 33471 84929
is_linear=0
shrinkage=0.0291483


Tree=58
num_leaves=8
num_cat=0
split_feature=12 8 12 6 6 11 12
split_gain=30.912 20.7321 19.7966 11.5104 16.1084 10.7832 9.72103
threshold=0.00034867840039980782 0.00026040120662000073 0.0029199380487162142 1715.9772266039292 1662.710047261696 0.00016289829921251864 0.0019607202899724206
decision_type=2 2 2 2 2 2 2
left_child=3 6 -3 4 -1 -5 -2
right_child=1 2 -4 5 -6 -7 -8
leaf_value=0.00073117772757103614 -0.0038574124149383525 0.00014263687712467058 -0.0035582796455911618 -0.0034903204365572173 0.0041198845302298235 0.0028033904707028207 0.0032909296125556275
leaf_weight=15542.484576404095 2486.7449610829353 7476.6000903844833 1465.6454372256994 926.00306949019432 1287.3980648368597 304.46406146883965 169.50676198303699
leaf_count=62285 9971 29950 5900 3710 5158 1219 680
internal_value=3.77416e-05 -0.00113632 -0.000464692 0.000791799 0.000990846 -0.00192566 -0.00339599
internal_weight=29658.8 11598.5 8942.25 18060.3 16829.9 1230.47 2656.25
internal_count=118873 46501 35850 72372 67443 4929 10651
is_linear=0
shrinkage=0.0291483


Tree=59
num_leaves=5
num_cat=0
split_feature=5 8 5 14
split_gain=24.1841 14.0986 19.0851 15.1308
threshold=-0.093144626947719564 0.00035649610438755875 -0.032178944180592271 -0.050048636628670706
decision_type=2 2 2 2
left_child=-1 2 -2 -3
right_child=1 3 -4 -5
leaf_value=-0.012945718020702685 0.0021570172973631369 0.0017823022090160169 -0.0011055366821386607 -2.5064567676345529e-05
leaf_weight=117.86377373337746 1768.5396739691496 6219.8220580816269 10850.304494261742 10701.359835237265
leaf_count=473 7087 24934 43478 42901
internal_value=3.66537e-05 8.94606e-05 -0.000647817 0.000639322
internal_weight=29657.9 29540 12618.8 16921.2
internal_count=118873 118400 50565 67835
is_linear=0
shrinkage=0.0291483


Tree=60
num_leaves=8
num_cat=0
split_feature=3 7 10 7 1 15 18
split_gain=17.5762 11.4443 11.5119 10.6545 9.63552 9.41067 7.70559
threshold=-0.00022854013581614468 4.5142439267837358e-05 0.00020976915583576468 3.8119330050609563e-05 0.00036379911529030496 0.0020849505409167054 0.71123458786828786
decision_type=2 2 2 2 2 2 2
left_child=4 3 -3 -2 6 -6 -1
right_child=1 2 -4 -5 5 -7 -8
leaf_value=-0.00060087867421201575 -0.0022105544973369585 0.002604849963102545 -0.00055667703214779755 -0.010237794624358173 0.0039363778142903058 -0.0030615221468930521 0.0011278618451352285
leaf_weight=3165.1141529679298 773.35231935977936 1039.3531365245581 15852.261249035597 168.30809018015862 1330.5733469128609 182.68357852101326 7093.8615804165602
leaf_count=12676 3108 4164 63529 676 5331 732 28449
internal_value=4.07655e-05 -0.000536209 -0.000361789 -0.00365775 0.000914767 0.00308361 0.000594428
internal_weight=29605.5 17833.3 16891.6 941.66 11772.2 1513.26 10259
internal_count=118665 71477 67693 3784 47188 6063 41125
is_linear=0
shrinkage=0.0291483


Tree=61
num_leaves=7
num_cat=0
split_feature=12 14 10 14 12 12
split_gain=28.5549 23.6163 22.3855 15.7053 17.1712 11.926
threshold=-0.00054330615553123678 0.27916798508762308 0.00031008098021530884 -0.061325974259782069 0.0025547355720098347 0.0013769810919059776
decision_type=2 2 2 2 2 2
left_child=1 2 -1 5 -5 -2
right_child=3 -3 -4 4 -6 -7
leaf_value=0.0063654749686800375 0.0001423656321379515 -0.012212687001854071 0.001077689626520648 -0.00073969798416748242 -0.0038877832624502197 0.0038733353120380086
leaf_weight=732.92546121776104 4700.2649253755808 104.64880196750164 8920.7051534801722 12625.492688238621 1663.0300985276699 857.7273146957159
leaf_count=2939 18823 419 35770 50585 6691 3438
internal_value=3.95576e-05 0.00133033 0.00148037 -0.000595158 -0.00110654 0.000719081
internal_weight=29604.8 9758.28 9653.63 19846.5 14288.5 5557.99
internal_count=118665 39128 38709 79537 57276 22261
is_linear=0
shrinkage=0.0291483


Tree=62
num_leaves=8
num_cat=0
split_feature=6 8 10 8 6 6 13
split_gain=25.6331 13.5344 14.9906 9.51711 11.2151 8.81123 4.09379
threshold=1254.8899193786058 4.8463529017188298e-05 0.00020976915583576468 0.0016299532054707508 1129.8260671492556 1668.2028287592841 0.017092762444802626
decision_type=2 2 2 2 2 2 2
left_child=3 5 -3 4 -1 -2 -5
right_child=1 2 -4 6 -6 -7 -8
leaf_value=0.0047331534394438506 -0.011396549029478682 0.0025845663588264399 -0.00061373989522686581 -0.0053187418217146157 0.001210331461092956 -0.0026127262414719354 0.0013694288917273905
leaf_weight=852.81574240326881 145.75510324537754 1327.9012118726969 19194.639506667852 249.1083305478096 7446.8744742125273 277.38748769462109 109.16000562906265
leaf_count=3433 587 5322 76911 997 29861 1117 437
internal_value=3.83891e-05 -0.000513012 -0.000406498 0.00137219 0.00157327 -0.00565176 -0.00325631
internal_weight=29603.6 20945.7 20522.5 8657.96 8299.69 423.143 358.268
internal_count=118665 83937 82233 34728 33294 1704 1434
is_linear=0
shrinkage=0.0291483


Tree=63
num_leaves=5
num_cat=0
split_feature=5 6 17 5
split_gain=24.1431 24.261 11.2906 5.57357
threshold=-0.093144626947719564 1238.4740242245773 0.29184607236362714 -0.065341287519254734
decision_type=2 2 2 2
left_child=-1 3 -3 -2
right_child=1 2 -4 -5
leaf_value=-0.013233977419848783 0.0081632211848554799 -0.0020825617929713085 -0.00028408407424724869 0.0013488471211061347
leaf_weight=116.06135682761669 100.12695196270943 3493.9451657235622 19512.099205300212 6426.7426436990499
leaf_count=466 402 14002 78185 25796
internal_value=-0.000164765 -0.000112383 -0.000557357 0.00145566
internal_weight=29649 29532.9 23006 6526.87
internal_count=118851 118385 92187 26198
is_linear=0
shrinkage=0.0291483


Tree=64
num_leaves=8
num_cat=0
split_feature=6 7 10 6 8 9 4
split_gain=22.233 13.4949 12.2184 11.6356 8.53974 9.42756 7.99213
threshold=1254.8899193786058 0.00021741880635865415 0.00047101852205126698 1538.972863018945 0.0015616615987155082 0.0018423703456399937 -0.0054097370753525857
decision_type=2 2 2 2 2 2 2
left_child=4 3 -3 -2 6 -6 -1
right_child=1 2 -4 -5 5 -7 -8
leaf_value=0.0059114775673022616 -0.0028454425242322168 0.00133462076207011 -0.00065005431623323009 -0.00053627697429182227 -0.0068495144191413884 0.0020676858516872035 0.0011069516250334507
leaf_weight=302.05801555514336 3648.8851368874311 3576.3574151545763 9986.3919398784637 3764.6534930616617 232.22530847787857 172.59202364087105 7964.9458547085524
leaf_count=1217 14622 14326 40021 15094 930 691 31950
internal_value=-0.000159983 -0.000673177 -0.000126596 -0.00167294 0.00108117 -0.00303421 0.00128387
internal_weight=29648.1 20976.3 13562.7 7413.54 8671.82 404.817 8267
internal_count=118851 84063 54347 29716 34788 1621 33167
is_linear=0
shrinkage=0.0291483


Tree=65
num_leaves=8
num_cat=0
split_feature=12 9 14 7 12 12 13
split_gain=27.042 26.3736 19.1333 14.192 15.8281 10.2046 9.05737
threshold=-0.00054330615553123678 0.00022929215037219039 0.24983054924208853 0.00019252043950646484 0.0036303459699517393 0.00045432247920799512 -0.22265182617745022
decision_type=2 2 2 2 2 2 2
left_child=1 6 -3 5 -5 -2 -1
right_child=3 2 -4 4 -6 -7 -8
leaf_value=0.0053010340699582385 -0.00098963687067487411 0.0010074278928256341 -0.0092181882255440023 3.6702744649272557e-05 -0.0039927668159107374 -0.0033718095574951502 0.015805314509765855
leaf_weight=159.294866502285 4038.2364730238914 9342.4824106395245 154.53847695887089 12492.763474687934 883.48839201033115 2454.9922041743994 121.33432555198669
leaf_count=640 16183 37467 619 50044 3564 9847 487
internal_value=-0.000155317 0.00109936 0.000838749 -0.000772817 -0.000230079 -0.00189063 0.0098508
internal_weight=29647.1 9777.65 9497.02 19869.5 13376.3 6493.23 280.629
internal_count=118851 39213 38086 79638 53608 26030 1127
is_linear=0
shrinkage=0.0291483


Tree=66
num_leaves=8
num_cat=0
split_feature=17 14 8 9 3 9 14
split_gain=16.946 13.5931 11.3724 11.8945 10.7122 9.38864 8.80848
threshold=0.21523744778517592 -0.08731459126104156 0.00064760083966829086 0.00059231949862565889 -0.00049504004649773164 0.00083714672613541112 -0.012186265045912309
decision_type=2 2 2 2 2 2 2
left_child=2 5 3 -1 -3 -2 -4
right_child=1 4 6 -5 -6 -7 -8
leaf_value=-0.0028254132606382082 0.0007735154081773719 0.00086249268120122213 -0.0026775839581474588 0.0026080869098892164 -0.00063892107151182302 0.0034403996061435809 -0.014487431176999811
leaf_weight=1700.5482537597418 6363.5801917910576 5695.8223493099213 101.32842549681664 424.90055075287819 13841.796003013849 1358.2980176061392 108.82036319375038
leaf_count=6818 25505 22838 406 1702 55494 5449 436
internal_value=3.85839e-06 0.000208055 -0.00237714 -0.00173676 -0.000201107 0.00124317 -0.00879286
internal_weight=29595.1 27259.5 2335.6 2125.45 19537.6 7721.88 210.149
internal_count=118648 109286 9362 8520 78332 30954 842
is_linear=0
shrinkage=0.0291483


Tree=67
num_leaves=5
num_cat=0
split_feature=5 12 8 5
split_gain=23.4062 21.6828 12.2722 11.3373
threshold=-0.093144626947719564 -1.1792347345029495e-05 4.0046872498965894e-05 -0.044850891633972663
decision_type=2 2 2 2
left_child=-1 3 -3 -2
right_child=1 2 -4 -5
leaf_value=-0.012991762256886048 0.003854172461851334 -0.0080625975404542364 -0.00062902011782793035 0.0006364722548459253
leaf_weight=113.73878459632397 995.70175312459469 187.63748931884766 14782.232565030456 13515.032661184669
leaf_count=457 3992 758 59267 54174
internal_value=3.74021e-06 5.48894e-05 -0.000723291 0.000857711
internal_weight=29594.3 29480.6 14969.9 14510.7
internal_count=118648 118191 60025 58166
is_linear=0
shrinkage=0.0291483


Tree=68
num_leaves=5
num_cat=0
split_feature=5 6 10 14
split_gain=22.1008 20.9504 13.39 8.87513
threshold=-0.093144626947719564 1226.6497143881554 0.0011111832034678569 -0.048740161144086552
decision_type=2 2 2 2
left_child=-1 3 -3 -2
right_child=1 2 -4 -5
leaf_value=-0.01262806917653867 0.0030532189136650389 -9.739240673406195e-05 -0.002536981947750139 0.00064119752438292134
leaf_weight=113.67113120853901 2351.8980025053024 22157.579826921225 2088.4513766020536 2881.8187648057938
leaf_count=457 9457 88790 8378 11566
internal_value=3.59107e-06 5.32807e-05 -0.000307724 0.00172519
internal_weight=29593.4 29479.7 24246 5233.72
internal_count=118648 118191 97168 21023
is_linear=0
shrinkage=0.0291483


Tree=69
num_leaves=5
num_cat=0
split_feature=5 6 10 13
split_gain=19.3195 20.0332 14.7907 11.12
threshold=-0.093144626947719564 1226.6497143881554 0.00067543024947825769 -0.15790039682465812
decision_type=2 2 2 2
left_child=-1 3 -3 -2
right_child=1 2 -4 -5
leaf_value=-0.0117886881880651 0.0033856612026550784 -0.00084472795999017132 0.00070535138777106797 0.00060498862570327846
leaf_weight=115.07322163879871 1933.9812871515751 16574.002068012953 7636.99884788692 3308.1418833732605
leaf_count=463 7782 66414 30614 13277
internal_value=-4.87592e-05 -1.9748e-06 -0.000355708 0.00163116
internal_weight=29568.2 29453.1 24211 5242.12
internal_count=118550 118087 97028 21059
is_linear=0
shrinkage=0.0291483


Tree=70
num_leaves=8
num_cat=0
split_feature=6 12 10 10 15 11 1
split_gain=18.1788 13.0207 18.5504 11.6364 6.00614 11.0544 5.83277
threshold=1226.6497143881554 0.0047662807966566663 0.00067543024947825769 0.0013300740507770426 0.0010061036447176004 0.00017290384362651678 0.00029419318812199622
decision_type=2 2 2 2 2 2 2
left_child=4 2 -2 -3 5 -1 -6
right_child=1 3 -4 -5 6 -7 -8
leaf_value=0.003104551919701689 -0.00083043310919238245 -0.010268259329208645 0.00093494455091556908 -0.00079947108797860851 -0.0002557635377615555 -0.0018222974494053862 0.0038401191617451797
leaf_weight=2549.2706576138735 16593.623414203525 209.78304122388363 7269.6710610240698 226.28149870038033 1920.5929120481014 452.72716782987118 345.42023545503616
leaf_count=10238 66494 848 29130 913 7725 1815 1387
internal_value=-4.73594e-05 -0.000383887 -0.00029257 -0.00535509 0.00150434 0.00235926 0.0003721
internal_weight=29567.4 24299.4 23863.3 436.065 5268.01 3002 2266.01
internal_count=118550 97385 95624 1761 21165 12053 9112
is_linear=0
shrinkage=0.0291483


Tree=71
num_leaves=5
num_cat=0
split_feature=5 6 10 13
split_gain=18.2671 17.8222 13.1811 10.4537
threshold=-0.093144626947719564 1226.6497143881554 0.00067543024947825769 -0.15790039682465812
decision_type=2 2 2 2
left_child=-1 3 -3 -2
right_child=1 2 -4 -5
leaf_value=-0.011465763099564586 0.0032415410874768792 -0.00079578996942930352 0.00066752445626335735 0.00054512187158190168
leaf_weight=114.99101901054382 1933.2893913537264 16573.430623114109 7636.9838072359562 3307.7970802932978
leaf_count=463 7782 66414 30614 13277
internal_value=-4.59874e-05 -5.08325e-07 -0.000334132 0.00154004
internal_weight=29566.5 29451.5 24210.4 5241.09
internal_count=118550 118087 97028 21059
is_linear=0
shrinkage=0.0291483


Tree=72
num_leaves=8
num_cat=0
split_feature=6 12 10 8 13 17 12
split_gain=21.9687 20.4867 14.4903 22.2058 14.0792 11.4835 7.85437
threshold=1285.8890950513317 2.2729918457266027e-05 0.00020368088559663745 0.00017251782158966608 -0.24610441146715953 0.28275036494442002 0.00028502298046360956
decision_type=2 2 2 2 2 2 2
left_child=2 4 6 -4 -2 -3 -1
right_child=1 5 3 -5 -6 -7 -8
leaf_value=0.0088856363483511176 -0.0016120439206542894 -0.0041580767146012845 -0.0032926516717048208 0.0011574906307915207 0.0013750713486312134 -0.0011227563827245252 -0.00048431570381227189
leaf_weight=290.0367779135704 1823.1685229241848 1194.3360975980759 1039.274171307683 11018.247688442469 5034.0839552730322 9155.6507920622826 99.778796151280403
leaf_count=1162 7300 4796 4165 44198 20151 36734 400
internal_value=1.96404e-05 -0.000655048 0.000952309 0.000773282 0.00058022 -0.0014736 0.00645854
internal_weight=29654.6 17207.2 12447.3 12057.5 6857.25 10350 389.816
internal_count=118906 68981 49925 48363 27451 41530 1562
is_linear=0
shrinkage=0.0291483


Tree=73
num_leaves=5
num_cat=0
split_feature=5 6 10 16
split_gain=22.2433 20.2548 13.5791 11.3185
threshold=-0.093144626947719564 1285.8890950513317 0.00022125596101211974 2.9551431210419103
decision_type=2 2 2 2
left_child=-1 2 -2 -3
right_child=1 3 -4 -5
leaf_value=-0.012442868763404101 0.0056330891990322351 -0.00046486261452578645 0.00076771969113422368 -0.0054458734824066731
leaf_weight=117.65338195860386 504.70859694480896 16736.679835900664 11901.038838624954 393.26540072262287
leaf_count=474 2023 67091 47737 1581
internal_value=1.9053e-05 6.96605e-05 0.00096649 -0.000579851
internal_weight=29653.3 29535.7 12405.7 17129.9
internal_count=118906 118432 49760 68672
is_linear=0
shrinkage=0.0291483


Tree=74
num_leaves=5
num_cat=0
split_feature=5 6 10 8
split_gain=21.0076 19.0929 12.8027 10.8923
threshold=-0.093144626947719564 1285.8890950513317 0.00022125596101211974 4.8463529017188298e-05
decision_type=2 2 2 2
left_child=-1 2 -2 -3
right_child=1 3 -4 -5
leaf_value=-0.012097567019962509 0.0054696194799312538 -0.0052679132855867087 0.00074535902000118638 -0.00044851779611659149
leaf_weight=117.55188809335232 504.70316295325756 404.67354039847851 11900.790645077825 16724.9312351197
leaf_count=474 2023 1632 47737 67040
internal_value=1.84689e-05 6.76309e-05 0.000938368 -0.000562982
internal_weight=29652.7 29535.1 12405.5 17129.6
internal_count=118906 118432 49760 68672
is_linear=0
shrinkage=0.0291483


Tree=75
num_leaves=7
num_cat=0
split_feature=12 14 15 18 12 5
split_gain=22.1728 25.9454 14.9932 14.8187 15.1967 7.95885
threshold=-0.00054330615553123678 0.27916798508762308 0.00027524967007887887 0.62260809107496484 0.0010440210287963158 -0.025939322386756638
decision_type=2 2 2 2 2 2
left_child=1 2 -1 5 -5 -2
right_child=3 -3 -4 4 -6 -7
leaf_value=0.0042035534128440554 0.0004174502958798795 -0.013148294841242032 0.0008630538967761887 0.00069049106981053452 -0.0012791762758557882 -0.002358045326083638
leaf_weight=1319.6105318665504 1089.9687388390303 102.89062263071537 8326.2917272299528 9013.3509156107903 5271.4690352082253 4453.436943307519
leaf_count=5287 4370 412 33414 36108 21161 17854
internal_value=2.67067e-05 0.00116468 0.00132077 -0.000532846 -3.64737e-05 -0.0018116
internal_weight=29577 9748.79 9645.9 19828.2 14284.8 5543.41
internal_count=118606 39113 38701 79493 57269 22224
is_linear=0
shrinkage=0.0291483


Tree=76
num_leaves=8
num_cat=0
split_feature=12 10 1 17 13 17 7
split_gain=20.8983 21.1469 14.2787 16.2155 14.1837 12.1928 8.41759
threshold=-0.00054330615553123678 0.00027105168936989094 -0.00025529402951766168 3.6177080233045538 0.29664816670981914 2.5508217288513784 8.7144548702370355e-05
decision_type=2 2 2 2 2 2 2
left_child=1 6 5 -4 -3 -2 -1
right_child=2 4 3 -5 -6 -7 -8
leaf_value=0.01463771078058407 0.00060708301497944901 0.0010239870725096089 -0.00074589886145677933 -0.0060047348415346478 -0.0060411737787886416 0.0072225345383426631 0.0051478966585850657
leaf_weight=101.43861678242683 3871.0513093322515 9068.6655868440866 15196.453755959868 511.55713140964508 244.46917703747749 248.59811116755009 333.73277631402016
leaf_count=407 15507 36386 60932 2058 979 996 1341
internal_value=2.59049e-05 0.00113072 -0.000517331 -0.00091792 0.000836986 0.00100935 0.00738579
internal_weight=29576 9748.31 19827.7 15708 9313.13 4119.65 435.171
internal_count=118606 39113 79493 62990 37365 16503 1748
is_linear=0
shrinkage=0.0291483


Tree=77
num_leaves=7
num_cat=0
split_feature=12 14 7 7 12 5
split_gain=19.6997 24.2876 20.67 12.7207 14.0741 11.6249
threshold=-0.00054330615553123678 0.27916798508762308 8.2063069311045337e-05 5.4545191755263964e-05 0.0030392062793967735 -0.039150433248802005
decision_type=2 2 2 2 2 2
left_child=1 2 -1 5 -5 -2
right_child=3 -3 -4 4 -6 -7
leaf_value=0.0073261307828207398 0.0043659887513957498 -0.012750725202099463 0.00095005598846714028 -7.8237510289793781e-05 -0.0031477721868915102 -0.0042400793917510126
leaf_weight=449.77449379861355 147.05351528525352 102.88355121016502 9195.0807670652866 17143.425107240677 1367.0517201274633 1169.5435205996037
leaf_count=1803 591 412 36898 68686 5514 4702
internal_value=2.51661e-05 0.00109787 0.0012489 -0.000502264 -0.0003053 -0.00326691
internal_weight=29574.8 9747.74 9644.86 19827.1 18510.5 1316.6
internal_count=118606 39113 38701 79493 74200 5293
is_linear=0
shrinkage=0.0291483


Tree=78
num_leaves=5
num_cat=0
split_feature=5 12 15 5
split_gain=16.4343 15.8354 14.0847 11.6339
threshold=-0.093144626947719564 -1.1792347345029495e-05 1.051414206757275e-07 -0.044850891633972663
decision_type=2 2 2 2
left_child=-1 3 -3 -2
right_child=1 2 -4 -5
leaf_value=-0.010738663795267896 0.0037260596932380844 -0.010775509856262555 -0.00058299073807342684 0.0004658047593198423
leaf_weight=117.93210230767727 994.98458914458752 112.64997446537018 14847.115525305271 13549.980459690094
leaf_count=476 3991 454 59549 54333
internal_value=-3.90647e-05 4.51371e-06 -0.000661243 0.00068928
internal_weight=29622.7 29504.7 14959.8 14545
internal_count=118803 118327 60003 58324
is_linear=0
shrinkage=0.0291483


Tree=79
num_leaves=5
num_cat=0
split_feature=5 12 6 5
split_gain=15.5214 14.9275 13.7884 10.969
threshold=-0.093144626947719564 -1.1792347345029495e-05 1260.2350273759823 -0.044850891633972663
decision_type=2 2 2 2
left_child=-1 3 -3 -2
right_child=1 2 -4 -5
leaf_value=-0.010440669236781629 0.0036181640209971989 0.0011999296704902674 -0.0010669236572450644 0.00045223402069497246
leaf_weight=117.82980264723301 994.85143165290356 2802.25509801507 12157.056848317385 13549.795149326324
leaf_count=476 3991 11218 48785 54333
internal_value=-3.79676e-05 4.36589e-06 -0.000642037 0.00066922
internal_weight=29621.8 29504 14959.3 14544.6
internal_count=118803 118327 60003 58324
is_linear=0
shrinkage=0.0291483


Tree=80
num_leaves=5
num_cat=0
split_feature=5 13 6 0
split_gain=14.6599 11.7236 10.8613 7.55681
threshold=-0.093144626947719564 0.29664816670981914 1255.738846051134 0.28942271297955569
decision_type=2 2 2 2
left_child=-1 2 -2 -3
right_child=1 3 -4 -5
leaf_value=-0.010151256074616538 0.0010809259061157898 0.00035548371854103431 -0.00019465810885212629 -0.0026885285165370748
leaf_weight=117.72401882708073 8249.0174463242292 1031.6439988315105 18128.505536898971 2093.7864598631859
leaf_count=476 33121 4138 72664 8404
internal_value=-3.68763e-05 4.24838e-06 0.000204281 -0.00168276
internal_weight=29620.7 29503 26377.5 3125.43
internal_count=118803 118327 105785 12542
is_linear=0
shrinkage=0.0291483


end of trees

feature_importances:
vwap_dev_30m=82
fracdiff_close=72
vol_5m=49
vol_60m=46
hurst=37
vol_1m=36
trade_flow_imb_30m=32
vol_30m=29
vol_ratio_30m=25
trade_flow_imb_5m=23
momentum_5m=15
momentum_10m=15
vol_ratio_5m=11
momentum_1m=10
hl_range=9
trades_intensity=9
obi=6
momentum_2m=6
vwap_dev_5m=6

parameters:
[boosting: gbdt]
[objective: binary]
[metric: binary_logloss]
[tree_learner: serial]
[device_type: cpu]
[data_sample_strategy: bagging]
[data: ]
[valid: ]
[num_iterations: 81]
[learning_rate: 0.0291483]
[num_leaves: 8]
[num_threads: -1]
[seed: 42]
[deterministic: 0]
[force_col_wise: 0]
[force_row_wise: 0]
[histogram_pool_size: -1]
[max_depth: 3]
[min_data_in_leaf: 387]
[min_sum_hessian_in_leaf: 0.001]
[bagging_fraction: 0.923145]
[pos_bagging_fraction: 1]
[neg_bagging_fraction: 1]
[bagging_freq: 3]
[bagging_seed: 400]
[bagging_by_query: 0]
[feature_fraction: 0.504656]
[feature_fraction_bynode: 1]
[feature_fraction_seed: 30056]
[extra_trees: 0]
[extra_seed: 12879]
[early_stopping_round: 0]
[early_stopping_min_delta: 0]
[first_metric_only: 0]
[max_delta_step: 0]
[lambda_l1: 0.0109118]
[lambda_l2: 1.00115]
[linear_lambda: 0]
[min_gain_to_split: 0.49587]
[drop_rate: 0.1]
[max_drop: 50]
[skip_drop: 0.5]
[xgboost_dart_mode: 0]
[uniform_drop: 0]
[drop_seed: 17869]
[top_rate: 0.2]
[other_rate: 0.1]
[min_data_per_group: 100]
[max_cat_threshold: 32]
[cat_l2: 10]
[cat_smooth: 10]
[max_cat_to_onehot: 4]
[top_k: 20]
[monotone_constraints: ]
[monotone_constraints_method: basic]
[monotone_penalty: 0]
[feature_contri: ]
[forcedsplits_filename: ]
[refit_decay_rate: 0.9]
[cegb_tradeoff: 1]
[cegb_penalty_split: 0]
[cegb_penalty_feature_lazy: ]
[cegb_penalty_feature_coupled: ]
[path_smooth: 5.09023]
[interaction_constraints: ]
[verbosity: -1]
[saved_feature_importance_type: 0]
[use_quantized_grad: 0]
[num_grad_quant_bins: 4]
[quant_train_renew_leaf: 0]
[stochastic_rounding: 1]
[linear_tree: 0]
[max_bin: 255]
[max_bin_by_feature: ]
[min_data_in_bin: 3]
[bin_construct_sample_cnt: 200000]
[data_random_seed: 175]
[is_enable_sparse: 1]
[enable_bundle: 1]
[use_missing: 1]
[zero_as_missing: 0]
[feature_pre_filter: 1]
[pre_partition: 0]
[two_round: 0]
[header: 0]
[label_column: ]
[weight_column: ]
[group_column: ]
[ignore_column: ]
[categorical_feature: ]
[forcedbins_filename: ]
[precise_float_parser: 0]
[parser_config_file: ]
[objective_seed: 16083]
[num_class: 1]
[is_unbalance: 0]
[scale_pos_weight: 1]
[sigmoid: 1]
[boost_from_average: 1]
[reg_sqrt: 0]
[alpha: 0.9]
[fair_c: 1]
[poisson_max_delta_step: 0.7]
[tweedie_variance_power: 1.5]
[lambdarank_truncation_level: 30]
[lambdarank_norm: 1]
[label_gain: ]
[lambdarank_position_bias_regularization: 0]
[eval_at: ]
[multi_error_top_k: 1]
[auc_mu_weights: ]
[num_machines: 1]
[local_listen_port: 12400]
[time_out: 120]
[machine_list_filename: ]
[machines: ]
[gpu_platform_id: -1]
[gpu_device_id: -1]
[gpu_use_dp: 0]
[num_gpu: 1]

end of parameters

pandas_categorical:null
