tree
version=v4
num_class=1
num_tree_per_iteration=1
label_index=0
max_feature_idx=18
objective=binary sigmoid:1
feature_names=obi momentum_1m momentum_2m momentum_5m momentum_10m hurst fracdiff_close vol_1m vol_5m vol_30m vol_60m vwap_dev_5m vwap_dev_30m trade_flow_imb_5m trade_flow_imb_30m hl_range vol_ratio_5m vol_ratio_30m trades_intensity
feature_infos=[-0.99627687620687788:0.99735611352640374] [-0.020838332896016949:0.022992565407785347] [-0.022341724074048948:0.029409372993990181] [-0.026503791499679796:0.037808065313792626] [-0.033700021085143403:0.038701722697615973] [-0.17904516669206805:0.10861636932350138] [-560.64200722651003:3155.5006078766746] [0:0.017965740441835652] [0:0.014150329657706368] [1.9312455667397878e-05:0.0061307597359011763] [2.9871110080766814e-05:0.004463508706593484] [-0.012725903816371842:0.016844110174328925] [-0.023331687134809678:0.035835008543941643] [-0.96163572996641977:0.90426948751940261] [-0.66028039286935858:0.63773000764737697] [1.030395640474488e-07:0.024861787963623656] [0.010883227187554707:4.9344330827627427] [0.016081658774413254:26.170827852696362] [0.03252385082393755:19.057358659886329]
tree_sizes=1040 1038 1048 1044 1052 1040 1046 1051 1055 1033 1027 933 1036 1034 1055 1043 1045 1053 933 1043 1058 1047 1049 1052 1043 1050 1041 1048 1037 1040 1042 1042 1036 934 1034 928 1040 1047 1046 1037 1048 1035 1048 929 1040 720 714 718 1048 1051 1039 1055 1038 1048 1048 933 1046 939 1048 1045 1045 1035 1040 1041 1036 1046 1053 1043 1047 1050 1044 720 717 716 1042 713 1047 722 1047 1041 1035

Tree=0
num_leaves=8
num_cat=0
split_feature=12 11 12 12 10 7 3
split_gain=283.873 41.0038 32.5335 27.391 24.8053 11.5113 10.3126
threshold=-0.00022761852511369283 -6.8672769608045704e-05 0.0036303459699517393 -0.00054330615553123678 0.0003005615895077431 0.0010016685213890726 -0.00085293190426258844
decision_type=2 2 2 2 2 2 2
left_child=3 5 -3 4 -1 -2 -5
right_child=1 2 -4 6 -6 -7 -8
leaf_value=-0.0031967315842641019 -0.01249114408373022 -0.015650872296664183 -0.021796594385752932 -0.0076664870741666863 -0.0090361469445653757 -0.017447440677252644 -0.012704975077556106
leaf_weight=659.97344613075256 4604.8147264122963 11380.04212680459 778.96865838766098 402.23381622135639 9136.8823797851801 432.23260922729969 2305.9072223901749
leaf_count=2640 18420 45522 3116 1609 36549 1729 9224
internal_value=-0.0126998 -0.0151297 -0.0160458 -0.00935869 -0.00864124 -0.0129188 -0.0119523
internal_weight=29701.1 17196.1 12159 12505 9796.86 5037.05 2708.14
internal_count=118809 68787 48638 50022 39189 20149 10833
is_linear=0
shrinkage=1


Tree=1
num_leaves=8
num_cat=0
split_feature=12 6 6 12 13 9 6
split_gain=267.576 87.1039 54.8826 32.3259 19.3055 15.9695 14.8909
threshold=-0.00022761852511369283 1259.2978379228227 1238.4740242245773 0.0036303459699517393 -0.16375680276402182 0.00055217420555320228 1377.0844257030915
decision_type=2 2 2 2 2 2 2
left_child=2 5 4 -3 -1 -2 -4
right_child=1 3 6 -5 -6 -7 -8
leaf_value=0.0078922676851701252 -7.1314132919241208e-05 -0.0030333774350940275 0.00059364117201451884 -0.0088646713713316002 0.0041185262332471629 0.0039538992088272345 0.0031642700747064032
leaf_weight=1984.4593538790941 1760.1594882011414 12986.019715473056 4365.3954335302114 858.1547519415617 2748.9392700046301 1591.4144494980574 3406.4190155267715
leaf_count=7938 7041 51947 17462 3433 10996 6366 13626
internal_value=-1.59778e-05 -0.00237508 0.0032278 -0.00339585 0.00570155 0.00183895 0.00172096
internal_weight=29701 17195.7 12505.2 13844.2 4733.4 3351.57 7771.81
internal_count=118809 68787 50022 55380 18934 13407 31088
is_linear=0
shrinkage=0.0291483


Tree=2
num_leaves=8
num_cat=0
split_feature=12 3 12 9 12 4 13
split_gain=253.823 51.5075 36.2872 31.2261 20.0248 8.61007 6.10771
threshold=-0.00054330615553123678 -0.0003187432425758822 0.0030392062793967735 0.00024134475579415079 -0.0013634172028394876 -0.00071633850042266073 -0.20838411475954169
decision_type=2 2 2 2 2 2 2
left_child=3 5 -3 6 -5 -2 -1
right_child=1 2 -4 4 -6 -7 -8
leaf_value=0.008953467137205233 0.0032056323468771073 -0.0022576464070214759 -0.0074179966745963558 0.0047537640625213715 0.002062636481916515 0.00018828178054505781 0.016792671343191207
leaf_weight=196.24963231384754 1081.2061567604542 14469.227197021246 1255.2825579047203 5076.7080234438181 4373.4544302672148 3097.8351409882307 150.74977338314056
leaf_count=785 4325 57881 5022 20307 17494 12392 603
internal_value=-1.55098e-05 -0.0019059 -0.00267035 0.00382445 0.00350873 0.000969159 0.0123709
internal_weight=29700.7 19903.6 15724.5 9797.16 9450.16 4179.04 346.999
internal_count=118809 79620 62903 39189 37801 16717 1388
is_linear=0
shrinkage=0.0291483


Tree=3
num_leaves=8
num_cat=0
split_feature=4 11 17 7 7 9 7
split_gain=154.291 36.8752 28.8308 25.3239 21.7964 16.2246 15.2832
threshold=-0.00024022734881482815 -6.8672769608045704e-05 0.21523744778517592 0.00011610273704629351 0.00083769729400640319 0.00024134475579415079 0.0020285903108735251
decision_type=2 2 2 2 2 2 2
left_child=2 4 5 -3 -2 -1 -4
right_child=1 3 6 -5 -6 -7 -8
leaf_value=0.0069918325181192445 0.0011468107795937577 -0.0053715218619300124 0.0030187193391314564 -0.0019516077734239672 -0.0046767787865881812 -0.0042525064226129139 -0.005810747541347105
leaf_weight=124.24308137595654 4283.5312272757292 2257.530843526125 11661.490925803781 9886.1292373389006 622.19574634730816 740.22683438658714 165.4975008815527
leaf_count=497 17135 9031 46647 39549 2489 2961 662
internal_value=8.48426e-05 -0.00172634 0.00251785 -0.00258793 0.000405653 -0.0026105 0.00289369
internal_weight=29740.8 17049.4 12691.5 12143.7 4905.73 864.47 11827
internal_count=118971 68204 50767 48580 19624 3458 47309
is_linear=0
shrinkage=0.0291483


Tree=4
num_leaves=8
num_cat=0
split_feature=6 4 4 4 10 15 3
split_gain=212.974 66.6987 23.5795 22.1845 15.4509 13.417 8.98148
threshold=1254.8899193786058 -0.00024022734881482815 -0.00064377347813049054 0.0038526205498208817 0.00040850631944766162 0.0029453695939881722 -0.00022854013581614468
decision_type=2 2 2 2 2 2 2
left_child=2 4 5 -3 -2 -1 -4
right_child=1 3 6 -5 -6 -7 -8
leaf_value=0.0057616116177916336 0.0028094237957363016 -0.0023449000929700948 0.0040177496674623165 -0.0066816063020803109 -0.00012272490433011153 -0.00085291562774410343 0.001239079259044863
leaf_weight=4285.7153833508492 2201.1845637261868 12782.018103122711 1618.9626518040895 1084.4546957910061 4962.8828616589308 274.49786934256554 2530.8488323688507
leaf_count=17143 8805 51134 6476 4339 19852 1098 10124
internal_value=8.23491e-05 -0.00150495 0.00391435 -0.00268477 0.000778206 0.00536125 0.00232458
internal_weight=29740.6 21030.5 8710.02 13866.5 7164.07 4560.21 4149.81
internal_count=118971 84130 34841 55473 28657 18241 16600
is_linear=0
shrinkage=0.0291483


Tree=5
num_leaves=8
num_cat=0
split_feature=6 13 10 8 6 7 13
split_gain=200.743 37.0172 26.0841 25.1169 28.3164 18.6907 4.12197
threshold=1254.8899193786058 -0.0099355559360790203 0.00010431807073745033 0.0016299532054707508 1212.807682700068 4.7913491118400918e-05 0.017092762444802626
decision_type=2 2 2 2 2 2 2
left_child=3 2 -2 4 -1 -3 -5
right_child=1 5 -4 6 -6 -7 -8
leaf_value=0.0059815761162544216 -0.013410342495554568 -0.0078437944274944802 5.6808733628120745e-05 -0.0057219187004654871 0.0025725527757185151 -0.0023118234488120155 0.0008911358607518546
leaf_weight=3807.4108838289976 120.23533615469933 541.41340456902981 9399.2869449555874 252.49517659842968 4536.6015865653753 10969.160876095295 113.49581432342529
leaf_count=15230 481 2166 37600 1010 18147 43883 454
internal_value=7.99432e-05 -0.00146112 -0.000116594 0.00380027 0.00412867 -0.00257315 -0.00363901
internal_weight=29740.1 21030.1 9519.52 8710 8344.01 11510.6 365.991
internal_count=118971 84130 38081 34841 33377 46049 1464
is_linear=0
shrinkage=0.0291483


Tree=6
num_leaves=8
num_cat=0
split_feature=12 1 17 17 8 9 3
split_gain=197.508 37.8677 29.1456 24.128 19.5934 12.4651 10.0173
threshold=-0.00018985155353047674 -0.00022398849160837832 2.3275939313540905 0.21523744778517592 0.0016299532054707508 0.00022064382750932278 0.0016977976610367828
decision_type=2 2 2 2 2 2 2
left_child=3 6 -3 5 -5 -1 -2
right_child=1 2 -4 4 -6 -7 -8
leaf_value=0.0072642592133824371 0.0010662374771708424 -0.0024743322635628951 -0.0076575082667389507 0.0032222829319826533 -0.0035139845683503459 -0.0031771714004989542 -0.0035334603599842694
leaf_weight=106.99198220670223 3192.9676668941975 12187.457861483097 994.01757383346558 11556.893400266767 375.49473795294762 798.22397997975349 456.6293575912714
leaf_count=428 12773 48758 3977 46229 1502 3193 1827
internal_value=-6.17568e-05 -0.00213859 -0.00286613 0.00266099 0.00300929 -0.00191835 0.000487717
internal_weight=29668.7 16831.1 13181.5 12837.6 11932.4 905.216 3649.6
internal_count=118687 67335 52735 51352 47731 3621 14600
is_linear=0
shrinkage=0.0291483


Tree=7
num_leaves=8
num_cat=0
split_feature=3 1 17 4 18 8 4
split_gain=130.068 28.8888 32.4495 21.4399 15.6864 11.6623 9.86633
threshold=-0.00022854013581614468 -0.00022398849160837832 2.4710177738097352 -0.00067994493005048479 0.71959409350188619 0.00077545898126052957 0.0058170457877695378
decision_type=2 2 2 2 2 2 2
left_child=3 6 -3 4 -1 -5 -2
right_child=1 2 -4 5 -6 -7 -8
leaf_value=0.00092490347277960391 0.0010709103406493089 -0.0018302770802315282 -0.0073665669703421284 0.0014359808989896016 0.0041639336385579546 -0.0025619522990111363 -0.0077254736625561298
leaf_weight=1682.4432836025953 3295.6832490563393 13487.646947443485 960.43043155968189 4240.497838512063 5170.5040319561958 722.43043346703053 108.44728603959084
leaf_count=6730 13184 53960 3843 16963 20683 2890 434
internal_value=-5.99756e-05 -0.00162999 -0.00219918 0.00231193 0.00336853 0.000853204 0.000784393
internal_weight=29668.1 17852.2 14448.1 11815.9 6852.95 4962.93 3404.13
internal_count=118687 71421 57803 47266 27413 19853 13618
is_linear=0
shrinkage=0.0291483


Tree=8
num_leaves=8
num_cat=0
split_feature=12 1 12 12 7 14 14
split_gain=180.404 34.1002 27.5411 19.0082 22.4077 19.4889 12.7109
threshold=-0.00018985155353047674 -0.00022398849160837832 0.0027280400168213409 -0.0016837591652040691 0.0018516298924061904 0.041721117483810542 -0.044671337015309849
decision_type=2 2 2 2 2 2 2
left_child=3 6 -3 4 -1 -5 -2
right_child=1 2 -4 5 -6 -7 -8
leaf_value=0.0047128153262110525 0.0032981560610149722 -0.0022869455641762191 -0.0067059519306592805 0.00099667813529750343 -0.0060427267146849727 0.0040990484650370029 -0.00058662539324458123
leaf_weight=3729.7373829185963 972.65818083286285 11850.513363197446 1330.0672200769186 6617.2253847718239 168.74584513902664 2321.6599300950766 2676.9443280845881
leaf_count=14920 3891 47412 5323 26470 675 9287 10709
internal_value=-5.82623e-05 -0.0020432 -0.00273365 0.00254392 0.00424197 0.00180317 0.000449008
internal_weight=29667.6 16830.2 13180.6 12837.4 3898.48 8938.89 3649.6
internal_count=118687 67335 52735 51352 15595 35757 14600
is_linear=0
shrinkage=0.0291483


Tree=9
num_leaves=8
num_cat=0
split_feature=12 6 6 12 7 14 7
split_gain=178.095 65.0799 43.2331 27.419 20.0946 17.9776 7.96454
threshold=-0.00022761852511369283 1253.9800338572252 1238.4740242245773 0.0036303459699517393 0.0018516298924061904 0.27916798508762308 0.00094469357355560647
decision_type=2 2 2 2 2 2 2
left_child=2 6 4 -3 -1 -4 -2
right_child=1 3 5 -5 -6 -7 -8
leaf_value=0.005205400969683951 0.0025022753772903643 -0.0024049851658108851 0.0014873485828552837 -0.0077515635798990129 -0.0054460350391114321 -0.010337484299164772 -0.0029059758550492314
leaf_weight=4561.7003519833088 2680.84937466681 13394.702684223652 7689.7834695130587 864.53516283631325 152.24334913492203 107.2464636862278 249.73232468962669
leaf_count=18249 10724 53592 30760 3461 609 429 999
internal_value=8.49065e-06 -0.00191691 0.00265384 -0.00273004 0.00485695 0.00132168 0.00203679
internal_weight=29700.8 17189.8 12511 14259.2 4713.94 7797.03 2930.58
internal_count=118823 68776 50047 57053 18858 31189 11723
is_linear=0
shrinkage=0.0291483


Tree=10
num_leaves=8
num_cat=0
split_feature=6 3 16 8 6 6 17
split_gain=165.68 35.7531 21.6792 20.1393 22.7906 13.819 5.22849
threshold=1254.8899193786058 -0.0003187432425758822 2.7400510249142491 0.0016299532054707508 1129.8260671492556 1715.9772266039292 1.1595843862345319
decision_type=2 2 2 2 2 2 2
left_child=3 5 -3 4 -1 -2 -5
right_child=1 2 -4 6 -6 -7 -8
leaf_value=0.008166034507309284 0.00095732756682975057 -0.001933399804531593 -0.008089604947134791 -0.00046513122751446758 0.0031653961261136738 -0.0043650768026858118 -0.0075796406077328262
leaf_weight=861.06290267407894 5382.1186875104904 14683.006710290909 499.25727121531963 211.982232183218 7471.6934525668621 445.46501450240612 145.23835796117783
leaf_count=3445 21530 58749 1998 848 29890 1782 581
internal_value=8.18401e-06 -0.00139185 -0.0021368 0.00339258 0.00368365 0.000548335 -0.00335252
internal_weight=29699.8 21009.8 15182.3 8689.98 8332.76 5827.58 357.221
internal_count=118823 84059 60747 34764 33335 23312 1429
is_linear=0
shrinkage=0.0291483


Tree=11
num_leaves=7
num_cat=0
split_feature=12 12 7 14 13 8
split_gain=163.789 34.9791 32.003 29.004 27.8469 21.3783
threshold=-0.00054330615553123678 0.0029199380487162142 4.7913491118400918e-05 0.27916798508762308 -0.096916254226111803 0.0016299532054707508
decision_type=2 2 2 2 2 2
left_child=3 2 -2 5 -3 -1
right_child=1 4 -4 -5 -6 -7
leaf_value=0.0035226119631911242 -0.0058914491821419586 0.006421806901753405 -0.00084910221590450783 -0.012127130909253027 -0.0070522684871957226 -0.0037101818045882453
leaf_weight=9342.0408564656973 1136.6143779456615 140.66653221845627 17255.462543025613 101.74053506553173 1365.3028814345598 357.22597064077854
leaf_count=37373 4548 563 69037 407 5466 1429
internal_value=7.92519e-06 -0.00151115 -0.00116137 0.00309163 -0.00577717 0.00325494
internal_weight=29699.1 19898 18392.1 9801.01 1505.97 9699.27
internal_count=118823 79614 73585 39209 6029 38802
is_linear=0
shrinkage=0.0291483


Tree=12
num_leaves=8
num_cat=0
split_feature=12 6 6 8 7 18 8
split_gain=166.563 63.8845 39.392 27.3426 22.6693 15.8439 14.4102
threshold=-1.1792347345029495e-05 1260.2350273759823 1238.4740242245773 0.0016299532054707508 0.00021741880635865415 0.14249183436641097 0.00012022197047794425
decision_type=2 2 2 2 2 2 2
left_child=2 6 3 -1 -3 -4 -2
right_child=1 4 5 -5 -6 -7 -8
leaf_value=0.0047964477514580127 -0.00602362877624438 -0.0048347345373712944 -0.010314255820368037 -0.0047395231538642398 -0.002176884116666522 0.0012323444599491237 0.0023437227741312169
leaf_weight=4793.6964772194624 183.72176572680473 4098.1087716221809 98.487808883190155 266.47409795224667 8142.9145003557205 9461.2048396617174 2642.314822435379
leaf_count=19180 735 16399 394 1066 32586 37848 10570
internal_value=-4.57325e-06 -0.00215502 0.00221162 0.0042907 -0.00306704 0.00111091 0.00179264
internal_weight=29686.9 15067.1 14619.9 5060.17 12241 9559.69 2826.04
internal_count=118778 60290 58488 20246 48985 38242 11305
is_linear=0
shrinkage=0.0291483


Tree=13
num_leaves=8
num_cat=0
split_feature=6 3 14 8 6 6 17
split_gain=145.55 36.3245 25.6972 20.5109 17.304 13.1353 2.70425
threshold=1248.5191485382732 -0.00022854013581614468 -0.077838492120891889 0.0016299532054707508 1129.8260671492556 1745.9158204222842 0.77500748334765956
decision_type=2 2 2 2 2 2 2
left_child=3 5 -3 4 -1 -2 -5
right_child=1 2 -4 6 -6 -7 -8
leaf_value=0.0075961577754893117 0.00080822744625553829 -3.9966633265586423e-05 -0.00276775786750421 -0.00677431082245187 0.0032089081974632132 -0.0052177037659091484 -0.0015235011949731041
leaf_weight=860.06292873620987 6532.0582116544247 4006.0280359089375 10946.861457273364 129.73589240014553 6669.6210839152336 318.95046025514603 222.46421402692795
leaf_count=3442 26131 16029 43807 519 26684 1276 890
internal_value=-4.49592e-06 -0.00123158 -0.00203685 0.00338936 0.00371154 0.000525577 -0.00345266
internal_weight=29685.8 21803.9 14952.9 7881.88 7529.68 6851.01 352.2
internal_count=118778 87243 59836 31535 30126 27407 1409
is_linear=0
shrinkage=0.0291483


Tree=14
num_leaves=8
num_cat=0
split_feature=3 4 1 18 10 4 17
split_gain=93.5629 24.6503 22.8939 20.6071 17.709 11.5199 11.1742
threshold=-0.00022854013581614468 -0.00024022734881482815 -0.00011198015554131077 0.71123458786828786 0.00067543024947825769 -0.00064377347813049054 0.22059445960845978
decision_type=2 2 2 2 2 2 2
left_child=3 6 -3 4 -1 -5 -2
right_child=1 2 -4 5 -6 -7 -8
leaf_value=-0.001470477562447696 -0.0038384663193786464 0.00011684123495307557 -0.0026235323657100885 0.0036127857848689397 0.0028111515534839557 0.0013540727295257107 0.0011387887756487834
leaf_weight=2190.2069653272629 423.4265024214983 3462.9906675517559 10247.101558119059 5314.0622160732746 1307.7771096974611 3002.3036998957396 3736.9242007881403
leaf_count=8762 1694 13856 41010 21263 5232 12011 14950
internal_value=-4.37257e-06 -0.00133482 -0.00193119 0.00200792 0.000131608 0.00279745 0.000629528
internal_weight=29684.8 17870.4 13710.1 11814.3 3497.98 8316.37 4160.35
internal_count=118778 71510 54866 47268 13994 33274 16644
is_linear=0
shrinkage=0.0291483


Tree=15
num_leaves=8
num_cat=0
split_feature=6 14 15 8 8 14 5
split_gain=131.108 29.6802 22.6291 19.8237 16.49 13.6507 6.04791
threshold=1248.5191485382732 -0.061325974259782069 1.5008610548510119e-07 0.0016299532054707508 0.00046308334242243539 -0.050048636628670706 -0.0016933725835537562
decision_type=2 2 2 2 2 2 2
left_child=3 4 -3 5 -2 -1 -5
right_child=1 2 -4 6 -6 -7 -8
leaf_value=0.0050082756468145901 -0.0006384776702079211 -0.0073824130588593176 -0.0016520719790139244 -0.0073719613554585192 0.002275084289006708 0.0024957742497098657 0.000223590683953265
leaf_weight=3209.7343825995922 4650.2914605736732 607.66316251456738 14002.174728438258 171.97522407770157 2553.81382599473 4299.8038938641548 177.97121207416058
leaf_count=12844 18606 2432 56032 688 10218 17204 712
internal_value=2.65637e-05 -0.00113635 -0.00189132 0.00325367 0.000394371 0.00357024 -0.00349464
internal_weight=29673.4 21813.9 14609.8 7859.48 7204.11 7509.54 349.946
internal_count=118736 87288 58464 31448 28824 30048 1400
is_linear=0
shrinkage=0.0291483


Tree=16
num_leaves=8
num_cat=0
split_feature=12 12 8 8 12 5 5
split_gain=143.587 30.7714 32.386 17.5141 17.6221 17.1608 3.14945
threshold=-0.00022761852511369283 0.0030392062793967735 0.00032023681331373369 0.001929366799073797 -0.0018018860239393589 -0.026793280627465398 -0.0016933725835537562
decision_type=2 2 2 2 2 2 2
left_child=3 2 -2 4 -1 -3 -5
right_child=1 5 -4 6 -6 -7 -8
leaf_value=0.0043424189433491417 -0.0028354113125215242 -0.01299601913520765 -0.00017633359866504517 -0.0095815295629435946 0.0018681752124758149 -0.0043953166100589051 -0.0024812524496616211
leaf_weight=3371.0994914919138 6903.2973165363073 235.19114768505096 8912.3508920073509 100.97969263792038 8898.39922991395 1143.7450274527073 107.48540365695953
leaf_count=13491 27626 942 35662 404 35600 4581 430
internal_value=2.57777e-05 -0.00170135 -0.00133716 0.00240566 0.00254841 -0.00587223 -0.00590236
internal_weight=29672.5 17194.6 15815.6 12478 12269.5 1378.94 208.465
internal_count=118736 68811 63288 49925 49091 5523 834
is_linear=0
shrinkage=0.0291483


Tree=17
num_leaves=8
num_cat=0
split_feature=3 14 4 4 10 3 14
split_gain=91.5235 28.1777 19.1054 13.1439 15.4354 11.6144 8.81183
threshold=-0.00022854013581614468 -0.058537910366976274 0.0045657217977880162 -0.00067994493005048479 0.0003005615895077431 -0.00019100927397724282 0.11854057103964828
decision_type=2 2 2 2 2 2 2
left_child=3 5 -3 4 -1 -2 -5
right_child=1 2 -4 6 -6 -7 -8
leaf_value=0.0082136596113291747 -0.0070271738521513125 -0.0018248348400359787 -0.0071400319753318568 0.0002776163687885964 0.0024879379776802505 0.00061374953617627788 0.0034076443995075972
leaf_weight=423.35450707376003 170.71104118227959 11495.00395013392 601.46722923219204 4014.2654922008514 6425.2747000157833 5601.0013146549463 940.31962308287621
leaf_count=1694 683 46003 2410 16060 25712 22412 3762
internal_value=2.49928e-05 -0.00129062 -0.00209013 0.00201651 0.00284385 0.000384556 0.000873082
internal_weight=29671.4 17868.2 12096.5 11803.2 6848.63 5771.71 4954.59
internal_count=118736 71508 48413 47228 27406 23095 19822
is_linear=0
shrinkage=0.0291483


Tree=18
num_leaves=7
num_cat=0
split_feature=12 12 13 14 15 4
split_gain=130.15 29.0549 29.4448 27.6143 23.6231 9.97478
threshold=-0.00054330615553123678 0.0030392062793967735 -0.096916254226111803 0.27916798508762308 1.1271930897713181e-07 0.00068857000189746027
decision_type=2 2 2 2 2 2
left_child=3 4 -3 5 -2 -1
right_child=1 2 -4 -5 -6 -7
leaf_value=0.0026322177176712146 -0.0061685228534192156 0.0073569290653919756 -0.0068805937557564947 -0.012166738544685571 -0.00091794910057880954 0.0073642042762815862
leaf_weight=9304.0439497381449 755.68408766388893 133.40071025490761 1257.5236629992723 101.98454368114471 17754.21006372571 391.44448132812977
leaf_count=37231 3025 534 5039 408 71044 1566
internal_value=-8.4568e-05 -0.00143839 -0.00549629 0.002665 -0.001133 0.00282459
internal_weight=29698.3 19900.8 1390.92 9797.47 18509.9 9695.49
internal_count=118847 79642 5573 39205 74069 38797
is_linear=0
shrinkage=0.0291483


Tree=19
num_leaves=8
num_cat=0
split_feature=6 4 8 8 4 17 5
split_gain=119.266 35.7499 20.916 14.5363 18.3349 12.2844 6.05207
threshold=1254.8899193786058 -0.00024022734881482815 4.8463529017188298e-05 0.0016299532054707508 -0.00091735238684771919 0.21523744778517592 -0.0016933725835537562
decision_type=2 2 2 2 2 2 2
left_child=3 5 -3 4 -1 -2 -5
right_child=1 2 -4 6 -6 -7 -8
leaf_value=0.004550504962140268 -0.0036620762312512419 -0.0090975856338904454 -0.0019520573854809053 -0.0067350920179319327 0.0018024328936662726 0.00075763414561327163 0.00080732771799087632
leaf_weight=3737.992261916399 577.8733714222908 353.83841688930988 13481.745329126716 177.95372328162193 4601.0917780101299 6589.6915620863438 176.9700790643692
leaf_count=14964 2312 1417 53963 712 18408 26363 708
internal_value=-8.2121e-05 -0.00127051 -0.00213601 0.00278835 0.0030347 0.000399841 -0.00296116
internal_weight=29697.2 21003.1 13835.6 8694.01 8339.08 7167.56 354.924
internal_count=118847 84055 55380 34792 33372 28675 1420
is_linear=0
shrinkage=0.0291483


Tree=20
num_leaves=8
num_cat=0
split_feature=3 2 17 8 10 5 8
split_gain=73.7645 24.0551 22.5888 16.0245 18.4202 14.2624 11.0902
threshold=-0.00022854013581614468 -0.00011825416510713326 2.4710177738097352 0.00036185146267927565 0.00027105168936989094 -0.027624766504065663 0.00077545898126052957
decision_type=2 2 2 2 2 2 2
left_child=3 6 -3 4 -1 -5 -2
right_child=1 2 -4 5 -6 -7 -8
leaf_value=0.0041996756809444952 0.0013922562480479361 -0.0015409730859712231 -0.0061871765968624292 -0.00013205803611377479 -0.00061688290261360736 0.0031331625616679627 -0.0021842343555991302
leaf_weight=829.98244042694569 3414.8850315958261 12552.593458026648 953.49480710923672 1394.8081904798746 3534.3830308020115 6080.2740128338337 935.42341938614845
leaf_count=3321 13664 50242 3819 5582 14142 24333 3744
internal_value=-7.97566e-05 -0.00126258 -0.00186976 0.00170406 0.000301053 0.00252342 0.000621677
internal_weight=29695.8 17856.4 13506.1 11839.4 4364.37 7475.08 4350.31
internal_count=118847 71469 54061 47378 17463 29915 17408
is_linear=0
shrinkage=0.0291483


Tree=21
num_leaves=8
num_cat=0
split_feature=6 4 7 10 3 7 16
split_gain=113.206 29.4452 24.5117 15.9035 12.5845 16.7699 10.8262
threshold=1248.5191485382732 -0.00024022734881482815 4.7913491118400918e-05 0.0003005615895077431 -0.00049504004649773164 0.0020285903108735251 0.48917610775462567
decision_type=2 2 2 2 2 2 2
left_child=4 3 -3 -2 5 -1 -6
right_child=1 2 -4 -5 6 -7 -8
leaf_value=0.0043942865609352712 0.0035874088223014043 -0.0067025220065642793 -0.0015723903520922888 -0.00017974003775612609 -0.001142452010677975 -0.0069581050749657741 0.0026025257866148658
leaf_weight=4032.9090460240841 1114.9739077836275 837.46867224574089 13434.821893811226 6396.3789003044367 845.55750195682049 110.21629376709461 2880.6882636100054
leaf_count=16146 4461 3354 53778 25590 3383 441 11526
internal_value=-1.43965e-05 -0.00109683 -0.00187422 0.00038001 0.00298134 0.00408694 0.00175227
internal_weight=29653 21783.6 14272.3 7511.35 7869.37 4143.13 3726.25
internal_count=118679 87183 57132 30051 31496 16587 14909
is_linear=0
shrinkage=0.0291483


Tree=22
num_leaves=8
num_cat=0
split_feature=6 4 4 8 10 4 10
split_gain=107.12 25.8198 20.2131 18.547 16.1845 16.1679 3.9135
threshold=1238.4740242245773 -0.00024022734881482815 -0.00014856837820062391 0.0016299532054707508 0.0003005615895077431 -0.00091735238684771919 0.0019339500485209312
decision_type=2 2 2 2 2 2 2
left_child=3 4 -3 5 -2 -1 -5
right_child=1 2 -4 6 -6 -7 -8
leaf_value=0.0050660652846640855 0.0035016019997097104 -0.0065894659756248588 -0.0014352248823249118 -0.0056360333061910347 -0.00016718647920576363 0.0020990327144285261 0.00088757215820428495
leaf_weight=3210.8979133814573 1194.9434195905924 673.70028914511204 14281.075910806656 221.19600337743759 6917.6680464148521 3035.5300654023886 116.70934672653675
leaf_count=12859 4781 2696 57169 885 27676 12146 467
internal_value=-1.4002e-05 -0.000949988 -0.0016682 0.00326425 0.000373731 0.00362473 -0.00335357
internal_weight=29651.7 23067.4 14954.8 6584.33 8112.61 6246.43 337.905
internal_count=118679 92322 59865 26357 32457 25005 1352
is_linear=0
shrinkage=0.0291483


Tree=23
num_leaves=8
num_cat=0
split_feature=4 2 9 18 8 7 9
split_gain=57.8675 29.5929 19.4881 16.9806 14.3316 13.9105 13.7131
threshold=-0.00024022734881482815 -0.00011825416510713326 0.00059231949862565889 0.75618906030196864 0.00077545898126052957 0.0020285903108735251 0.0010177374631771315
decision_type=2 2 2 2 2 2 2
left_child=3 4 -3 6 -2 -5 -1
right_child=1 2 -4 5 -6 -7 -8
leaf_value=0.00064858097141530003 0.0015662473408202197 -0.0028050732395131549 -0.000365200749727722 0.0024205308909413599 -0.0022575207913801926 -0.0064666740137235704 -0.0041549532419571438
leaf_weight=3852.5565813481808 3938.6746889054775 7595.6461834460497 4385.6059597730637 8099.261167049408 1052.3047913610935 148.93767221271992 577.47047607600689
leaf_count=15415 15760 30407 17560 32418 4212 596 2311
internal_value=-1.35957e-05 -0.00112644 -0.00191196 0.00147607 0.000758641 0.0022578 2.09507e-05
internal_weight=29650.5 16972.2 11981.3 12678.2 4990.98 8248.2 4430.03
internal_count=118679 67939 47967 50740 19972 33014 17726
is_linear=0
shrinkage=0.0291483


Tree=24
num_leaves=8
num_cat=0
split_feature=6 4 2 9 8 6 0
split_gain=103.43 25.9323 18.9197 17.3459 13.2885 17.7057 6.62193
threshold=1254.8899193786058 -0.00024022734881482815 -0.00011825416510713326 0.00024134475579415079 0.0016299532054707508 1212.807682700068 -0.11833502118321344
decision_type=2 2 2 2 2 2 2
left_child=4 3 -3 -2 5 -1 -6
right_child=1 2 -4 -5 6 -7 -8
leaf_value=0.004324213265985778 0.0045606873975464765 -1.9981459602297549e-05 -0.0025136785709876952 -0.00021037808926935929 -0.0070104432139413385 0.0016263374270344059 0.00085574986025890312
leaf_weight=3814.3521944433451 716.29448227584362 3438.8609331250191 10386.669520020485 6431.8154500573874 168.93321186304092 4509.1328032910824 189.17991518974304
leaf_count=15275 2866 13762 41590 25732 676 18044 757
internal_value=-4.89162e-05 -0.00115637 -0.0018933 0.000268672 0.00262611 0.00286308 -0.00284552
internal_weight=29655.2 20973.6 13825.5 7148.11 8681.6 8323.48 358.113
internal_count=118702 83950 55352 28598 34752 33319 1433
is_linear=0
shrinkage=0.0291483


Tree=25
num_leaves=8
num_cat=0
split_feature=4 2 9 18 9 13 18
split_gain=52.7246 34.373 23.9628 16.6352 12.5417 10.3685 8.75783
threshold=-0.00025372451468357526 -0.00011825416510713326 0.00059231949862565889 0.75618906030196864 0.0010177374631771315 0.25871395965342542 0.61825474628709098
decision_type=2 2 2 2 2 2 2
left_child=3 6 -3 4 -1 -5 -2
right_child=1 2 -4 5 -6 -7 -8
leaf_value=0.00053887599273368136 -0.0011952770052446984 -0.0029299566782778619 -0.00023410986246611329 0.0023799272164737209 -0.0040926214029629862 -0.0027667699060271037 0.0016160011200772265
leaf_weight=3782.2294559329748 1247.7738671600819 7655.086725756526 4415.2536427676678 7841.9477898180485 568.22507281601429 343.87758085131645 3799.39517621696
leaf_count=15134 4993 30649 17680 31392 2274 1376 15204
internal_value=-4.74846e-05 -0.00109922 -0.0019438 0.0013885 -6.73619e-05 0.00216251 0.000919961
internal_weight=29653.8 17117.5 12070.3 12536.3 4350.45 8185.83 5047.17
internal_count=118702 68526 48329 50176 17408 32768 20197
is_linear=0
shrinkage=0.0291483


Tree=26
num_leaves=8
num_cat=0
split_feature=12 6 6 12 6 14 15
split_gain=102.906 45.7885 27.522 19.3274 15.9755 14.3824 12.0773
threshold=-1.1792347345029495e-05 1268.7514984907796 1221.4286174193787 0.0036303459699517393 1715.9772266039292 -0.098512228375125119 0.00013179046269779971
decision_type=2 2 2 2 2 2 2
left_child=2 6 5 -3 -4 -1 -2
right_child=1 3 4 -5 -6 -7 -8
leaf_value=0.0062898958206637299 -0.0036149749743044531 -0.0022636493147648708 0.0012654405568861375 -0.006828366205899797 -0.0028973869686001771 0.0025385622244382265 0.0018930738079033114
leaf_weight=1304.4253060221672 378.06453683972359 10871.929525256157 9840.9937455952168 846.57273551821709 847.43000939488411 2590.489753767848 2972.8927602022886
leaf_count=5226 1513 43528 39377 3396 3391 10376 11895
internal_value=-4.61205e-05 -0.00173512 0.00169916 -0.00259433 0.000934795 0.003796 0.00126789
internal_weight=29652.8 15069.5 14583.3 11718.5 10688.4 3894.92 3350.96
internal_count=118702 60332 58370 46924 42768 15602 13408
is_linear=0
shrinkage=0.0291483


Tree=27
num_leaves=8
num_cat=0
split_feature=12 12 13 8 17 8 13
split_gain=98.1933 24.2237 28.3809 24.1346 22.7104 16.554 6.32548
threshold=-1.1792347345029495e-05 0.0030392062793967735 -0.096916254226111803 0.00032023681331373369 0.21523744778517592 0.0016299532054707508 -0.33706913627943302
decision_type=2 2 2 2 2 2 2
left_child=4 3 -3 -2 6 -6 -1
right_child=1 2 -4 -5 5 -7 -8
leaf_value=0.0044482549320701489 -0.0027094413815025582 0.0073518412033132703 -0.0066356866513911632 -0.00022427596528528548 0.0022330102554981271 -0.0038375665284740156 -0.0029642307407980874
leaf_weight=104.70762576162815 5674.0383139997721 133.12679009139538 1262.5046120882034 7994.7564009130001 13082.247805699706 389.65125848352909 1015.6430833637714
leaf_count=419 22719 533 5064 32000 52366 1559 4064
internal_value=2.08491e-05 -0.00162968 -0.00528321 -0.00125611 0.0017248 0.00205656 -0.00225643
internal_weight=29656.7 15064.4 1395.63 13668.8 14592.2 13471.9 1120.35
internal_count=118724 60316 5597 54719 58408 53925 4483
is_linear=0
shrinkage=0.0291483


Tree=28
num_leaves=8
num_cat=0
split_feature=6 3 17 6 7 6 13
split_gain=83.0698 18.5444 16.656 13.2299 13.0886 11.2962 8.49563
threshold=1252.0525819645975 -0.00025848017870077234 0.23570512935004054 1735.8193195228489 0.001099618628410766 1212.807682700068 -0.16079491770229246
decision_type=2 2 2 2 2 2 2
left_child=4 3 -3 -2 5 -1 -6
right_child=1 2 -4 -5 6 -7 -8
leaf_value=0.0040786673040053593 0.00069622825357050098 -0.0044028427870169938 -0.0011800216325109547 -0.0049288559174566334 0.0032630448897892701 0.0018172128493659453 -0.0032216701171781815
leaf_weight=3477.0456654727459 6040.0056768357754 1513.4922237247229 13397.700665935874 373.87059943377972 250.85325612127781 4078.0745843946934 524.24456830322742
leaf_count=13929 24167 6060 53647 1496 1005 16321 2099
internal_value=2.02515e-05 -0.000943882 -0.00150761 0.000366322 0.00248803 0.0028584 -0.00111141
internal_weight=29655.3 21325.1 14911.2 6413.88 8330.22 7555.12 775.098
internal_count=118724 85370 59707 25663 33354 30250 3104
is_linear=0
shrinkage=0.0291483


Tree=29
num_leaves=8
num_cat=0
split_feature=12 6 17 12 8 3 16
split_gain=90.2184 38.965 20.8043 19.161 15.4415 12.3559 7.35879
threshold=-1.1792347345029495e-05 1259.2978379228227 0.21523744778517592 0.0047662807966566663 0.0016299532054707508 -0.00095278183220285967 0.19810585465751471
decision_type=2 2 2 2 2 2 2
left_child=2 5 6 -3 -4 -2 -1
right_child=1 3 4 -5 -6 -7 -8
leaf_value=0.0015805469767402802 0.0070464704212144791 -0.0020441747034260094 0.0021409828535836643 -0.0082694002903907181 -0.0037221845878752892 0.00087744228340383011 -0.0036420074281085326
leaf_weight=316.86026528477669 307.38927781581879 11875.977481141686 13081.138453528285 432.11630496382713 389.63108976185322 2447.4681075960398 803.42214518785477
leaf_count=1268 1230 47559 52366 1735 1559 9792 3215
internal_value=1.96521e-05 -0.00156252 0.00165301 -0.00226394 0.00197056 0.00156898 -0.00215759
internal_weight=29654 15063 14591.1 12308.1 13470.8 2754.86 1120.28
internal_count=118724 60316 58408 49294 53925 11022 4483
is_linear=0
shrinkage=0.0291483


Tree=30
num_leaves=8
num_cat=0
split_feature=12 10 12 13 14 10 14
split_gain=79.0466 29.2209 24.0797 32.2444 21.2087 18.4586 4.62076
threshold=-0.00054330615553123678 0.00026292187056125438 0.0030392062793967735 -0.096916254226111803 0.24983054924208853 0.00067543024947825769 -0.22521214820795979
decision_type=2 2 2 2 2 2 2
left_child=1 6 5 -4 -3 -2 -1
right_child=2 4 3 -5 -6 -7 -8
leaf_value=0.004681932065268196 -0.0013107759948514856 0.0020304069316316752 0.0087403245719606011 -0.0061712587903205518 -0.0089477898108123576 0.0007489423978111002 0.011913460768416295
leaf_weight=101.63652549684048 13400.691316902637 9258.0773786306381 133.13145253062248 1253.9706144332886 148.42271636426449 5100.8444041907787 285.19371549785137
leaf_count=407 53648 37069 533 5033 594 20416 1142
internal_value=3.48244e-05 0.00217804 -0.00102062 -0.00472009 0.00185481 -0.000742843 0.00999429
internal_weight=29682 9793.33 19888.6 1387.1 9406.5 18501.5 386.83
internal_count=118842 39212 79630 5566 37663 74064 1549
is_linear=0
shrinkage=0.0291483


Tree=31
num_leaves=8
num_cat=0
split_feature=12 9 6 14 12 3 14
split_gain=74.5074 35.5571 26.7218 20.8624 19.5497 12.2556 5.65749
threshold=-0.00054330615553123678 0.00024134475579415079 1260.2350273759823 0.24983054924208853 0.0036303459699517393 -0.00093137045088950894 -0.13068817925914314
decision_type=2 2 2 2 2 2 2
left_child=1 6 5 -3 -4 -2 -1
right_child=2 3 4 -5 -6 -7 -8
leaf_value=0.0076664376066936189 0.0050094086497282616 0.0019536694775006847 -0.0013046675662420962 -0.0088210804789086283 -0.0058342027699550061 0.00043196544232477476 0.015159648089779753
leaf_weight=180.25777620077133 569.37194147706032 9295.540212854743 14716.214896038175 151.68266560137272 853.33679865300655 3748.9749389588833 165.26460768282413
leaf_count=722 2279 37221 58923 607 3428 15000 662
internal_value=3.38207e-05 0.00211466 -0.000990883 0.00177835 -0.00155359 0.00103699 0.0112524
internal_weight=29680.6 9792.75 19887.9 9447.22 15569.6 4318.35 345.522
internal_count=118842 39212 79630 37828 62351 17279 1384
is_linear=0
shrinkage=0.0291483


Tree=32
num_leaves=8
num_cat=0
split_feature=3 8 17 8 5 5 8
split_gain=43.7121 18.628 16.6557 14.3466 15.4754 12.4553 9.98511
threshold=-0.00022854013581614468 4.8463529017188298e-05 2.3275939313540905 0.00016964139387454347 -0.022953126337513726 -0.080867970779256074 2.932313446905387e-05
decision_type=2 2 2 2 2 2 2
left_child=3 6 -3 4 -1 -5 -2
right_child=1 2 -4 5 -6 -7 -8
leaf_value=0.0044097731354742417 -0.0025529572875128636 -0.000472977467481506 -0.0039372738629127923 -0.0084014129000733375 -0.0040032685489334377 0.0018096382512225501 -0.011193166112080344
leaf_weight=242.8354944139719 234.20147928595543 16129.58640961349 1268.6488257199526 98.910184115171432 752.01407660543919 10736.329299047589 216.57819782197475
leaf_count=972 939 64584 5085 396 3010 42988 868
internal_value=3.28376e-05 -0.00087777 -0.000726045 0.00140668 -0.00193725 0.00171441 -0.00670502
internal_weight=29679.1 17849 17398.2 11830.1 994.85 10835.2 450.78
internal_count=118842 71476 69669 47366 3982 43384 1807
is_linear=0
shrinkage=0.0291483


Tree=33
num_leaves=7
num_cat=0
split_feature=12 14 12 13 10 10
split_gain=72.9316 30.4701 22.2765 26.318 26.2059 19.3195
threshold=-0.00054330615553123678 0.27916798508762308 0.0030392062793967735 -0.096916254226111803 0.00067543024947825769 0.00031008098021530884
decision_type=2 2 2 2 2 2
left_child=1 5 4 -4 -2 -1
right_child=2 -3 3 -5 -6 -7
leaf_value=0.0067965365040656943 -0.0014050383931276918 -0.013631474666968567 0.0075372401549704442 -0.0058828142435581633 0.0010510963663655636 0.0018747856400503802
leaf_weight=729.98517392575741 13388.262092635036 100.21150939166546 134.39001746475697 1247.870956659317 5091.4524653106928 8931.8728874623775
leaf_count=2924 53603 401 538 5012 20379 35768
internal_value=1.85618e-05 0.00208113 -0.000995286 -0.00456004 -0.00072824 0.00224787
internal_weight=29624 9762.07 19862 1382.26 18479.7 9661.86
internal_count=118625 39093 79532 5550 73982 38692
is_linear=0
shrinkage=0.0291483


Tree=34
num_leaves=8
num_cat=0
split_feature=6 8 10 8 6 6 8
split_gain=70.3797 21.1046 17.4192 15.2435 15.1374 14.6049 13.6682
threshold=1269.7430709691337 4.8463529017188298e-05 0.00025039228346126 0.00017251782158966608 1662.710047261696 1252.0525819645975 0.0015616615987155082
decision_type=2 2 2 2 2 2 2
left_child=3 4 -3 5 -2 -1 -5
right_child=1 2 -4 6 -6 -7 -8
leaf_value=0.00092420686456420799 -0.016001777213209903 0.0017582245826891789 -0.0011933808731453271 0.0025492482845090492 -0.0039122310005019591 -0.006307163665834295 -0.0027082773785537025
leaf_weight=761.7701029330492 122.69430191814899 1886.7846742272377 16763.481379792094 9018.7665083855391 291.45815607905388 340.41254563629627 437.24366235733032
leaf_count=3049 492 7557 67125 36120 1169 1363 1750
internal_value=1.80176e-05 -0.00103921 -0.000894531 0.00192685 -0.00751975 -0.00131209 0.00230515
internal_weight=29622.6 19064.4 18650.3 10558.2 414.152 1102.18 9456.01
internal_count=118625 76343 74682 42282 1661 4412 37870
is_linear=0
shrinkage=0.0291483


Tree=35
num_leaves=7
num_cat=0
split_feature=12 8 14 14 8 5
split_gain=68.0276 21.8643 21.4476 21.4197 12.4218 6.28953
threshold=-0.00020219688409930619 4.8463529017188298e-05 0.30739764152200338 -0.028495298830636635 0.001929366799073797 0.016249964119881551
decision_type=2 2 2 2 2 2
left_child=2 5 4 -3 -1 -2
right_child=1 3 -4 -5 -6 -7
leaf_value=0.0018583621409613343 -0.010571440132778545 0.00042434527847279166 -0.011382095096676341 -0.001789266136312655 -0.0051616112780777726 -0.0020489122205390544
leaf_weight=12389.06158412993 265.12476934492588 5621.5564674735069 103.19915509223938 10928.49068403244 214.4104051142931 99.666784450411797
leaf_count=49609 1064 22509 413 43772 858 400
internal_value=1.74543e-05 -0.00119311 0.00162888 -0.00103733 0.00173781 -0.00821796
internal_weight=29621.5 16914.8 12706.7 16550 12603.5 364.792
internal_count=118625 67745 50880 66281 50467 1464
is_linear=0
shrinkage=0.0291483


Tree=36
num_leaves=8
num_cat=0
split_feature=12 6 6 12 6 15 13
split_gain=60.697 35.1232 17.6318 16.5927 14.1613 12.8912 12.4468
threshold=-1.1792347345029495e-05 1284.8415529665201 1226.6497143881554 0.0036303459699517393 1430.6836993117151 0.00013179046269779971 -0.16079491770229246
decision_type=2 2 2 2 2 2 2
left_child=2 5 6 -3 -4 -2 -1
right_child=1 3 4 -5 -6 -7 -8
leaf_value=0.004866366221184781 -0.0036713727777241138 -0.0018165691634334292 -7.5600902433323064e-05 -0.0061293944221078416 0.002151272416992399 0.0014765345477673864 0.0016469542463846923
leaf_weight=1750.3664329051971 457.82029084861279 9819.0559768825769 6521.0649106800556 818.11746561527252 3859.1211513280869 3963.5894408524036 2441.8458340466022
leaf_count=7021 1833 39331 26098 3290 15445 15864 9786
internal_value=5.5961e-05 -0.00124165 0.00139687 -0.00214918 0.000752547 0.000940903 0.00299174
internal_weight=29631 15058.6 14572.4 10637.2 10380.2 4421.41 4192.21
internal_count=118668 60318 58350 42621 41543 17697 16807
is_linear=0
shrinkage=0.0291483


Tree=37
num_leaves=8
num_cat=0
split_feature=12 17 12 5 7 14 10
split_gain=57.2161 18.4207 17.5713 21.0298 17.461 10.4502 7.14361
threshold=-1.1792347345029495e-05 0.21523744778517592 0.0036303459699517393 -0.017039452969528492 0.00026179279605914526 0.30739764152200338 0.00022125596101211974
decision_type=2 2 2 2 2 2 2
left_child=1 6 4 -4 -2 -3 -1
right_child=2 5 3 -5 -6 -7 -8
leaf_value=0.0032695479982449878 -0.0021266309221928789 0.0017365308047603667 -0.012261859124736499 -0.0024090746884447931 -5.8858486182211269e-05 -0.0064301662993998671 -0.0032017862480965636
leaf_weight=167.30304305255413 6101.7257259339094 13318.493968352675 250.33186949789524 669.70859445631504 8035.8295037299395 130.92943935096264 955.05349342525005
leaf_count=670 24442 53334 1007 2693 32176 524 3822
internal_value=5.4322e-05 0.00135624 -0.00120558 -0.00510145 -0.000951461 0.00165574 -0.0022256
internal_weight=29629.4 14571.8 15057.6 920.04 14137.6 13449.4 1122.36
internal_count=118668 58350 60318 3700 56618 53858 4492
is_linear=0
shrinkage=0.0291483


Tree=38
num_leaves=8
num_cat=0
split_feature=6 12 12 6 12 8 15
split_gain=55.4208 36.5555 16.0591 15.3623 13.0108 17.2169 11.5599
threshold=1260.2350273759823 -1.1792347345029495e-05 0.0047662807966566663 1430.6836993117151 -0.0013634172028394876 0.0016299532054707508 0.0001149605583378735
decision_type=2 2 2 2 2 2 2
left_child=4 3 -3 -2 5 -1 -6
right_child=1 2 -4 -5 6 -7 -8
leaf_value=0.0040960264764215888 -0.00050540247650291293 -0.0016055623284181024 -0.0073236590532334018 0.0020487677897666318 -0.0027598224694889736 -0.0038856683260332738 0.001542508074360352
leaf_weight=2839.3626473993063 4147.081195756793 11809.835097312927 429.17417035996914 3859.0355618745089 581.35688236355782 246.40823769569397 5715.8204401284456
leaf_count=11390 16594 47315 1728 15445 2327 986 22883
internal_value=5.27063e-05 -0.000805463 -0.00180713 0.000725569 0.00190412 0.0034541 0.00114433
internal_weight=29628.1 20245.1 12239 8006.12 9382.95 3085.77 6297.18
internal_count=118668 81082 49043 32039 37586 12376 25210
is_linear=0
shrinkage=0.0291483


Tree=39
num_leaves=8
num_cat=0
split_feature=6 12 6 5 12 15 16
split_gain=55.7411 31.8424 16.1072 14.2751 8.49715 15.6177 7.61058
threshold=1248.5191485382732 2.2729918457266027e-05 1715.9772266039292 -0.074059587415320358 -0.0018451760236402701 0.0020849505409167054 2.7400510249142491
decision_type=2 2 2 2 2 2 2
left_child=4 2 -2 -3 5 -1 -6
right_child=1 3 -4 -5 6 -7 -8
leaf_value=0.0050334290561799078 0.00091282154579525206 -0.010505173823138241 -0.0032078772698440547 -0.0016448738999933173 0.0012738734233220075 -0.00077483265046217028 0.0073047143605154269
leaf_weight=1614.9526396691799 8178.3196976780891 152.91281439363956 890.45536245405674 12565.094160050154 5527.177662268281 516.61354750394821 180.22077770531178
leaf_count=6481 32729 613 3564 50350 22135 2072 722
internal_value=-5.3762e-05 -0.000812133 0.00050722 -0.00175302 0.00205355 0.00362315 0.00146701
internal_weight=29625.7 21786.8 9068.78 12718 7838.96 2131.57 5707.4
internal_count=118666 87256 36293 50963 31410 8553 22857
is_linear=0
shrinkage=0.0291483


Tree=40
num_leaves=8
num_cat=0
split_feature=6 12 9 8 12 14 9
split_gain=52.5468 30.0164 16.8931 13.8058 16.5182 13.2929 8.82874
threshold=1248.5191485382732 2.2729918457266027e-05 8.9134500255391315e-05 0.0016299532054707508 -0.0018451760236402701 -0.058537910366976274 0.0021023501878887148
decision_type=2 2 2 2 2 2 2
left_child=3 2 -2 4 -1 -3 -5
right_child=1 5 -4 6 -6 -7 -8
leaf_value=0.0046005489586650886 -0.0099390581113744936 -5.2916780358813009e-05 0.00064274618114918368 -0.0067220577936531814 0.0014588638265789157 -0.0022403694059884675 0.0031747593978893054
leaf_weight=1904.9684046804905 126.48036839067936 3128.5756666660309 8942.2309889793396 242.14973436295986 5583.243713259697 9588.559343546629 107.93256057798862
leaf_count=7648 507 12532 35786 969 22361 38431 432
internal_value=-5.22103e-05 -0.000788536 0.000492416 0.00199393 0.00225886 -0.0017021 -0.00363543
internal_weight=29624.1 21785.8 9068.71 7838.29 7488.21 12717.1 350.082
internal_count=118666 87256 36293 31410 30009 50963 1401
is_linear=0
shrinkage=0.0291483


Tree=41
num_leaves=8
num_cat=0
split_feature=6 16 1 5 14 5 6
split_gain=49.535 14.9596 19.1472 13.53 8.62747 11.6591 11.6312
threshold=1248.5191485382732 2.7400510249142491 -1.1861375669023112e-07 -0.074059587415320358 -0.050048636628670706 -0.0024190964821449086 1212.807682700068
decision_type=2 2 2 2 2 2 2
left_child=4 3 -3 -2 6 -6 -1
right_child=1 2 -4 -5 5 -7 -8
leaf_value=0.0046311534836510661 -0.0072395516106772998 0.0015051465901503502 -0.0088700317544356238 -0.000549832114104779 0.0025800153566061233 -0.00039107863094056504 0.001188795269906763
leaf_weight=1817.3643724322319 256.53283782303333 233.74530281126499 414.24880281090736 20880.339013949037 2247.586700797081 2234.2563560456038 1538.3067686706781
leaf_count=7293 1028 936 1662 83630 9004 8951 6162
internal_value=-5.07049e-05 -0.000765619 -0.00511627 -0.000631779 0.00193604 0.00109929 0.00305349
internal_weight=29622.4 21784.9 647.994 21136.9 7837.51 4481.84 3355.67
internal_count=118666 87256 2598 84658 31410 17955 13455
is_linear=0
shrinkage=0.0291483


Tree=42
num_leaves=8
num_cat=0
split_feature=14 9 18 4 8 8 8
split_gain=21.758 27.2805 16.8016 17.6741 13.6123 8.83263 8.69205
threshold=-0.061325974259782069 0.00083714672613541112 0.20087360993134926 0.0038526205498208817 0.00046308334242243539 0.000196526541429748 0.00064260549851746362
decision_type=2 2 2 2 2 2 2
left_child=1 4 5 -4 -1 -2 -3
right_child=2 6 3 -5 -6 -7 -8
leaf_value=-0.00049822608590717563 -0.0030017281801533809 0.0074163394065999699 -0.00034565605106223627 -0.0044265494498756334 0.0020362293701547264 -0.012103400461277058 0.0029562634879695083
leaf_weight=5822.2240264713764 213.82612670958042 510.40591384470463 18028.884945318103 945.63831496238708 2602.2510316967964 153.56898993253708 1346.7703637927771
leaf_count=23317 857 2045 72216 3802 10426 615 5397
internal_value=-9.33213e-05 0.000989958 -0.000669235 -0.00054953 0.00028501 -0.00681354 0.00418472
internal_weight=29623.6 10281.7 19341.9 18974.5 8424.48 367.395 1857.18
internal_count=118675 41185 77490 76018 33743 1472 7442
is_linear=0
shrinkage=0.0291483


Tree=43
num_leaves=7
num_cat=0
split_feature=12 12 7 18 14 14
split_gain=47.221 17.6401 17.2125 16.2782 13.6364 12.6436
threshold=-2.3054596155325378e-05 0.0030392062793967735 0.00021741880635865415 0.14249183436641097 -0.068697821490129388 0.30739764152200338
decision_type=2 2 2 2 2 2
left_child=3 2 -2 -1 -3 -5
right_child=1 4 -4 5 -6 -7
leaf_value=-0.010121854528952437 -0.002271210989887635 0.0029306000434972416 -0.00013204567699495401 0.0012710296337038744 -0.0055009764807643965 -0.0075954893762681394
leaf_weight=105.4077765494585 5022.9819628149271 185.31658373773098 8773.4194447398186 14204.144363805652 1197.2779753655195 134.4160511046648
leaf_count=422 20128 744 35133 56893 4817 538
internal_value=-9.06145e-05 -0.00122573 -0.000911085 0.00110224 -0.00436076 0.00118658
internal_weight=29623 15179 13796.4 14444 1382.59 14338.6
internal_count=118675 60822 55261 57853 5561 57431
is_linear=0
shrinkage=0.0291483


Tree=44
num_leaves=8
num_cat=0
split_feature=6 7 10 14 7 6 5
split_gain=44.8621 15.65 19.2434 11.6646 9.90983 9.7972 9.53637
threshold=1254.8899193786058 4.7913491118400918e-05 0.00020976915583576468 -0.050048636628670706 0.00098192297959367666 1198.0215562522792 -0.039150433248802005
decision_type=2 2 2 2 2 2 2
left_child=3 6 -3 5 -5 -1 -2
right_child=1 2 -4 4 -6 -7 -8
leaf_value=0.0048448716542435601 0.0032870522681060239 0.0030570072104840174 -0.00085530815940340914 0.0012166385356257598 -0.0029081752509359784 0.00174163228229079 -0.0052235819246428256
leaf_weight=1394.4241463392973 123.3740119934082 1129.1902307868004 18737.085748165846 4462.3369684517384 552.99047429859638 2268.4370228797197 953.75658592581749
leaf_count=5599 495 4524 75052 17875 2216 9089 3825
internal_value=-8.80189e-05 -0.000818178 -0.000632565 0.00167381 0.000760699 0.00292392 -0.00423456
internal_weight=29621.6 20943.4 19866.3 8678.19 5015.33 3662.86 1077.13
internal_count=118675 83896 79576 34779 20091 14688 4320
is_linear=0
shrinkage=0.0291483


Tree=45
num_leaves=5
num_cat=0
split_feature=5 3 7 7
split_gain=26.5986 25.9583 20.3162 12.7377
threshold=-0.093144626947719564 -0.00022854013581614468 4.5142439267837358e-05 0.00026675107267685067
decision_type=2 2 2 2
left_child=-1 3 -3 -2
right_child=1 2 -4 -5
leaf_value=-0.01349033632317047 -0.00015076422406179929 -0.0047929770298823738 -0.00037950570038006349 0.0018588904323983762
leaf_weight=119.46523675322533 4125.1540126055479 931.80285105109215 16860.693649113178 7632.5391214936972
leaf_count=479 16521 3738 67550 30584
internal_value=3.53322e-05 9.10632e-05 -0.000611148 0.00115365
internal_weight=29669.7 29550.2 17792.5 11757.7
internal_count=118872 118393 71288 47105
is_linear=0
shrinkage=0.0291483


Tree=46
num_leaves=5
num_cat=0
split_feature=5 8 14 8
split_gain=25.1057 20.8958 19.7264 6.51309
threshold=-0.093144626947719564 4.8463529017188298e-05 -0.061325974259782069 2.932313446905387e-05
decision_type=2 2 2 2
left_child=-1 3 -3 -2
right_child=1 2 -4 -5
leaf_value=-0.013108153628761538 -0.002581933744261921 0.0012289200098560412 -0.00036631178749206892 -0.0094937241054953714
leaf_weight=119.43208673596382 228.53039872646332 10070.081567421556 19019.712201178074 231.12747067213058
leaf_count=479 918 40342 76205 928
internal_value=3.42623e-05 8.84008e-05 0.000185943 -0.00605419
internal_weight=29668.9 29549.5 29089.8 459.658
internal_count=118872 118393 116547 1846
is_linear=0
shrinkage=0.0291483


Tree=47
num_leaves=5
num_cat=0
split_feature=5 3 7 10
split_gain=23.6984 24.2424 18.59 14.8173
threshold=-0.093144626947719564 -0.00022854013581614468 4.5142439267837358e-05 0.00065844331839456558
decision_type=2 2 2 2
left_child=-1 3 -3 -2
right_child=1 2 -4 -5
leaf_value=-0.012737808113007698 0.00024043339537481193 -0.0045937758904706213 -0.00037124997164226045 0.0023396984734552575
leaf_weight=119.38954870402813 6872.3651532977819 931.47227205336094 16860.452102854848 4884.8058295696974
leaf_count=479 27529 3738 67550 19576
internal_value=3.32222e-05 8.58132e-05 -0.000592799 0.0011127
internal_weight=29668.5 29549.1 17791.9 11757.2
internal_count=118872 118393 71288 47105
is_linear=0
shrinkage=0.0291483


Tree=48
num_leaves=8
num_cat=0
split_feature=6 12 9 12 12 13 13
split_gain=44.9393 24.6402 18.0148 16.343 6.94449 14.3284 10.0893
threshold=1254.8899193786058 2.2729918457266027e-05 0.00024134475579415079 0.0036303459699517393 -0.0013634172028394876 -0.16079491770229246 -0.26251355120250952
decision_type=2 2 2 2 2 2 2
left_child=4 2 -2 -3 5 -1 -6
right_child=1 3 -4 -5 6 -7 -8
leaf_value=0.005025660292624563 0.0036749764911973475 -0.0012770472341975072 -8.7949258409489263e-05 -0.0054458406388217051 -0.0017687631695137379 0.00098755991930902435 0.0016773081617185328
leaf_weight=1415.4592681378126 1263.0765822380781 11471.94131359458 7369.9715341329575 855.46134482324123 844.61482316255569 1574.7073868662119 4845.4609523266554
leaf_count=5688 5059 45971 29493 3448 3385 6319 19401
internal_value=-4.74545e-07 -0.000730819 0.000463135 -0.00156707 0.0017628 0.00289984 0.0011651
internal_weight=29640.7 20960.5 8633.05 12327.4 8680.24 2990.17 5690.08
internal_count=118764 83971 34552 49419 34793 12007 22786
is_linear=0
shrinkage=0.0291483


Tree=49
num_leaves=8
num_cat=0
split_feature=6 12 10 12 8 10 8
split_gain=42.527 26.7951 15.0426 14.8642 13.1124 14.9719 11.6079
threshold=1284.8415529665201 -1.1792347345029495e-05 0.0003005615895077431 0.0030392062793967735 0.00020419933086318368 0.00022125596101211974 0.0018047323157162354
decision_type=2 2 2 2 2 2 2
left_child=4 2 -2 -3 5 -1 -6
right_child=1 3 -4 -5 6 -7 -8
leaf_value=0.0040933456299531486 0.0031391335529220728 -0.0014489027138512461 -0.00021238094652681051 -0.0048793635030569679 0.0018727404838608898 -0.0023318131977206422 -0.0039369853253281789
leaf_weight=387.99579818546772 1450.6534877717495 9443.0018758922815 5225.8305499106646 1207.6394584178925 10183.639971524477 1442.9951610267162 297.32392677664757
leaf_count=1554 5809 37842 20912 4864 40814 5779 1190
internal_value=-4.61792e-07 -0.000931092 0.000516229 -0.00183853 0.00130916 -0.000964478 0.00170682
internal_weight=29639.1 17327.1 6676.48 10650.6 12312 1830.99 10481
internal_count=118764 69427 26721 42706 49337 7333 42004
is_linear=0
shrinkage=0.0291483


Tree=50
num_leaves=8
num_cat=0
split_feature=6 7 9 8 6 9 8
split_gain=40.4476 14.2965 19.5976 9.66343 9.62977 7.71889 7.32048
threshold=1254.8899193786058 4.7913491118400918e-05 0.00024134475579415079 0.0016299532054707508 1129.8260671492556 0.0021023501878887148 0.00020419933086318368
decision_type=2 2 2 2 2 2 2
left_child=3 6 -3 4 -1 -5 -2
right_child=1 2 -4 5 -6 -7 -8
leaf_value=0.0047893620400995289 -0.0050622262802976648 0.0022701110387299927 -0.00081652210712644668 -0.0057982996767496848 0.001538202608878593 0.003328119945140456 0.0012535014326042471
leaf_weight=860.65814861655235 889.50898991525173 1932.5867928266525 17950.568022936583 250.62922422587872 7457.0717426985502 110.68281808495522 185.84074957668781
leaf_count=3460 3571 7743 71912 1003 29887 443 745
internal_value=-4.56603e-07 -0.000693362 -0.000516247 0.00167251 0.00187555 -0.0029715 -0.00396157
internal_weight=29637.5 20958.5 19883.2 8679.04 8317.73 361.312 1075.35
internal_count=118764 83971 79655 34793 33347 1446 4316
is_linear=0
shrinkage=0.0291483


Tree=51
num_leaves=8
num_cat=0
split_feature=12 7 7 12 8 15 1
split_gain=36.8508 18.9197 16.1158 16.9197 15.627 14.5029 4.64922
threshold=-0.00054330615553123678 8.7144548702370355e-05 0.00011157989128765915 0.0030392062793967735 0.00039679817292069238 1.051414206757275e-07 -0.00014086255138709048
decision_type=2 2 2 2 2 2 2
left_child=1 6 5 -4 -3 -2 -1
right_child=2 4 3 -5 -6 -7 -8
leaf_value=0.0028916289589801035 -0.010634442797771374 -0.00047467329293097326 -0.00012108943092619424 -0.0035260950329131795 0.0020167076913249881 -0.002161733087310241 0.0088810165902268971
leaf_weight=162.42161414027214 178.129968136549 3343.6155973225832 15214.409877762198 1346.3692746460438 5923.5046454668045 3147.9373116642237 336.86540541052818
leaf_count=651 715 13396 60929 5422 23751 12618 1349
internal_value=-5.02125e-05 0.00141578 -0.000770257 -0.000398375 0.00111776 -0.00262083 0.00692362
internal_weight=29653.3 9766.41 19886.8 16560.8 9267.12 3326.07 499.287
internal_count=118831 39147 79684 66351 37147 13333 2000
is_linear=0
shrinkage=0.0291483


Tree=52
num_leaves=8
num_cat=0
split_feature=6 17 8 6 10 8 6
split_gain=33.3654 16.9471 14.6204 14.7925 14.2336 13.3907 11.9635
threshold=1269.7430709691337 0.29184607236362714 0.00017251782158966608 1252.0525819645975 0.0011710963549669653 0.0014999575568532587 1383.1005202817016
decision_type=2 2 2 2 2 2 2
left_child=2 4 3 -1 -2 -4 -3
right_child=1 6 5 -5 -6 -7 -8
leaf_value=0.00034743246986295307 -0.0024857723089711514 -0.0012922752584062823 0.0018992530295022644 -0.0068927839969873204 -0.013452798870509586 -0.0030300275909149171 0.00029077425405459013
leaf_weight=774.02266500890255 2626.4317971616983 7362.7671347111464 8931.9740480929613 343.17569825053215 101.06724239885807 490.65316325426102 9021.8850515335798
leaf_count=3099 10523 29493 35808 1375 405 1965 36163
internal_value=-4.87714e-05 -0.000774823 0.00126764 -0.00188007 -0.00290084 0.0016416 -0.000420656
internal_weight=29652 19112.2 10539.8 1117.2 2727.5 9422.63 16384.7
internal_count=118831 76584 42247 4474 10928 37773 65656
is_linear=0
shrinkage=0.0291483


Tree=53
num_leaves=8
num_cat=0
split_feature=12 9 4 12 13 10 13
split_gain=34.0615 23.0905 15.6294 12.0339 22.5595 18.912 6.11812
threshold=-0.00054330615553123678 0.00024134475579415079 0.00068857000189746027 0.0030392062793967735 -0.096916254226111803 0.00067543024947825769 -0.22265182617745022
decision_type=2 2 2 2 2 2 2
left_child=1 6 -3 5 -5 -2 -1
right_child=3 2 -4 4 -6 -7 -8
leaf_value=0.0051297117791917332 -0.0011184465526927669 0.00084174276897462381 0.006750264036509095 0.0080262004603429242 -0.0045807419662663787 0.00096676874155738268 0.012884712539874384
leaf_weight=185.90987613797188 13416.627530232072 9025.8302832394838 393.61125953495502 130.02533209323883 1242.768680870533 5096.0979108214378 160.05727788805962
leaf_count=746 53748 36183 1576 521 5009 20406 642
internal_value=-4.73984e-05 0.0013621 0.00109014 -0.000739671 -0.00336952 -0.000544349 0.00872035
internal_weight=29650.9 9765.41 9419.44 19885.5 1372.79 18512.7 345.967
internal_count=118831 39147 37759 79684 5530 74154 1388
is_linear=0
shrinkage=0.0291483


Tree=54
num_leaves=8
num_cat=0
split_feature=6 12 14 9 7 14 12
split_gain=34.7539 16.6816 23.4035 16.0555 10.786 8.49626 7.12449
threshold=1238.4740242245773 0.00098044360887437313 -0.055665879061756476 0.00049194253459247076 0.001099618628410766 0.024740257863134045 -0.0018451760236402701
decision_type=2 2 2 2 2 2 2
left_child=4 3 -3 -2 6 -6 -1
right_child=1 2 -4 -5 5 -7 -8
leaf_value=0.0039387565525849447 -0.00085225232772374578 0.0017588747702712907 -0.0026891224052558393 0.0009747105319971687 0.00042615347724850826 -0.0066125209252714456 0.0016441084249142264
leaf_weight=1572.4328189194202 9566.5073326379061 1245.052688986063 5151.4097502231598 7129.4151258021593 525.42771792411804 197.59036493301392 4262.8131591081619
leaf_count=6325 38322 4990 20673 28540 2108 792 17086
internal_value=-2.51906e-05 -0.000556993 -0.00182235 -7.2097e-05 0.00184684 -0.0015032 0.00226321
internal_weight=29650.6 23092.4 6396.46 16695.9 6558.26 723.018 5835.25
internal_count=118836 92525 25663 66862 26311 2900 23411
is_linear=0
shrinkage=0.0291483


Tree=55
num_leaves=7
num_cat=0
split_feature=17 0 9 9 9 9
split_gain=17.5154 12.9626 14.2799 10.552 6.62768 13.2599
threshold=0.23570512935004054 0.6943999512371809 0.00025989200408646263 8.9134500255391315e-05 0.00013187230135048577 0.00016458402114501205
decision_type=2 2 2 2 2 2
left_child=4 3 -3 -2 -1 -6
right_child=1 2 -4 -5 5 -7
leaf_value=-0.0089477451461291678 -0.0069641643978044423 0.0022226110146179629 -0.0037117316837695642 0.00042501078190824055 0.0079411575691174224 -0.0023341571498083601
leaf_weight=115.50252516567707 161.78975012898445 460.57255606353283 1334.7663365155458 24877.039998352528 107.73863777518272 2591.7559203803539
leaf_count=464 650 1847 5350 99711 432 10382
internal_value=-2.44569e-05 0.000205014 -0.00218505 0.000376604 -0.00221043 -0.00191681
internal_weight=29649.2 26834.2 1795.34 25038.8 2815 2699.49
internal_count=118836 107558 7197 100361 11278 10814
is_linear=0
shrinkage=0.0291483


Tree=56
num_leaves=8
num_cat=0
split_feature=12 9 14 1 16 12 14
split_gain=27.3245 27.5288 14.1565 13.5851 15.7259 7.78082 5.95707
threshold=-0.00054330615553123678 0.00024134475579415079 0.24983054924208853 -0.00025529402951766168 3.1022247452099854 -0.00049854105966409541 -0.16554603715791297
decision_type=2 2 2 2 2 2 2
left_child=1 6 -3 5 -5 -2 -1
right_child=3 2 -4 4 -6 -7 -8
leaf_value=0.004913899886132036 -0.0070084394480617951 0.0010893895374424489 -0.0077394132432191017 -0.00090411996796651119 -0.0076052014110545123 0.0010516586413689064 0.012676218471514861
leaf_weight=147.0234123468399 100.89277559518814 9269.3400786370039 153.35910630226135 15478.870057329535 299.86881396174431 4004.9745646119118 194.53632572293282
leaf_count=590 404 37163 614 62041 1204 16039 781
internal_value=-2.37584e-05 0.00123876 0.000943736 -0.000643802 -0.00103245 0.000849054 0.00932599
internal_weight=29648.9 9764.26 9422.7 19884.6 15778.7 4105.87 341.56
internal_count=118836 39148 37777 79688 63245 16443 1371
is_linear=0
shrinkage=0.0291483


Tree=57
num_leaves=7
num_cat=0
split_feature=12 14 9 14 12 12
split_gain=26.0832 25.0282 20.3911 11.315 14.018 13.5162
threshold=-0.00054330615553123678 0.27916798508762308 0.00024134475579415079 -0.058537910366976274 0.0011311727115386773 0.0013769810919059776
decision_type=2 2 2 2 2 2
left_child=1 2 -1 5 -5 -2
right_child=3 -3 -4 4 -6 -7
leaf_value=0.0083309560386539555 -0.0001551305193904566 -0.01269918102613626 0.0010929108359395577 -0.00040912871649131667 -0.0023260207009171332 0.0037654617104560428
leaf_weight=339.36228913068771 4820.4586641192436 105.40095415711403 9320.9890972077847 9178.5659970194101 5007.4011135846376 880.44875000417233
leaf_count=1363 19304 422 37371 36769 20097 3529
internal_value=-3.93975e-05 0.00119401 0.00134891 -0.000645166 -0.00108591 0.000451225
internal_weight=29652.6 9765.75 9660.35 19886.9 14186 5700.91
internal_count=118855 39156 38734 79699 56866 22833
is_linear=0
shrinkage=0.0291483


Tree=58
num_leaves=8
num_cat=0
split_feature=6 12 7 6 14 8 12
split_gain=28.385 17.5437 15.5909 11.9726 7.92478 12.2629 10.8442
threshold=1260.2350273759823 -0.00020219688409930619 4.5142439267837358e-05 1430.6836993117151 -0.050048636628670706 0.00051128221500725522 -0.0048481782342214754
decision_type=2 2 2 2 2 2 2
left_child=4 3 -3 -2 5 -1 -6
right_child=1 2 -4 -5 6 -7 -8
leaf_value=0.00078429171243879524 -0.00058056979413580667 -0.0054923959143708696 -0.0010226193190039914 0.0018907236018356568 -0.0063214487845639541 0.0040598502464592283 0.00081463300068182129
leaf_weight=2108.9543360769749 3569.4131731987 695.52026222646236 12905.17653375864 3116.4572266787291 183.79523456096649 1795.8050821870565 5276.337648704648
leaf_count=8458 14284 2797 51745 12476 738 7213 21144
internal_value=-3.82595e-05 -0.000650975 -0.00125192 0.000571227 0.00128882 0.00229122 0.000571864
internal_weight=29651.5 20286.6 13600.7 6685.87 9364.89 3904.76 5460.13
internal_count=118855 81302 54542 26760 37553 15671 21882
is_linear=0
shrinkage=0.0291483


Tree=59
num_leaves=8
num_cat=0
split_feature=8 14 8 9 3 8 18
split_gain=17.5543 16.0923 16.0419 13.5277 11.034 9.30134 3.73018
threshold=0.00035649610438755875 -0.050048636628670706 0.00078353307618666743 0.00083714672613541112 0.0018436564089346279 4.8463529017188298e-05 0.99950632105545734
decision_type=2 2 2 2 2 2 2
left_child=4 3 -3 -2 5 -1 -6
right_child=1 2 -4 -5 6 -7 -8
leaf_value=-0.0047663745002059915 0.00083452140694997585 0.00065076789551587729 -0.0017720431956782174 0.003756863007192893 -0.0036954544161639964 -0.00059351945032274224 -0.01161778019345875
leaf_weight=468.27814148366451 4297.2397818863392 7397.5957926809788 3379.760051637888 1956.2644570022821 100.50899769365788 11951.949420541525 98.39432355761528
leaf_count=1884 17226 29648 13564 7846 403 47889 395
internal_value=-3.71643e-05 0.00057327 -0.000109112 0.0017492 -0.000860994 -0.00075165 -0.00761213
internal_weight=29650 17030.9 10777.4 6253.5 12619.1 12420.2 198.903
internal_count=118855 68284 43212 25072 50571 49773 798
is_linear=0
shrinkage=0.0291483


Tree=60
num_leaves=8
num_cat=0
split_feature=6 16 0 7 14 14 13
split_gain=26.9984 13.087 14.3498 11.7684 8.85615 11.3691 8.99752
threshold=1260.2350273759823 2.7400510249142491 -0.64296584900630294 4.7913491118400918e-05 -0.050048636628670706 0.051769053407588465 -0.039371448303456048
decision_type=2 2 2 2 2 2 2
left_child=4 3 -3 -2 6 -6 -1
right_child=1 2 -4 -5 5 -7 -8
leaf_value=0.0015791996129752219 -0.0034938532517492069 0.0036462751604874844 -0.0070549216380414387 -0.0002743885736795272 -0.00074127039787185529 0.0019216730084835223 0.0048221061494834608
leaf_weight=2949.6108299344778 1013.9188998788595 132.77213644981384 485.96847063302994 18606.839609280229 2783.9134892225266 2660.4198867827654 961.91586086153984
leaf_count=11845 4074 532 1952 74561 11160 10659 3856
internal_value=2.56572e-05 -0.000572859 -0.00473482 -0.000441138 0.00132029 0.000560247 0.00237799
internal_weight=29595.4 20239.5 618.741 19620.8 9355.86 5444.33 3911.53
internal_count=118639 81119 2484 78635 37520 21819 15701
is_linear=0
shrinkage=0.0291483


Tree=61
num_leaves=8
num_cat=0
split_feature=6 17 16 7 5 7 1
split_gain=25.4496 15.8068 14.4693 9.32027 7.4138 11.0889 10.6553
threshold=1260.2350273759823 0.28275036494442002 2.7400510249142491 1.1443657171506259e-07 0.024717310945038814 0.001099618628410766 9.6666273130172138e-05
decision_type=2 2 2 2 2 2 2
left_child=4 3 -3 -2 5 -1 -6
right_child=1 2 -4 -5 6 -7 -8
leaf_value=0.0012909248802198362 -0.010986749076641801 -7.059144000871237e-05 -0.0045972704616339373 -0.0022624764414547389 0.0018428732253282737 -0.0026259484762160058 0.0082441983565596632
leaf_weight=7522.7431899011135 104.81825524568558 16846.508969917893 618.5608766078949 2669.1071200221777 875.34079259634018 665.13740172982216 292.17726412415504
leaf_count=30170 422 67517 2484 10696 3511 2668 1171
internal_value=2.49162e-05 -0.000556181 -0.000231516 -0.00259887 0.0012819 0.000971958 0.00345192
internal_weight=29594.4 20239 17465.1 2773.93 9355.4 8187.88 1167.52
internal_count=118639 81119 70001 11118 37520 32838 4682
is_linear=0
shrinkage=0.0291483


Tree=62
num_leaves=8
num_cat=0
split_feature=6 16 1 18 8 9 9
split_gain=23.9908 11.635 20.9162 11.1521 7.72818 8.21553 6.58363
threshold=1260.2350273759823 2.7400510249142491 -1.1024034704342738e-07 0.61389986400342245 0.0016299532054707508 0.00075565949109398676 0.0018423703456399937
decision_type=2 2 2 2 2 2 2
left_child=4 3 -3 -2 5 -1 -6
right_child=1 2 -4 -5 6 -7 -8
leaf_value=0.00086408088865876293 -0.0015690301788735107 0.0025162248488955221 -0.0085365582528495292 2.7465681056902966e-06 -0.0064843337794422383 0.0028270458146517729 0.0013612625614386623
leaf_weight=6483.7197423577309 5224.1152411550283 227.11960779130459 391.31458257138729 14396.010079354048 197.12412445247173 2511.2129759192467 162.88600593805313
leaf_count=25997 20938 910 1574 57697 789 10082 652
internal_value=2.41648e-05 -0.000540032 -0.00446532 -0.000415858 0.00124463 0.00141249 -0.0029225
internal_weight=29593.5 20238.6 618.434 19620.1 9354.94 8994.93 360.01
internal_count=118639 81119 2484 78635 37520 36079 1441
is_linear=0
shrinkage=0.0291483


Tree=63
num_leaves=8
num_cat=0
split_feature=12 9 6 7 12 3 7
split_gain=25.3857 24.5763 17.6961 14.1935 12.4952 8.0227 5.60707
threshold=-0.00054330615553123678 0.00024134475579415079 1715.9772266039292 4.7913491118400918e-05 0.00098044360887437313 4.325588116412387e-05 8.9620653787821962e-05
decision_type=2 2 2 2 2 2 2
left_child=1 6 -3 5 -5 -2 -1
right_child=3 2 -4 4 -6 -7 -8
leaf_value=0.01477308699857193 -0.0058178809504717622 0.0013161541783583604 -0.0061757474990924693 0.0003229092252481395 -0.0012408766843614481 -0.00087477988871214512 0.0066091339300669693
leaf_weight=99.609605267643929 623.36436098814011 9138.0876917392015 272.40844303369522 11904.616673350334 6828.2383031398058 501.13523538410664 243.54942044615746
leaf_count=400 2504 36649 1090 47677 27399 2015 979
internal_value=0.00015994 0.00137746 0.0010977 -0.000438152 -0.000247161 -0.00361383 0.00900041
internal_weight=29611 9753.66 9410.5 19857.4 18732.9 1124.5 343.159
internal_count=118713 39118 37739 79595 75076 4519 1379
is_linear=0
shrinkage=0.0291483


Tree=64
num_leaves=8
num_cat=0
split_feature=8 13 2 8 3 15 4
split_gain=12.64 12.563 9.57782 6.47834 5.62049 5.55759 4.9917
threshold=4.8463529017188298e-05 0.38932918230934527 0.00014969218202706916 2.932313446905387e-05 4.325588116412387e-05 1.1046426317396257e-07 -0.00011050248243545191
decision_type=2 2 2 2 2 2 2
left_child=3 2 -2 5 -5 -1 -3
right_child=1 6 -4 4 -6 -7 -8
leaf_value=0.0032277662332120334 0.00079950026762078683 -0.0066116360206413469 -0.00031398465983215491 -0.012098308379123809 -0.0030235055318451744 -0.005665572912847327 -0.0017176338563440186
leaf_weight=117.3454987257719 17010.879086509347 203.0012938529253 10681.377166077495 127.56783840060234 103.17375661432743 114.42787493765354 1252.0001118034124
leaf_count=473 68187 813 42826 513 416 461 5024
internal_value=0.000155289 0.000231233 0.000369985 -0.0046074 -0.00804839 -0.00118609 -0.00240553
internal_weight=29609.8 29147.3 27692.3 462.515 230.742 231.773 1455
internal_count=118713 116850 111013 1863 929 934 5837
is_linear=0
shrinkage=0.0291483


Tree=65
num_leaves=8
num_cat=0
split_feature=6 17 12 9 14 10 12
split_gain=23.6894 15.6488 17.2465 10.8545 10.578 12.9349 7.79378
threshold=1224.1923751233901 0.27383472903029743 0.00098044360887437313 0.0010061562724670342 -0.029796691755633143 0.00082641821158626087 -0.0027874726347531719
decision_type=2 2 2 2 2 2 2
left_child=4 3 -3 -2 6 -6 -1
right_child=1 2 -4 -5 5 -7 -8
leaf_value=0.0059791521850554698 -0.0016422153075552649 0.00058912799489896578 -0.0012601431336962761 -0.008458893653834277 0.0022762034801094583 -0.0020607942986965132 0.0023262219815196441
leaf_weight=672.14420135319233 3151.1868361830711 15284.86465921998 5949.6392690986395 208.3754268437624 1520.0419065803289 944.14323416352272 1878.8940707594156
leaf_count=2707 12629 61225 23881 835 6098 3788 7550
internal_value=0.000150734 -0.000221568 7.08696e-05 -0.00206907 0.00197584 0.000614387 0.00329099
internal_weight=29609.3 24594.1 21234.5 3359.56 5015.22 2464.19 2551.04
internal_count=118713 98570 85106 13464 20143 9886 10257
is_linear=0
shrinkage=0.0291483


Tree=66
num_leaves=8
num_cat=0
split_feature=14 3 10 8 10 15 15
split_gain=15.1663 13.9164 25.6405 13.81 18.2829 12.5653 7.64806
threshold=-0.061325974259782069 -0.00050874966712853174 0.0011111832034678569 0.00046308334242243539 0.0003005615895077431 1.051414206757275e-07 0.00034330733926493456
decision_type=2 2 2 2 2 2 2
left_child=3 2 -2 4 -1 -3 -5
right_child=1 5 -4 6 -6 -7 -8
leaf_value=0.0024076452348628808 0.0016981910263381681 -0.010466938521393892 -0.0036022861795951574 0.0069106501815948164 -0.0010706041543926683 -0.00091415777925268676 0.001830796570468275
leaf_weight=1838.6064232140779 4367.926732391119 114.54805850982666 939.0500980168581 265.61776842176914 4233.726315587759 13876.781242728233 3957.8077134937048
leaf_count=7372 17508 461 3765 1064 16964 55645 15878
internal_value=-2.99184e-05 -0.00051186 0.000758606 0.00087331 -1.66968e-05 -0.000993912 0.00215287
internal_weight=29594.1 19298.3 5306.98 10295.8 6072.33 13991.3 4223.43
internal_count=118657 77379 21273 41278 24336 56106 16942
is_linear=0
shrinkage=0.0291483


Tree=67
num_leaves=8
num_cat=0
split_feature=6 13 13 14 6 11 13
split_gain=20.7867 9.99266 9.20721 10.2143 8.97668 8.30914 7.66701
threshold=1226.6497143881554 -0.15790039682465812 -0.32546356013116856 -0.080876973964236973 1745.9158204222842 8.4218321781706043e-05 -0.17597033551533561
decision_type=2 2 2 2 2 2 2
left_child=1 6 4 -4 -2 -3 -1
right_child=2 5 3 -5 -6 -7 -8
leaf_value=0.0027499901980365233 -0.0016502051939261515 0.0014502786455384872 0.0008954867097769729 -0.00056393965478222026 -0.0086420729016894581 -0.0020258490747582123 0.0094084069868475891
leaf_weight=1774.7717901617289 2048.9602450430393 2576.3796418011189 5381.4621316641569 16737.591800034046 165.43486166000366 751.73356972634792 156.96129123866558
leaf_count=7142 8208 10341 21556 67103 663 3013 631
internal_value=-2.90584e-05 0.00163194 -0.000388229 -0.000208796 -0.00217877 0.000664285 0.00329835
internal_weight=29593.3 5259.85 24333.4 22119.1 2214.4 3328.11 1931.73
internal_count=118657 21127 97530 88659 8871 13354 7773
is_linear=0
shrinkage=0.0291483


Tree=68
num_leaves=8
num_cat=0
split_feature=12 7 2 17 6 7 15
split_gain=24.4985 20.4106 16.3593 15.8162 11.5065 10.0284 5.77666
threshold=0.00046821072561969984 0.00012934933937795674 -0.00026061218183624589 0.21523744778517592 1269.7430709691337 0.0020285903108735251 0.00066103424965574195
decision_type=2 2 2 2 2 2 2
left_child=3 2 -2 6 -3 -5 -1
right_child=1 4 -4 5 -6 -7 -8
leaf_value=-0.001667692164498672 0.0054387353525905176 0.0014239741852760004 -0.0056192133112638468 0.00092212700790823268 -0.0011797276997075497 -0.0059619096880963608 -0.0083425484182695769
leaf_weight=1516.3343904465437 122.3408649712801 1786.0428045839071 1181.8071240335703 17269.784301906824 7422.6717108637094 178.12886098027229 115.35670121014118
leaf_count=6077 490 7150 4744 69233 29788 713 462
internal_value=-2.82113e-05 -0.00115786 -0.00456615 0.00059427 -0.000674448 0.000850978 -0.00214697
internal_weight=29592.5 10512.9 1304.15 19079.6 9208.71 17447.9 1631.69
internal_count=118657 42172 5234 76485 36938 69946 6539
is_linear=0
shrinkage=0.0291483


Tree=69
num_leaves=8
num_cat=0
split_feature=12 10 9 10 9 9 4
split_gain=20.7761 18.8182 20.5294 17.4771 10.3088 13.8393 7.75394
threshold=0.00028502298046360956 0.00031353359021584723 0.00030364997322250082 0.00047358041693282971 8.9134500255391315e-05 0.00024134475579415079 -1.2152974997252102e-05
decision_type=2 2 2 2 2 2 2
left_child=4 2 -2 -3 6 -6 -1
right_child=1 3 -4 -5 5 -7 -8
leaf_value=-0.01085685304334363 -0.0025841772754510396 0.0016469756222459028 -0.012573247365877721 -0.0011025652319418158 0.0030034262733619143 0.00048000680540336309 0.0002297057514215969
leaf_weight=111.67867411673069 1253.3362575918436 2587.7335171550512 199.73747040331364 8112.2329979091883 2099.4142341762781 15152.879104688764 97.480400159955025
leaf_count=449 5030 10377 801 32541 8418 60741 393
internal_value=6.51724e-05 -0.000860102 -0.00396882 -0.000437363 0.000709208 0.000787389 -0.00566909
internal_weight=29614.5 12153 1453.07 10700 17461.5 17252.3 209.159
internal_count=118750 48749 5831 42918 70001 69159 842
is_linear=0
shrinkage=0.0291483


Tree=70
num_leaves=8
num_cat=0
split_feature=12 4 13 3 15 16 3
split_gain=19.5917 16.5699 13.2052 11.5428 9.8412 8.94801 4.38516
threshold=-0.0005896379838845003 0.00068857000189746027 0.29664816670981914 -0.00056424234937127633 1.0493225122398319e-07 0.31629783500598119 0.00027023083725176363
decision_type=2 2 2 2 2 2 2
left_child=1 2 -1 5 -5 -2 -3
right_child=3 6 -4 4 -6 -7 -8
leaf_value=0.0010938065557488798 0.006475084849702115 0.004051616786947162 -0.006015274584376536 -0.0094961799649379095 -0.00067423075387540714 0.00076520840826945977 0.010424740849458016
leaf_weight=8813.4069804251194 253.00999288260937 183.85144197940826 224.18118835985661 104.68395294249058 17288.703866645694 2564.4243394881487 181.57088094949722
leaf_count=35363 1013 737 898 421 69322 10269 727
internal_value=6.32466e-05 0.0011622 0.000915862 -0.000448089 -0.000728477 0.00128154 0.00721809
internal_weight=29613.8 9403.01 9037.59 20210.8 17393.4 2817.43 365.422
internal_count=118750 37725 36261 81025 69743 11282 1464
is_linear=0
shrinkage=0.0291483


Tree=71
num_leaves=5
num_cat=0
split_feature=5 12 12 8
split_gain=20.6705 19.3474 12.8684 10.9468
threshold=-0.093144626947719564 -0.0013634172028394876 0.0030392062793967735 0.00038587713335725083
decision_type=2 2 2 2
left_child=-1 3 -3 -2
right_child=1 2 -4 -5
leaf_value=-0.011960107187980948 -0.00070930274034703713 -6.5700168769412898e-05 -0.0029776020952511141 0.0025066903178957863
leaf_weight=117.48020005226135 1169.3398792743683 23109.385530158877 1362.0988689512014 3854.5502496510744
leaf_count=472 4691 92608 5495 15484
internal_value=6.13991e-05 0.000110215 -0.000228023 0.00175724
internal_weight=29612.9 29495.4 24471.5 5023.89
internal_count=118750 118278 98103 20175
is_linear=0
shrinkage=0.0291483


Tree=72
num_leaves=5
num_cat=0
split_feature=5 10 10 9
split_gain=22.9666 17.337 24.5955 22.3883
threshold=-0.093144626947719564 0.00067543024947825769 0.00082058748453708006 0.00074030339582122149
decision_type=2 2 2 2
left_child=-1 3 -3 -2
right_child=1 2 -4 -5
leaf_value=-0.012773687844568242 -0.00031728112912400797 0.0028708709095577917 -6.6077838485444865e-05 -0.0073230621537490404
leaf_weight=115.4172223508358 18752.471255108714 3833.8434225022793 6568.023722410202 392.19829876720905
leaf_count=464 75179 15375 26360 1573
internal_value=7.87093e-06 5.87915e-05 0.00101652 -0.000461606
internal_weight=29662 29546.5 10401.9 19144.7
internal_count=118951 118487 41735 76752
is_linear=0
shrinkage=0.0291483


Tree=73
num_leaves=5
num_cat=0
split_feature=5 3 14 2
split_gain=21.6857 13.9426 17.7521 9.84924
threshold=-0.093144626947719564 -0.00055056429168475114 0.12545085421732452 -1.0000000180025095e-35
decision_type=2 2 2 2
left_child=-1 2 -2 -3
right_child=1 3 -4 -5
leaf_value=-0.012416186303146047 0.00055809449116062928 0.00045834515900665309 0.0046301390439932267 -0.00083924096953932978
leaf_weight=115.34680362045765 7449.8048760741949 8026.884331330657 1032.6357687860727 13037.114108413458
leaf_count=464 29894 32164 4138 52291
internal_value=7.59912e-06 5.70649e-05 0.00105466 -0.000344712
internal_weight=29661.8 29546.4 8482.44 21064
internal_count=118951 118487 34032 84455
is_linear=0
shrinkage=0.0291483


Tree=74
num_leaves=8
num_cat=0
split_feature=6 12 6 17 9 10 10
split_gain=20.3825 13.9905 14.6814 11.8418 9.12055 12.5219 12.3005
threshold=1285.8890950513317 -1.1792347345029495e-05 1383.1005202817016 0.28275036494442002 0.00051598201520854992 0.00047627879838853016 0.00020368088559663745
decision_type=2 2 2 2 2 2 2
left_child=4 2 -2 -3 6 -6 -1
right_child=1 3 -4 -5 5 -7 -8
leaf_value=0.0049966176795291171 -0.0014069403810061754 -0.0039619197933060913 0.001441138562331915 -0.00094298510495928001 0.0089142858982436454 0.0013952737075599237 -0.0003738404069501504
leaf_weight=386.81051100790501 2411.3818325102329 1248.7054399698973 4230.0192103981972 9335.8994131535292 190.03784497082233 6812.0550208836794 5046.1913582235575
leaf_count=1550 9651 5014 16939 37470 762 27337 20228
internal_value=7.35859e-06 -0.000641771 0.000406595 -0.00129971 0.00090656 0.0016018 1.05969e-05
internal_weight=29661.1 17226 6641.4 10584.6 12435.1 7002.09 5433
internal_count=118951 69074 26590 42484 49877 28099 21778
is_linear=0
shrinkage=0.0291483


Tree=75
num_leaves=5
num_cat=0
split_feature=5 12 10 15
split_gain=22.3767 16.5589 20.7964 11.737
threshold=-0.093144626947719564 -0.00054330615553123678 0.00021490722678102294 1.0493225122398319e-07
decision_type=2 2 2 2
left_child=-1 2 -2 -3
right_child=1 3 -4 -5
leaf_value=-0.012467595757962366 0.010913746826849272 -0.0098728099413109231 0.00086484072010076403 -0.000368513669727219
leaf_weight=118.03597111999989 174.71465335786343 107.59563216567039 9542.9921084493399 19680.384183496237
leaf_count=475 703 433 38290 78904
internal_value=1.17134e-05 6.26056e-05 0.00104779 -0.00042125
internal_weight=29623.7 29505.7 9717.71 19788
internal_count=118805 118330 38993 79337
is_linear=0
shrinkage=0.0291483


Tree=76
num_leaves=8
num_cat=0
split_feature=6 12 6 17 9 10 7
split_gain=17.1082 13.944 17.337 13.4481 11.8491 18.4314 16.649
threshold=1288.0742222699248 2.2729918457266027e-05 1386.2315882251571 0.28275036494442002 0.00047600424997830442 0.00022125596101211974 0.00082552896805577591
decision_type=2 2 2 2 2 2 2
left_child=4 2 -2 -3 5 -1 -6
right_child=1 3 -4 -5 6 -7 -8
leaf_value=0.004903028056943582 -0.0015484408792313285 -0.0042061315098688807 0.0015332182003305334 -0.00089257893494293556 0.0022060893869434686 -0.00096109907643525871 -0.0010488549482846748
leaf_weight=506.70244120061398 2408.5318519771099 1172.9032962620258 4341.5995609611273 9028.0255965292454 6238.5278694182634 4231.4386891573668 1695.0833091884851
leaf_count=2031 9640 4711 17388 36238 25031 16961 6805
internal_value=1.13462e-05 -0.000594233 0.00043317 -0.00127421 0.00082142 -0.000331466 0.00151015
internal_weight=29622.8 16951.1 6750.13 10200.9 12671.8 4738.14 7933.61
internal_count=118805 67977 27028 40949 50828 18992 31836
is_linear=0
shrinkage=0.0291483


Tree=77
num_leaves=5
num_cat=0
split_feature=5 10 10 9
split_gain=21.1115 14.8057 30.4122 18.3268
threshold=-0.093144626947719564 0.00067543024947825769 0.00082058748453708006 0.00074030339582122149
decision_type=2 2 2 2
left_child=-1 3 -3 -2
right_child=1 2 -4 -5
leaf_value=-0.012115081398993525 -0.0002906212407983947 0.0030132211024521236 -0.00025646306040831633 -0.0066555251254559952
leaf_weight=117.94351005554199 18728.029912084341 3819.8194345384836 6567.0099768638611 388.86885848641396
leaf_count=475 75090 15321 26359 1560
internal_value=1.10139e-05 6.04309e-05 0.000946124 -0.000420826
internal_weight=29621.7 29503.7 10386.8 19116.9
internal_count=118805 118330 41680 76650
is_linear=0
shrinkage=0.0291483


Tree=78
num_leaves=8
num_cat=0
split_feature=12 17 1 8 3 9 17
split_gain=15.8683 19.0363 12.5929 10.7172 8.21159 7.69167 6.48564
threshold=0.00098044360887437313 0.22550952931454274 -0.00046835605932089456 0.0016299532054707508 -0.00072870195785753667 0.00099622527221563382 0.69662349186437911
decision_type=2 2 2 2 2 2 2
left_child=1 5 6 -3 -4 -1 -2
right_child=2 3 4 -5 -6 -7 -8
leaf_value=-0.0018338615063450549 0.0047206651833508351 0.00076373867039728632 -0.0061816154543163351 -0.0037649090741989368 -0.0014335061157595959 -0.010079245568606735 -0.00017212321282851882
leaf_weight=2056.7561084628105 403.13004842400551 20089.55842153728 323.96254350244999 450.4726285636425 5679.8790029585361 97.359260827302933 527.3915001899004
leaf_count=8246 1616 80553 1298 1803 22811 390 2116
internal_value=1.76302e-05 0.000390506 -0.00120236 0.000663939 -0.00169153 -0.00221411 0.00194665
internal_weight=29628.5 22694.1 6934.36 20540 6003.84 2154.12 930.522
internal_count=118833 90992 27841 82356 24109 8636 3732
is_linear=0
shrinkage=0.0291483


Tree=79
num_leaves=8
num_cat=0
split_feature=6 12 5 13 8 13 9
split_gain=17.5072 11.2094 13.9096 10.8496 9.65654 9.79968 9.00585
threshold=1238.4740242245773 0.00098044360887437313 -0.037771688715123319 -0.31986939162548378 0.0015616615987155082 0.36424426725914777 0.0018423703456399937
decision_type=2 2 2 2 2 2 2
left_child=4 3 -3 -2 5 -1 -6
right_child=1 2 -4 -5 6 -7 -8
leaf_value=0.0018082315625850055 -0.0019526057862183045 -0.0056397025029241033 -0.00096358839216679419 0.00031361519799207635 -0.0069727042742939293 -0.0057987947104550311 0.0019402964742136753
leaf_weight=6014.6295199692249 2041.4934763610363 592.79414877295494 5780.5555811077356 14668.88904851675 218.94951839745045 143.87415952980518 166.58006320893764
leaf_count=24167 8179 2383 23214 58770 877 576 667
internal_value=1.70776e-05 -0.00036016 -0.00139994 3.64731e-05 0.00134748 0.00162799 -0.00310714
internal_weight=29627.8 23083.7 6373.35 16710.4 6544.03 6158.5 385.53
internal_count=118833 92546 25597 66949 26287 24743 1544
is_linear=0
shrinkage=0.0291483


Tree=80
num_leaves=8
num_cat=0
split_feature=6 8 16 1 8 3 18
split_gain=16.5017 9.10319 8.06784 17.512 8.85831 6.037 3.33343
threshold=1238.4740242245773 0.0015616615987155082 2.7400510249142491 -1.1861375669023112e-07 0.00046308334242243539 -0.0026001279817581733 1.5549355580904434
decision_type=2 2 2 2 2 2 2
left_child=1 5 4 -4 -2 -1 -3
right_child=2 6 3 -5 -6 -7 -8
leaf_value=0.0039914326885768028 -0.0007187956479358322 -0.001385319985741992 0.0024685896595840313 -0.0071033400685093506 0.00046888845249651518 0.0012354346221494007 -0.007430331611698396
leaf_weight=769.04387778043747 13644.693684846163 282.1691979020834 258.76738640666008 423.50236125290394 8756.3406516313553 5388.8241730779409 103.35439570248127
leaf_count=3102 54692 1130 1037 1705 35112 21641 414
internal_value=1.65478e-05 0.00130826 -0.000349689 -0.00346408 -0.000254518 0.00158064 -0.00301686
internal_weight=29626.7 6543.39 23083.3 682.27 22401 6157.87 385.524
internal_count=118833 26287 92546 2742 89804 24743 1544
is_linear=0
shrinkage=0.0291483


end of trees

feature_importances:
vwap_dev_30m=80
fracdiff_close=69
vol_5m=57
trade_flow_imb_30m=40
vol_30m=38
vol_1m=34
vol_60m=34
momentum_5m=27
momentum_10m=26
trade_flow_imb_5m=25
hurst=23
vol_ratio_30m=23
hl_range=14
momentum_1m=11
vol_ratio_5m=11
trades_intensity=11
momentum_2m=7
obi=3
vwap_dev_5m=3

parameters:
[boosting: gbdt]
[objective: binary]
[metric: binary_logloss]
[tree_learner: serial]
[device_type: cpu]
[data_sample_strategy: bagging]
[data: ]
[valid: ]
[num_iterations: 81]
[learning_rate: 0.0291483]
[num_leaves: 8]
[num_threads: -1]
[seed: 44]
[deterministic: 0]
[force_col_wise: 0]
[force_row_wise: 0]
[histogram_pool_size: -1]
[max_depth: 3]
[min_data_in_leaf: 387]
[min_sum_hessian_in_leaf: 0.001]
[bagging_fraction: 0.923145]
[pos_bagging_fraction: 1]
[neg_bagging_fraction: 1]
[bagging_freq: 3]
[bagging_seed: 21897]
[bagging_by_query: 0]
[feature_fraction: 0.504656]
[feature_fraction_bynode: 1]
[feature_fraction_seed: 12646]
[extra_trees: 0]
[extra_seed: 20733]
[early_stopping_round: 0]
[early_stopping_min_delta: 0]
[first_metric_only: 0]
[max_delta_step: 0]
[lambda_l1: 0.0109118]
[lambda_l2: 1.00115]
[linear_lambda: 0]
[min_gain_to_split: 0.49587]
[drop_rate: 0.1]
[max_drop: 50]
[skip_drop: 0.5]
[xgboost_dart_mode: 0]
[uniform_drop: 0]
[drop_seed: 20829]
[top_rate: 0.2]
[other_rate: 0.1]
[min_data_per_group: 100]
[max_cat_threshold: 32]
[cat_l2: 10]
[cat_smooth: 10]
[max_cat_to_onehot: 4]
[top_k: 20]
[monotone_constraints: ]
[monotone_constraints_method: basic]
[monotone_penalty: 0]
[feature_contri: ]
[forcedsplits_filename: ]
[refit_decay_rate: 0.9]
[cegb_tradeoff: 1]
[cegb_penalty_split: 0]
[cegb_penalty_feature_lazy: ]
[cegb_penalty_feature_coupled: ]
[path_smooth: 5.09023]
[interaction_constraints: ]
[verbosity: -1]
[saved_feature_importance_type: 0]
[use_quantized_grad: 0]
[num_grad_quant_bins: 4]
[quant_train_renew_leaf: 0]
[stochastic_rounding: 1]
[linear_tree: 0]
[max_bin: 255]
[max_bin_by_feature: ]
[min_data_in_bin: 3]
[bin_construct_sample_cnt: 200000]
[data_random_seed: 182]
[is_enable_sparse: 1]
[enable_bundle: 1]
[use_missing: 1]
[zero_as_missing: 0]
[feature_pre_filter: 1]
[pre_partition: 0]
[two_round: 0]
[header: 0]
[label_column: ]
[weight_column: ]
[group_column: ]
[ignore_column: ]
[categorical_feature: ]
[forcedbins_filename: ]
[precise_float_parser: 0]
[parser_config_file: ]
[objective_seed: 3944]
[num_class: 1]
[is_unbalance: 0]
[scale_pos_weight: 1]
[sigmoid: 1]
[boost_from_average: 1]
[reg_sqrt: 0]
[alpha: 0.9]
[fair_c: 1]
[poisson_max_delta_step: 0.7]
[tweedie_variance_power: 1.5]
[lambdarank_truncation_level: 30]
[lambdarank_norm: 1]
[label_gain: ]
[lambdarank_position_bias_regularization: 0]
[eval_at: ]
[multi_error_top_k: 1]
[auc_mu_weights: ]
[num_machines: 1]
[local_listen_port: 12400]
[time_out: 120]
[machine_list_filename: ]
[machines: ]
[gpu_platform_id: -1]
[gpu_device_id: -1]
[gpu_use_dp: 0]
[num_gpu: 1]

end of parameters

pandas_categorical:null
