tree
version=v4
num_class=1
num_tree_per_iteration=1
label_index=0
max_feature_idx=18
objective=binary sigmoid:1
feature_names=obi momentum_1m momentum_2m momentum_5m momentum_10m hurst fracdiff_close vol_1m vol_5m vol_30m vol_60m vwap_dev_5m vwap_dev_30m trade_flow_imb_5m trade_flow_imb_30m hl_range vol_ratio_5m vol_ratio_30m trades_intensity
feature_infos=[-0.99627687620687788:0.99735611352640374] [-0.020838332896016949:0.022992565407785347] [-0.022341724074048948:0.029409372993990181] [-0.026503791499679796:0.037808065313792626] [-0.033700021085143403:0.038701722697615973] [-0.17904516669206805:0.10861636932350138] [-560.64200722651003:3155.5006078766746] [0:0.017965740441835652] [0:0.014150329657706368] [1.9312455667397878e-05:0.0061307597359011763] [2.9871110080766814e-05:0.004463508706593484] [-0.012725903816371842:0.016844110174328925] [-0.023331687134809678:0.035835008543941643] [-0.96163572996641977:0.90426948751940261] [-0.66028039286935858:0.63773000764737697] [1.030395640474488e-07:0.024861787963623656] [0.010883227187554707:4.9344330827627427] [0.016081658774413254:26.170827852696362] [0.03252385082393755:19.057358659886329]
tree_sizes=1025 1056 1036 1046 1038 1045 1039 1055 1039 1040 1048 1042 1039 1037 1037 1034 1041 1047 1048 1047 932 931 1052 1054 1042 1045 1049 932 939 1041 932 712 1042 1043 1032 1044 938 1033 933 1047 1036 1031 717 1040 1054 1044 1040 1042 1038 1036 1050 1048 1040 1049 943 1036 718 1050 1042 1039 1054 1054 1054 1054 1043 1047 717 718 1044 714 1057 710 722 709 714 1041 710 930 1039 714 1049

Tree=0
num_leaves=8
num_cat=0
split_feature=6 11 16 8 6 10 10
split_gain=236.09 31.6004 37.1038 28.0232 30.9487 23.8563 4.01672
threshold=1254.8899193786058 -6.8672769608045704e-05 2.7400510249142491 0.0016299532054707508 1214.2938651114639 0.00033905067118178097 0.0017387477756679068
decision_type=2 2 2 2 2 2 2
left_child=3 5 -3 4 -1 -2 -5
right_child=1 2 -4 6 -6 -7 -8
leaf_value=-0.0065376267443378999 -0.0095438689983061327 -0.014996085952151232 -0.023223702933805622 -0.019430865441681121 -0.01009653324046237 -0.013742830444079228 -0.013261335671718827
leaf_weight=3927.0919944196939 1438.9421045184135 13440.959206312895 478.980728328228 201.24190308153629 4403.8228132724762 5658.0223508626223 157.49366328120232
leaf_count=15709 5756 53766 1916 805 17616 22633 630
internal_value=-0.0128028 -0.0144736 -0.0152806 -0.00876248 -0.00841835 -0.0128909 -0.0167016
internal_weight=29706.6 21016.9 13919.9 8689.65 8330.91 7096.96 358.736
internal_count=118831 84071 55682 34760 33325 28389 1435
is_linear=0
shrinkage=1


Tree=1
num_leaves=8
num_cat=0
split_feature=3 14 18 2 10 7 7
split_gain=165.149 28.7765 24.2955 21.7547 19.7918 17.2676 11.8634
threshold=-0.00022854013581614468 -0.058537910366976274 0.71123458786828786 -9.4094498403423713e-05 0.00067543024947825769 0.0020285903108735251 4.5142439267837358e-05
decision_type=2 2 2 2 2 2 2
left_child=2 6 4 -3 -1 -4 -2
right_child=1 3 5 -5 -6 -7 -8
leaf_value=-0.001157296317717724 -0.0052418441827061764 -0.00059795825253994013 0.003594222657161058 -0.0034208824049197419 0.0033637300312211603 -0.0062047950525435909 0.00015469041653772087
leaf_weight=2210.1655949056149 366.23084938526154 3125.3717438429594 8168.2311920821667 8978.5195955038071 1305.7009282410145 152.23985390365124 5399.9901117682457
leaf_count=8841 1465 12502 32674 35916 5223 609 21601
internal_value=-0.000115943 -0.00188456 0.00255406 -0.00269188 0.000523239 0.00341258 -0.000190271
internal_weight=29706.4 17870.1 11836.3 12103.9 3515.87 8320.47 5766.22
internal_count=118831 71484 47347 48418 14064 33283 23066
is_linear=0
shrinkage=0.0291483


Tree=2
num_leaves=8
num_cat=0
split_feature=12 6 6 8 12 13 9
split_gain=245.021 88.0001 44.8637 37.145 36.5211 14.7929 10.7581
threshold=-0.00022761852511369283 1260.2350273759823 1238.4740242245773 0.0016299532054707508 0.0036303459699517393 0.29664816670981914 0.00024856280327540574
decision_type=2 2 2 2 2 2 2
left_child=2 6 3 -1 -3 -4 -2
right_child=1 4 5 -5 -6 -7 -8
leaf_value=0.0058586086244641041 -0.0026507723459811864 -0.0030189558395337691 0.0018962881271979424 -0.0053922823154906006 -0.0092075874810291867 -0.0044399817171514424 0.002422303295507325
leaf_weight=4458.9558004885912 399.23383437097073 12929.634471833706 7467.431807756424 260.727888032794 861.18386323750019 323.23078384995461 3005.9128006100655
leaf_count=17836 1597 51722 29871 1043 3445 1293 12024
internal_value=-0.00011259 -0.00237031 0.00299057 0.00523269 -0.00340648 0.00163209 0.0018238
internal_weight=29706.3 17196 12510.3 4719.68 13790.8 7790.66 3405.15
internal_count=118831 68788 50043 18879 55167 31164 13621
is_linear=0
shrinkage=0.0291483


Tree=3
num_leaves=8
num_cat=0
split_feature=12 12 10 10 8 17 15
split_gain=228.851 56.4698 37.1637 23.6752 29.2152 12.4155 5.22819
threshold=-0.00054330615553123678 0.0030392062793967735 0.00067543024947825769 0.00027105168936989094 0.00038587713335725083 1.8406686674060364 0.00034330733926493456
decision_type=2 2 2 2 2 2 2
left_child=3 2 -2 6 -5 -3 -1
right_child=1 5 -4 4 -6 -7 -8
leaf_value=0.012085839360585141 -0.0022176350627404529 -0.0060979937395920303 0.00070232636433078578 0.0010257225174895848 0.004463906175755694 -0.012923820800726944 0.004841830328406278
leaf_weight=325.49328406155109 13404.753498747945 1109.8527499884367 5113.1653718650341 3181.6712479442358 6167.8618796169758 282.69921635091305 114.2489220649004
leaf_count=1302 53623 4440 20454 12727 24672 1131 457
internal_value=-4.31092e-05 -0.00183709 -0.0014113 0.00360523 0.00329404 -0.00749075 0.0101906
internal_weight=29699.7 19910.5 18517.9 9789.28 9349.53 1392.55 439.742
internal_count=118806 79648 74077 39158 37399 5571 1759
is_linear=0
shrinkage=0.0291483


Tree=4
num_leaves=8
num_cat=0
split_feature=12 6 6 12 8 3 6
split_gain=217.449 80.0353 45.8512 35.5527 30.178 13.3856 13.2098
threshold=-0.00020219688409930619 1259.2978379228227 1238.4740242245773 0.0036303459699517393 0.0016299532054707508 -0.00049504004649773164 1377.0844257030915
decision_type=2 2 2 2 2 2 2
left_child=2 5 4 -3 -1 -2 -4
right_child=1 3 6 -5 -6 -7 -8
leaf_value=0.0056629827986658292 0.0053153203244179761 -0.0027985857026157912 0.00043416145606979263 -0.00891501482444579 -0.004467583858636613 0.00087587622149888644 0.0028223202723578582
leaf_weight=4492.4641732424498 742.99109706282616 12822.335123211145 4463.8746512979269 858.49410083889961 261.22542472183704 2542.659159719944 3515.3905813097954
leaf_count=17970 2972 51295 17856 3435 1045 10171 14062
internal_value=-4.18607e-05 -0.00220232 0.00283677 -0.00318346 0.00510237 0.00188055 0.00148682
internal_weight=29699.4 16966.5 12733 13680.8 4753.69 3285.65 7979.27
internal_count=118806 67873 50933 54730 19015 13143 31918
is_linear=0
shrinkage=0.0291483


Tree=5
num_leaves=8
num_cat=0
split_feature=12 12 7 9 8 14 14
split_gain=205.188 50.6587 38.1131 31.3664 26.7438 16.4609 5.4755
threshold=-0.00054330615553123678 0.0030392062793967735 4.7913491118400918e-05 0.00024134475579415079 0.00038587713335725083 -0.068697821490129388 -0.13068817925914314
decision_type=2 2 2 2 2 2 2
left_child=3 2 -2 6 -5 -3 -1
right_child=1 5 -4 4 -6 -7 -8
leaf_value=0.0084498751009488959 -0.0065077477388110075 0.00092452229015602247 -0.00099832610702906281 0.00095990405309267688 0.0042226522895967037 -0.0083400494406353602 0.015828101416962302
leaf_weight=180.74662713706493 1133.0964617580175 185.4424190223217 17384.254091516137 3256.934725984931 6185.8435793817043 1206.8006725609303 165.74659311771393
leaf_count=723 4533 742 69544 13028 24744 4829 663
internal_value=-4.0657e-05 -0.00173942 -0.00133616 0.00341389 0.00309745 -0.00709491 0.0119853
internal_weight=29698.9 19909.6 18517.4 9789.27 9442.78 1392.24 346.493
internal_count=118806 79648 74077 39158 37772 5571 1386
is_linear=0
shrinkage=0.0291483


Tree=6
num_leaves=8
num_cat=0
split_feature=12 6 6 12 17 12 9
split_gain=205.947 68.8579 47.7615 24.0342 19.9519 14.8264 14.3107
threshold=-1.1792347345029495e-05 1261.1897400155406 1237.4855952971814 0.0036303459699517393 0.21523744778517592 -0.0013634172028394876 0.00028671387749800754
decision_type=2 2 2 2 2 2 2
left_child=2 6 5 -3 -4 -1 -2
right_child=1 3 4 -5 -6 -7 -8
leaf_value=0.006221718257658178 -0.0033785933417284546 -0.003024757097822081 -0.0029063388402499508 -0.0080852996913106864 0.0016567744224657277 0.0030331900751900927 0.0024717032463294625
leaf_weight=2678.3398301750422 411.46719989180565 11344.403286218643 894.19080020487309 854.70331028103828 8740.8842578679323 2308.174877807498 2465.424569606781
leaf_count=10714 1646 45385 3577 3421 34965 9233 9862
internal_value=-3.34261e-05 -0.00242363 0.00243103 -0.00338033 0.00123267 0.00474612 0.00163033
internal_weight=29697.6 15076 14621.6 12199.1 9635.08 4986.51 2876.89
internal_count=118803 60314 58489 48806 38542 19947 11508
is_linear=0
shrinkage=0.0291483


Tree=7
num_leaves=8
num_cat=0
split_feature=12 17 1 12 12 10 10
split_gain=194.126 33.88 30.1286 24.8053 24.2027 13.0706 7.36469
threshold=-1.1792347345029495e-05 0.21523744778517592 -0.00016565069853176245 -0.00054330615553123678 0.0030392062793967735 0.0011111832034678569 0.00022125596101211974
decision_type=2 2 2 2 2 2 2
left_child=1 6 5 -3 -4 -2 -1
right_child=2 3 4 -5 -6 -7 -8
leaf_value=0.0030747865421765956 0.00058665587567318202 0.0036167196668607784 -0.0026858121708064303 0.00093029225884927013 -0.0073587577717179149 -0.004113897050577079 -0.0034748554610682589
leaf_weight=168.47363814711571 3273.0570629388094 9220.8252697438002 10177.423805862665 4272.2359282672405 1034.7732066214085 590.11078523099422 959.93852430582047
leaf_count=674 13094 36885 40717 17090 4142 2361 3840
internal_value=-3.24728e-05 0.0023602 -0.00235314 0.00276615 -0.00311807 -0.000133972 -0.0024842
internal_weight=29696.8 14621.5 15075.4 13493.1 11212.2 3863.17 1128.41
internal_count=118803 58489 60314 53975 44859 15455 4514
is_linear=0
shrinkage=0.0291483


Tree=8
num_leaves=8
num_cat=0
split_feature=12 6 6 12 7 6 9
split_gain=182.984 64.2705 44.5761 21.6131 16.7754 16.6643 13.4269
threshold=-1.1792347345029495e-05 1261.1897400155406 1221.4286174193787 0.0036303459699517393 0.0018516298924061904 1715.9772266039292 0.00028671387749800754
decision_type=2 2 2 2 2 2 2
left_child=2 6 4 -3 -1 -4 -2
right_child=1 3 5 -5 -6 -7 -8
leaf_value=0.0053464315162867091 -0.0032200948523846669 -0.0028718895622320446 0.0016617130182177333 -0.007671723189681158 -0.0045373075419463888 -0.0025593513607265975 0.0024468289824827326
leaf_weight=3740.5568088144064 411.44432938098907 11343.55431945622 9871.5983757376671 854.35006700456142 148.49145786464214 860.69072061777115 2465.4270266890526
leaf_count=14964 1646 45385 39488 3421 594 3443 9862
internal_value=-3.15414e-05 -0.00228468 0.00229144 -0.00320904 0.00496402 0.00132266 0.00163189
internal_weight=29696.1 15074.8 14621.3 12197.9 3889.05 10732.3 2876.87
internal_count=118803 60314 58489 48806 15558 42931 11508
is_linear=0
shrinkage=0.0291483


Tree=9
num_leaves=8
num_cat=0
split_feature=12 6 6 8 7 3 10
split_gain=186.962 72.631 33.6006 30.9077 24.1287 15.636 13.7027
threshold=-0.00018985155353047674 1259.2978379228227 1238.4740242245773 0.0016299532054707508 4.7913491118400918e-05 -0.00049504004649773164 0.0003005615895077431
decision_type=2 2 2 2 2 2 2
left_child=2 5 3 -1 -3 -2 -4
right_child=1 4 6 -5 -6 -7 -8
leaf_value=0.0051319638178523629 0.0056444191523473486 -0.0079880055337982498 0.0043030119538786764 -0.0050310806867061826 -0.0026679162582131867 0.0007988252630466568 0.00097197995731831
leaf_weight=4528.7565833032131 726.99051387608051 764.45856288075447 1236.4257695674896 265.98854763805866 12843.267606183887 2509.3897225558758 6829.6193197518587
leaf_count=18118 2908 3059 4946 1064 51390 10038 27319
internal_value=-1.382e-05 -0.00203425 0.00263226 0.00456425 -0.00296773 0.00188831 0.00148364
internal_weight=29704.9 16844.1 12860.8 4794.75 13607.7 3236.38 8066.05
internal_count=118842 67395 51447 19182 54449 12946 32265
is_linear=0
shrinkage=0.0291483


Tree=10
num_leaves=8
num_cat=0
split_feature=3 14 4 4 10 16 14
split_gain=118.676 30.0226 21.5337 18.7409 13.9517 9.05892 7.64355
threshold=-0.00022854013581614468 -0.058537910366976274 -0.00067994493005048479 0.0045657217977880162 0.00065844331839456558 2.2147236697201946 0.11854057103964828
decision_type=2 2 2 2 2 2 2
left_child=2 5 4 -3 -1 -2 -4
right_child=1 3 6 -5 -6 -7 -8
leaf_value=0.00209100041243834 0.00049395320310206066 -0.0020716319771384331 0.00024159096016837587 -0.0073151045508143267 0.0047301953523535929 -0.0045687453980375785 0.0031618698750449739
leaf_weight=3673.5574303716421 5470.216058447957 11502.536622539163 4030.4684116244316 606.55854980647564 3170.9853353500366 314.16067957878113 935.35885283350945
leaf_count=14696 21885 46023 16124 2429 12686 1257 3742
internal_value=-1.34267e-05 -0.00151013 0.002254 -0.0023353 0.0033141 0.000216816 0.000793083
internal_weight=29703.8 17893.5 11810.4 12109.1 6844.54 5784.38 4965.83
internal_count=118842 71594 47248 48452 27382 23142 19866
is_linear=0
shrinkage=0.0291483


Tree=11
num_leaves=8
num_cat=0
split_feature=12 6 6 14 12 9 9
split_gain=170.872 67.8886 30.9832 22.7967 20.5816 12.1858 11.9251
threshold=-0.00018985155353047674 1259.2978379228227 1238.4740242245773 0.29169513333618341 0.0030392062793967735 0.00055217420555320228 0.0012870050831091289
decision_type=2 2 2 2 2 2 2
left_child=2 5 6 -4 -3 -2 -1
right_child=1 4 3 -5 -6 -7 -8
leaf_value=0.0049064054323950564 0.00013304705960339363 -0.0024825692314319335 0.0015858515111375315 -0.012328404829496117 -0.0063704267871823751 0.0037100941358272025 0.00042376562912030223
leaf_weight=4223.9082791656256 1684.4006537646055 12332.744417831302 7968.2478903979063 97.745937496423721 1273.8353822082281 1551.9511705338955 570.36288790404797
leaf_count=16900 6738 49347 31874 391 5102 6208 2282
internal_value=-1.30478e-05 -0.00194467 0.00251664 0.0014137 -0.00284722 0.00184766 0.00437198
internal_weight=29703.2 16842.9 12860.3 8065.99 13606.6 3236.35 4794.27
internal_count=118842 67395 51447 32265 54449 12946 19182
is_linear=0
shrinkage=0.0291483


Tree=12
num_leaves=8
num_cat=0
split_feature=6 4 7 8 4 10 10
split_gain=150.123 50.1304 18.4129 17.1086 22.0348 13.702 4.12592
threshold=1253.9800338572252 -0.00024022734881482815 4.7913491118400918e-05 0.0016299532054707508 -0.00091735238684771919 0.0011111832034678569 0.0018246252923092554
decision_type=2 2 2 2 2 2 2
left_child=3 5 -3 4 -1 -2 -5
right_child=1 2 -4 6 -6 -7 -8
leaf_value=0.0051879771266923535 0.0010530022165808788 -0.006595875053162335 -0.0020758864580357082 -0.005418832368061028 0.0021568597475117462 -0.0033914438504550953 0.00093265834987824557
leaf_weight=3709.7576286047697 6564.0780206620693 810.0465833991766 13110.913883954287 220.73859150707722 4519.7929535508156 643.9003062993288 138.74396932125092
leaf_count=14844 26259 3242 52466 883 18081 2576 555
internal_value=2.7062e-06 -0.00131808 -0.00233965 0.00325135 0.00352375 0.00065452 -0.00294384
internal_weight=29718 21128.9 13921 8589.03 8229.55 7207.98 359.483
internal_count=118906 84543 55708 34363 32925 28835 1438
is_linear=0
shrinkage=0.0291483


Tree=13
num_leaves=8
num_cat=0
split_feature=6 13 16 9 14 6 10
split_gain=141.508 28.9124 23.0777 22.1852 14.3211 14.7774 11.8756
threshold=1253.9800338572252 -0.012301277828221322 3.1022247452099854 8.9134500255391315e-05 -0.050048636628670706 1222.8511096377408 0.0012388085024456553
decision_type=2 2 2 2 2 2 2
left_child=4 3 -3 -2 5 -1 -6
right_child=1 2 -4 -5 6 -7 -8
leaf_value=0.0060578430476988295 -0.012672852599444416 -0.0020678420831201152 -0.011323550751053357 7.1388622735580213e-05 0.00265611059906345 0.0022722066388103871 -0.0017626975412356005
leaf_weight=2186.8470113873482 113.94188326597214 11416.343645185232 230.07978913187981 9367.9457999914885 4357.8552497178316 1461.0789395421743 582.85283854603767
leaf_count=8751 456 45686 921 37480 17435 5845 2332
internal_value=2.61155e-06 -0.00127973 -0.00225255 -8.48871e-05 0.00315674 0.00454199 0.0021339
internal_weight=29716.9 21128.3 11646.4 9481.89 8588.63 3647.93 4940.71
internal_count=118906 84543 46607 37936 34363 14596 19767
is_linear=0
shrinkage=0.0291483


Tree=14
num_leaves=8
num_cat=0
split_feature=12 6 6 12 14 7 14
split_gain=139.091 50.0189 30.5331 21.8511 17.6078 15.0056 10.1912
threshold=-0.00022761852511369283 1259.2978379228227 1238.4740242245773 0.0036303459699517393 0.27916798508762308 0.0018516298924061904 -0.044671337015309849
decision_type=2 2 2 2 2 2 2
left_child=2 6 5 -3 -4 -1 -2
right_child=1 3 4 -5 -6 -7 -8
leaf_value=0.0044889043418173654 0.0040519748240881587 -0.002171886817359209 0.0013843010088960598 -0.0069635462998129376 -0.010190765556470534 -0.0046656520253674028 0.00048802160825909299
leaf_weight=4575.4674816578627 950.20261597633362 13004.062751889229 7674.1934139281511 859.01432973146439 109.73995260894299 153.98155482113361 2389.3692511320114
leaf_count=18311 3801 52040 30698 3443 439 616 9558
internal_value=2.4867e-06 -0.00169815 0.00234033 -0.00246962 0.00121811 0.00418705 0.00150244
internal_weight=29716 17202.6 12513.4 13863.1 7783.93 4729.45 3339.57
internal_count=118906 68842 50064 55483 31137 18927 13359
is_linear=0
shrinkage=0.0291483


Tree=15
num_leaves=8
num_cat=0
split_feature=12 6 12 6 6 17 5
split_gain=146.272 40.6659 24.2221 21.2548 14.406 12.9376 9.07375
threshold=-0.00022761852511369283 1248.5191485382732 0.0036303459699517393 1238.4740242245773 1377.0844257030915 0.2051206742289293 -0.014163234331349802
decision_type=2 2 2 2 2 2 2
left_child=3 6 -3 5 -5 -1 -2
right_child=1 2 -4 4 -6 -7 -8
leaf_value=-0.0035919557535519031 0.0043569894344523226 -0.0019623131045314484 -0.0069433688028374754 0.00042796834762975976 0.0029559507832964773 0.0043234529071440259 0.00057803056649285544
leaf_weight=179.19340167939663 775.45908291637897 13803.406204983592 879.22473166882992 4368.5718564689159 3406.3290514945984 4521.5544358342886 1757.9043529480696
leaf_count=717 3102 55240 3525 17475 13626 18097 7032
internal_value=6.85295e-05 -0.00167287 -0.00226139 0.0024715 0.00153601 0.00401854 0.00173518
internal_weight=29691.6 17216 14682.6 12475.6 7774.9 4700.75 2533.36
internal_count=118814 68899 58765 49915 31101 18814 10134
is_linear=0
shrinkage=0.0291483


Tree=16
num_leaves=8
num_cat=0
split_feature=6 3 7 3 8 6 5
split_gain=104.028 36.593 25.088 16.0691 17.5462 14.3148 8.07994
threshold=1248.5191485382732 -0.00022854013581614468 4.5142439267837358e-05 -0.00052283630889569249 0.0018047323157162354 1715.9772266039292 -0.01389661915720424
decision_type=2 2 2 2 2 2 2
left_child=3 5 -3 4 -1 -2 -5
right_child=1 2 -4 6 -6 -7 -8
leaf_value=0.004627986465501905 0.0011842788898465564 -0.0066423198964063145 -0.0014838843352117763 0.0033847967573849445 -0.0046845532220075488 -0.0037257912258650255 0.00057900743975532437
leaf_weight=3880.1924077570438 6322.4306337535381 845.82508930563927 14125.01654933393 1352.4082781672478 176.48922020196915 544.64412923157215 2443.2537272721529
leaf_count=15531 25294 3386 56532 5411 706 2179 9775
internal_value=6.65223e-05 -0.000968025 -0.00177609 0.00294317 0.00421862 0.000793224 0.00158016
internal_weight=29690.3 21837.9 14970.8 7852.34 4056.68 6867.07 3795.66
internal_count=118814 87391 59918 31423 16237 27473 15186
is_linear=0
shrinkage=0.0291483


Tree=17
num_leaves=8
num_cat=0
split_feature=6 4 2 3 10 16 6
split_gain=98.1682 47.1778 17.8708 17.0021 14.0764 13.2464 8.71064
threshold=1254.8899193786058 -0.00024022734881482815 -0.00011825416510713326 -0.00022854013581614468 0.0011111832034678569 0.48917610775462567 1222.8511096377408
decision_type=2 2 2 2 2 2 2
left_child=3 4 -3 6 -2 -5 -1
right_child=1 2 -4 5 -6 -7 -8
leaf_value=0.0045418692263613373 0.0013164250241242583 -0.00018313632572550649 -0.0026054842960724083 -0.0022283486441646108 -0.0031917383822805023 0.0020675593553194779 0.0020153459212156476
leaf_weight=3533.6129106432199 6511.5692972838879 3439.9638736099005 10421.510670021176 790.87506005167961 643.35377666354179 2621.514213591814 1726.7648291438818
leaf_count=14146 26050 13766 41717 3164 2574 10488 6909
internal_value=6.45586e-05 -0.00101208 -0.00200421 0.00267316 0.000909628 0.0010712 0.00371266
internal_weight=29689.2 21016.4 13861.5 8672.77 7154.92 3412.39 5260.38
internal_count=118814 84107 55483 34707 28624 13652 21055
is_linear=0
shrinkage=0.0291483


Tree=18
num_leaves=8
num_cat=0
split_feature=6 4 7 9 4 7 5
split_gain=104.439 36.7905 18.8698 16.6871 15.8957 19.253 8.86052
threshold=1254.8899193786058 -0.00024022734881482815 0.00015779956264780289 0.00024134475579415079 -0.00069788614354161164 0.0018516298924061904 -0.00050662164658396428
decision_type=2 2 2 2 2 2 2
left_child=4 3 -3 -2 5 -1 -6
right_child=1 2 -4 -5 6 -7 -8
leaf_value=0.0042739301509699037 0.0048201094537627821 -0.0038502919072546573 -0.0013630634213175189 0.00012183955176609523 0.002584815846378445 -0.0061855435572055568 -9.5984567211958278e-05
leaf_weight=4288.4236996620893 709.84720697999001 3455.6054275780916 10342.744499072433 6443.827109515667 2405.4409070312977 151.48136281967163 1850.3812543451786
leaf_count=17168 2840 13832 41401 25779 9624 606 7403
internal_value=7.60489e-06 -0.00110684 -0.00198625 0.000589064 0.00269243 0.00391253 0.00141969
internal_weight=29647.8 20952 13798.3 7153.67 8695.73 4439.91 4255.82
internal_count=118653 83852 55233 28619 34801 17774 17027
is_linear=0
shrinkage=0.0291483


Tree=19
num_leaves=8
num_cat=0
split_feature=12 12 8 10 8 17 12
split_gain=117.643 30.3424 25.9037 21.7099 22.4148 13.3314 10.0141
threshold=-0.00054330615553123678 0.0030392062793967735 0.00031530978310717801 0.00031008098021530884 0.00039679817292069238 1.8406686674060364 -0.00077639542919243196
decision_type=2 2 2 2 2 2 2
left_child=3 2 -2 6 -5 -3 -1
right_child=1 5 -4 4 -6 -7 -8
leaf_value=0.010412262466342909 -0.0021980901231107956 -0.003988553312155441 -6.0776325227665465e-07 0.00020411278247425951 0.0032712271401644979 -0.011064960781100672 0.00366116992354934
leaf_weight=413.56729629635811 8137.3130980283022 1105.2466056346893 10352.63081432879 3064.775163218379 5952.6875702887774 281.65267285704613 338.62172643840313
leaf_count=1655 32566 4430 41429 12263 23825 1130 1355
internal_value=7.37408e-06 -0.00127981 -0.00096783 0.00262594 0.00222889 -0.00543285 0.0073732
internal_weight=29646.5 19876.8 18489.9 9769.65 9017.46 1386.9 752.189
internal_count=118653 79555 73995 39098 36088 5560 3010
is_linear=0
shrinkage=0.0291483


Tree=20
num_leaves=7
num_cat=0
split_feature=3 14 13 7 18 3
split_gain=77.0635 25.9882 28.219 18.7582 11.0564 10.9062
threshold=-0.00056424234937127633 -0.061325974259782069 -0.37161190025286761 0.0020285903108735251 0.60897876852857336 -0.0027119195372934607
decision_type=2 2 2 2 2 2
left_child=3 4 -3 5 -2 -1
right_child=1 2 -4 -5 -6 -7
leaf_value=0.0051406699380641997 -0.0013304070339314853 -0.013980414514406051 -0.0015039525564444129 -0.0077072613276342773 0.0012622483800714161 0.0021194028641331021
leaf_weight=1182.3547431528568 1937.4124750196934 152.18046827614307 14146.225620687008 150.71515142917633 4987.4887478202581 7088.9312549382448
leaf_count=4734 7753 609 56624 603 19959 28371
internal_value=7.15117e-06 -0.000928967 -0.00163876 0.00236581 0.000536277 0.00255219
internal_weight=29645.3 21223.3 14298.4 8422 6924.9 8271.29
internal_count=118653 84945 57233 33708 27712 33105
is_linear=0
shrinkage=0.0291483


Tree=21
num_leaves=7
num_cat=0
split_feature=12 6 7 10 6 7
split_gain=101.273 31.6283 24.4744 21.9602 22.2048 12.1173
threshold=-0.00054330615553123678 1246.7208238155911 4.7913491118400918e-05 0.00021490722678102294 1715.9772266039292 0.00083769729400640319
decision_type=2 2 2 2 2 2
left_child=3 5 -3 -1 -5 -2
right_child=1 2 -4 4 -6 -7
leaf_value=0.012382306186397914 0.0021947584700911234 -0.0060381019524470081 -0.0013733613354687604 0.0025233800150905776 -0.0055303881632470329 -0.0035089200950044037
leaf_weight=182.62483859062195 2758.0271621197462 1013.781172990799 15797.974999159575 9313.9070650786161 296.73185330629349 353.92367678880692
leaf_count=731 11034 4060 63237 37278 1187 1416
internal_value=3.73071e-05 -0.00115559 -0.00165529 0.00246391 0.00227316 0.00154215
internal_weight=29717 19923.7 16811.8 9793.26 9610.64 3111.95
internal_count=118943 79747 67297 39196 38465 12450
is_linear=0
shrinkage=0.0291483


Tree=22
num_leaves=8
num_cat=0
split_feature=12 9 12 8 8 2 15
split_gain=95.4634 27.3287 25.7022 26.8082 18.8779 12.4256 3.04671
threshold=-0.00054330615553123678 0.00024134475579415079 0.0026389470715716405 4.8463529017188298e-05 0.00038587713335725083 0.00081944288808216768 0.00015270308495084648
decision_type=2 2 2 2 2 2 2
left_child=1 6 3 -2 -3 -4 -1
right_child=2 4 5 -5 -6 -7 -8
leaf_value=0.013549583575278579 -0.0077822586184169993 0.00029632320547486984 -0.0018832710124278102 -0.0006077787501135287 0.0030389909964267155 -0.0066691423425598029 0.0079850618169459327
leaf_weight=148.39166371524334 450.36552461981773 3248.7862358689308 876.33708021044731 17627.529515683651 6194.0281586945057 968.71234937012196 201.54484014213085
leaf_count=594 1804 13000 3511 70547 24795 3885 807
internal_value=3.62135e-05 0.00239225 -0.00112198 -0.000787455 0.00209547 -0.00439602 0.0103517
internal_weight=29715.7 9792.75 19922.9 18077.9 9442.81 1845.05 349.937
internal_count=118943 39196 79747 72351 37795 7396 1401
is_linear=0
shrinkage=0.0291483


Tree=23
num_leaves=8
num_cat=0
split_feature=2 14 15 10 18 7 7
split_gain=40.4087 26.0692 20.2123 18.8424 17.378 12.0211 8.98587
threshold=-0.00011235086405110711 -0.061325974259782069 1.1271930897713181e-07 0.00052982836102482341 0.75618906030196864 0.0013041610098391914 0.0012251269837446992
decision_type=2 2 2 2 2 2 2
left_child=4 3 -3 -2 6 -6 -1
right_child=1 2 -4 -5 5 -7 -8
leaf_value=-3.1872604038265087e-05 -0.00080042818415023472 -0.0081558558020548688 -0.0014402328732479382 0.0025497407014056983 0.002360183045001824 -0.0021286171544685345 -0.0084597720397125657
leaf_weight=3940.7312469035387 3111.029813811183 390.70293705165386 11209.5916903615 2627.9512274563313 7788.736260548234 538.77314357459545 106.93054674565792
leaf_count=15770 12451 1565 44877 10518 31177 2157 428
internal_value=3.51583e-05 -0.000872831 -0.00166773 0.000733484 0.00130733 0.00206879 -0.000258672
internal_weight=29714.4 17339.3 11600.3 5738.98 12375.2 8327.51 4047.66
internal_count=118943 69411 46442 22969 49532 33334 16198
is_linear=0
shrinkage=0.0291483


Tree=24
num_leaves=8
num_cat=0
split_feature=3 8 4 8 9 0 8
split_gain=67.0534 19.6094 17.2489 13.7165 28.9769 8.94306 8.28555
threshold=-0.00022854013581614468 4.8463529017188298e-05 0.0002291050408627199 0.000155389774921438 0.00024134475579415079 -0.63283060271159164 2.932313446905387e-05
decision_type=2 2 2 2 2 2 2
left_child=3 6 -3 5 -5 -1 -2
right_child=1 2 -4 4 -6 -7 -8
leaf_value=0.0032638404198852213 -0.0032821275725742299 0.0001472681157954582 -0.001730057142746234 0.0097759094360905848 0.0016680028227106698 -0.0037424046167788497 -0.011078474306620283
leaf_weight=203.90312831103802 237.01391416788101 6861.9982425272465 10541.978475704789 384.73408481478691 10612.330425530672 606.97220022976398 223.14350877702236
leaf_count=816 950 27460 42209 1540 42478 2429 894
internal_value=-2.06114e-05 -0.00114706 -0.000989868 0.00168344 0.00195339 -0.00196719 -0.00706365
internal_weight=29672.1 17864.1 17404 11807.9 10997.1 810.875 460.157
internal_count=118776 71513 69669 47263 44018 3245 1844
is_linear=0
shrinkage=0.0291483


Tree=25
num_leaves=8
num_cat=0
split_feature=3 1 17 8 9 10 17
split_gain=63.2074 20.9532 29.2404 12.9282 27.328 9.25748 7.12017
threshold=-0.00022854013581614468 -0.00010707280288762017 2.4710177738097352 0.000155389774921438 0.00024134475579415079 0.00049471088064744211 3.8495321469225519
decision_type=2 2 2 2 2 2 2
left_child=3 6 -3 5 -5 -1 -2
right_child=1 2 -4 4 -6 -7 -8
leaf_value=-0.00072464197132478031 0.00033550956952592924 -0.0013478113510233759 -0.0067931008759837212 0.0094938048591293265 0.0016194242883197597 -0.0099501329731291333 0.0072701101359973286
leaf_weight=708.16430848836899 4739.2438639700413 12101.846349030733 896.76869961619377 384.67965050041676 10612.089353561401 102.7084726691246 125.67326998710632
leaf_count=2834 18968 48449 3593 1540 42478 411 503
internal_value=-2.00023e-05 -0.00111369 -0.0017244 0.00163448 0.00189657 -0.0019097 0.000517477
internal_weight=29671.2 17863.5 12998.6 11807.6 10996.8 810.873 4864.92
internal_count=118776 71513 52042 47263 44018 3245 19471
is_linear=0
shrinkage=0.0291483


Tree=26
num_leaves=8
num_cat=0
split_feature=6 4 10 1 14 10 15
split_gain=90.9546 24.6604 16.3853 15.0933 10.6219 10.6772 8.69236
threshold=1254.8899193786058 -0.00024022734881482815 0.0013942820922045001 -0.00025529402951766168 -0.050048636628670706 0.00073545183586409531 0.0017028629797183959
decision_type=2 2 2 2 2 2 2
left_child=4 2 -2 -3 5 -1 -6
right_child=1 3 -4 -5 6 -7 -8
leaf_value=0.0025380356546739588 0.00061396364726643091 0.00040090232564739676 -0.006561983764568376 -0.0022025575160547657 0.0020736579410144547 0.005843803587699487 -0.0015697860739218687
leaf_weight=2415.3446160554886 6857.9223131686449 2258.4581382125616 277.88002271950245 11572.228285461664 4391.209259018302 1263.6698060780764 633.58220502734184
leaf_count=9671 27439 9040 1112 46340 17576 5061 2537
internal_value=-1.94173e-05 -0.00105918 0.000332164 -0.00177718 0.00248484 0.00367482 0.0016135
internal_weight=29670.3 20966.5 7135.8 13830.7 8703.81 3679.01 5024.79
internal_count=118776 83931 28551 55380 34845 14732 20113
is_linear=0
shrinkage=0.0291483


Tree=27
num_leaves=7
num_cat=0
split_feature=12 6 8 14 8 8
split_gain=77.6781 32.8448 19.9187 17.98 18.6963 15.5906
threshold=-0.00020219688409930619 1284.8415529665201 4.8463529017188298e-05 0.30739764152200338 0.0016299532054707508 0.00017251782158966608
decision_type=2 2 2 2 2 2
left_child=3 5 -3 4 -1 -2
right_child=1 2 -4 -5 -6 -7
leaf_value=0.0020351888410106668 -0.0030864046884286588 -0.0092027371515247987 -0.0019205117731744949 -0.010009708458461065 -0.0045703941076985248 0.0013478799657212009
leaf_weight=12254.787785977125 792.8382133692503 324.8287857323885 11463.909460797906 106.18831542134285 371.69180734455585 4367.9854465425014
leaf_count=49054 3173 1303 45908 425 1487 17479
internal_value=1.85743e-05 -0.00127368 -0.00212261 0.00173875 0.00183973 0.000664894
internal_weight=29682.2 16949.6 11788.7 12732.7 12626.5 5160.82
internal_count=118829 67863 47211 50966 50541 20652
is_linear=0
shrinkage=0.0291483


Tree=28
num_leaves=7
num_cat=0
split_feature=12 7 12 18 8 12
split_gain=73.5493 22.4775 20.8648 17.2222 14.5181 10.6533
threshold=3.3718977585751226e-05 1.1443657171506259e-07 0.0030392062793967735 0.78054547413462549 0.0016299532054707508 -0.00054330615553123678
decision_type=2 2 2 2 2 2
left_child=3 -2 -3 5 -5 -1
right_child=1 2 -4 4 -6 -7
leaf_value=0.0012867193007421766 -0.014105860443452859 -0.00099441137358174817 -0.004748824708563546 0.0024570971814087271 -0.003672560413200947 -0.0012192898536996137
leaf_weight=3356.3772237449884 114.87995335459709 13089.530340000987 1387.9668591022491 8874.3517851829529 337.44851200282574 2520.3436535447836
leaf_count=13433 461 52401 5570 35528 1350 10086
internal_value=1.79714e-05 -0.00145729 -0.00135495 0.00144475 0.00223125 0.00021208
internal_weight=29680.9 14592.4 14477.5 15088.5 9211.8 5876.72
internal_count=118829 58432 57971 60397 36878 23519
is_linear=0
shrinkage=0.0291483


Tree=29
num_leaves=8
num_cat=0
split_feature=4 7 17 4 9 13 16
split_gain=43.2681 19.0112 17.8419 16.425 12.1221 9.67622 6.70947
threshold=-0.00024022734881482815 4.7913491118400918e-05 0.21523744778517592 0.0038526205498208817 0.00024134475579415079 0.25871395965342542 0.84016613453646405
decision_type=2 2 2 2 2 2 2
left_child=2 6 4 -3 -1 -4 -2
right_child=1 3 5 -5 -6 -7 -8
leaf_value=0.00552702831878651 -0.0028153075130675446 -0.00044805430040461956 0.0017896786437815752 -0.0040515426750134488 -0.0041582989261520478 -0.0021455994460685946 -0.0077905173930010313
leaf_weight=125.4084874689579 529.33073145151138 14934.964414924383 11238.562258318067 1154.5448183268309 737.501902744174 553.73217229545116 405.55624136328697
leaf_count=502 2122 59788 44992 4632 2951 2216 1626
internal_value=1.73981e-05 -0.000942046 0.00130805 -0.00070715 -0.00272947 0.00160428 -0.00497535
internal_weight=29679.6 17024.4 12655.2 16089.5 862.91 11792.3 934.887
internal_count=118829 68168 50661 64420 3453 47208 3748
is_linear=0
shrinkage=0.0291483


Tree=30
num_leaves=7
num_cat=0
split_feature=12 8 14 12 9 8
split_gain=73.4679 23.4231 21.1007 19.8005 14.5768 4.72879
threshold=-0.00020219688409930619 4.8463529017188298e-05 0.30739764152200338 0.0029199380487162142 0.00024134475579415079 2.932313446905387e-05
decision_type=2 2 2 2 2 2
left_child=2 5 4 -3 -1 -2
right_child=1 3 -4 -5 -6 -7
leaf_value=0.0052593977870588051 -0.0052955979636093624 -0.00074421193516041454 -0.01096349360982255 -0.0042519101305656115 0.0015313475484543312 -0.011950899181634044
leaf_weight=961.45544919371605 187.78400757908821 15071.421688318253 107.1860593110323 1500.2947842776775 11686.587137788534 175.41268134117126
leaf_count=3849 754 60333 429 6022 46784 704
internal_value=3.52848e-05 -0.00122295 0.00170577 -0.00106227 0.00181547 -0.00851015
internal_weight=29690.1 16934.9 12755.2 16571.7 12648 363.197
internal_count=118875 67813 51062 66355 50633 1458
is_linear=0
shrinkage=0.0291483


Tree=31
num_leaves=5
num_cat=0
split_feature=5 11 8 18
split_gain=29.468 23.8804 26.848 12.8733
threshold=-0.093144626947719564 -6.4448033184971891e-05 0.00047596720493289855 1.067154002508665
decision_type=2 2 2 2
left_child=-1 3 -3 -2
right_child=1 2 -4 -5
leaf_value=-0.014267092336127834 0.00031501691021703184 -0.0015442505729032572 0.00085165119767363769 0.0022204266324544453
leaf_weight=118.35542069375515 7872.5767407864332 10392.71146838367 6428.8443940579891 4876.3991511613131
leaf_count=474 31513 41611 25749 19528
internal_value=3.42134e-05 9.25633e-05 -0.000628475 0.00104392
internal_weight=29688.9 29570.5 16821.6 12749
internal_count=118875 118401 67360 51041
is_linear=0
shrinkage=0.0291483


Tree=32
num_leaves=8
num_cat=0
split_feature=6 12 17 6 12 13 10
split_gain=69.0291 42.1031 15.3601 14.1863 13.494 14.7605 12.0488
threshold=1248.5191485382732 -1.1792347345029495e-05 0.28275036494442002 1383.1005202817016 -0.0013634172028394876 -0.16079491770229246 0.00022125596101211974
decision_type=2 2 2 2 2 2 2
left_child=4 3 -3 -2 5 -1 -6
right_child=1 2 -4 -5 6 -7 -8
leaf_value=0.0061297481646138121 -0.00038386261892116687 -0.0044575838758616594 -0.0014790511653733774 0.0019555607563915261 0.007342190131102197 0.0019677730872675772 0.00110288108351415
leaf_weight=1381.0445518493652 4567.896680995822 1688.1159531921148 11305.049610301852 4246.0477244704962 275.04746547341347 1518.5005983561277 4706.6853154599667
leaf_count=5537 18276 6761 45283 16992 1101 6085 18840
internal_value=3.31876e-05 -0.000811717 -0.00186648 0.000742982 0.0023706 0.00395104 0.00145049
internal_weight=29688.4 21807.1 12993.2 8813.94 7881.28 2899.55 4981.73
internal_count=118875 87312 52044 35268 31563 11622 19941
is_linear=0
shrinkage=0.0291483


Tree=33
num_leaves=8
num_cat=0
split_feature=12 6 17 7 6 5 7
split_gain=69.9311 28.2919 23.2971 20.3783 12.5715 9.04551 8.80119
threshold=-1.1792347345029495e-05 1247.6239904916877 0.21523744778517592 0.00021741880635865415 1237.4855952971814 0.0097699683379578791 0.00091069188375737331
decision_type=2 2 2 2 2 2 2
left_child=2 6 5 -3 -4 -1 -2
right_child=1 3 4 -5 -6 -7 -8
leaf_value=-0.0010375050469011531 0.0024266971460697143 -0.0035687039463304887 0.0029053687151062977 -0.0011394135763008008 0.0010407453914314075 -0.0068362978134820637 -0.0036361624171662283
leaf_weight=809.63240902125835 1790.6933702379465 4443.8129265755415 4736.1389562189579 8624.712194994092 8737.1036164462566 314.85352185368538 225.95264329016209
leaf_count=3240 7164 17802 18981 34547 34961 1260 904
internal_value=-7.81806e-05 -0.00146978 0.00135986 -0.00196573 0.00169641 -0.00266441 0.00174077
internal_weight=29682.9 15085.2 14597.7 13068.5 13473.2 1124.49 2016.65
internal_count=118859 60417 58442 52349 53942 4500 8068
is_linear=0
shrinkage=0.0291483


Tree=34
num_leaves=8
num_cat=0
split_feature=6 4 8 6 13 8 17
split_gain=60.8038 22.8666 18.0048 13.824 12.4351 12.878 4.0222
threshold=1246.7208238155911 -0.00026667501650305675 4.8463529017188298e-05 1715.9772266039292 0.35053885879833563 0.0016299532054707508 0.72320125301858329
decision_type=2 2 2 2 2 2 2
left_child=4 3 -3 -2 5 -1 -6
right_child=1 2 -4 -5 6 -7 -8
leaf_value=0.002647372571302872 0.0008461858236898371 -0.0077916942109818163 -0.0013535162424801084 -0.0036591449025387603 -0.0078360443904216103 -0.0031019096460663206 -0.0001200943244696828
leaf_weight=7037.3066212534904 6815.2590050399303 375.40166501700878 14252.48878416419 628.74152585864067 129.71632744371891 343.92993128299713 98.45878429710865
leaf_count=28191 27272 1508 57083 2516 519 1376 394
internal_value=-7.59256e-05 -0.000850523 -0.00151976 0.000464304 0.0021704 0.00237812 -0.00448027
internal_weight=29681.3 22071.9 14627.9 7444 7609.41 7381.24 228.175
internal_count=118859 88379 58591 29788 30480 29567 913
is_linear=0
shrinkage=0.0291483


Tree=35
num_leaves=8
num_cat=0
split_feature=12 6 6 9 8 18 15
split_gain=63.7262 25.4879 17.1325 17.5094 13.1548 12.437 12.0284
threshold=-1.1792347345029495e-05 1284.8415529665201 1715.9772266039292 0.00011436320193675588 4.8463529017188298e-05 0.85928341816587384 0.00013179046269779971
decision_type=2 2 2 2 2 2 2
left_child=2 6 3 -1 -3 -4 -2
right_child=1 4 5 -5 -6 -7 -8
leaf_value=-0.00897485388948587 -0.0039714418290301302 -0.0091337382309840849 -0.0057207389559386793 0.0016498922012171784 -0.0020233771327320721 0.0013670782696187092 0.00097991821316810988
leaf_weight=129.52263468503952 462.37659621238708 222.43047182261944 490.44799354672432 13613.318165868521 10444.396428108215 363.09309740364552 3954.2808659076691
leaf_count=519 1851 895 1963 54507 41845 1453 15826
internal_value=-7.37549e-05 -0.00140226 0.00129907 0.00154809 -0.00217324 -0.00269964 0.000459046
internal_weight=29679.9 15083.5 14596.4 13742.8 10666.8 853.541 4416.66
internal_count=118859 60417 58442 55026 42740 3416 17677
is_linear=0
shrinkage=0.0291483


Tree=36
num_leaves=7
num_cat=0
split_feature=12 12 7 5 7 17
split_gain=55.1083 18.8826 23.4224 19.2495 13.7607 14.1268
threshold=-0.00022761852511369283 0.0036303459699517393 0.00021741880635865415 -0.01200450157107741 0.0020285903108735251 0.33752237499140375
decision_type=2 2 2 2 2 2
left_child=4 2 -2 -3 5 -1
right_child=1 3 -4 -5 -6 -7
leaf_value=-0.00068429757867088383 -0.0023645442647218318 -0.01116664542182353 -7.8673429922131163e-05 -0.0022503237316760685 -0.0070771329365078156 0.00194011278529446
leaf_weight=2097.8533463925123 6077.2015642672777 305.45574553310871 10190.411063745618 615.40280520915985 157.73533053696156 10209.854656636715
leaf_count=8396 24344 1228 40800 2474 631 40888
internal_value=-9.2782e-05 -0.00116276 -0.000932797 -0.00521572 0.00138251 0.00149255
internal_weight=29653.9 17188.5 16267.6 920.859 12465.4 12307.7
internal_count=118761 68846 65144 3702 49915 49284
is_linear=0
shrinkage=0.0291483


Tree=37
num_leaves=8
num_cat=0
split_feature=6 16 1 17 8 6 17
split_gain=60.1754 20.553 22.1705 16.3421 15.5356 12.8593 3.88366
threshold=1254.8899193786058 2.7400510249142491 -1.1024034704342738e-07 0.28275036494442002 0.0016299532054707508 1129.8260671492556 0.77500748334765956
decision_type=2 2 2 2 2 2 2
left_child=4 3 -3 -2 5 -1 -6
right_child=1 2 -4 -5 6 -7 -8
leaf_value=0.005583413845347396 -0.0027928269316909731 0.0010515955551479927 -0.010270677490761779 -0.0004360166425860548 -0.007940767388160009 0.0018191107260804391 -0.0016729534658390783
leaf_weight=856.96618185937405 2914.2979865819216 229.02046793699265 397.45298160612583 17448.369373723865 131.21798878908157 7452.5357254892588 222.69674772024155
leaf_count=3438 11671 917 1594 69876 525 29849 891
internal_value=-9.01231e-05 -0.000933684 -0.00611932 -0.000773574 0.00195326 0.00220841 -0.00399803
internal_weight=29652.6 20989.1 626.473 20362.7 8663.42 8309.5 353.915
internal_count=118761 84058 2511 81547 34703 33287 1416
is_linear=0
shrinkage=0.0291483


Tree=38
num_leaves=7
num_cat=0
split_feature=12 12 8 14 8 14
split_gain=50.7339 17.5748 22.2957 15.781 15.1372 9.9858
threshold=-0.00020219688409930619 0.0036303459699517393 0.00032023681331373369 0.27916798508762308 0.001929366799073797 -0.07484518934775046
decision_type=2 2 2 2 2 2
left_child=3 2 -2 4 -1 -3
right_child=1 5 -4 -5 -6 -7
leaf_value=0.0015542311006918909 -0.0021722197442464682 0.0028586219757350054 2.6746917067371208e-05 -0.007722595504500703 -0.0062515835430387396 -0.006193671266454189
leaf_weight=12328.410921677947 6799.367755740881 115.54130585491657 9233.0221591740847 158.88191686570644 211.21135050058365 804.91076645255089
leaf_count=49371 27238 464 36969 636 845 3238
internal_value=-8.75113e-05 -0.00113092 -0.000905941 0.00130539 0.00142146 -0.00504038
internal_weight=29651.3 16952.8 16032.4 12698.5 12539.6 920.452
internal_count=118761 67909 64207 50852 50216 3702
is_linear=0
shrinkage=0.0291483


Tree=39
num_leaves=8
num_cat=0
split_feature=6 12 7 6 7 12 14
split_gain=51.7324 30.4129 17.5833 12.9106 11.2153 15.4482 7.37427
threshold=1254.8899193786058 -1.1792347345029495e-05 0.00021741880635865415 1425.2817054854097 0.001099618628410766 -0.0018451760236402701 0.024740257863134045
decision_type=2 2 2 2 2 2 2
left_child=4 3 -3 -2 5 -1 -6
right_child=1 2 -4 -5 6 -7 -8
leaf_value=0.0047316091562331587 -0.00041997048471912598 -0.0031458974362238413 -0.00084297763483568865 0.0018732897264626348 0.00044670760453410378 0.0016107191748716766 -0.0057029555760699001
leaf_weight=1721.4229751825333 4486.1892169266939 4251.071723356843 8338.4502517282963 3891.9178602993488 568.48924045264721 6170.0220036953688 229.70284414291382
leaf_count=6907 17950 17040 33411 15577 2278 24707 920
internal_value=6.83683e-05 -0.000715285 -0.0016208 0.000645204 0.00195902 0.00229229 -0.0013265
internal_weight=29657.3 20967.6 12589.5 8378.11 8689.64 7891.44 798.192
internal_count=118790 83978 50451 33527 34812 31614 3198
is_linear=0
shrinkage=0.0291483


Tree=40
num_leaves=8
num_cat=0
split_feature=6 16 1 7 7 6 13
split_gain=48.7644 16.5405 23.8745 14.0793 10.5742 14.5102 7.02031
threshold=1254.8899193786058 2.7400510249142491 -1.1024034704342738e-07 4.7913491118400918e-05 0.001099618628410766 1121.7344346313914 -0.15790039682465812
decision_type=2 2 2 2 2 2 2
left_child=4 3 -3 -2 5 -1 -6
right_child=1 2 -4 -5 6 -7 -8
leaf_value=0.006576704087855479 -0.0038340733546772727 0.0021495683438537781 -0.0095259582895285914 -0.00037039053932487643 0.002549588819920227 0.0018671068021311086 -0.0032187683076573509
leaf_weight=598.43113160133362 1047.9661360383034 229.99824081361294 407.9071110188961 19280.871252983809 265.87036997079849 7292.3151499927044 532.33637134730816
leaf_count=2402 4206 921 1637 77214 1066 29212 2132
internal_value=6.63757e-05 -0.000694471 -0.00530341 -0.000549345 0.00190207 0.0022257 -0.00128811
internal_weight=29655.7 20966.7 637.905 20328.8 8688.95 7890.75 798.207
internal_count=118790 83978 2558 81420 34812 31614 3198
is_linear=0
shrinkage=0.0291483


Tree=41
num_leaves=8
num_cat=0
split_feature=6 16 0 17 15 6 9
split_gain=45.9686 15.5978 19.0403 17.4775 6.09948 10.7224 5.37254
threshold=1254.8899193786058 2.7400510249142491 -0.61465293249457742 0.28275036494442002 0.0029453695939881722 1121.7344346313914 0.0018423703456399937
decision_type=2 2 2 2 2 2 2
left_child=4 3 -3 -2 5 -1 -6
right_child=1 2 -4 -5 6 -7 -8
leaf_value=0.0054501715534513899 -0.002618779217217215 0.0041202552023662875 -0.0078524071301686767 -0.00018323738468051498 -0.0047652383727923228 0.001687132799897118 0.0026918035542290567
leaf_weight=699.30169454216957 2920.2392929196358 142.5756201595068 495.11995750665665 17408.252061963081 213.97798354923725 7646.636676415801 128.39387503266335
leaf_count=2807 11697 571 1987 69723 858 30633 514
internal_value=6.4447e-05 -0.000674265 -0.00515069 -0.000533354 0.00184682 0.00200355 -0.00194721
internal_weight=29654.5 20966.2 637.696 20328.5 8688.31 8345.94 342.372
internal_count=118790 83978 2558 81420 34812 33440 1372
is_linear=0
shrinkage=0.0291483


Tree=42
num_leaves=5
num_cat=0
split_feature=5 8 5 13
split_gain=28.4855 20.4121 19.7442 18.0413
threshold=-0.093144626947719564 0.00035649610438755875 -0.032178944180592271 -0.066529897545916886
decision_type=2 2 2 2
left_child=-1 2 -2 -3
right_child=1 3 -4 -5
leaf_value=-0.01410474166354732 0.0019369766783449429 0.0018157444070481242 -0.0013796369409020792 -0.00013142046551240842
leaf_weight=119.0211665481329 1771.4766751378775 6674.4700708985329 10825.340814530849 10241.936285108328
leaf_count=477 7096 26741 43359 41032
internal_value=-8.21931e-05 -2.45495e-05 -0.000912753 0.00063687
internal_weight=29632.2 29513.2 12596.8 16916.4
internal_count=118705 118228 50455 67773
is_linear=0
shrinkage=0.0291483


Tree=43
num_leaves=8
num_cat=0
split_feature=6 8 13 7 9 7 5
split_gain=44.4934 14.2143 12.296 12.0697 15.4616 10.7971 7.53296
threshold=1226.6497143881554 0.0016299532054707508 -0.16079491770229246 4.5142439267837358e-05 0.00024134475579415079 3.8119330050609563e-05 0.008926742673211285
decision_type=2 2 2 2 2 2 2
left_child=1 2 -1 5 -5 -2 -3
right_child=3 6 -4 4 -6 -7 -8
leaf_value=0.004626705934598691 -0.0021541466935064138 -0.0068974262380418318 0.0016192126797875436 0.001777431463616197 -0.00071400805784608114 -0.0093430914020904299 0.0022522348354897816
leaf_weight=1834.3263774812222 919.3041640818119 205.67979121208191 3112.3951951414347 2351.4706434160471 20874.761435836554 216.65900272130966 117.21123889088631
leaf_count=7363 3690 823 12475 9419 83597 869 469
internal_value=-7.98245e-05 0.00234789 0.00273531 -0.000605133 -0.000461589 -0.00353428 -0.00354542
internal_weight=29631.8 5269.61 4946.72 24362.2 23226.2 1135.96 322.891
internal_count=118705 21130 19838 97575 93016 4559 1292
is_linear=0
shrinkage=0.0291483


Tree=44
num_leaves=8
num_cat=0
split_feature=12 3 15 14 14 12 14
split_gain=45.5339 17.2832 15.2172 13.4573 10.9082 10.9004 6.69051
threshold=0.00046821072561969984 -0.00037429004981268717 1.051414206757275e-07 -0.0068433897388268826 0.1162199517767435 -0.00054330615553123678 -0.062855576481323214
decision_type=2 2 2 2 2 2 2
left_child=2 4 6 -3 -2 -4 -1
right_child=1 3 5 -5 -6 -7 -8
leaf_value=-0.0019889114858014085 -5.3639455501534812e-05 -0.0005632639686493795 0.0015337892783395513 -0.0028976198442732595 0.0059614972716682821 0.00013335650863297984 -0.012465761262063262
leaf_weight=103.01447393000126 1017.11152549088 3247.2854758352041 9751.1917550116777 5922.4257474690676 338.47122295200825 9152.1575418114662 99.109994143247604
leaf_count=413 4072 13011 39070 23741 1355 36645 398
internal_value=-7.75072e-05 -0.00161671 0.000770517 -0.00207098 0.00145127 0.000855813 -0.00711594
internal_weight=29630.8 10525.3 19105.5 9169.71 1355.58 18903.3 202.124
internal_count=118705 42179 76526 36752 5427 75715 811
is_linear=0
shrinkage=0.0291483


Tree=45
num_leaves=8
num_cat=0
split_feature=6 4 5 0 13 4 2
split_gain=38.9337 15.1412 12.2967 10.219 9.19154 10.903 9.99119
threshold=1237.4855952971814 0.0038526205498208817 -0.022590987377083423 0.6943999512371809 -0.16079491770229246 -0.00064377347813049054 -0.0015193068613322967
decision_type=2 2 2 2 2 2 2
left_child=4 3 -3 -2 5 -1 -6
right_child=1 2 -4 -5 6 -7 -8
leaf_value=0.0045533035628140929 -0.00027794683330423914 -0.0095658506268778906 -0.0022772629704282854 -0.0025631265228738551 -0.0024220840352359267 -0.00012155477100413679 0.0016889003538223424
leaf_weight=1731.5985186845064 20257.612463191152 253.33876717090607 841.72562870383263 1807.8257788270712 580.95748168230057 558.10254646837711 3568.9997760206461
leaf_count=6954 81123 1018 3383 7244 2330 2236 14300
internal_value=-7.40985e-05 -0.000631513 -0.00397159 -0.000465414 0.00193012 0.00341199 0.00111222
internal_weight=29600.2 23160.5 1095.06 22065.4 6439.66 2289.7 4149.96
internal_count=118588 92768 4401 88367 25820 9190 16630
is_linear=0
shrinkage=0.0291483


Tree=46
num_leaves=8
num_cat=0
split_feature=12 12 7 5 7 6 5
split_gain=43.3187 16.6234 21.3408 16.5909 16.2514 16.9453 9.88599
threshold=-0.00054330615553123678 0.0030392062793967735 0.00019252043950646484 -0.026793280627465398 8.7144548702370355e-05 1715.9772266039292 0.01869989447162012
decision_type=2 2 2 2 2 2 2
left_child=4 2 -2 -3 6 -6 -1
right_child=1 3 -4 -5 5 -7 -8
leaf_value=0.0045987449007940133 -0.001982688305241862 -0.010946517203545223 9.8929556248637227e-05 -0.002488076067507396 0.0014662492540203306 -0.0056257592999862192 0.014817306554557982
leaf_weight=407.51090015470982 6400.9031322896481 234.56700149178505 12067.843617081642 1146.7595410495996 8952.1068018376827 292.15676638484001 97.14710208773613
leaf_count=1632 25648 944 48320 4611 35875 1169 389
internal_value=-7.19671e-05 -0.000853384 -0.000622629 -0.00393383 0.00151889 0.00124061 0.00659497
internal_weight=29599 19850.1 18468.7 1381.33 9748.92 9244.26 504.658
internal_count=118588 79523 73968 5555 39065 37044 2021
is_linear=0
shrinkage=0.0291483


Tree=47
num_leaves=8
num_cat=0
split_feature=6 4 7 13 13 7 7
split_gain=35.714 13.6928 14.0502 11.7308 8.55564 11.6502 10.8086
threshold=1237.4855952971814 0.0038526205498208817 0.00021741880635865415 0.0096768269781068571 -0.16079491770229246 0.00042778863050011139 0.00098192297959367666
decision_type=2 2 2 2 2 2 2
left_child=4 2 -2 -3 5 -1 -6
right_child=1 3 -4 -5 6 -7 -8
leaf_value=0.0012369102609094244 -0.0013995417813933127 0.0021861372570193445 0.00012126396712179154 -0.0052954279925906695 0.0016642838327458559 0.0053927514153779173 -0.0025931710690889546
leaf_weight=1164.2892670482397 8226.7139652073383 220.14924694597721 13837.76646669209 874.39483503997326 3562.6095012128353 1124.7483714669943 587.0159847587347
leaf_count=4672 32960 884 55407 3517 14278 4518 2352
internal_value=-6.98813e-05 -0.000603749 -0.000445821 -0.00378085 0.00184984 0.00327979 0.00106076
internal_weight=29597.7 23159 22064.5 1094.54 6438.66 2289.04 4149.63
internal_count=118588 92768 88367 4401 25820 9190 16630
is_linear=0
shrinkage=0.0291483


Tree=48
num_leaves=8
num_cat=0
split_feature=3 10 17 7 17 8 1
split_gain=21.9698 19.9971 18.6924 12.807 12.7025 6.24816 1.54772
threshold=-0.00059263715648500326 0.00025468502076357716 0.22059445960845978 0.0020285903108735251 2.4710177738097352 0.00064760083966829086 -0.00011640561646373192
decision_type=2 2 2 2 2 2 2
left_child=1 6 5 -3 -4 -2 -1
right_child=2 3 4 -5 -6 -7 -8
leaf_value=0.012676879948612578 -0.0026261681520668954 0.0012676559492816976 4.7133143830849111e-05 -0.0072350750314379734 -0.002882079499894032 -0.0087522278889079833 0.0075061429139348995
leaf_weight=108.45477363467216 1906.2247024327517 7821.216793268919 18042.565093800426 149.9041602909565 1348.4896878898144 149.56461465358734 98.310921207070351
leaf_count=435 7637 31347 72279 600 5410 599 394
internal_value=5.30185e-05 0.0013382 -0.000437105 0.00110555 -0.000156875 -0.00307767 0.0102119
internal_weight=29624.7 8177.89 21446.8 7971.12 19391.1 2055.79 206.766
internal_count=118701 32776 85925 31947 77689 8236 829
is_linear=0
shrinkage=0.0291483


Tree=49
num_leaves=8
num_cat=0
split_feature=12 9 6 4 16 7 7
split_gain=40.8037 24.8729 19.4035 15.8168 14.302 13.3432 8.36131
threshold=-0.00054330615553123678 0.00024134475579415079 1284.8415529665201 0.00068857000189746027 3.1022247452099854 0.00019252043950646484 8.9620653787821962e-05
decision_type=2 2 2 2 2 2 2
left_child=1 6 5 -3 -4 -2 -1
right_child=2 3 4 -5 -6 -7 -8
leaf_value=0.016308116179415792 -0.0013016005858872237 0.0010632045218500255 -0.0011990386157944316 0.0070176262283809174 -0.0079087696232259357 0.001536552067799379 0.0063560921250451667
leaf_weight=99.27858179807663 2082.7578109204769 9032.5763463824987 13179.901287823915 392.14450219273567 272.05613255500793 4321.3605310916901 243.95498389005661
leaf_count=398 8339 36200 52824 1570 1093 17298 979
internal_value=5.14539e-05 0.00159353 -0.000707227 0.00131249 -0.00133589 0.000612956 0.0092618
internal_weight=29624 9767.95 19856.1 9424.72 13452 6404.12 343.234
internal_count=118701 39147 79554 37770 53917 25637 1377
is_linear=0
shrinkage=0.0291483


Tree=50
num_leaves=8
num_cat=0
split_feature=12 9 8 12 10 10 10
split_gain=38.4673 23.4734 18.5272 14.1057 17.5456 11.9056 2.4188
threshold=-0.00054330615553123678 0.00024134475579415079 0.00039679817292069238 0.0029199380487162142 0.00067543024947825769 0.0013042949144825638 0.00020976915583576468
decision_type=2 2 2 2 2 2 2
left_child=1 6 -3 4 -2 -5 -1
right_child=3 2 -4 5 -6 -7 -8
leaf_value=0.011685393330160056 -0.0010162262133949118 -0.00043708668293235828 0.0022495000187790714 -0.00513812047436823 0.0010070584742686438 0.00048163084701148394 0.0067220962356487916
leaf_weight=157.19228041172028 13357.52265766263 3420.672373175621 6003.6484127044678 1035.4124520272017 5002.2375205606222 460.12187986075878 185.87965902686119
leaf_count=631 53509 13699 24071 4165 20029 1851 746
internal_value=4.99813e-05 0.0015473 0.00127433 -0.000686669 -0.000464878 -0.00340561 0.00899852
internal_weight=29622.7 9767.39 9424.32 19855.3 18359.8 1495.53 343.072
internal_count=118701 39147 37770 79554 73538 6016 1377
is_linear=0
shrinkage=0.0291483


Tree=51
num_leaves=8
num_cat=0
split_feature=12 8 14 8 6 7 14
split_gain=38.7225 24.284 21.7888 15.5708 17.4693 9.95392 4.91981
threshold=0.00045432247920799512 0.00026040120662000073 -0.061325974259782069 0.0016299532054707508 1222.8511096377408 0.00020599263174916267 -0.08731459126104156
decision_type=2 2 2 2 2 2 2
left_child=3 5 -3 4 -1 -2 -5
right_child=1 2 -4 6 -6 -7 -8
leaf_value=0.0026557352124416235 -0.0052225277600347758 0.0022278086817168557 -0.0014138339426971894 -0.0094063934547152263 0.00048182702292968625 -0.00079837171784218422 -0.0026089431513230941
leaf_weight=4001.0560646355152 1653.0320336520672 1761.3970272839069 6673.1000359505415 129.20061060786247 14560.813277989626 582.78243853151798 285.89421702921391
leaf_count=16065 6629 7056 26754 517 58305 2335 1144
internal_value=3.57554e-05 -0.00136883 -0.000652917 0.000825611 0.000950629 -0.00406762 -0.00473383
internal_weight=29647.3 10670.3 8434.5 18977 18561.9 2235.81 415.095
internal_count=118805 42774 33810 76031 74370 8964 1661
is_linear=0
shrinkage=0.0291483


Tree=52
num_leaves=8
num_cat=0
split_feature=6 16 0 4 14 2 3
split_gain=31.9821 13.2865 10.8334 10.2454 9.77961 11.3853 8.99764
threshold=1254.8899193786058 2.7400510249142491 -0.61465293249457742 0.0038526205498208817 -0.050048636628670706 -0.001894558732985307 -0.0027119195372934607
decision_type=2 2 2 2 2 2 2
left_child=4 3 -3 -2 6 -6 -1
right_child=1 2 -4 -5 5 -7 -8
leaf_value=0.0065313024792671062 -0.00030090291471952351 0.002338103616339275 -0.0067983496040096413 -0.0032836207485661914 -0.0038022687593459886 0.0011161291917907291 0.0021296776862466727
leaf_weight=446.91578182578087 19327.071307852864 139.04160507023335 487.28326345980167 1027.1109892129898 434.57980641722679 4576.9434688389301 3207.0343939512968
leaf_count=1797 77416 557 1958 4132 1744 18338 12863
internal_value=3.4703e-05 -0.000580529 -0.00475031 -0.000451762 0.00152408 0.000688069 0.00267052
internal_weight=29646 20980.5 626.325 20354.2 8665.47 5011.52 3653.95
internal_count=118805 84063 2515 81548 34742 20082 14660
is_linear=0
shrinkage=0.0291483


Tree=53
num_leaves=8
num_cat=0
split_feature=3 7 7 10 7 8 10
split_gain=17.371 11.7622 11.4599 18.632 11.1111 10.567 10.4
threshold=-0.00022854013581614468 0.00026675107267685067 4.5142439267837358e-05 0.00020368088559663745 3.8119330050609563e-05 0.0016299532054707508 0.00027105168936989094
decision_type=2 2 2 2 2 2 2
left_child=1 6 4 -4 -2 -3 -1
right_child=2 5 3 -5 -6 -7 -8
leaf_value=0.0027709032335805762 -0.0021893540327932171 0.0018234397436711332 0.0035713913421148249 -0.00060210394188602164 -0.010395650593994438 -0.0031972063428591054 -0.0010336085484525805
leaf_weight=740.6709912866354 779.37753267586231 7281.770065382123 960.18327946960926 15951.314121082425 167.54888302087784 370.99205231666565 3392.9799642860889
leaf_count=2968 3132 29191 3848 63917 673 1485 13591
internal_value=3.36926e-05 0.00090209 -0.000539464 -0.000364664 -0.0036541 0.00157875 -0.000350195
internal_weight=29644.8 11786.4 17858.4 16911.5 946.926 7652.76 4133.65
internal_count=118805 47235 71570 67765 3805 30676 16559
is_linear=0
shrinkage=0.0291483


Tree=54
num_leaves=7
num_cat=0
split_feature=17 4 2 10 10 10
split_gain=19.587 20.4155 20.9553 12.2303 8.87533 16.5073
threshold=0.25554172116702745 0.00043540116701325146 0.00044354736698737747 0.00066173691722420578 0.00118526984654013 0.00067543024947825769
decision_type=2 2 2 2 2 2
left_child=4 3 -3 -2 5 -1
right_child=1 2 -4 -5 -6 -7
leaf_value=-0.0028516342902342728 0.00033890320808632572 0.00038078379003322806 -0.002339374498495085 0.0020046522122574044 -0.010472583112313994 0.0025094462200896993
leaf_weight=2555.6429117172956 10775.720324113965 5747.7555575817823 4133.5336372554302 5736.3471322059631 100.83115662634373 599.50977683067322
leaf_count=10240 43174 23030 16584 22993 404 2401
internal_value=2.74507e-05 0.000290612 -0.000757123 0.000917687 -0.00210437 -0.00183117
internal_weight=29649.3 26393.4 9881.29 16512.1 3255.98 3155.15
internal_count=118826 105781 39614 66167 13045 12641
is_linear=0
shrinkage=0.0291483


Tree=55
num_leaves=8
num_cat=0
split_feature=6 17 10 13 13 15 17
split_gain=31.4051 13.9508 13.2858 11.4806 9.23225 6.67292 6.48877
threshold=1254.8899193786058 0.28702434324274589 0.0011710963549669653 -0.017397978654315447 0.30156934247661876 0.0029453695939881722 0.8246545385881644
decision_type=2 2 2 2 2 2 2
left_child=4 2 -2 -3 5 -1 -6
right_child=1 3 -4 -5 6 -7 -8
leaf_value=0.00189972225424242 -0.0020538391158190774 0.00055277802617315335 -0.012453687022290074 -0.00093055396841572248 -0.0049926776893409576 -0.0022443798822226 0.0022096464006739437
leaf_weight=7875.0764994770288 2886.6487793475389 7922.4014827907085 104.78441406786442 10056.197637289762 302.8348892480135 341.13686500489712 159.37358765304089
leaf_count=31581 11568 31725 420 40314 1212 1368 638
internal_value=2.66343e-05 -0.000583604 -0.00242563 -0.00027691 0.00150099 0.00172674 -0.00249207
internal_weight=29648.5 20970 2991.43 17978.6 8678.42 8216.21 462.208
internal_count=118826 84027 11988 72039 34799 32949 1850
is_linear=0
shrinkage=0.0291483


Tree=56
num_leaves=5
num_cat=0
split_feature=5 4 18 9
split_gain=26.2179 17.5502 12.7628 12.6347
threshold=-0.093144626947719564 -0.00059505689208914079 0.66915437574768732 0.00059231949862565889
decision_type=2 2 2 2
left_child=-1 2 -2 -3
right_child=1 3 -4 -5
leaf_value=-0.013531116735202964 -0.0007777173281973245 -0.00098384837939111147 0.0016807525446042421 0.00054488021432088426
leaf_weight=117.15556286275387 2360.1408685147762 12454.724415406585 7442.8653882294893 7272.4222993254662
leaf_count=470 9452 49905 29845 29154
internal_value=2.58263e-05 8.06638e-05 0.00108851 -0.000420209
internal_weight=29647.3 29530.2 9803.01 19727.1
internal_count=118826 118356 39297 79059
is_linear=0
shrinkage=0.0291483


Tree=57
num_leaves=8
num_cat=0
split_feature=3 7 7 14 14 13 14
split_gain=17.8972 10.2301 12.2547 10.1945 10.169 16.7413 14.2584
threshold=-0.00022854013581614468 4.5142439267837358e-05 3.8119330050609563e-05 -0.061325974259782069 0.12092532476307803 -0.086714895076734119 -0.027063915080214249
decision_type=2 2 2 2 2 2 2
left_child=4 2 -2 -3 6 -6 -1
right_child=1 3 -4 -5 5 -7 -8
leaf_value=0.001511151131342234 -0.0019378782571681096 0.00068855081983410329 -0.0105476069073505 -0.00085514654460903418 0.0089512864545543119 0.0015920402084692014 -0.00069777399510239084
leaf_weight=5889.572638079524 774.20073366165161 5284.4934518635273 168.1567193120718 11621.070184051991 324.23279264569283 1323.0786090344191 4286.6817787140608
leaf_count=23616 3112 21165 676 46582 1299 5299 17177
internal_value=4.52232e-05 -0.000537375 -0.00348761 -0.000372542 0.000924634 0.00304708 0.000580647
internal_weight=29671.5 17847.9 942.357 16905.6 11823.6 1647.31 10176.3
internal_count=118926 71535 3788 67747 47391 6598 40793
is_linear=0
shrinkage=0.0291483


Tree=58
num_leaves=8
num_cat=0
split_feature=12 6 10 6 7 14 8
split_gain=35.2796 18.9813 20.222 18.3451 13.9038 13.5713 13.1871
threshold=3.3718977585751226e-05 1720.5461699094888 0.00031353359021584723 1268.7514984907796 1.1443657171506259e-07 0.078118842985881246 0.00017802748746524716
decision_type=2 2 2 2 2 2 2
left_child=1 2 -1 6 -5 -3 -2
right_child=3 5 -4 4 -6 -7 -8
leaf_value=0.0039267199521498845 -0.0034224984168659835 -0.0045217991120195568 0.00082903438584121724 -0.011706455063078025 -0.0014262033494891703 0.0065931011419801703 0.0017625929139503606
leaf_weight=2097.1582555025816 488.64759324491024 756.64468874037266 12133.708286061883 109.46602654457092 11266.926359221339 102.91112281382084 2715.2251789718866
leaf_count=8403 1957 3030 48628 442 45186 412 10868
internal_value=4.39033e-05 0.00103176 0.00128597 -0.000978499 -0.0015272 -0.0031658 0.000968651
internal_weight=29670.7 15090.4 14230.9 14580.3 11376.4 859.556 3203.87
internal_count=118926 60473 57031 58453 45628 3442 12825
is_linear=0
shrinkage=0.0291483


Tree=59
num_leaves=8
num_cat=0
split_feature=12 6 9 6 7 14 8
split_gain=33.258 17.888 17.6126 17.2927 13.1718 12.8051 12.4329
threshold=3.3718977585751226e-05 1720.5461699094888 0.00026366111079037134 1268.7514984907796 1.9768750145433347e-05 0.078118842985881246 0.00017802748746524716
decision_type=2 2 2 2 2 2 2
left_child=1 2 -1 6 -5 -3 -2
right_child=3 5 -4 4 -6 -7 -8
leaf_value=0.0041313765826467078 -0.0033235639369027631 -0.0043905152647299439 0.00088401652944325947 -0.008994562638615488 -0.0013526443538430636 0.0064056884537625446 0.0017112506527607631
leaf_weight=1595.2324903905392 488.60554328560829 756.59715084731579 12635.268151074648 191.53132893145084 11183.970259740949 102.91968736052513 2715.2180182933807
leaf_count=6393 1957 3030 50638 773 44855 412 10868
internal_value=4.26128e-05 0.00100176 0.00124853 -0.000950106 -0.00148287 -0.00307322 0.00094037
internal_weight=29669.3 15090 14230.5 14579.3 11375.5 859.517 3203.82
internal_count=118926 60473 57031 58453 45628 3442 12825
is_linear=0
shrinkage=0.0291483


Tree=60
num_leaves=8
num_cat=0
split_feature=12 12 8 6 10 10 1
split_gain=27.6864 16.0151 13.9135 13.3617 14.6937 14.1509 9.05399
threshold=3.3718977585751226e-05 0.0030392062793967735 0.00024795906310113496 1715.9772266039292 0.00030716592149522071 0.00054810855743573923 -0.00044828687279511922
decision_type=2 2 2 2 2 2 2
left_child=3 2 -2 4 -1 -5 -3
right_child=1 6 -4 5 -6 -7 -8
leaf_value=0.0033752848014838265 -0.0021438819572643184 0.0011727011967992461 -4.3616719965001554e-05 -0.0043149074703122368 0.00067116194837995007 0.0050122100429589164 -0.0050213951377720096
leaf_weight=1982.6749059706926 3737.3163439780474 240.11620672047138 9447.5288312584162 741.74044141173363 12165.53664791584 166.19063511490822 1139.3117539733648
leaf_count=7945 14993 965 37847 2971 48758 665 4591
internal_value=-4.59537e-05 -0.000951924 -0.000639208 0.000830406 0.0010505 -0.00259057 -0.00393644
internal_weight=29620.4 14564.3 13184.8 15056.1 14148.2 907.931 1379.43
internal_count=118735 58396 52840 60339 56703 3636 5556
is_linear=0
shrinkage=0.0291483


Tree=61
num_leaves=8
num_cat=0
split_feature=14 9 10 10 10 3 9
split_gain=15.5214 22.9611 18.933 17.8587 13.751 24.0514 8.67902
threshold=-0.061325974259782069 0.00066595256749454781 0.00060444371929227263 0.00039812390595560368 0.0011111832034678569 -0.00049504004649773164 0.00083714672613541112
decision_type=2 2 2 2 2 2 2
left_child=1 3 -3 -1 5 -2 -6
right_child=4 2 -4 -5 6 -7 -8
leaf_value=0.0015630053308634613 0.0015929847122657273 0.015166158870265189 0.0025219515815262175 -0.0013655678461511375 -0.010087515122897616 -0.00089942247165716903 -0.0022342107220907534
leaf_weight=3212.385299295187 4446.5315052121878 100.52424150705338 3069.4879765361547 3928.9048990309238 123.26230889558792 12609.322712540627 2128.7574451118708
leaf_count=12875 17822 403 12310 15744 494 50545 8542
internal_value=-4.46048e-05 0.000868289 0.00293163 -4.7906e-05 -0.000532197 -0.0002495 -0.00267125
internal_weight=29619.2 10311.3 3170.01 7141.29 19307.9 17055.9 2252.02
internal_count=118735 41332 12713 28619 77403 68367 9036
is_linear=0
shrinkage=0.0291483


Tree=62
num_leaves=8
num_cat=0
split_feature=12 12 13 8 9 13 8
split_gain=25.4295 14.9512 29.8803 13.1466 11.371 20.0381 15.4583
threshold=3.3718977585751226e-05 0.0030392062793967735 -0.096916254226111803 0.00024795906310113496 0.00051333462577468375 -0.24610441146715953 0.0016299532054707508
decision_type=2 2 2 2 2 2 2
left_child=4 3 -3 -2 5 -1 -6
right_child=1 2 -4 -5 6 -7 -8
leaf_value=-0.0023717388498379565 -0.0020722170791774475 0.0092618399772915697 -0.0051899193740714425 -3.0559049085295951e-05 0.0018725393486925469 0.00096613019445366383 -0.0040453395083319714
leaf_weight=2174.893878236413 3736.8571739494801 131.14913488924503 1247.7018205672503 9447.326187223196 7374.0941670686007 5114.8452953994274 391.60026524960995
leaf_count=8717 14993 527 5029 37847 29568 20487 1567
internal_value=-4.3291e-05 -0.000911597 -0.00379593 -0.000609488 0.000796602 -2.99588e-05 0.00157259
internal_weight=29618.5 14563 1378.85 13184.2 15055.4 7289.74 7765.69
internal_count=118735 58396 5556 52840 60339 29204 31135
is_linear=0
shrinkage=0.0291483


Tree=63
num_leaves=8
num_cat=0
split_feature=12 9 14 10 9 10 9
split_gain=20.6695 21.8335 17.3766 8.27742 28.4525 19.4195 6.91983
threshold=0.00046821072561969984 0.00023374128725274732 -0.058537910366976274 0.00066173691722420578 0.00074537134524000183 0.00082058748453708006 0.00021157182662159081
decision_type=2 2 2 2 2 2 2
left_child=3 6 -3 4 -1 -5 -2
right_child=1 2 -4 5 -6 -7 -8
leaf_value=0.00033570848218830159 -0.0050384076620805197 0.0015986914222391876 -0.0013626110507799793 0.0034567302662741268 -0.011822366115583629 0.00012710268869156309 -0.013134482432461726
leaf_weight=12780.20285320282 297.46801428496838 2131.6717186719179 7955.506348580122 2502.3148179799318 162.10011690855026 3662.911609262228 126.09614066779613
leaf_count=51214 1195 8542 31914 10032 650 14686 506
internal_value=2.90197e-05 -0.00100899 -0.000736505 0.000600085 0.000181375 0.00147886 -0.00746521
internal_weight=29618.3 10510.7 10087.2 19107.5 12942.3 6165.23 423.564
internal_count=118739 42157 40456 76582 51864 24718 1701
is_linear=0
shrinkage=0.0291483


Tree=64
num_leaves=8
num_cat=0
split_feature=6 14 17 8 4 17 9
split_gain=26.6087 11.2621 11.0506 11.0049 10.4998 10.3085 10.1037
threshold=1226.6497143881554 -0.029796691755633143 0.26508337507929164 0.0015616615987155082 -0.0039605640411613371 3.4121018049565417 0.0010061562724670342
decision_type=2 2 2 2 2 2 2
left_child=1 3 6 -1 -3 -4 -2
right_child=2 4 5 -5 -6 -7 -8
leaf_value=0.0037464366277570691 -0.00157523131840257 -0.0044767399279784974 -9.5662919041038696e-06 -0.0034922730271687891 0.0012197629673864595 -0.0032930590343002229 -0.0084640195697357791
leaf_weight=2489.6736613363028 2923.1686612069607 309.16666907072067 20404.249699875712 188.82865265011787 2270.4917221516371 842.50329306721687 189.38098157942295
leaf_count=10009 11716 1242 81766 756 9107 3384 759
internal_value=2.81323e-05 0.00190795 -0.000377769 0.00323131 0.000533999 -0.000140127 -0.00199888
internal_weight=29617.5 5258.16 24359.3 2678.5 2579.66 21246.8 3112.55
internal_count=118739 21114 97625 10765 10349 85150 12475
is_linear=0
shrinkage=0.0291483


Tree=65
num_leaves=8
num_cat=0
split_feature=6 12 13 14 12 9 12
split_gain=25.0817 14.0166 21.7779 10.6199 15.0281 10.4933 9.62058
threshold=1226.6497143881554 0.0036303459699517393 -0.066529897545916886 -0.029796691755633143 -0.0025260080484094585 0.00083714672613541112 -0.0027874726347531719
decision_type=2 2 2 2 2 2 2
left_child=3 5 -3 6 -5 -2 -1
right_child=1 2 -4 4 -6 -7 -8
leaf_value=0.0061220265922152222 -0.00049142893118069855 0.0087430609795448276 -0.0056144990334413237 -0.0043091795143162101 0.0015387811160173773 0.0012291230852903739 0.0021163281760737105
leaf_weight=681.29206751286983 19939.256499424577 97.928731098771095 778.10180741548538 448.97350300848484 2130.6361603140831 3543.7324477136135 1996.5817917883396
leaf_count=2743 79893 394 3144 1804 8545 14194 8022
internal_value=2.72719e-05 -0.000366793 -0.00397957 0.00185249 0.000518344 -0.000231674 0.00313778
internal_weight=29616.5 24359 876.031 5257.48 2579.61 23483 2677.87
internal_count=118739 97625 3538 21114 10349 94087 10765
is_linear=0
shrinkage=0.0291483


Tree=66
num_leaves=5
num_cat=0
split_feature=5 12 5 10
split_gain=27.9178 22.4743 15.023 13.6181
threshold=-0.093144626947719564 0.00038825243923596792 -0.044850891633972663 0.00031353359021584723
decision_type=2 2 2 2
left_child=-1 2 -2 -3
right_child=1 3 -4 -5
leaf_value=-0.01387375911316541 0.0038086728729308816 -0.0039546951994351891 0.00048230000648216546 -0.00060733205320071427
leaf_weight=118.79519388079643 1233.540283113718 1147.7370929718018 17101.073739573359 10027.558843776584
leaf_count=477 4945 4607 68546 40218
internal_value=2.14845e-05 7.85003e-05 0.000706465 -0.000951653
internal_weight=29628.7 29509.9 18334.6 11175.3
internal_count=118793 118316 73491 44825
is_linear=0
shrinkage=0.0291483


Tree=67
num_leaves=5
num_cat=0
split_feature=5 3 7 7
split_gain=26.3571 14.8016 12.7173 9.13729
threshold=-0.093144626947719564 -0.00022854013581614468 0.00026675107267685067 4.5142439267837358e-05
decision_type=2 2 2 2
left_child=-1 2 -2 -3
right_child=1 3 -4 -5
leaf_value=-0.013483796791399254 -0.00042283488192617437 -0.0032546202098344456 0.0015870202927738201 -0.00029813369843636372
leaf_weight=118.73552031815052 4122.5223395824432 934.10044759511948 7601.5065005421638 16851.06246741116
leaf_count=477 16520 3758 30488 67550
internal_value=2.08263e-05 7.62133e-05 0.00088014 -0.000453755
internal_weight=29627.9 29509.2 11724 17785.2
internal_count=118793 118316 47008 71308
is_linear=0
shrinkage=0.0291483


Tree=68
num_leaves=8
num_cat=0
split_feature=6 16 1 7 14 1 18
split_gain=17.8603 9.31805 9.99423 9.82381 8.69657 12.0797 11.861
threshold=1269.7430709691337 2.9551431210419103 0.00025714914244708275 4.7913491118400918e-05 -0.050048636628670706 0.00049296623133455271 0.27014586302124399
decision_type=2 2 2 2 2 2 2
left_child=4 3 -3 -2 5 -1 -6
right_child=1 2 -4 -5 6 -7 -8
leaf_value=0.0015121347931142063 -0.0032576288510904679 -0.0001315468778009777 -0.0089332828936482499 -0.00025655354651999736 -0.0068108119277659699 0.0069872365621844968 0.00051013547941900622
leaf_weight=3964.7384212911129 974.55690969526768 207.35267233848572 226.09333921968937 17662.813325762749 190.51308262348175 371.36243464052677 6029.7088932842016
leaf_count=15917 3921 832 911 70790 763 1490 24169
internal_value=2.01815e-05 -0.000512222 -0.00471997 -0.000413854 0.000981946 0.00198366 0.00028353
internal_weight=29627.1 19070.8 433.446 18637.4 10556.3 4336.1 6220.22
internal_count=118793 76454 1743 74711 42339 17407 24932
is_linear=0
shrinkage=0.0291483


Tree=69
num_leaves=5
num_cat=0
split_feature=5 12 8 18
split_gain=23.626 19.7976 13.9893 13.4619
threshold=-0.093144626947719564 3.3718977585751226e-05 4.0046872498965894e-05 0.14249183436641097
decision_type=2 2 2 2
left_child=-1 3 -3 -2
right_child=1 2 -4 -5
leaf_value=-0.012914606832844936 -0.0089953624748996541 -0.0090810337715072492 -0.00059635458685276582 0.00089252755841692615
leaf_weight=115.9368986338377 114.35168494284153 163.5387749671936 14399.730225369334 14886.506656244397
leaf_count=466 458 662 57748 59675
internal_value=2.07864e-05 7.25161e-05 -0.000692915 0.000815643
internal_weight=29680.1 29564.1 14563.3 15000.9
internal_count=119009 118543 58410 60133
is_linear=0
shrinkage=0.0291483


Tree=70
num_leaves=8
num_cat=0
split_feature=10 9 10 4 14 10 15
split_gain=13.7283 24.4926 23.3037 17.4496 16.4744 11.2683 7.90855
threshold=0.00067543024947825769 0.00074030339582122149 0.00082058748453708006 0.0038526205498208817 -0.050048636628670706 0.00047627879838853016 0.0011817414612658359
decision_type=2 2 2 2 2 2 2
left_child=1 5 3 -2 -4 -1 -3
right_child=2 6 4 -5 -6 -7 -8
leaf_value=0.00027140922116194343 0.0030673190629443236 -0.0052113069713628137 0.0018833227778106091 -0.0068579490389761889 -0.0012001576399482546 -0.0011963339918533746 -0.014636650268502593
leaf_weight=11571.757058411837 3706.3401683717966 298.37695860862732 2197.1002776920795 153.37553262710571 4443.5175562649965 7210.0228875130415 98.608505845069885
leaf_count=46393 14860 1196 8815 618 17831 28900 396
internal_value=2.011e-05 -0.000443704 0.000867207 0.00266756 -0.000179387 -0.000292084 -0.00757656
internal_weight=29679.1 19178.8 10500.3 3859.72 6640.62 18781.8 396.985
internal_count=119009 76885 42124 15478 26646 75293 1592
is_linear=0
shrinkage=0.0291483


Tree=71
num_leaves=5
num_cat=0
split_feature=5 17 2 10
split_gain=22.2973 16.8775 9.01435 8.88361
threshold=-0.093144626947719564 0.21523744778517592 0.0001960597652673879 0.00065497266189084842
decision_type=2 2 2 2
left_child=-1 3 -3 -2
right_child=1 2 -4 -5
leaf_value=-0.012550960572126272 -0.0032358919512814051 0.00067948863611072476 -0.00041834810982753376 0.0012095050463334235
leaf_weight=115.861935287714 1840.395831272006 17156.080452352762 10087.969093814492 478.48558984696865
leaf_count=466 7379 68788 40459 1917
internal_value=1.9483e-05 6.97233e-05 0.000272945 -0.00231562
internal_weight=29678.8 29562.9 27244 2318.88
internal_count=119009 118543 109247 9296
is_linear=0
shrinkage=0.0291483


Tree=72
num_leaves=5
num_cat=0
split_feature=5 3 7 10
split_gain=19.1723 14.2552 10.1943 9.7886
threshold=-0.093144626947719564 -0.00022854013581614468 4.5142439267837358e-05 0.00066173691722420578
decision_type=2 2 2 2
left_child=-1 3 -3 -2
right_child=1 2 -4 -5
leaf_value=-0.011685629582431587 0.00010863860726579155 -0.0034404060956105455 -0.00033274506408608302 0.0018204670253177016
leaf_weight=115.77349281311035 6915.8076264411211 943.72935247421265 16869.476010903716 4809.3030122667551
leaf_count=466 27722 3799 67629 19296
internal_value=-2.48851e-05 2.17037e-05 -0.000497748 0.000810852
internal_weight=29654.1 29538.3 17813.2 11725.1
internal_count=118912 118446 71428 47018
is_linear=0
shrinkage=0.0291483


Tree=73
num_leaves=5
num_cat=0
split_feature=5 18 5 0
split_gain=18.105 15.3539 10.4305 8.94166
threshold=-0.093144626947719564 0.60897876852857336 -0.042135362898545047 0.6943999512371809
decision_type=2 2 2 2
left_child=-1 2 -2 -3
right_child=1 3 -4 -5
leaf_value=-0.011359744435247459 0.0027215075111890418 0.00054540689425311092 -0.0014759101857953142 -0.0018721682497141508
leaf_weight=115.69072142243385 541.01759812235832 21022.164216086268 6592.5081551074982 1381.9158232808113
leaf_count=466 2169 84307 26426 5544
internal_value=-2.4192e-05 2.10662e-05 -0.00115635 0.000396055
internal_weight=29653.3 29537.6 7133.53 22404.1
internal_count=118912 118446 28595 89851
is_linear=0
shrinkage=0.0291483


Tree=74
num_leaves=5
num_cat=0
split_feature=5 18 2 3
split_gain=17.0979 14.4715 11.7375 9.89165
threshold=-0.093144626947719564 0.60897876852857336 0.00047420764457893665 -0.00164766048532107
decision_type=2 2 2 2
left_child=-1 3 -3 -2
right_child=1 2 -4 -5
leaf_value=-0.011043445906061938 0.0044325476044086137 0.00078427030829295084 -0.00072854877188738417 -0.0013336979627263921
leaf_weight=115.60284279286861 258.87814953923225 16485.039010331035 5918.9390063583851 6874.4849916994572
leaf_count=466 1038 66101 23750 27557
internal_value=-2.35115e-05 2.04535e-05 0.000384507 -0.00112264
internal_weight=29652.9 29537.3 22404 7133.36
internal_count=118912 118446 89851 28595
is_linear=0
shrinkage=0.0291483


Tree=75
num_leaves=8
num_cat=0
split_feature=6 16 1 17 8 14 2
split_gain=16.9884 11.7795 13.285 12.8955 8.42476 8.37026 4.22118
threshold=1254.8899193786058 2.7400510249142491 -1.1024034704342738e-07 0.2051206742289293 0.0015616615987155082 -0.050048636628670706 0.00040587307986339585
decision_type=2 2 2 2 2 2 2
left_child=4 3 -3 -2 5 -1 -6
right_child=1 2 -4 -5 6 -7 -8
leaf_value=0.0024586086586099363 -0.0027980632143293979 0.0012868011722312715 -0.0075032974940527093 -3.3495620068085673e-05 -0.0046592752837711273 0.00057852828330327876 0.0020294373120781023
leaf_weight=3479.1771237701178 1548.1931045502424 226.81968009471893 397.26648926734924 18822.35078586638 301.94607059657574 4764.939235880971 105.38745048642159
leaf_count=13981 6211 909 1601 75448 1209 19106 422
internal_value=8.30383e-05 -0.000364841 -0.00429825 -0.000243903 0.00116978 0.00137221 -0.00290452
internal_weight=29646.1 20994.6 624.086 20370.5 8651.45 8244.12 407.334
internal_count=118887 84169 2510 81659 34718 33087 1631
is_linear=0
shrinkage=0.0291483


Tree=76
num_leaves=5
num_cat=0
split_feature=5 12 14 14
split_gain=19.835 18.8915 26.5424 11.6391
threshold=-0.093144626947719564 -0.00054330615553123678 0.27916798508762308 -0.080876973964236973
decision_type=2 2 2 2
left_child=-1 2 -2 -3
right_child=1 3 -4 -5
leaf_value=-0.011843865190328862 0.0013423883815228386 0.00089215335409758146 -0.013094784762596326 -0.00077735796337120606
leaf_weight=114.50808300077915 9596.7428054064512 4623.8267159610987 105.86291980743408 15204.072720348835
leaf_count=462 38503 18526 424 60972
internal_value=8.0616e-05 0.000127777 0.0011815 -0.0003879
internal_weight=29645 29530.5 9702.61 19827.9
internal_count=118887 118425 38927 79498
is_linear=0
shrinkage=0.0291483


Tree=77
num_leaves=7
num_cat=0
split_feature=6 16 1 9 9 9
split_gain=15.6875 11.0995 12.4852 8.03442 10.685 7.68255
threshold=1254.8899193786058 2.7400510249142491 -1.1024034704342738e-07 0.00016458402114501205 0.00030364997322250082 0.00024134475579415079
decision_type=2 2 2 2 2 2
left_child=3 5 -3 -1 -5 -2
right_child=1 2 -4 4 -6 -7
leaf_value=0.0074213872845133762 0.0012784880886160858 0.0012425413348526185 -0.0072799106454206576 -0.002059507013633085 0.0013474218971509327 -0.00044640135321203733
leaf_weight=165.23853273689747 2497.1901300102472 226.81502768397331 397.00679631531239 868.07099887728691 7617.1156009882689 17872.583182260394
leaf_count=662 10025 909 1601 3480 30576 71634
internal_value=7.82131e-05 -0.000352176 -0.00417119 0.00112259 0.000998252 -0.0002348
internal_weight=29644 20993.6 623.822 8650.43 8485.19 20369.8
internal_count=118887 84169 2510 34718 34056 81659
is_linear=0
shrinkage=0.0291483


Tree=78
num_leaves=8
num_cat=0
split_feature=17 4 0 13 13 9 0
split_gain=11.3322 8.41895 8.51475 8.44026 5.79507 6.13185 6.10081
threshold=0.23570512935004054 0.0021557573452248408 0.70515856744895589 -0.012301277828221322 0.24592161271820265 0.00048145580618982859 0.63255986659725683
decision_type=2 2 2 2 2 2 2
left_child=4 2 -2 -3 5 -1 -6
right_child=1 3 -4 -5 6 -7 -8
leaf_value=-0.0024341198147877943 0.00055137355100532543 0.0017727851672301388 -0.0016831439370613925 -0.0019723315409649871 -0.0066130511742690324 0.00055084721711356739 0.001552762517480385
leaf_weight=1361.0706295371056 22121.521733805537 639.96833389997482 1546.83953332901 2485.5854540169239 342.60867542028427 1019.7355205714703 97.178012400865555
leaf_count=5459 88695 2567 6205 9994 1375 4086 390
internal_value=3.23411e-05 0.000217364 0.000405145 -0.00120361 -0.0017239 -0.00115586 -0.00478654
internal_weight=29614.5 26793.9 23668.4 3125.55 2820.59 2380.81 439.787
internal_count=118771 107461 94900 12561 11310 9545 1765
is_linear=0
shrinkage=0.0291483


Tree=79
num_leaves=5
num_cat=0
split_feature=5 12 14 17
split_gain=20.3626 16.7647 25.8306 15.7438
threshold=-0.093144626947719564 0.00098044360887437313 -0.058537910366976274 0.25554172116702745
decision_type=2 2 2 2
left_child=-1 3 -3 -2
right_child=1 2 -4 -5
leaf_value=-0.011930852922797486 -0.0016074965519098396 0.0025358473874124553 -0.0020387944531678874 0.00074813041503972021
leaf_weight=116.8767271488905 2739.4947777688503 1287.4370824545622 5584.9881693720818 19885.096767768264
leaf_count=472 10983 5161 22425 79730
internal_value=3.13964e-05 7.97222e-05 -0.00118076 0.000462706
internal_weight=29613.9 29497 6872.43 22624.6
internal_count=118771 118299 27586 90713
is_linear=0
shrinkage=0.0291483


Tree=80
num_leaves=8
num_cat=0
split_feature=12 14 10 1 17 15 10
split_gain=16.2403 24.7197 20.0142 15.4852 14.8067 8.71127 5.51917
threshold=0.00098044360887437313 -0.058537910366976274 0.00033281411310949379 -0.00043849683982358022 0.22550952931454274 0.0041107028594625375 0.00028267119476002497
decision_type=2 2 2 2 2 2 2
left_child=4 3 -3 -2 6 -6 -1
right_child=1 2 -4 -5 5 -7 -8
leaf_value=0.00048839056494513235 0.010693544594811961 -0.010013092171687072 -0.0016654980681952939 0.0012040235830904533 0.00069660191134765298 -0.006857692578262492 -0.0027904532802871178
leaf_weight=600.42196244001389 164.25250436365604 252.20492382347584 5363.0640711635351 1130.6939517110586 20406.127189069986 126.96285669505596 1569.3108501434326
leaf_count=2412 658 1013 21538 4533 81820 509 6288
internal_value=3.04543e-05 -0.00120647 -0.00204372 0.00241868 0.000407044 0.000649064 -0.00188097
internal_weight=29613 6910.22 5615.27 1294.95 22702.8 20533.1 2169.73
internal_count=118771 27742 22551 5191 91029 82329 8700
is_linear=0
shrinkage=0.0291483


end of trees

feature_importances:
vwap_dev_30m=68
fracdiff_close=67
vol_1m=47
vol_60m=46
vol_5m=44
trade_flow_imb_30m=39
vol_30m=33
vol_ratio_30m=27
hurst=24
momentum_10m=22
momentum_5m=20
trade_flow_imb_5m=20
vol_ratio_5m=13
momentum_1m=12
trades_intensity=11
momentum_2m=10
hl_range=10
obi=7
vwap_dev_5m=2

parameters:
[boosting: gbdt]
[objective: binary]
[metric: binary_logloss]
[tree_learner: serial]
[device_type: cpu]
[data_sample_strategy: bagging]
[data: ]
[valid: ]
[num_iterations: 81]
[learning_rate: 0.0291483]
[num_leaves: 8]
[num_threads: -1]
[seed: 45]
[deterministic: 0]
[force_col_wise: 0]
[force_row_wise: 0]
[histogram_pool_size: -1]
[max_depth: 3]
[min_data_in_leaf: 387]
[min_sum_hessian_in_leaf: 0.001]
[bagging_fraction: 0.923145]
[pos_bagging_fraction: 1]
[neg_bagging_fraction: 1]
[bagging_freq: 3]
[bagging_seed: 32645]
[bagging_by_query: 0]
[feature_fraction: 0.504656]
[feature_fraction_bynode: 1]
[feature_fraction_seed: 3942]
[extra_trees: 0]
[extra_seed: 24660]
[early_stopping_round: 0]
[early_stopping_min_delta: 0]
[first_metric_only: 0]
[max_delta_step: 0]
[lambda_l1: 0.0109118]
[lambda_l2: 1.00115]
[linear_lambda: 0]
[min_gain_to_split: 0.49587]
[drop_rate: 0.1]
[max_drop: 50]
[skip_drop: 0.5]
[xgboost_dart_mode: 0]
[uniform_drop: 0]
[drop_seed: 5926]
[top_rate: 0.2]
[other_rate: 0.1]
[min_data_per_group: 100]
[max_cat_threshold: 32]
[cat_l2: 10]
[cat_smooth: 10]
[max_cat_to_onehot: 4]
[top_k: 20]
[monotone_constraints: ]
[monotone_constraints_method: basic]
[monotone_penalty: 0]
[feature_contri: ]
[forcedsplits_filename: ]
[refit_decay_rate: 0.9]
[cegb_tradeoff: 1]
[cegb_penalty_split: 0]
[cegb_penalty_feature_lazy: ]
[cegb_penalty_feature_coupled: ]
[path_smooth: 5.09023]
[interaction_constraints: ]
[verbosity: -1]
[saved_feature_importance_type: 0]
[use_quantized_grad: 0]
[num_grad_quant_bins: 4]
[quant_train_renew_leaf: 0]
[stochastic_rounding: 1]
[linear_tree: 0]
[max_bin: 255]
[max_bin_by_feature: ]
[min_data_in_bin: 3]
[bin_construct_sample_cnt: 200000]
[data_random_seed: 185]
[is_enable_sparse: 1]
[enable_bundle: 1]
[use_missing: 1]
[zero_as_missing: 0]
[feature_pre_filter: 1]
[pre_partition: 0]
[two_round: 0]
[header: 0]
[label_column: ]
[weight_column: ]
[group_column: ]
[ignore_column: ]
[categorical_feature: ]
[forcedbins_filename: ]
[precise_float_parser: 0]
[parser_config_file: ]
[objective_seed: 14259]
[num_class: 1]
[is_unbalance: 0]
[scale_pos_weight: 1]
[sigmoid: 1]
[boost_from_average: 1]
[reg_sqrt: 0]
[alpha: 0.9]
[fair_c: 1]
[poisson_max_delta_step: 0.7]
[tweedie_variance_power: 1.5]
[lambdarank_truncation_level: 30]
[lambdarank_norm: 1]
[label_gain: ]
[lambdarank_position_bias_regularization: 0]
[eval_at: ]
[multi_error_top_k: 1]
[auc_mu_weights: ]
[num_machines: 1]
[local_listen_port: 12400]
[time_out: 120]
[machine_list_filename: ]
[machines: ]
[gpu_platform_id: -1]
[gpu_device_id: -1]
[gpu_use_dp: 0]
[num_gpu: 1]

end of parameters

pandas_categorical:null
